{"layers": [784, 80, 52], "weights": [[[0.0972416055874804, -0.023008713361486875, -0.014634172410510087, 0.026782796852630856, 0.08941457056534935, 0.09395746305390369, 0.07275988220268141, -0.010596976375157724, -0.030480623225779956, 0.018860277224173723, 0.03394862737028534, -0.07852573641935291, -0.040261448511451255, -0.06615466477639624, 0.062948574113962, 0.03435745965413779, -0.048057588958093415, -0.09275588291213079, -0.06620148989335299, -0.037349730633907084, -0.09252028216159747, 0.05181081342701429, -0.04001124650653224, -0.028078698485530938, 0.008000885866013262, 0.06173083440419251, 0.11555214021097028, 0.14059631510175344, 0.0017880370221670314, 0.005384841328251685, -0.04022519478038158, -0.022038959699661652, 0.06698748312848747, 0.05251171364541677, 0.09962805400977487, -0.006014426249809063, 0.08352294874139937, -0.019068435973976894, -0.001352588090958409, 0.023334466496459913, -0.006163696590385632, 0.013608971196102517, 0.008673803684843103, 0.002780033563982268, -0.0563633577449283, -0.12103714278996217, -0.12411266044150163, -0.00927696424272172, -0.1262279030338612, -0.013734057224105664, -0.02226140336843626, -0.011541873961745153, 0.02183096710131194, 0.11190684663946546, 0.21057545009491868, 0.2577279138297778, -0.0001329334820608574, -0.01736617620794348, -0.037681959175740076, 0.025032502696462625, 0.07974309524634138, 0.019834085832766118, -0.014642729883182371, -0.0196707456871722, 0.05972229810439615, 0.00773411327210836, 0.051311559526769676, 0.014037442804914837, 0.002553169173374377, -0.00869508887175104, 0.05451362732084606, -0.04798488415726699, 0.03459361775958037, 0.0697483126961248, -0.11234186073396094, -0.06674610438800868, -0.008685834429914134, 0.030832088334923697, 0.06025687696691251, -0.034090118045566775, 0.02316036968523617, 0.06850461506814953, 0.12182273983355224, 0.20541523445462406, 0.08102806730112538, 0.028650961265954754, -0.10156291442893468, -0.023723068253408322, -0.052206526132751035, 0.05338269008135209, -0.08182756158070643, 0.026112891783538317, -0.007359129214126597, -0.046052236181823865, -0.02789976930145268, 0.08929919894753943, 0.07335798462072012, 0.03639466082490826, -0.02445427354389159, -0.027049761925445896, -0.06435709685089108, -0.03631726764183033, -0.08155299276574374, -0.07557608132468789, -0.00401651053116955, -0.013190809711470335, 0.016321298451410667, 0.0106258270830909, -0.07512881657102598, 0.03082579761930709, -0.026373207693641116, 0.047747585739582654, 0.10829865084325337, 0.08468155278908526, 0.07926391243291005, -0.010479292244059846, -0.008712272510459841, -0.02321275776681435, -0.018548066373401093, -0.014689896105985076, 0.09943010961451093, 0.06557516900006509, -0.020209516290593, 0.005859797319356771, 0.01750489906151857, -0.02943157733182171, 0.004427354613260549, -0.04946767638544588, -0.0029740325642423323, -0.05201577052967065, -0.024634805006193545, 0.057294095536108244, 0.00461196066976019, -0.031729758120623903, -0.04632024843586265, 0.06358489531381882, -0.013275581238847572, -0.049640558594099424, -0.052810026562623694, -0.07038050758172526, 0.18616123864461342, 0.1746650530971859, -0.019617875486936262, -0.013504781312269976, -0.053394410717141856, -0.05431455938538333, -0.04226933956036269, 0.006499087911312163, 0.030645599019074897, 0.047588043992512395, 0.07014656357591795, 0.056256356718779085, 0.018349495317237428, -0.09760086596595294, 0.04018724363567444, -0.059904921269441955, -0.028628750244823694, 0.04017711348194451, -0.08292682142783377, -0.024901139248357376, -0.06983384044125394, -0.002794950019525429, 0.035175943305337055, -0.05292937650167285, -0.04200109598728635, -0.05946989011592885, -0.10122112973506092, -0.11063668371954301, 0.08914495086632229, 0.09961543082579205, 0.01368819776759531, -0.05624623840136643, -0.0286350286079081, -0.1146670114725574, -0.08801682762655508, -0.07086564956826938, -0.010104467354585442, 0.0076790572210165605, 0.11011399568146685, -0.025514674514162197, -0.0620846724473659, -0.0639591856838055, 0.015189439648393943, -0.030983625299690593, -0.07097330657914029, -0.0575458709765414, -0.100155765605491, -0.028464106884157157, 0.022493161145196023, 0.10763788844819844, 0.003566637633670299, 0.03483691997868712, 0.11588055948979537, -0.06920883977987101, -0.00607611623192756, -0.20065670570396257, 0.06306932954028506, 0.04903997759928445, -0.04621533451587107, -0.13341013636539328, -0.04023472326977814, -0.13572999146686868, -0.11234616287850523, -0.06303276564758946, 0.014371121114946933, -0.015662780746486308, -0.027419356322082474, -0.09383890871831387, -0.008374224019067069, -0.08747601213971444, -0.007715557476104053, -0.10317191870383077, -0.06785532040250379, -0.1430249359782356, -0.0378999102706567, 0.006814913797799701, -0.07343791261953118, 0.00763206137258748, 0.03726714200372318, 0.028906727835595, -0.08931696608257748, -0.01161461910662611, -0.17747798607217086, -0.2089912603539879, 0.07507447354330768, -0.01814891926779918, -0.12703422624233687, -0.11693519773054545, -0.09463878383047011, -0.033519360857989774, -0.07798910911148985, 0.01664884708007542, -0.04367622481408464, -0.04995432012694198, -0.030334189934530395, -0.08117320688716478, -0.06327446207267097, -0.11927201253788737, -0.054030098158059155, -0.14394058908233107, -0.05639308942819242, -0.1276120972369333, -0.04438782358186298, 0.012567523415828353, -0.10233482783643635, -0.07255039956530744, -0.021215006779485783, -0.1739537268200167, -0.07637269345366211, -0.04160197470759155, -0.1204553132679354, -0.2624534524830901, -0.015118218885528315, -0.04826409411248933, -0.02739022100241936, -0.1548703307405762, -0.2558372887913736, -0.16835912299216033, -0.07864140032763668, -0.04771300099103499, -0.04503358814978679, -0.09338192726732523, -0.038303862197535246, -0.1410350832219145, -0.10060541281146403, -0.1603928150218259, -0.1564225127033693, -0.0981571602578184, -0.12056856958579053, -0.08376169435139125, -0.05992281851765572, -0.07599369271446053, -0.005476212678922723, -0.09123650032812343, -0.05637091446765888, -0.044502153342327544, -0.1234433720170945, -0.04960866582688957, -0.13088880922161059, -0.2405710403137493, -0.03593247728097337, -0.055267583257665454, -0.14044556715954631, -0.16827375067830566, -0.10372769557933655, -0.1646061903178173, -0.03508103022001922, -0.18033739972081267, -0.038913912282885016, -0.11221534539034042, -0.14762487109133093, -0.15202137035043575, -0.12208925724648967, -0.16092833475636473, -0.046755778123050054, -0.13179692397046758, -0.05911222759615249, -0.06979737033964473, -0.04122009858522878, -0.009059165987418287, -0.09035649763818553, -0.07414370021329758, -0.12639823572356262, -0.10458861604118945, -0.11668616897013956, -0.15916108597585757, -0.17823907399251057, -0.2806426538265069, -0.08573127066970368, -0.17840714621750922, -0.21380500408130093, -0.2055088187793779, -0.15014639602311858, -0.07273810847490915, -0.10692638833672877, -0.17962782056955418, -0.09600772034337113, -0.131125899561898, -0.17614924733569462, -0.1417612684850109, -0.060897423353143396, -0.07705129016034955, -0.060755013943692114, -0.03574967514758693, 0.07893352552989831, -0.03518330660979818, 0.017833455616460735, -0.018716334095827115, -0.009529010844052636, -0.1490126154933517, -0.09583433468781269, -0.15833097070776755, -0.11409030753363868, -0.10036242656859126, -0.16269752321500386, -0.20171064959532028, -0.07395199156601992, -0.09252983020800244, -0.21522771992010598, -0.1925519361361007, -0.09886009053875634, -0.06742425192541397, -0.2253340328939717, -0.2014885624314888, -0.11850921196024959, -0.12407081606593671, -0.18368324931036628, -0.07367261492230194, -0.10901403349154329, -0.02683562899202138, -0.09842042374192167, -0.044710836077392055, 0.04573728479024361, 0.04171185718159017, 0.07133319042301496, 0.051459863213498075, -0.018200543437510174, -0.07846585800796237, -0.08198272511701715, -0.10971838604216491, -0.0075183735710400625, -0.05388916439678918, -0.15946603505808168, -0.17238907685113455, -0.08618633511995166, -0.22508939834701788, -0.16517045187771107, -0.09594848338283789, -0.003416812524759834, -0.14326845027959767, -0.07347711975557586, -0.10173619803280995, -0.15568062002894278, -0.2491804550258957, -0.057044417566135854, -0.1267367978268247, 0.009822599227235785, -0.017442136058602075, 0.050344198246226234, 0.13506469303898647, 0.06950199664462033, 0.07659627580976826, 0.10440086313477295, 0.1523933598243351, 0.026581126484601633, -0.04638887997035267, -0.024727737188599875, -0.007198103654707114, -0.036495280754564, -0.0361667365614394, -0.09556905218267406, -0.1496518382771059, -0.1205625558449467, -0.13834227363811988, -0.16916186411998638, -0.16310923605206237, -0.08693396339571186, -0.13481510998844629, -0.06269802347488308, -0.04055634206558591, -0.11883357359386021, -0.13935710290434172, -0.12282415638782844, -0.12028067031180474, 0.011482990102606793, 0.008809097544632938, 0.1063241155595805, 0.21554454606171494, 0.303735114419879, 0.14130364348872831, 0.12044097878703634, 0.17544329403401365, 0.08161591967650675, -0.026871386071044036, -0.006865848813925585, -0.04520211737546773, -0.006054625182520156, -0.05656125946673439, -0.07976815570367488, -0.13160149617489364, -0.0669563257935667, -0.12271859942416712, -0.06348616057968022, -0.09571059889208479, -0.055795193691338035, 0.030208789917954764, 0.022152081077010805, -0.18931276987055587, -0.1275385356838537, -0.1909540241834321, -0.09100220853964522, -0.035226490650626725, 0.04905916762694178, 0.22407342520986565, 0.12065913442813664, 0.21171278735221183, 0.23673929242834418, 0.18403840066565988, 0.14431621612935186, 0.17001588144940724, 0.06991525047956815, 0.03974609033044213, -0.027890862019189472, 0.014460691486614656, -0.022612818621078515, -0.042847172302851816, -0.02762121068439849, -0.1505395679812596, -0.07376821385788065, -0.06773408484116573, -0.05854708110451228, 0.02165551525792654, 0.0542040058946208, 0.045161652119286994, 0.003357883292162838, -0.07023518198736617, -0.0948884831230811, -0.09517845478550815, -0.07687911641977349, 0.014190574721599035, 0.010940421011814755, 0.12073945300173414, 0.15094894244882978, 0.0816820882909046, 0.20686344485169547, 0.11038500711244344, 0.06894942069466922, 0.06738918346438079, 0.05968487408660431, 0.0037246158097264687, -0.10478663846702219, -0.009707456656896025, 0.07130775116082563, 0.03375700002920888, -0.0662925425227049, -0.1084419635934243, -0.12093114798719362, -0.08118285054005712, 0.025027788195855202, -0.028585021504914772, 0.05472100079255683, -0.033848237885708975, -0.06107867296465048, -0.12431464843033253, -0.09979962523615733, -0.04624149398137029, -0.024684064008100345, 0.02063291441986357, 0.13419688326587256, 0.12525007498637775, 0.11044085884525151, 0.11282703835100275, 0.11612651337698411, 0.16605720365803173, 0.06396815490986453, 0.10416800396546426, 0.07705701595999774, 0.04722770891078741, -0.009597465363064866, 0.042997786592763, 0.010442544454971248, -0.012016080570236861, -0.030732223489053006, -0.08702714821174248, -0.16237565902159495, -0.016214002823251597, 0.031085446512150085, 0.09669206436106477, 0.06641658810682131, -0.0008372102388682059, -0.05996309838017975, -0.02012153624205836, -0.001333028882886595, -0.077673898196621, -0.06616807680580838, 0.07164163834644355, 0.13908462140683836, 0.1065720885171584, 0.09406204949706905, 0.17221516357942349, 0.1150410355276656, 0.04222601856940747, 0.07419749596410455, 0.01679565388059023, -0.032233959170844026, -0.08875903627372239, 0.010204698543965988, 0.04445259153074078, 0.009256470503383943, 0.012775397598811801, -0.008907227213295574, -0.05049090997347164, -0.13739769969822294, -0.11726331004491401, 0.12441250342322918, 0.0822016274448202, 0.10724622076335795, 0.025905799551571528, 0.03182132711843387, -0.019809700124713087, -0.012012109534847054, -0.004000964446270079, 0.10418844429261967, 0.12468120754342978, 0.08088345847707161, 0.04489515690233491, 0.1143087175033454, 0.094021349108107, 0.07841233069876857, 0.09044273588973449, 0.07772723464880375, -0.09047597669665627, -0.045427647336506276, -0.03799027620246436, -0.015500198039783294, 0.008590901276678201, -0.029370625616185714, 0.07775202282725861, 0.03148468440177293, -0.039184257040175134, -0.02971590544493531, 0.09256990952443186, 0.12005570782420955, 0.13092369699409342, 0.0798105939543276, 0.01976319648617038, 0.011364213795510397, 0.0870485963010787, 0.10676270097349172, -0.0016964195399704206, 0.144556828660329, 0.1932558865372011, 0.20504430213752842, 0.1469790800798433, 0.10529567340023488, 0.013442355110697503, 0.03715305923981865, 0.051755354630558116, 0.013096363509159456, -0.06104501528749024, -0.010197908438444333, -0.009136172443402075, 0.07486669262889396, 0.04301330374927575, 0.007542201520356992, -0.003458234670056407, 0.03354350904815051, 0.027462559508659813, 0.046685816611472246, 0.10636790455089382, 0.1690194452831158, 0.17018300463652036, 0.11023916290750622, 0.022396193861187113, 0.08912259318360885, 0.11979144303674104, 0.04450273184064038, 0.03916907762023595, 0.0590501565989297, 0.16213924067715305, 0.15544381124895504, 0.0867758350335549, 0.014143282376768023, 0.09921748058470557, 0.06432786633359314, 0.07107720287999643, 0.08995288104473581, -0.06949648355693644, 0.07100298389588464, 0.076499405918866, 0.04258076409809366, -0.01122315009065716, 0.003972187033067311, 0.07870877550508383, 0.06526795635467905, 0.06638039298486603, 0.04210002871880216, 0.054918694772980926, 0.15313975817826717, 0.07735234333882005, 0.145981230919429, 0.03183956962996696, 0.09577198893881714, 0.10279749542441084, 0.006935136748100773, 0.04001714225015758, 0.1564108641913866, 0.12604130634966135, 0.12418042248926983, 0.07258181563529753, 0.12293215226175438, 0.022350757996101624, 0.061851149597661165, 0.1326152383627343, 0.0794561842815145, -0.013537036267279902, -0.03363830567953702, 0.09165400042855291, 0.057252873015470586, 0.011576190069085735, -0.007767965785800012, -0.008527934207512735, 0.039052620685887426, 0.05366078318055933, 0.11104001454856147, 0.18083301599499116, 0.12727763749518153, 0.1071817516222695, 0.08221152638761917, 0.05352394850019476, 0.13425357632380278, 0.11628629956188107, 0.08711017548110918, 0.009537670357042961, -0.04038870092364727, 0.02334868235692292, 0.06250987960497342, 0.08403900102321087, 0.13246684232771003, 0.14180515155527726, 0.053097985147642246, 0.050958151826125425, 0.017304190824209666, 0.06827543616553512, 0.03504148095881844, 0.05091661392564504, -0.020053517178156417, -0.08651921803877982, -0.0054288693865422255, 0.08280597684266512, 0.055302322825879956, 0.05338532130744988, 0.020029293249470528, 0.14785867822536575, 0.20245399952086365, 0.0943841277986181, 0.017704629162431818, 0.07701249411754876, 0.14074397810780787, 0.08723758922969284, -0.057419756547958556, -0.01807976630056335, -0.013640589910796882, 0.003449364530685997, 0.06122966133905126, 0.09369586020201967, 0.12069984682696024, 0.018352602890600766, 0.026632292182266933, 0.08271384073037617, -0.015217457742407778, 0.0016873989875865192, 0.02911337847030097, 0.030510873768292385, -0.009857686253435338, -0.07985814588351038, -0.006492680976784695, 0.04810652768184368, 0.12536410525106217, 0.004459352891723221, 0.014854467310644229, 0.08936024435643596, 0.044688267066116505, 0.05640199519978894, 0.03567947575275347, 0.0357837233321122, 0.07266823463037052, -0.009660788695792778, -0.05358590059869009, 0.033236150291464685, -0.029430914116648464, -0.10728143250080432, 0.06308284164193763, -0.031724864197556255, 0.04552449261784358, 0.10585775679522534, 0.05857210302678524, 0.01971562764687386, 0.023733029134602606, -0.03323900059379067, 0.004592727760211706, 0.020827098458291345, 0.027114703103104928, 0.003270542756789644, 0.06086034812781339, 0.014671575904297587, 0.13592962002709846, 0.09486872336560562, 0.10268120133816884, 0.11490760321152298, 0.14059934604041902, 0.09669387944602598, 0.013863407883502432, -0.008394818057465524, 0.00019788520666434131, -0.001829155772046676, -0.058215530322071815, -0.0542984247615056, -0.02601331423730718, -0.018248722390998187, -0.0465954688533735, 0.06273029429030068, -0.019797352227719146, 0.018447174364412247, 0.008056240361952067, 0.04936922957597104, 0.0656180100643207, 0.06790614135485075, 0.016144761861213636, 0.09127403046760907, 0.048106935107150674, 0.06175852156608893, 0.10349586876613028, 0.06504948346747594, 0.13607568865319963, 0.10761844854243308, 0.14409954129638583, 0.16570969282451972, 0.12380226346972847, 0.10631776846022317, 0.08963979109947236, 0.06393039680753046, -0.043330196413763594, 0.04314044298527528, -0.04354792180185238, -0.029003527716970637, -0.018067283266984476, 0.006055353130478711, -0.009106930293044558, -0.06140066514348005, 0.006424375579542676, 0.04844923187406486, 0.03112605328361121, 0.08932464492948027, 0.052483568020916714, 0.03646394606190887, 0.07658973838046991, 0.1164027686200078, 0.1490488243325065, 0.12063315298236764, 0.11315348796757434, 0.07880470850519306, 0.13102023053409403, 0.1300836051307164], [0.03132418421268163, -0.0474844589863525, 0.03137206316463725, 0.06173998922421467, 0.02574796468436532, 0.08711333220639896, 0.0571664355526952, 0.007227079389698743, 0.05347337676266581, -0.008631692914941841, 0.021854377671148163, -0.019055819833129175, 0.10252069514653707, 0.08195382602261954, 0.08732263198124016, 0.04666090772431795, 0.03309581746033635, -0.018681322349267695, -0.0011408492197407126, 0.06562891015239133, 0.05333513822832428, 0.007791777446046751, 0.06995030938071099, 0.02821159326613983, 0.08615358927262441, 0.011213536404523314, 0.05506222896872486, 0.016931742005395746, 0.12101717969179528, 0.04848103653379926, -0.010830090179400035, 0.015637308293209834, 0.0050202699498322146, 0.03209488015733294, -0.02818324296959885, -0.039286372191742136, 0.02080268431176802, -0.00023502912684203375, 0.03509789332862156, 0.004649726207059087, 0.0407581030114738, 0.024953575262334684, 0.008311331565173032, -0.06969576823779969, 0.043211445816751196, -0.007598639488644123, -0.04289280541312053, 0.08183196009372677, -0.01585038667208991, 0.01571023918268102, -0.05573076219127212, -0.04379410252453762, -0.006553951677501073, 0.022085085567737393, -0.01468091168308662, 0.04610889246851515, 0.037805528183364516, 0.05488849963501361, -0.034675417762320714, 0.05175308727082055, 0.062009739861351, -0.015518535388756386, 0.019073824995338853, 0.10620326858223675, -0.027348700603860236, 0.0402011301760305, 0.0775903320796111, 0.0789897678266164, -0.001458249119653853, 0.044624702937363155, 0.04964121212170765, 0.014443658046057517, 0.03461426491986887, 0.026532027818977653, 0.0403036668874993, 0.05838015182885485, 0.05504258104218588, 0.0006762899440792082, 0.0011738431028327876, 0.022002198558165584, -0.021409985496215256, 0.011130265267531683, 0.10932125842461918, 0.08719978758412657, 0.010747015206128141, -0.024636857237350145, 0.0014001660049397459, 0.01768373009822544, 0.012955514555381657, 0.03236451110506539, 0.022661947335009924, -0.03183164795510315, 0.020848513430240283, -0.03240249663736832, -0.03278116598328256, 0.00760165580237113, -0.013587041146495085, 0.026621814897298902, -0.016506132403491133, -0.010711407689003579, -0.026058841977590504, 0.035275998603428546, 0.12172392539468657, -0.017236253948611946, 0.024992977407285125, 0.003431230610280264, 0.03137665438961564, 0.0283963784592905, -0.028565680120471188, 0.07295012516756696, 0.026592197862780775, 0.00616344638310377, 0.0042241333583791976, 0.023831889572647102, 0.06197926658948114, 0.050194517784304435, 0.0330255078632958, -0.024769710199347674, -0.000758354431747041, 0.0151081617220938, 0.06067403745786928, 0.027251906946770023, 0.05994848751546112, 0.040103026571771096, -0.022090663409993255, 0.10003702870240226, -0.0005952853731633923, 0.020532428404610704, 0.03452781674628222, -0.015491474424311088, -0.024800771123261182, 0.03895643382935114, 0.07501516878705773, -0.014072557602273503, -0.014069205706720184, -0.020874962576822777, 0.04559115974433048, -0.06199244531336981, 0.06410032978214426, -0.001455121347385406, 0.05836978035675972, 0.06834357974106176, -0.00363762016751431, -0.015592456722219263, 0.03911643748802614, -0.0009648174237119769, 0.08902599630699713, -0.0008533093120643402, 0.06992272586915309, -0.024434281160499366, 0.04133713051436192, -0.0312443564432473, 0.05808616722913404, -0.08518732307964316, 0.024967633658227763, 0.027770682435592144, -0.009099780274612038, 0.09276321616455915, 0.01435667283537878, -0.017236100884097348, 0.07835196917683877, 0.019554795061040523, -0.001176735703593085, -0.0019231304849720073, 0.04718840103604746, 0.01758926943427081, 0.019388059054465293, 0.026437299147697563, -0.003478960067178902, 0.005521857423734554, 0.033644788632725686, -0.002902228983599655, 0.05127750880825679, 0.014442891414838864, 0.02509545156695559, -0.005327912789954146, 0.0227742275049388, 0.087084651463235, 0.009000373334427195, 0.03615429071522077, 0.06768957654549819, -0.0014617515887135294, 0.03487571696434237, 0.08968136369074285, 0.03466450626427311, -0.03927345390958326, 0.002169991437169116, -0.01527664279638674, 0.04870654609983486, 0.028179179099552355, 0.03396121484954016, 0.03373094591649876, 0.0003144504982315581, 0.031133480748484856, 0.0668538189153073, 0.03966772914769555, -0.002384083978947683, 0.04783321157395164, 0.06987365404403191, 0.04907846853946119, 0.030267826806000164, -0.05514696320604932, -0.0092018451470907, 0.008965810646350825, 0.04222201348591812, 0.09220199913588825, 0.004698897051249647, 0.047619265726757086, 0.012449103563599984, 0.028408631247285064, 0.04719322526931324, 0.03691617399544183, 0.018118267773238255, 0.022719526907231898, 0.08055178750784676, 0.0625943935508079, 0.05923851332531867, 0.06810020626050928, 0.0661218084096986, -0.004016150467242371, 0.03567527388076605, 0.07962013527700135, 0.03012521318698014, 0.07845943113251377, 0.05914317546649791, 0.042449621368459034, 0.039185707099167494, 0.08192350717646384, -0.0440759933137036, -0.03505504471616235, 0.00468232274539942, 0.06278221070903701, 0.0052877884373975816, 0.013084353808343118, -0.03674485092902037, 0.0401767805955908, 0.004761489977478821, 0.06815884142976728, 0.023599116763924344, 0.05112516323154043, 0.02531083835548108, 0.003201606323419447, 0.027913894805401355, -0.02438846120144914, 0.0155016746221067, 0.05511319720995346, 0.04215907493555765, 0.03093665831728305, -0.05144597068418419, 0.07225139692330138, -0.008189118556537622, -0.008710205949445302, -0.008417454468493835, 0.05378727263020257, 0.018173258682955412, 0.00511201005444223, 0.10476307676571382, -0.03181528056249669, -0.015226799647774994, 0.02266396581694825, 0.07613967301949552, 0.015200053865215817, 0.01240854207743043, 0.021585987555590377, 0.027681087139890002, 0.011075991900434103, -0.02684330275866202, 0.08364246430492157, -0.011083290805444916, -0.0027819914912589764, -0.012089171879804244, 0.037857420253764484, -0.010851952598174022, 0.010646668273307767, 0.07555911664850765, 0.06298339165604316, -0.03273580490538915, -0.00727308951278029, -0.033307658150366175, -0.016653072192723075, 0.022715681612299594, 0.057718205608020025, 0.058584148357001535, -0.025656422112806648, -0.028638533858852084, -0.034083364651252133, -0.02830381771707829, -0.07596365041955794, 0.018059205531822744, 0.06046249206541817, -0.016846594375289573, -0.015676608298239934, 0.06729855575266559, -0.00595908433968717, -0.02070597153909588, 0.03862432800609353, -0.01449189030976151, -0.01632529552521443, 0.0828655086564093, -0.004680378846228007, 0.08117761368024615, 0.06937972016556031, -0.04106306654795828, -0.0598164719964041, 0.040099563831228105, -0.013830042269700363, 0.06265652339639179, -0.009123884639476531, 0.07167154688863361, 0.04797282699601934, 0.06404177791632934, 0.06269577861603408, 0.04713565055620575, -0.006067831333515073, 0.0004637528328999688, 0.095231346554018, 0.012210342636508689, -0.005943860990232614, -0.0286922454942742, -0.0005471558555361325, 0.0069616466775407546, 0.08745372929800467, 0.007997294219222932, 0.07076553738318336, 0.01704838815896088, 0.005718668140502843, 0.05883882016316683, 0.012726464076406105, -0.002089520975696101, 0.00961540592020981, 0.010795628855698985, 0.053018489576094764, 0.03894147955805824, 0.057997007914756656, 0.05823897269117952, 0.03933083421661774, 0.03182496428316369, 0.03527802802441851, 0.0487280625984555, -0.05889246246500382, 0.0780997013893029, 0.008596751174722108, 0.037455706224320415, -0.009738301020397536, -0.024699858424953182, 0.012704765633161747, -0.03149875305203693, 0.050413488195783285, 0.07140691388046701, 0.10433427799101941, -0.00945158328844546, -0.01633503961054727, 0.047583743274274004, 0.07068464943717175, 0.003611806106771177, 0.03273550196350167, 0.055082131534578055, -0.040169085485135696, -0.003875982632394082, 0.0015199577383750956, 0.06171419533714815, -0.012140937785809491, 0.005308177810822603, 0.06530678391005347, 0.03701932305316689, 0.018626855762359326, 0.008485410328242146, 0.011188734981512967, -0.05913622176082842, 0.06516653938525124, 0.08198283369061843, 0.04663564270175284, 0.006121088696715712, -0.022876365793534165, 0.03395842005853869, 0.039098684144207155, 0.02956658351560359, 0.05700202563355559, 0.07012064892829516, 0.018040762674433525, 0.046150148498879426, 0.028762107644387157, 0.010339968686824056, 0.002169751890424452, 0.003916263517511825, -0.0007729500373416571, -0.0038127333085299655, 0.008745875825446508, 0.03464987851993479, 0.03525915550031025, 0.006148479566567063, 0.055844232215533744, 0.060195008093012196, 0.15127240365599046, 0.028668472896745862, 0.036168028049361964, 0.07487331116070081, -0.0007156494314330402, 0.018892782270680208, 0.057370260812714624, 0.013504216956430632, 0.029324236912545414, 0.03546166368020662, -0.0007566732412100836, 0.04066129330942507, -0.006338232048170121, -0.002056247662585786, 0.02215897693882564, 0.11256345740418336, -0.012667235343204492, 0.042314747806617765, 0.006358622999342762, 0.04491937043149049, 0.012735378268502715, 0.017133343055067796, 0.069376784879866, -0.038737655918569605, 0.037683065723134845, 0.041399270857087736, 0.017698822842111116, 0.05568865035262567, 0.02547812158993903, -0.00802494534276402, 0.05105980026639307, 0.06926879701041014, 0.034019706246514486, -0.03815456208669382, 0.0524655581507705, -0.03711549649370547, 0.061004750678276286, 0.053942546831942106, 0.013866151384983332, 0.06332378604547624, -0.018597765260523764, 0.031043859202201717, 0.06320644136809198, 0.054778844537488484, 0.04745258189876627, 0.06609958110950868, 0.04633330270970418, 0.03944139730920206, 0.06414970260347973, -0.03144659118378803, 0.04638046163706839, 0.050615678182790745, 0.003268186593988975, 0.02780027367637829, 0.011706977643491493, 0.036975601399878925, 0.01786594677932062, 0.026153497515598072, 0.014771474155441704, 0.059559086913023855, 0.03590672845628178, 0.026274694408991352, -0.04009494503085665, 0.044305914088558225, -0.05337921319845603, -0.029664307314459314, 0.08007785770908726, 0.01842918106334541, -0.02990275464039155, -0.01368705842349956, 0.04688546343063425, 0.01559887066951853, 0.09518052454644967, 0.06393326813043232, -0.015619002531186678, 0.0519151899269304, 0.02160613558850784, 0.06942795206883937, 0.030373746425199834, 0.12304501580595623, 0.022271192528159914, -0.023014940916467292, 0.05386868452767079, 0.028511323549982683, -0.008864202570815004, 0.027642208168129453, 0.02729268874924334, 0.06333434794067953, 0.06979581519058788, 0.049851429771220854, 0.02989710943110716, -0.01665563345023095, 0.021731277050780803, 0.0825698411999738, -0.016514509831692285, -0.01056148009501164, -0.027912384531115327, 0.022481364423575206, -0.013178914637280376, 0.07209571047307495, 0.07076001203012902, 0.07228782490777425, 0.03735196180026538, -0.007291886341695351, 0.036270661176471784, 0.07274120955985713, 0.10524977230820642, 0.06279161168120878, 0.0621766480558284, 0.01702597940064595, 0.008777884314600094, 0.01410638155132308, 0.03802014157499138, 0.05030643542414048, 0.024724048826214845, -0.008049178251850331, -0.017305273657568954, -0.014511896494093467, 0.07836509743689463, 0.020528497391124695, 0.04570138125170305, -0.059288103321874217, 0.03820285454923014, 0.015934609617212363, 0.07808339016700415, 0.02609037721419077, -0.00044883852889569126, -0.00801247525798383, -0.003672240050043795, -0.022035590384698187, -0.01296601048461425, 0.023843380827931145, 0.033035432771500346, 0.04205678446339256, 0.05912780064399255, -0.0038588789378268726, 0.02204708973590919, 0.011669016621999566, 0.07615138957953144, 0.07579528396901375, 0.010546781303430137, 0.0194591618423903, 0.026681427921692768, 0.02459842948580351, -0.024089727225922165, 0.04206694522791202, 0.05514308200137958, 0.038600009358059774, 0.04308897041169431, -0.04118786962702055, 0.004555813485932484, -0.012277778880505163, 0.0344031607550326, 0.02422156946883792, 0.026325027024871474, 0.05995496184284676, 0.037842826159439, -0.013513537210610153, -0.026179082718998912, -0.04827912937741631, 0.0007217248939002992, -0.023534475072463652, 0.06581723135787818, 0.08868102984483285, 0.012476634135704935, 0.06100593041531235, 0.0071915870553012455, 0.008322863087778395, 0.042811081935355134, 0.07107575634013168, 0.01856283384203382, 0.005139153099424896, 0.022979470207957424, -0.012748560235529347, -0.03833123506156199, 0.07632354916305507, 0.06912142007422731, 0.09995882544248022, -0.014790108791002931, 0.015234155959665112, -0.020313020563358992, 0.1005867256987626, 0.03456142211383629, -0.008537792719974095, 0.09977819202275337, 0.023034769533088355, 0.016432578421431296, 0.03181275195789597, 0.027930550073785858, -0.0067376308924241525, -0.00036774703783261023, 0.09242721000389666, 0.08728234892923666, 0.06886892759657143, -0.0025496030568998925, 0.033224892269245604, 0.03653795534765979, -0.03631593519389378, 0.017371114981650365, 0.039045255333225885, 0.0010147339850004305, 0.08430254399167905, -0.013646540111292097, 0.010234646718761033, 0.0652106382047919, 0.06204519229124439, 0.0472876397408144, 0.013321728157162234, 0.030589187115810407, 0.07640299057616264, -0.029427597711642148, -0.008987115045724388, 0.022764922748133666, 0.057161591199923506, -0.00544543923971479, -0.018809021703140666, 0.05283272988040853, 0.08718686124299868, 0.06506199265033871, -0.05726224808750194, 0.06473487537025903, 0.0814653862873299, -0.013301370017333178, -0.03166712186422554, 0.09632647352441709, -0.004280433200825588, 0.07064477304244952, 0.004903310361622795, 0.07134530414153752, -0.014562820021775776, 0.06695926865660519, 0.05114697365539363, 0.01338825327505251, 0.020813716795113367, 0.07608131554812378, -0.0037822507316224714, -0.020256460444717492, -0.060226853352540445, 0.08442269411012014, 0.00412534018304961, 0.039897183456417074, 0.007431299608070293, 0.051928026760327456, 0.021531929622533474, 0.038661921848169085, 0.08764563452549072, 0.05355321624958373, 0.05241346943638699, 0.03396028299959088, -0.04179728301164531, 0.08062780022543868, 0.021150017358059638, 0.07290388012276498, -0.06057654338825806, 0.05813100227345106, 0.04660118497094566, 0.0027844696409789907, 0.019091131952389703, 0.004087619842580595, -0.047960314956677255, 0.1158674731807684, 0.07099893531899366, -0.005891342087157288, 0.016538875368626103, 0.023403825928690038, 0.05935343018004945, 0.07339088853659942, 0.044447434577066555, -0.04154082085244791, -0.013616095817150009, -8.392428990803652e-05, 0.007221154710884339, 0.04376172504869295, 0.007119863497618977, 0.00433740511196044, -0.006577283313645731, 0.067375470553411, -0.0015034526140404155, 0.024976729254940856, 0.07313452506659289, -0.023142797291033232, 0.02559176613523372, 0.021643943829298264, 0.016135012024497134, 0.04678330752966559, 0.00042077599545099656, 0.024629642124772994, 0.08846671886713289, 0.011980813718675152, -0.04953765067800546, 0.030729388086450524, -0.006092236220931814, 0.041288104891272014, 0.009314341666191715, 0.044628298898279066, 0.035819013805318226, 0.0372369560812854, 0.030999691353578378, -0.016158216038293392, 0.03609017048469749, 0.0045218316233253016, 0.009565245186294374, 0.05321814763302116, -0.017134204323138072, 0.040243489000303, 0.06776645941928933, 0.02468572767492567, 0.02022602044757383, 0.011079304761644988, 0.03087156056315633, 0.0005725244305306238, 0.018807118705528335, 0.05994736124814137, 0.021621791038557606, 0.024383177533361534, -0.004595483330780537, 0.05408204075154803, -0.009224091902757938, 0.019552522798545406, 0.008867684782542585, 0.038842087265530165, 0.0007524692056996055, 0.04746682296268014, 0.0747930445973649, 0.029784578841490838, 0.050172623909780285, -0.012960270725887433, -0.07641295582985819, 0.018187579000656262, 0.04690946408700025, 0.05885075921444354, 0.0815159028532406, 0.03160555943251887, 0.06343738218337487, 0.04670706622098176, 0.06338452575929529, -0.02005239442101622, 0.01478570092384568, 0.03365483793943965, 0.03579441344441056, 0.054416373287749516, 0.017227523258262042, 0.08800397589646786, 0.0714883205552792, 0.04431008782470875, 0.045965850545295485, 0.06944127592612141, 0.014922269026169943, 0.027259443270394337, -0.02061269387088944, -0.015574827997243692, 0.03328826702169661, -0.033658574914970166, 0.017027515537597914, 0.09553186775875844, -0.007481996780028842, -0.028297708536782623, 0.06343930419500167, 0.04236704533365579, 0.014248212290074315, 0.031559553803579755, 0.002035455328448548, -0.024782913789521126, 0.02505304314165711, 0.059258266173108864, 0.051865620105991626, 0.044918522203290116, 0.04410270350488665, 0.028560761379460318, 0.015543293287511173, 0.003336190277198381, 0.07230653830582126, 0.03659878280454842, 0.07810677000329164, 0.0009789647405530845, -0.030967670260549248, 0.06354285756499804, 0.052537300852244034, 0.06120068548613252, 0.08379471505813485, 0.024899165874532413, 0.029382768501217474, 0.004483913736217047, 0.004437704525630456, 0.03228481415622451, -0.01111266341820652, 0.04921569465860448, 0.031825894210933535, 0.06393453771967826, 0.00015898558667988604, -0.0014617283168758509], [-0.0844188277252969, -0.12479801942614815, -0.11761064462772743, -0.10933540135875465, -0.06926495574945281, -0.08191673512601517, -0.06987893618189434, -0.08254702035999041, -0.11241097699481227, -0.09404057701631494, -0.04542190167185453, -0.05116260818297252, -0.05055813525858253, -0.030562846073665804, -0.02060344222913316, -0.04110662875776075, -0.02143661392057654, 0.01928397453452545, -0.0857162769874324, -0.09839588014449469, -0.07582053719205065, -0.06544872309749807, -0.07231191261189182, -0.04880121801289471, -0.05099593995233712, -0.019554687159405382, -0.07713198540122816, -0.11026708319384591, -0.08100645080583883, -0.1090925471061101, -0.07118084049241154, -0.057110579016690116, -0.03824765664004852, -0.03989850789200164, -0.021883124853375832, -0.06652179739717998, -0.017647420113079265, -0.07251071141616623, -0.0621258664615107, -0.07807161386104362, -0.04905036348071924, -0.042470910999293905, 0.02987682915487391, -0.02804723409045253, -0.03871993644550951, -0.060724855983407454, -0.08509889847180417, 0.015901014680141778, -0.055237327783019104, -0.04267227353975955, -0.08305925765950217, 0.011450055996902428, -0.07911515668552704, -0.0023340698203632463, -0.03553897270700527, -0.07449920538294005, -0.013249374163392068, -0.0650962463160153, -0.08657996124207668, -0.008274620404600948, -0.05717436430622861, -0.07231906503910351, -0.09831429169211998, -0.011779807168265249, -0.05810050649318433, -0.044841077518569666, -0.018276883494963894, -0.07468530870584306, -0.1012026237136624, -0.051106573785996624, -0.07639790312805507, -0.04979887436331643, -0.02533212756376442, -0.1282932883785541, -0.032130568400469135, -0.09625527739206996, 0.0034623158710935034, -0.09791553523789624, -0.09460532701263276, -0.03632041144626465, -0.03439307996780833, -0.11347549710442882, -0.011125325515462161, -0.05874908603839267, -0.10461439904981946, -0.06636472454461771, -0.04918198489028844, -0.07327099992198094, -0.0111037989875672, -0.06651533464081859, -0.05911292128422549, -0.08841238964164876, -0.05930804859692756, -0.0009844536032834737, -0.00596112001710495, -0.10206427726535627, -0.07889099741829979, -0.008931733028875647, -0.022202278100823418, -0.0779776573150509, -0.02448565329680555, 0.0008997700396608488, -0.07555422441112392, -0.08623903225765507, 0.023175629110193514, -0.02300721273581208, -0.10656759197773635, -0.058561317805401816, -0.05642635631681453, -0.034303863205198085, -0.08587320087253529, -0.0881393078295879, -0.013129442098427578, -0.13822795823864767, -0.02683939672637057, -0.0732465973313663, -0.08030626120682649, -0.07256645178534031, -0.022235384507744278, -0.060595884510202584, -0.10205192124644795, -0.11426729891799706, -0.04870829617952141, -0.009088075290458799, -0.038302326127805174, -0.09179243788318701, -0.09919226040281925, -0.07456078643986273, -0.01689789281185046, -0.04992941649869963, -0.029832232690939767, -0.08884533006211778, -0.03531255799600872, -0.03285451657114587, -0.013639980612172847, -0.029681055045414212, -0.09984414424319647, -0.018628181140103367, -0.05172912606585907, -0.08503985071199381, -0.049216059616825514, -0.0427603410234813, -0.099904054749554, -0.01118869735125408, -0.09183321946612133, -0.08495277817443969, -0.09398174555615538, -0.06407523182004274, -0.02257197053621044, -0.03552122590140032, -0.05089804607614424, -0.05312171169726888, -0.07892720920228, -0.07711954591997551, -0.08880949757343087, -0.06651566858876645, -0.021375221200331404, 0.007567435376224094, -0.02527277238595815, -0.04644190429163543, -0.029728172461730557, -0.07042860100848866, -0.010490236891911621, -0.08166636761866787, -0.03134900490271963, -0.01844300697181636, -0.07220819209654304, -0.07045491507622566, -0.09095360843734446, -0.09499593220275201, -0.04638240023888348, -0.03724899476071283, -0.11095042647333547, -0.10251478621397188, -0.11027062762612912, -0.04851034483387766, -0.08851611671319072, -0.04429882844409476, -0.07066474209569758, -0.009095411007214763, -0.0017302563911247178, -0.1232418498898535, -0.05635839554944889, -0.1109628232306721, -0.05987022206325273, -0.08550921044654956, -0.057502748749111536, -0.011120638454447815, -0.11874861001655143, 0.032327671568927026, -0.0691346147579418, -0.0578325368736307, -0.09574208831355165, -0.13155834606833705, -0.05872178450872822, -0.03442332862367535, -0.076010349166951, -0.06801929571579039, -0.1354147342965986, -0.0872521343972361, -0.10571839975020679, -0.08241899891233895, -0.07994907374452084, -0.03214146940910739, -0.03615579815014141, -0.015828403377165578, -0.09993913001355673, -0.09085808042142864, -0.016639623184466334, -0.046280208304090874, -0.008871300493593342, -0.04661835470504596, -0.04521998824538018, -0.04470201249140632, -0.08495674974816335, -0.0038639758561557222, -0.1290151569749081, -0.02893656140887466, -0.01697861720136028, -0.043286967517782216, -0.14166978862973353, -0.055524537441401615, -0.06192999914363496, -0.0643352127271352, -0.043017012006090746, -0.06370924804797838, -0.1314740710770515, -0.13056464536470785, -0.04463790847337368, -0.08470399881546711, -0.07869478486211925, -0.04767332667190822, -0.0433648497574995, -0.04608914499793215, -0.036011055532457016, -0.0011690429265338793, -0.10933899673646197, -0.04229964242200934, -0.06686110159889899, -0.13213196961438375, -0.10619047268074988, -0.07929109112901005, -0.0033369674996309917, -0.04746545580252479, -0.0613668981634005, -0.08817237982959025, -0.05891502514369819, -0.05113038880070632, -0.03474557399890588, -0.04623222132349383, 0.015860497723125602, -0.021975731967770223, -0.027964442304940548, -0.03667591348685646, -0.0874566069258561, -0.0075593153787108305, -0.07896424432369724, -0.05334018614086068, -0.0071268789280698516, -0.07332574044022824, -0.005667129382180837, 0.023017529087453383, -0.08583903224474797, -0.04555843297937784, -0.061019598374287366, -0.05079757665148417, 0.002437830835647334, -0.07676913984105532, -0.09855799463789665, -0.027600663123880324, -0.04757361323388909, -0.11018664296114618, -0.10915065371082427, -0.04901597902585737, -0.061874211326705786, 0.006649466609527088, -0.040697244239553426, -0.042794141163242885, -0.04349756282848261, -0.06879748611887203, -0.09430808609691516, -0.07918116395885187, -0.05167035307205454, -0.1022087102480069, -0.05877443787316206, -0.053209562184216186, 0.029401746475981386, -0.035087219824268545, -0.04540855919625011, -0.03419680351480314, -0.08873067021731582, -0.03640337626887979, -0.10380215951169312, -0.10209437997122495, -0.06654847902948247, -0.05818785111668318, -0.0650994312866308, -0.05125056241742701, -0.06144136534510189, -0.06247190986222414, -0.09497831042120679, -0.0934128840666206, -0.04628136363672156, -0.04626299026967783, -0.020440731199563123, -0.04369103826018373, -0.09205056228002804, -0.03359118639964781, -0.12479467586919402, -0.05491484721434353, -0.015882095756301933, -0.08157978410182914, -0.00664426369808423, -0.09837094121288396, -0.007238732442572794, -0.1188950399963774, -0.03549400657103061, -0.1161248342082494, -0.031521889939170614, 0.005337172001987126, -0.039027911693014145, -0.08188658111030842, -0.05799814347597024, -0.012776197041301849, -0.012247976377740732, -0.03440536052375913, -0.03457317167227852, -0.0157023699810906, -0.05493017266742696, 0.017190740650251803, -0.16783231159953124, -0.07770216992651742, -0.0393801222335414, -0.008024835475690256, -0.06337336507202483, -0.10187384990582611, -0.09392601126565425, -0.14396503034684108, -0.10263388683427457, -0.04613761658728008, -0.061280183128512036, 0.0015807684800761726, -0.027498875286301037, 0.024684325071942036, -0.01963162614753531, -0.10333911996419899, -0.02717143122298999, 0.02530817719573386, -0.010538726329553858, -0.024557219037364113, 0.012544947123765509, -0.024028068266957525, -0.011080676519809018, -0.06628339287780914, -0.10778902670561902, -0.10626251437000123, -0.07543694119208257, -0.029567663509046667, -0.08058116774724386, -0.11466012187492426, -0.020437221213013373, -0.13481930351686, -0.05936612390916854, -0.07115751430215068, -0.10021386616178525, -0.08752503751051284, 0.025236896723516665, -0.005220191270980953, -0.10728978155064138, -0.013927243517087535, -0.047267741691819125, -0.03233244849745762, -0.007581891955287176, -0.00048195866861395814, -0.10653131390468384, -0.06633818328610273, -0.1217054811100318, -0.06911730067085052, -0.050852757131800305, 0.0016201555285862215, -0.03696323948628988, -0.10774095695293354, -0.020813857683530664, -0.01633801461933841, -0.036530419271087, -0.12153355807715316, -0.09684909643927407, -0.02563994077619377, -0.02712686707897557, -0.05449590475443834, -0.05683945405587949, -0.10865042040280072, -0.05902647900784287, -0.11686035488663567, -0.04404608461406769, -0.07856150721427564, -0.058400657419329705, -0.07092267343202155, -0.04614565800731951, -0.012482169047689166, -0.08324193610202246, 0.009639982120020797, -0.04157758434993874, -0.061965951320305065, -0.08495706887066864, -0.04714458005794839, -0.0505675136473966, -0.010445854073430311, -0.0070930919080856, -0.010612607299347, -0.04362993025030901, -0.021091418028361373, -0.05768524032318842, -0.1174437135744911, -0.08324175266681934, -0.09948417579873686, -0.0923344787757871, -0.0973166151897026, -0.08102354579978575, -0.0965333077211128, 0.006166547966813074, -0.0903765973185756, -0.0575855044663901, 0.005178422550814428, -0.03443528407633495, -0.06343769834737589, 0.016042373269776658, 0.022095401829310923, -0.13145595637814358, -0.08616250986251699, -0.03960817686979426, -0.03947836237240448, -0.07023301262397294, -0.11789563594451805, 0.0681008611120578, -0.03574779808238497, -0.07274997852245636, -0.02122020925233042, -0.10005063558620651, -0.10683746377006349, -0.042410892714488994, 0.018039737860728787, -0.07162414019105692, -0.05465903479444418, -0.06087909994579537, -0.03738881413709912, -0.0404167066848161, -0.01602961383221655, -0.0845457086818884, -0.07321900288478284, -0.08605590681455609, -0.04559401299905659, 5.8848050071144675e-05, 0.01834757518192174, -0.04371406047759785, -0.019356638782034696, -0.012345628615434246, -0.05484636852621811, -0.004274385609448774, 0.004392127798078716, -0.0695750214680106, 0.006848798078181755, -0.007932864524419124, -0.09074996239631175, -0.03425441564299834, -0.09341563227153038, -0.030769623816359455, -0.08039846117628552, -0.0976671057089136, -0.0650147160505591, -0.0777995669236724, -0.02461516753052717, -0.07636172898499724, -0.09249726702212031, -0.06651219945637385, -0.14779598663055912, -0.03255404385387781, -0.09137661363811588, -0.05062746911117669, -0.0787533123541137, -0.0413127652223663, -0.0449213782831579, 0.008191757306597158, -0.07483978996803078, -0.06279309268303038, -0.035597572373400554, -0.06901220956115882, -0.07517883924846813, -0.07472589238102874, -0.04938786189911906, 0.002151073250523653, -0.029840956118684637, -0.06977317712758746, -0.003528218435722086, -0.12381227620596497, -0.059288758357995304, -0.1373295529290465, -0.07762454753546343, -0.08875085976941131, -0.07507847180571628, -0.0077835732791231545, -0.11014837585052309, -0.004735634307826403, -0.043625902570726266, -0.05337136963605154, -0.05796224535398447, -0.04051301869514481, -0.10517274365977147, -0.013763991231719218, -0.03374093048098907, -0.030844612639620204, -0.05423054251341392, -0.07583359605202228, 0.018562587097292846, -0.03383282064280575, -0.012242858276417854, -0.05570150775785886, -0.03771031652772815, -0.06156792776170595, -0.06859879118926626, -0.08497098456977192, -0.08873153313341428, -0.07645890744756793, 0.006190889655298478, -0.012524302856866064, -0.04906691537085651, -0.11692244626320078, -0.05076170763553003, -0.042737329681826856, -0.05219156859818466, -0.09185939111571491, -0.11893163933828296, -0.05508435319451289, -0.053922139894333004, -0.07876086049127486, -0.058590167419971736, -0.06658222514449266, -0.018401221465974404, -0.04015149365020818, -0.05315571014290935, -0.06434618562646334, 0.03396085328582504, -0.05353056570560945, -0.022499592529969647, 0.0016020352809856559, -0.007908285320118688, -0.04433023535436746, -0.03728169700014315, -0.042825769639762666, -0.01728853523109412, 0.034136810127027954, 0.025678667457864315, -0.007940881986415207, 0.006152743746738725, -0.07977557707643786, -0.03384813985993212, -0.1307757913275346, -0.045257706327888864, -0.1390408009700298, -0.06684506535523414, -0.07267275918566077, -0.06768666100717943, -0.06151770405658508, -0.03366210496881558, -0.026031483568141525, -0.10902644257849074, -0.06658972307284686, -0.08184077825584012, -0.12351043890906234, -0.10302153572070327, -0.08365393898344553, -0.03746927182431649, -0.0749794921443113, -0.15057140599164276, -0.04975827216113653, -0.08603035645105042, -0.010022226436431667, -0.047834912952597286, 0.027051500289153763, -0.06143361394752337, -0.12742392237328612, 0.006505027115854194, -0.04546739030045564, -0.07936588581664937, -0.05034694121607899, -0.08141732961638723, -0.033962165654565786, -0.04677243289483659, -0.0657659813128721, -0.08922974471691822, -0.04104992822356308, -0.020414938970590726, -0.026312372808299393, 0.005103661613955584, -0.04765891694137495, -0.010004605972687493, -0.05672179033883809, -0.03489855934510145, -0.09152718882479563, -0.041056698648046695, -0.00989435056657478, -0.013207567277727176, -0.045487116134889365, -0.10164897092017992, 0.0013371627176684427, -0.13453904915568524, -0.04017298773586112, -0.04500275103888143, -0.02003990742247524, -0.09062013509115593, -0.0535237832972483, 0.03128262744577019, -0.07748168198722626, -0.09956768311772685, -0.09729342792572288, -0.03541768638002317, -0.002711785816420504, -0.018463829302778206, -0.052910007383571024, -0.02868827799811953, -0.023483412767425257, -0.06553920546563982, -0.06348112789947925, -0.10127103442844844, -0.10814257265339253, -0.09374320458850412, -0.07701057354207018, -0.047843129117776655, -0.028938158843705628, -0.1048790699896227, -0.06796666763217421, -0.06376149863830904, -0.0677541783165712, -0.1001071502659021, -0.038224235684155894, -0.04005864849761492, -0.019798042724395188, -0.009463692672191189, -0.0640467910950848, -0.06598941095348514, -0.06410065060634579, -0.1435978941933783, -0.06415854196010147, -0.01652435392666807, -0.03887497648126377, -0.07242376001428076, -0.03723575433655218, -0.047811685435810145, -0.010290428714593609, -0.059664405466864065, -0.021873650450979613, -0.06039565672809413, -0.06343846119210193, -0.09708797933174354, -0.0798201086349934, -0.05663995688750595, -0.08321495885759783, -0.07571830424061302, -0.0679985867398888, -0.023513473723395874, -0.03378195398305291, 0.013979674018371784, -0.0395914394841629, -0.04526735838682532, -0.10898527593680508, -0.045309639804978624, -0.11901156373205918, -0.027631450026120476, -0.04643083411783904, -0.039387721107532365, -0.04377830626424508, -0.10202254015870994, -0.028702617603069403, -0.04336218212740201, -0.01221083892701776, -0.06001240587892459, -0.0338089303747377, -0.07810472408351535, 0.0020400869387374697, -0.06657518165818851, -0.002795212723325774, -0.048620972814464286, -0.061360597746090845, -0.029988511707591484, -0.12556288513182656, -0.11620543406915577, 0.005536029145052687, -0.04279201898332602, -0.050081108421672405, -0.034696497817024934, -0.045524184118888526, -0.05093436097650375, -0.10942822963973313, -0.055666738023384524, -0.10537994333944636, -0.04142658561678624, -0.09273926309647602, -0.07780484854733136, -0.06266013948288128, 0.0017125164063150418, -0.012929055328927234, -0.04146255921502681, -0.0762880247206976, -0.04185148298546721, -0.042500363002232755, -0.06868105937919157, -0.0744272821226916, -0.03751706559385011, -0.09209495722193081, -0.04111970745956878, -0.09594469354692982, -0.03982137856759874, -0.04792614561756241, -0.013567409091190839, -0.10732331802351328, 0.007243438610687212, -0.06244244013769006, -0.07649249838180862, -0.14359672289375963, -0.08667947009546605, -0.15716279226489926, -0.006111283104269905, -0.017963140631648937, -0.059591835759928644, -0.041759302965035515, -0.0862621039217671, -0.11123316204696061, -0.057278060926260886, -0.025304946754347628, -0.009984127521038479, -0.026205286733118862, -0.05485773327019926, -0.0488425688644254, -0.04856497643369717, -0.09402301689208542, -0.06913959085136429, -0.11000594428824403, -0.09038209747867926, -0.10262182493603489, -0.042996945410919925, -0.03778804911286698, -0.05840825248021114, -0.10308180607611105, -0.11263851239586163, -0.01580890767714163, -0.0540569418325515, -0.05826204326545426, -0.03772461152865588, -0.060231979521070525, -0.04864666361497493, -0.07212334108161873, -0.0866816776202699, -0.04243506677129219, -0.054201232346294696, -0.0220848645403898, -0.1034117908317107, -0.0716221459241826, -0.05149334451207483, -0.06901492949064272, -0.05205138400933927, -0.08299442053420689, -0.0695139544431924, -0.07383442112483217, -0.08207570045344345, -0.146777777962, -0.03333907459209569, -0.03161521741566334, -0.056590955598843494, -0.04261942604978023, -0.04259832554207951, -0.050335080554813574, -0.08664032729332749, -0.05430471947562777, -0.05096846882985794, -0.0654608448393014, -0.07851603514139067, -0.08922333799660567, -0.06988978094863241, -0.1012783646168777, -0.08166478769269479, -0.05788569764025413, -0.07458377788058178, -0.09691554883933583, -0.056396001227792376], [-0.00020674296868386751, -0.07655800752559334, 0.017000708937046517, -0.003320454352164076, 0.0404590945053208, 0.07582481935929003, -0.05306884662074245, -0.022022883022645066, 0.03507558044091308, 0.04173229921751079, -0.019623138542318782, 0.017903609535406304, 0.09736680910845007, 0.029546568947727527, 0.04787312852057866, -0.004379606300316683, 0.05615570954281158, 0.0037851805209684146, 0.04030057058859234, 0.09603619579478267, 0.054805485662493846, -0.06985581618883871, -0.002971734352121727, -0.0064026677642211325, -0.03316668738935049, 0.028255183532485927, -0.003344465397895084, 0.031780863382913915, 0.07770183105368424, 0.04285165890949011, 0.03129684937448327, 0.08821174624195131, 0.016327909628185484, 0.03585397297109093, 0.015300716900595665, -0.0004816759637323584, 0.038268468635149745, 0.07081935286700183, 0.06517000928769863, 0.11179291632112072, 0.026920754481033503, 0.005938322719315906, 0.035315667195761964, 0.05820634104669553, -0.01643671366150755, 0.022770422512684865, 0.006291499491872372, -0.021221749533915715, 0.01860942203897726, -0.005818320520805051, -0.021982120405901657, 0.05040778009631154, 0.019559321428430757, 0.09686095940847443, 0.008962816611190822, 0.02875527339418214, 0.027872761126531812, -0.004862326802003361, 0.04881578611897548, -0.00579986234803677, 0.05137871678951274, 0.03807953891940202, -0.02414624185112811, 0.042936196106545844, -0.02316439067513255, 0.014839401396154799, -0.004622521009515646, -0.026945490350473333, 0.018056986404875214, 0.04521158858907621, -0.011952841962111063, -0.036274898820943265, 0.034760782427810666, 0.026753721696555297, 0.006313959583175715, 0.03498905598895608, -0.018684228850216828, 0.020781329692598494, 0.05783626064860688, 0.03614957217604454, -0.008274916441259918, -0.038207260902331786, 0.00941229546301215, -0.014648084767943322, 0.03322728103556379, 0.041078948733401996, -0.035757771508882895, -0.007322234022479179, 0.08756452263380646, -0.017453249605504272, 0.0013335303800491346, 0.0691811061356854, 0.018157980083028286, -0.030409037996792676, 0.043127916707911655, 0.013808758022595125, -0.01163221810146016, 0.05090739781148972, 0.07661492404186038, -0.020219434989409278, -0.0009430253197295128, 0.04135156290874188, 0.011508099716108246, 0.012486208058190309, 0.045108598713746124, 0.021984131849354955, 0.05090172079740498, -9.172406662455496e-05, -0.010769892327133877, 0.040967467107683044, 0.04042207594648737, 0.043280725864642794, 0.08312402043580752, 0.09211876830882147, 0.03738084540867711, 0.019342272090220672, -0.021607694322357197, -0.008847921477599444, -0.008891653382355987, -0.03737039312321435, 0.012270604943675439, 0.014440534082292117, 0.005191335418609662, 0.01896166976969399, 0.003508656787323666, 0.03284434256121528, 0.021761385393873022, -0.03678971374961966, -0.013757590874421655, -0.020184785623282946, 0.022471725198561058, 0.043151486417868624, 0.06959825953058692, 0.02760260350891746, 0.06071892092894288, 0.04659557429828619, 0.0026476783920056307, -0.037665153434710594, 0.02435748960336716, 0.03742069009675959, 0.06098825850874156, 0.018071256527984886, 0.04415571703176794, 0.04738060510637162, -0.004391775581701514, 0.024686866380212374, 0.01561778969646954, 0.03673485734356611, -0.04337179377373731, -0.036435071019347336, 0.07837876761081228, -0.012608212707486138, 0.04033157370571433, 0.06141736235194438, 0.03836757982162062, 0.05208764568474801, 0.030055669393903004, 0.04101664891218762, 0.008653470592687736, -0.018851244773264653, 0.044520835340805406, 0.06927457520358207, 0.03171960118216787, -0.038466694894282755, 0.08166269797321626, 0.03420651186537073, -0.013368959958776273, -0.00017226819426322784, 0.06003203839160176, 0.06639908327138817, -0.04236468459422078, 0.03505193623903009, 0.06332537001857105, 0.05021845893312861, 0.02250569556867692, -0.030389633121815314, 0.06334151615562908, 0.010803759940958349, 0.034411430531548326, -0.02725399210057516, 0.044029421453339664, -0.029114789801795493, 0.023851223593863078, 0.01255763849591539, 0.016320403136255008, -0.06121803363560075, 0.006392549568356322, -0.08101577167280231, 0.02090404539490376, 0.05145619661938141, 0.02688038099506062, 0.056608185350580306, 0.05003213064819497, 0.06274012412820151, 0.0179280527610336, -0.007545342882551046, -0.001350861287370973, 0.03623209967159536, 0.03909324486958705, 0.029696302877369463, 0.019273848254289485, 0.0875091626107803, 0.02286388817071047, 0.0036171132449022924, -0.00939214212126295, -0.028059405170093046, -0.030935503230377425, 0.028422041131969403, 0.03146468931586806, 0.03612433395284028, 0.03420500567254798, 0.054703063645277515, 0.0018775703612558664, 0.013536052833797942, -0.0843733532093803, 0.027902302065574324, -0.017097134301044523, 0.05161128087240985, -0.0059170215016751855, 0.026042599789373278, 0.004654910494801622, 0.03816957233592575, 0.008213836644684407, 0.042473195437421514, -0.0005245867861350528, 0.011561749970017484, 0.016723726206293237, 0.06407066801608453, -0.019186194474630047, 0.001064769786309857, 0.06331312268671194, 0.019524317215851773, 0.038987666717095214, -0.020821069920990327, -0.002788275182728903, -0.008653544699649638, -0.025295792115575165, -0.04668946946627086, -0.025168147639055883, 0.07631247955438279, 0.006351926050902936, 0.05182139724531905, 0.027577727900461584, -0.008983654545391299, 0.08211977672345779, -0.010020503114706975, -0.0061838671069077596, 0.062211053047305745, -0.015626447823524302, 0.02143935474357419, 0.005601864545756049, 0.04899808405903551, 0.03825963519777921, 0.019718617779722464, -0.024552119683045635, 0.0016349967725710081, 0.0776096163900385, 0.03172445914215075, 0.06793978851285848, -0.013785096730399259, 0.04218530681540402, 0.01742351763499798, 0.020085526513824045, -0.008269650101326699, 0.043883900958242406, 0.002634521181531453, 0.03384447795237822, -0.04818022627924776, 0.018269754860649353, -0.01325099216539034, -0.05368745109517535, -0.005382623177312032, -0.024287461301813303, 0.03530486554646159, 0.020848334483891326, 0.06420731525882378, 0.027438457084232083, 0.013730783067500666, 0.00931529385297424, 0.011847040740255303, 0.02645565143522438, 0.0017419704220516577, 0.045129956710952615, -0.0024148886487559513, 0.048083660802432995, 0.0386871884695656, 0.02335056851169461, 0.011233914535463253, 0.09611920470762711, 0.028002622814407605, 0.05346752364912731, 0.021444257496878078, 0.019225078192397896, -0.0028418666000654775, -0.014194811630222601, -0.004826068802852454, -0.021154606183633743, 0.015848504938404433, 0.018419289791932282, -0.006443307059054462, 0.0009074831591511351, 0.04607598544397971, 0.02702134675635587, 0.06923011796290636, 0.037665333578142245, 0.023228564943571763, -0.001043115349641788, 0.07490206960376959, -0.020319817855871163, 0.022502894037401154, 0.06552461370363064, -0.017471058353006396, 0.03613348553411566, 0.013523088576401969, 0.022966797564333997, 0.023335636770310125, -0.04360545254171926, 0.05469813035407181, -0.054542755345216826, -0.015194667325820638, 0.0462534202610214, 0.006544675079132051, 0.03763607243613735, 0.029775569855560017, 0.0490003250578325, 0.09648900735218452, 0.03942664489829195, 0.013170255658929665, 0.02782783617436618, 0.05115703464931141, -0.03136048123266071, 0.08548586803706204, 0.023269300376442915, 0.02090382818617664, 0.007020390397181568, 0.05245825065778302, 0.030008958247262765, -0.0062362763638111164, 0.05994041955929485, 0.050897925699013837, -0.00046619141915733153, 0.002929504871745784, -0.03851322936828762, 0.010296659589117449, 0.012331976671794873, 0.06985383107183721, 0.08482974450359641, 0.008369067695805683, -0.02344699537084311, 0.05302738972743348, -0.010118589089929055, 0.03919908757329792, 0.0411672790311509, 0.013961878345381243, 0.02168575242608529, 0.08487421556352069, 0.08080663944240443, 0.033273930956380635, 0.032483096815332235, -0.012723850839563807, -0.004984277483355153, 0.05998137679444116, -0.0024581769291219537, -0.07415741533478125, 0.07047080334552186, 0.043871152231650445, 0.007944311477684695, 0.122360458523591, 0.06167440800652279, 0.08595534913891148, 0.011622237084368991, 0.010291584171300123, -0.007199155648970464, 0.011764901610791646, 0.033224121175116486, -0.020901223683123877, 0.003056160175287932, 0.022093838059229976, 0.08872061240017831, -0.016016391173461254, 0.05150789672993837, -0.001390332552351773, -0.014013221477038177, -0.0709338554025764, 0.02912190053378942, -0.012008745809513968, 0.023037659561584337, -0.012186340691757107, 0.053386404812765506, 0.06424365901728468, 0.05600077590931757, -0.061790515300150554, 0.023311457231365077, 0.06250947346286302, 0.017697425064266716, -0.004665907583561772, 0.011419314815073668, 0.01250870984687675, 0.03540709793510978, -0.02617659865242362, 0.04651475631415951, 0.015873973034396062, 0.0163532263367814, -0.004015905296138305, -0.009052015345484863, 0.027915784685760486, 0.05932278395227064, -0.02684970085316639, 0.016962479816594815, 0.010692696884328222, 0.016309516733384564, 0.044341406818249385, 0.01251357561957185, -0.07168440120284544, -0.029933607231294332, 0.016469011354549496, 0.011726307101982069, 0.01225603198680583, 0.02679624454983584, 0.0475384181953256, 0.04321754428234189, -0.01660822285160396, 0.03661456064929892, 0.04157327342031572, 0.07893541936857805, 0.042529778283452245, 0.01865273012026175, -0.005758847806855511, -0.0027594484250718456, -0.01265957921713822, -0.03142110532059464, -0.020612377905891294, 0.04551356755405041, 0.018233750953768862, 0.06838706723149417, 0.08828780831589761, 0.02057898216116041, -0.011580418135971292, -0.011116009418872636, 0.038851938890187274, 0.002439537793120785, 0.008220173616684437, 0.03142965713711148, 0.048210946563552286, 0.020923074871973018, 0.07481843852636458, 0.021953095130594916, 0.013636068221314204, 0.030182116805461144, 0.03998187883191211, 0.02734455935379177, 0.0579587591391, 0.02061508625442583, 0.05252588334928398, 0.043869938948454514, 0.008626887062243271, -0.028518585598328712, -0.057216214896483986, -0.03275609433016208, 0.0427343381854261, 0.02070585104586541, 0.04167852660999051, 0.007202888215781547, 0.001808665131880998, 0.07127631145558966, 0.03963324981564399, 0.04559016135337601, -0.026277998275871958, 0.08992233355477867, 0.01773673177250005, -0.028353379349664476, 0.06958496125482096, -0.001359402182193552, 0.043315654616340855, 0.04308102988341529, -0.06369006603180183, 0.05164970182234572, 0.017289932432477274, 0.04460577777043405, 0.04037137193647695, 0.028242379530488592, 0.009680484131987615, -0.008073684744431656, -0.05143120631170158, 0.022672502898322587, 0.042734392941030784, 0.0164806184641908, 0.03964665666514498, 0.08088288103476077, 0.02229968333583682, -0.007365056251451852, 0.016763888689104015, 0.023776637965048756, 0.014165564125611945, 0.0152718012419802, 0.006452588455252458, -0.0019189456376510442, -0.0476680982728384, 0.02674621928177194, 0.03390381196738025, 0.09727006783438144, 0.01884329506365591, 0.03828653078573528, 0.031932330624709605, -0.0025050342627847824, 0.013423757934845322, -0.033096592584026883, -0.0033061756501388054, 0.013188788948546174, 0.028633060420468266, 0.030272383033247946, -0.03304501598118762, 0.008209275106943626, 0.010271382892625202, 0.029438346172553632, -0.013235958354537093, 0.03882812894372149, 0.06536941157322976, 0.05049987737076256, 0.09177835662142053, 0.022924176326636146, 0.008071954722257878, 0.00906180338290116, 0.013121455661916134, 0.028558769956976093, 0.03313769739617888, 0.014126415512754698, 0.03236471304257605, 0.04611312781723585, 0.018048821316552513, 0.05543309083432938, 0.04377957810965272, -0.008327354532744032, 0.1191422182105247, -0.048336134297873395, 0.025696931851868016, -0.010734593981754385, -0.009832255001496147, -0.053064555640333494, 0.007770658911610772, 0.013316824966425007, 0.00013430524831610358, 0.015826413355555277, -0.005787155315573506, 2.745667794507502e-05, -0.051344981421783155, -0.0009203483510840252, -0.008320245603236012, 0.049975955658643004, -0.005389592244664043, 0.03180717516424581, 0.005086712928609163, 0.05638743431857902, 0.016118895654955747, -0.05026163044904689, -0.006437367273312224, 0.046959846386947654, 0.020038038957345433, -0.018946544500056176, 0.026638728574376755, 0.00463849479479301, -0.0005678244523197625, 0.015410836941194075, 0.045396562813460356, 0.012958066974328285, -0.0390348156721255, 0.012259848495081601, 0.025945240960284197, 0.01839419663134219, 0.04259805600467827, 0.12078374722022103, 0.05029158442245691, 0.04098894469978971, 0.04952068110954484, -0.0002871459362906603, 0.04410004237502619, 0.041978054667914565, -0.030531061656865022, 0.005079468312247306, 0.027337830359452354, -0.008393777772064185, 0.02977482002412905, 0.003052140092711025, 0.02497541661254027, 0.03372096999692277, 0.019296191361984415, 0.03121401334526579, 0.05924348913713509, 0.06943066596397676, -0.011989135904779907, -0.02367617980999894, -0.015432457532551505, 0.0023612564094472777, -0.02096544802581114, 0.028204472579997395, 0.07617843546525045, -0.0087174618691321, 0.001657861984276047, 0.06192188860669894, 0.04595450924998757, -0.004406143302326677, -0.031686523177338215, 0.02350211283674954, 0.033922710933768016, 0.02000282225237542, 0.004706617524912129, 0.05921966951414107, 0.01130006619315474, 0.05739149348834308, 0.017033476449607458, 0.015456160326332442, 0.0261159512003301, 0.03557834811197155, 0.026948102932165978, -0.021472921372813404, 0.08509368491313712, 0.056195000079369326, 0.06067794033670205, 0.06077373280702562, 0.08031165478961272, -0.0228751585204724, -0.020710088403565956, -0.04430925049573468, -0.01943161085837959, 0.04311141690559119, 0.04497183995774548, 0.05198428549323833, 0.03930101593163831, -0.029273059351680876, 0.03083964502519202, 0.0062891526704416485, 0.0111637435770641, -0.004013520892479814, 0.030999270367535855, 0.05286113626348882, 0.1046359665319936, 0.010473683857802975, 0.07505649749566967, 0.044032996667775756, 0.0722615069758751, 0.008725026956773211, 0.01209446597864703, -0.022389633269602516, 0.044508493974740694, 0.01772128067932804, 0.03820756238157621, 0.005670469693282456, 0.04714854107044142, -0.04300731835876985, -0.008344718307345981, -0.002417437098688451, -0.011061322645283445, -0.04568646473062938, 0.03609338961099577, -0.02040966154214741, -0.031962350447108094, 0.05766273022071761, 0.035372729446724455, -0.013169152702843787, 0.011140715832427539, 0.03794392139037913, -0.010031303333762474, -0.04297882188783425, 0.020574927453524055, 0.08075793950077599, 0.08345508239225445, 0.003874653353912857, 0.008556128248438774, 0.02870404032623284, 0.03247009600595158, 0.04648029633162537, -0.00030896613896245394, -0.09051712478158437, 0.024751751777394797, 0.009659984181192287, -0.004173985791940085, 0.02762468175326237, -0.01860186684322896, 0.017898737544093133, 0.05651193793035068, -0.020897640881360324, 0.022323327937108707, 0.015078774972416777, 0.0021408107683660543, 0.05392344941343923, -0.03571220063020494, 0.028780242499053334, -0.005764201529384308, -0.033212135171008315, 0.002629062671935314, 0.01673521266508339, 0.06434462147842977, -0.026911950523106385, 0.04312220604915606, 0.010829175773601178, -0.028332406348655116, 0.008075368919278379, -0.009046009445478337, 0.007634848631312087, 0.04244326276783917, -0.006770746847490852, -0.008618845441707565, 0.032094537035628, -0.03941596286333541, -0.013543457420800816, -0.037082639242789095, 0.009556111716314937, 0.03375170729747521, 0.028971148863884702, 0.06373317685934526, 0.03901411212621688, -0.0007122726602605574, 0.0034050863976451485, 0.034971275199217326, 0.061371161439879765, 0.06097576258753848, 0.0370470597873137, 0.00526427050115499, 0.04347380907173847, 0.007466122011562501, 0.003683311751764422, 0.059020754669788504, -0.02288137322849578, -0.02045595269707567, 0.03256681550477053, 0.024851781331928276, 0.014410513656039237, 0.05841853633699833, 0.003201769057533944, 0.05457306373918219, 0.038139745834891874, 0.022718327759139244, 0.0675755829098772, 0.011099037492907061, 0.04378789731514362, 0.10167804075837326, -0.04444487509473314, 0.0132271674081285, 0.03493853617051767, 0.054071414958466756, 0.008329664489282827, 0.018152721318908834, 0.03448012266297075, -0.03720674337776443, 0.07140263905856961, 0.006918916753047498, -0.03570760128928741, 0.0425643666345963, 0.021305783667571635, 0.012779403795091418, 0.060816843699488476, 0.069057293464644, 0.08871965456451567, 0.04416489123568168, 0.01231599629177695, 0.03573411365229886, -0.03841070391263423, 0.008008781533865113, 0.07273190839931194, 0.06551873677444926, 0.05997006027426957, 0.015471599321559629, -0.03833585111984209, 0.0018908750207771122, -0.00455866213155981, 0.0075113044075565795, 0.0007353030178942125, 0.071670655509211, -0.02170992526054887, 0.05985747833032542, 0.02171537230875275, -0.003074592444303361, 0.01749142575531298, -0.0236617479117388, 0.06675055146901467, 0.009961780072558655, -0.030711182520067427, -0.003133157274947028, 0.019594621162632244, -0.009442177258030461, 0.055655173174455154, -0.013420817735210202, 0.00793030311109783, 0.07659237228331756], [-0.0002639521122877101, 0.03437670189978052, -0.08919687872371379, -0.06577334609965291, -0.05626599014123831, -0.0016968865916002858, -0.045084874135580315, -0.004530927900339956, 0.005246270938493174, -0.011584002007082053, -0.01141797061193314, -0.0949926243650218, -0.05851765827671909, -0.04104420797419161, -0.04976370280372046, -0.06909568947781407, -0.024827555623498743, -0.08037171008542524, 0.007030582186079615, 0.015902951100499486, -0.042155126944468414, 0.028753800695677824, -0.0032641930936381804, -0.054124481907993856, -0.06131499895570692, -0.010115598621763415, -0.0008155524469774417, -0.07739689253775715, 0.018238565089575994, -0.023853356674534604, -0.00490588031549099, -0.003043785849488421, -0.07737992630181864, -0.009553980054838242, -0.005867355404971458, -0.02694398135594802, -0.047666722804563084, -0.04172967597795759, -0.029077681765416627, -0.06056651541274442, -0.04111913052716679, -0.029740674296726173, -0.013395572391128204, 0.023380741333354958, -0.04702211206665494, -0.037086644268197064, 0.02201417358641049, -0.059616082060603696, -0.018538248215188395, -0.04888926043715176, -0.007310267464168966, -0.00572938849041994, -0.06370121629342924, -0.028316707536170972, -0.05994972294424416, -0.1097813176867359, -0.07263594550824189, -0.06734817329083484, -0.0878505920725359, 0.034321203383763016, -0.08640713800207976, 0.023630902236871316, -0.011131720308967518, -0.06537228486594399, -0.025250533550875785, -0.05613838597662875, -0.023662938290998446, -0.04226273860434968, -0.050425690625099016, 0.03158548819006148, 0.013617776908812683, -0.00409157160145013, -0.0006048029137265347, -0.018722777980579787, -0.03062162669404764, 0.016082166509947753, -0.022470647460816284, -0.036791100334170775, -0.018757170513412753, 0.011197693307863542, 0.0343806408336867, 0.05945837424885694, -0.06065502026445616, -0.03869361047155474, -0.024955276039823893, -0.05371878326206485, -0.029422186123825002, -0.03445345289142792, -0.018804071463133332, 0.0036324467489646487, -0.09005076820770297, -0.003948228184122293, -0.04189385482693026, -0.06514728835421578, 0.01677531214409637, 0.020340014584744014, -0.049082848363129906, -0.06743408257716234, -0.04495877076347696, 0.036400649243085476, -0.024900121310007295, -0.05419200432043246, -0.010855966201930573, -0.05247286750954351, -0.07261486022241805, 0.05962157203768496, 0.016891071821227073, -0.013627055526044601, 0.011345876642774694, -0.08280626973986328, -0.006817210620283735, -0.03696972998289809, -0.03417034714208386, -0.04182257833511439, -0.019162707946757104, 0.024496424720537698, 0.041338571893934355, -0.02421722527462021, -0.04721979239009608, 0.07734275293121051, 0.06199232906915749, 0.04797427812266849, -0.02792507798552878, -0.018705657923792328, -0.04777923428169352, -0.06478842079864289, -0.004780170922266376, -0.004448716228548512, 0.014394283497487701, 0.02253755018872072, -0.005869922113828866, -0.05991928794651528, -0.028077466831501533, -0.011645800118962941, -0.017664047187664934, -0.023587659390171063, -0.00611603445907577, -0.031159457068403253, -0.004758527576267988, -0.020815851802869854, -0.03239077981395009, -0.03799524189507656, 0.0015899517551146805, 0.0020807855739761465, 0.03078075093246916, -0.03514110194017176, -0.06011035129708753, 0.040546998007248876, -0.002369844506734436, -0.018390256255328703, 0.04258983325297532, -0.07142285706933642, -0.021705980446329137, 0.006774572815845678, 0.051760886886475115, -0.006577870557233379, -0.0023399341170658662, 0.01640729089495589, -0.06015149886032788, -0.04491724332642247, -0.07232035815587524, -0.08325677212207791, -0.025380259297992036, 0.07959908989917562, -0.06527304589592291, -0.06920150534897197, 0.02103394452259606, 0.014336723326495956, -0.0749907340244271, -0.024014961607582604, 0.015990714820642758, -0.04376410905791146, -0.04203851804182013, 0.01968373698018996, -0.08591532280789506, 0.0033223446834616385, -0.00799570722744631, -0.012764467413287165, -0.07960860483424755, -0.038087415753784964, -0.07275462075596277, -0.025546839890205147, -0.041746155410963146, -0.02629186431170042, -0.07704881764130232, -0.010981576456414363, -0.018676495375821844, -0.008363945436178962, -0.0017156151505576393, -0.036740507516069866, -0.04903885571217942, -0.026067542012218132, -0.044505305874178225, -0.10007659670165191, 0.02173232363389781, -0.03182023722507222, -0.02900207873645733, 0.003929435670104786, -0.018323458997336596, -0.03476381294481272, 0.013286145508137939, 0.0024867049058863886, 0.013436964585811598, -0.02775190552710161, 0.013191970322954187, 0.00659470844748954, -0.06271280023923309, -0.07696425674914706, -0.05387824358892807, -0.003700635051171475, -0.0590333965241164, -0.008797349050236719, -0.03711250869827146, -0.08115413461227933, -0.023336918639884477, -0.06249764777287339, 0.011053635572122671, 0.004897839881623718, -0.02960090899812975, -0.029860171927879427, 0.027647712586818186, -0.016797523286174166, -0.06121716160579378, -0.07318628642626337, -0.07483740435419198, -0.005523474988165417, -0.07726966924522204, -0.037452374974296564, 0.010051084228060937, -0.014469605426115889, -0.04043663112505105, -0.008416468647675307, -0.07505770465681322, -0.027454552742773163, -0.059645881976497936, -0.0080073182021512, -0.07576797402827241, -0.07888592518601314, -0.06368913014014156, 0.046994003157506375, 0.03174021403560968, -0.021410282966570195, -0.006842510723013147, -0.05212968795690972, -0.032443211687595896, -0.0387381237537964, -0.004200539159698266, 0.03306267220290794, -0.09931831841933506, -0.046937967795168636, 0.01816157759621768, -0.0653923412508024, -0.06775697445124541, -0.051668864205894345, -0.0471558743718054, -0.04422102086283608, -0.0026503138138842153, 0.012395877254377005, -0.06259012323672174, 0.0360662210607348, -0.011661612562714748, -0.028225445977027454, -0.041696120205406036, -0.016727389899025977, -0.026432103256727523, -0.006542873446003093, -0.012529174023433447, -0.012537141691065411, -0.020937773848287083, -0.007139930186103647, 0.023491989809422967, -0.0695974084412407, -0.01691913774226614, -0.035178182628938605, -0.06896996641896977, -0.04937869338309253, -0.07932796834538593, -0.006046575759159618, 0.00944608619711935, 0.02250496533192782, -0.03985579899071148, 0.018314431380398052, -0.017620589390020515, -0.033628599763604994, -0.005911530585376442, 0.021779343839266635, 0.03991731268190198, -0.025289453663806416, -0.03488929766071103, -0.01527438899565641, -0.030436505081402866, -0.018087237017736037, -0.027283679558992368, -0.026847999880849006, -0.054984064359513064, -0.04810758783357957, -0.07069614488823046, -0.01174109207838388, 0.030797376225438582, -0.013508294025234749, 0.05512579147126264, 0.027412101791354344, -0.008995621977178632, -0.10342583837555015, 0.005605445530901605, -0.041112497943896445, -0.07839110679543225, 0.029702187767553272, -0.03969430071953478, -0.04995586776650071, -0.01769025647008592, 0.05239959307822241, -0.0642715871244699, -0.01722153912624522, -0.028887393957156796, -0.02287595002505157, 0.06579309190618174, 0.01723775111028675, -0.032698747677535146, -0.0026205069824295955, -0.026566181704818784, -0.038399395344666576, 0.017015681159921043, -0.008687387710520382, 0.013671668757712729, 0.004487251189326172, 0.013964733551697278, -0.07462816365222864, -0.06671842116012452, -0.017325516069783203, -0.015065191898113912, 0.04377786849496498, -0.02947830297699497, -0.030932184995778936, -0.031950557747398294, -0.05169728470260854, -0.05063737010074494, 0.0007416069925842075, -0.036898467832886146, -0.05276620717773045, 0.0029939759765622463, -0.031139847469025286, 0.002197100346740531, -0.01575567679011622, -0.05069501053337404, -0.02968070795022264, -0.0030785880252997082, -0.023807113115597234, -0.13847768307112238, -0.02929498502972144, -0.06408368119606662, -0.022492173271978538, -0.05424507684420716, -0.0025018422218216823, -0.005200424401027534, 0.04088420935220766, 0.012815356645751314, -0.04857754631740006, -0.008499545915778449, 0.004602435414802085, 0.0507476038675699, -0.022058527912682795, -0.017151247603050583, -0.07110313772642057, -0.05463935126422189, 0.0004876469018193724, -0.004493361116749114, -0.0019213556842104372, -0.037345179212486104, -0.03726083435272211, -0.06606070681724897, -0.011196002453722985, -0.0473935516386845, -0.03992423098059019, -0.023897358068402576, -0.06838377429354087, 0.008411472048175017, 0.008672384454992686, -0.08250370650274831, 0.02695850065450735, -0.036098509653934026, -0.059781592101524575, -0.042736512047757705, -0.03372420775140483, -0.06859143956001457, -0.01943467584690476, -0.021143558653620515, -0.06074397510532095, -0.08557214794395852, -0.058601000663450496, 0.006013543697067817, -0.08920574533377701, 0.009883397351941846, 0.02014361664861126, -0.02444709370239374, 0.001859462846611736, -0.037319598909905355, -0.0030864083735363187, 0.02511091796910528, -0.02707057701644629, 0.012443126872482035, 0.019713490586534113, -0.04765350672323882, -0.12501714284982407, -0.04938804778362466, -0.050230437661641175, -0.006199567842353878, -0.005631278222371814, -0.02007184337555968, -0.022752332919030737, -0.006341819710038216, 0.04836386288226319, -0.0547701397946668, -0.03111173063770878, -0.025766314480800745, 0.0097922901960053, -0.11122392967332799, -0.07409014325323036, -0.03855374781247775, -0.013838359816913849, -0.08752136822241881, -0.036671066003260915, 0.07442680582896159, 0.0197575217612921, -0.02879347660865432, -0.031986471975157, -0.008604444797884098, -0.004832561727508346, -0.05548082403088611, 0.012968813194871998, 0.0405692585739992, -0.06616938614846272, -0.02130208562325331, -0.0169182213348049, 0.08142480511147074, 0.00567217327279532, -0.034183121485824974, -0.00657023999740218, -0.05451305920831287, -0.04684571033242706, -0.05669922297623723, -0.05136627211300486, -0.10180292592793783, -0.04204024400562488, -0.0035470053316511217, 0.01730061246645086, -0.04764315609585863, -0.04421231820381099, -0.046134793878046323, -0.002988501696836942, -0.02536719762032009, 0.04060208268267812, 0.053821709978171366, -0.003493333145942659, 0.01830530296952649, -0.03508091576548198, -0.030858048689849732, -0.008557752218616493, -0.006806990196051092, 0.017444966248506555, 0.011152811330096055, 0.013491832016469725, 0.010648062569851317, -0.017355503319613177, 0.0016762465492847305, -0.019428602756317047, -0.021056822687463936, -0.0017003462189548527, 0.029258541337208628, -0.04432414053569259, -0.0884167137755338, -0.0676194427938527, -0.05718207252827844, -0.0381565686419869, -0.08472625307721914, -0.06816185227250567, -0.05779250545809502, -0.06764566468311754, -0.05907227983149132, -0.014631603054553294, -0.032284377429509785, -0.015615708840268059, -0.029715667638496222, -0.03186522510777761, -0.04216282844357432, -0.03581634503547187, -0.07176279489201255, -0.0016863948590377152, 0.0345351734706516, -0.039318222990162854, -0.01816709200255585, -0.10009269912148216, -0.04245089518310057, -0.06479627946063812, -0.011878561660510972, -0.053155758306030206, 0.05356517562788342, -0.036710988773149426, -0.0363247089321718, -0.011453629114497398, -0.06046490483168364, -0.07355359904252676, -0.03560938508629438, -0.0693195862838016, -0.0808907887054783, 0.014540880487655785, -0.0952424876010272, -0.07130448865657697, 0.03551274050843599, 0.0125259467668449, -0.054511582881175115, 0.008502340314271334, -0.030346804986808855, -0.03723095570196997, -0.04528592764166278, -0.039020764664192555, -0.008994505185774392, -0.07081787829752241, 0.03200838888243401, -0.00354433227436332, -0.03169335834994395, 0.016516993876524045, -0.031132709912876335, -0.0778534667457416, 0.01633033069035856, -0.022477050447048792, -0.05901828725114154, -0.04082088205968175, -0.04728750783085156, -0.057087670441203366, -0.04105183917154727, -0.035206198275819306, -0.0248253756866554, -0.01318822527195712, -0.0209610358981338, 0.07038610332838945, -0.1092116885881521, 0.0036710722816826655, -0.023937628119158144, -0.04375459020433311, -0.046919583241359475, 0.015130198133060385, -0.06637205667966002, -0.038377168519538464, -0.03412165480548388, -0.03935936666800674, -0.00518186008462107, -0.013087796336883114, -0.028628957575315934, 0.01716264140950929, 0.0010449581903152233, -0.04674797181270175, 0.024947163384793504, -0.10706596030604863, -0.01817417334767803, -0.017305546551005593, -0.018332784466094966, -0.1121775207326914, -0.023727904464241778, -0.016061027357323458, -0.07940707479256802, -0.06333787933700671, -0.012143299612526304, -0.03761731987705865, 0.04756986589576742, 0.011641788778894022, -0.08488494981066108, -0.010693354170140211, -0.017230588962052016, -0.03267189284428731, 0.07286736827428243, -0.032720594428636056, -0.04032931952072325, 0.06890802585523802, -0.025602294283967434, -0.042607989975002016, -0.018692930204503463, -0.03837480302839343, -0.025281984737235873, -0.09456969349993613, -0.011572916685690328, -0.02349319078885827, -0.04532669436399327, -0.06824016327456474, -0.016894260199737863, -0.037167661696635754, -0.004555004235139302, -0.056771605569706673, 0.001572792160106882, -0.04985039508917453, 0.013061784224385996, 0.02849068269210772, -0.04134501277901684, -0.017703527369257597, 0.0021011557486128327, 0.007952748877666987, 0.029884904185980016, -0.09545126427612277, -0.032115418698256355, -0.004412391615402022, 0.006184219551330677, -0.04847209459351364, -0.04475335503969414, -0.003822406826123819, -0.02808746930289727, -0.05006549141213858, -0.015719978218921505, -0.012760049985980836, -0.10731217100539998, 0.0037486212254050537, 0.008608169985129713, -0.06472182096100633, -0.03354631818444478, -0.0452847880731251, -0.05583237882857116, -0.07406069944465303, 0.04921790874770692, -0.0009436248063904025, -0.042496898736446014, -0.01085917892260935, -0.012194003940282746, -0.032930708597611554, -0.06147423798354082, 0.031217859208716787, -0.0022754975133830093, -0.03771461917808611, -0.004138102541253514, -0.010525739046426558, -0.023196834714541602, -0.012788534286819642, 0.07075009172911234, -0.04099616355606809, -0.04544820288834608, 0.03603147871394649, 0.0933110621882059, -0.05197832321012707, -0.05865590628391736, -0.02479552266734885, -0.07229784048329256, -0.038183381794185955, -0.03376540965036759, -0.02598296621060173, -0.028100044642387835, -0.04845372136103134, 0.02763983055415876, 0.039251313884890136, -0.03405339685324902, -0.00016870557716431813, 0.027303652884249414, -0.03416911145370247, -0.020490689607607616, -0.004238315572501193, -0.04373914096849057, -0.000465557749664489, -0.1045771343219381, -0.057951221512579, -0.06726595668902713, 0.04438658336227169, -0.065899330477594, -0.011393247522668062, 0.02476950504923046, -0.013912411242934509, -0.0018997865651719796, -0.015802977888239735, 0.04247413699104983, -0.05326664282804433, -0.03248416660786883, 0.03428180173869941, -0.06388648885685148, -0.03921106320857103, -0.08677209932201321, -0.04473916250159317, -0.014296333176663928, -0.04018687502738908, -0.029761446861759144, -0.013865883877741021, -0.02928557566790821, 0.0717673691641587, -0.033812585506152355, -0.018886627568597023, -0.07697264048006082, 0.014311675032799016, -0.025827136693170213, -0.07026511634096784, -0.04525484075829998, -0.0726017319932558, -0.0026527970260991633, -0.0048909919194918055, -0.10341053004176341, 0.014081142762108345, -0.036279300494107505, -0.045067300786339956, -0.04116096248886764, -0.04787965181283111, -0.06297584803671924, 0.010607103895867687, 0.005354156553386172, -0.006266090513234308, 0.02247742861392449, -0.02139111867174629, 0.04027952942525297, 0.054836810154778697, -0.0443207172526396, 0.00632783613816099, 0.034957486699303576, 0.00022899284384855125, 0.04389589068697578, -0.00623982433901301, -0.0747191799439751, -0.034431015044147036, -0.1042636399906771, -0.008881539114051469, 0.038687447560952055, -0.05357047504505235, -0.08903176011370519, -0.032618045306349396, 0.0030378306744073633, -0.08460345482518321, -0.04301059901414236, -0.028116219285879724, -0.041747336767476814, -0.020567311328227783, -0.08389713005008986, -0.06302261030563963, -0.06362962316866036, 8.909788430268359e-05, 0.027558202840439163, 0.013383937787421927, 0.006052645760631813, -0.058012062540181854, -0.05444907785728818, -0.0672313237500787, -0.010670519450437574, 0.006240474813555206, -0.04402066890510448, -0.03379852204283128, -0.02965569767949486, -0.031584181547824386, -0.06556030865323852, -0.037741363045695885, -0.04057593390927977, -0.025095502709086358, -0.024358468394094824, -0.029773032940029302, 0.07467773687289002, -0.006946250230177792, 0.016387634507550774, 0.009768904040949026, -0.026852660479145956, -0.05367106722178833, 0.03319488010528624, 0.007898242772497599, -0.09413810192617567, 0.014964967184919185, -0.007716462999617017, -0.04713143333356697, -0.03740237264129927, -0.08492275627262806, -0.04405062165315104, -0.07615104057024781, -4.558293312907339e-05, -0.06668511057679016, -0.00833809787742692, 0.015655386653555165, 0.03833381331612896, -0.03903569908579276, 0.0033652523284979094, -0.05172410927590177, -0.0290594802207457, 0.006041804493654327, -0.061151260625209744, -0.09728130303344858, -0.08438673429702069, -0.03201257519175888, -0.031729258115106365, 0.001277032077178376, 0.0012233873287778466, -0.05345248362370527, -0.014653295749440139, 0.001484931311702269, -0.0007691780707749022, -0.06282072908182317, 0.019892713039807202, 0.014931747377007578], [-0.11256098785461774, -0.09438991079869768, -0.11703659506994547, -0.027580475761356686, -0.1099521802047328, -0.09925002295630823, -0.1172507714616984, -0.07902041499490485, -0.0015103538203850198, -0.0727924761550185, -0.06699235013453675, -0.06965912935904064, -0.03889143734217111, -0.16478655793568955, -0.07913339780307344, -0.0488345998349741, -0.06278977037142512, -0.06769071471781991, -0.04991214671433275, -0.09231238873426888, -0.08841736548773943, -0.025959791398754692, -0.021644276680300778, -0.09323300989180766, -0.10198240871613827, -0.04556754786538117, -0.10610851720721959, -0.06489507282394628, -0.10711055651721696, -0.14720191128556545, -0.05226921464262143, -0.06089744250564882, -0.10633428094382182, -0.08836771252819141, -0.07501049195417085, -0.06915414481098645, -0.041580934346296436, -0.08105549496643835, -0.0441431012354346, -0.06799937879725831, -0.03511378200517569, -0.07608618205425306, -0.01867906237976149, -0.11569465623478595, -0.09438131894066733, -0.07886842715517865, -0.032430164376108954, -0.10245873150686644, -0.07065920406580542, -0.050799632777174884, -0.12199377986693594, -0.08778878784340344, -0.006033536418405434, -0.11889843966653676, -0.1104014447473709, -0.012792983383430136, -0.10205645900045275, -0.14425025988706944, -0.057951912723299505, -0.07931560493630178, -0.1309647854386824, -0.021452898998977565, -0.02373234618079933, -0.00039966006676374946, -0.09145895322685817, -0.008912268614202344, -0.058186484521058915, -0.14030162004825905, -0.04716938281433481, -0.09919148587938256, 0.001883381828788123, -0.0631728501278787, 0.011621000966045498, -0.05227881270422644, -0.07301446496518794, 0.001608023169878099, -0.09334576405636306, -0.06825916769663166, -0.061948304854324884, -0.07302744427102752, -0.08174306660502247, -0.0426020894453009, -0.07885158202562412, -0.0218717009063698, -0.10447504220681084, -0.10708847895719256, -0.04317598669839689, -0.05729289431505295, -0.1027787550112664, -0.04877290103107691, -0.09927640782898077, -0.05996529569404339, -0.006657825227061022, -0.0912246976210432, -0.04596423637739704, -0.04123402300926542, -0.07234506118512321, -0.07934370851623032, -0.09278928492359398, -0.07652809923094528, -0.0983645379787853, 0.001147344969665882, -0.08314648833558275, -0.10145617346485067, -0.1063205661767401, -0.03707880358301552, -0.017868637814422703, -0.0661346353088294, -0.12211655754335861, -0.08156611791861318, -0.11769067685321487, -0.07391837350286011, -0.06622736365330989, -0.09590522400334306, -0.0748944234134948, -0.08448575647705123, -0.1006155380643008, -0.0689539873453848, -0.09280978047583091, -0.02546700448990962, -0.07745959720042549, -0.04597122046186541, -0.05198661913586342, -0.018633345992886328, -0.03684009870842871, -0.0898627293328792, -0.07134001300448561, -0.079734653218715, -0.0005608476374176194, -0.11921502345922359, -0.07654552892330391, -0.09397477788010744, -0.0713691014682216, -0.09927789065466593, -0.07927913787628925, -0.08649979117998953, -0.004990114714888862, -0.07392391065723206, -0.05220326674697093, -0.03895689907790998, -0.10330201976268313, -0.08383175744140495, -0.11513681501862597, -0.04593680389745498, -0.058321520086567616, -0.07892367426309575, -0.05518969967059045, -0.0381432048393908, -0.06826456294458572, -0.04220559820446964, -0.02296935657504251, -0.11476812471162436, -0.06879181950259323, -0.14635541089314963, -0.03535068812924705, -0.01608853006882403, 0.01283346362783199, -0.18370171012000755, -0.05833007309969832, -0.037434043540941264, -0.14781847125648506, -0.10684296192959973, -0.06758702990493262, -0.03098939034389915, -0.06261325031201889, -0.07029522164432675, -0.0963718944164079, -0.034471733741342804, -0.10453935274169933, -0.0745050459967954, -0.06630349529621685, -0.0661223714108634, -0.08651049531720267, -0.05689446920509299, -0.004671137301613107, -0.08138301710633555, -0.06248247699165063, -0.10918309409096809, -0.0800707402895342, 0.015298083814596951, -0.001941621987773419, -0.01565503290328818, -0.05908047158924141, -0.09828439959921637, -0.10596656523869964, -0.06315433103780398, -0.10093975630935544, -0.0609494913194222, -0.049277122786282726, -0.08888250265482375, -0.07913207390815394, -0.021074720085186936, -0.033172109267997706, -0.05985787191692296, -0.05175103874072349, -0.043634508218683116, -0.090679233386579, -0.043488629268076534, -0.0949150350231629, -0.05622083475453778, -0.0811538744125789, -0.12024112164917089, -0.025869253446526144, -0.10243957600981525, -0.0838991386168745, -0.0634393046556794, -0.07536055417017753, -0.008108058819272684, -0.10112557913694932, -0.07648277927810401, -0.06918017526226465, -0.031054811578208233, -0.030895410050204988, -0.08861912605841493, -0.08986212578683363, -0.11476491015316405, -0.07676988962442928, -0.017401482035760342, -0.06618257420190381, -0.002679643936345496, -0.03081038766044741, -0.12789629763711777, -0.061383985076553786, -0.0465972976814553, -0.13038916646993257, -0.13082396254844222, -0.06547624317832154, -0.06288535871868528, -0.055862984058020676, -0.046958118045401204, -0.10194880194732255, -0.017449045642620398, -0.06606991475732367, -0.09596744274656496, -0.04904380703477991, -0.05009116030642651, -0.07355563017662926, -0.02948509000055686, -0.09627349735114005, -0.07611289487446196, -0.01814019795628428, -0.061818251121830474, -0.07420874813405562, -0.08247940952739201, -0.05513689365526858, 0.01271118948402076, -0.0756057163757629, -0.04924580837560553, -0.049220984643002466, -0.11509477713302607, -0.030600333489320425, -0.10937417028512858, -0.08379958814487475, -0.09526741012950955, -0.08641043029740757, -0.12745521079265976, -0.06216063561352984, -0.10299678717604378, 0.003385695570773828, -0.09431381981678232, -0.043023925360546236, -0.044271939899300596, -0.05630433347182401, -0.04769918644632116, -0.08342852417597224, -0.05554739408862584, -0.03671871839267187, -0.0702491899532237, -0.03969020213403914, -0.054569041748970724, -0.06851376395752327, -0.09926654496774479, -0.021049309739467628, -0.12628190882447482, -0.07229168397024627, -0.09097136355848877, -0.042902723859734114, -0.08222609092979592, -0.034628562794293875, -0.10669315749905647, -0.01866536511488301, -0.14379948969446316, -0.09170545393400406, -0.07100505470706019, -0.07269877246108385, -0.03993185928441428, -0.05029231276227892, -0.030317068145760087, -0.0776288598529899, -0.07412891677878125, -0.030381693732076557, -0.028558112930939236, -0.08310341606650716, -0.07308735014288673, -0.10166737162923514, -0.12162747039008663, -0.08467129910647271, -0.13037008307063322, -0.08364537232015254, -0.07328959959027671, -0.1171906811027239, -0.03411904428744102, -0.03273249971528232, -0.0396163593386965, -0.09084479079695457, -0.1313219751946007, -0.05471416851471803, -0.11031074448589002, -0.10617370781446488, -0.05676040016199611, -0.029729013048784822, -0.10030680470388377, -0.045041261689418056, -0.09950553612650002, -0.029673515054736033, -0.009462990836196266, -0.0706377345672999, -0.04470744226974923, -0.024777808207120583, -0.06557700614756375, -0.04627309505158758, -0.01969981914803074, -0.061391315676406814, -0.05055539545022423, -0.08184218704965883, -0.0856111866669198, -0.017315073294550457, -0.09155140827327272, -0.11094452243941406, -0.03098632935976352, -0.04055001541861739, -0.03284467686869008, -0.072842492764735, -0.003978740753662306, -0.09552552480741644, -0.05976328680487722, -0.08722139981243361, -0.1145927214089223, -0.021477045202691985, 0.008635290250767412, -0.04523532722839031, -0.035444883872497744, -0.06795884960363421, -0.08250257345090563, -0.03718416187355882, -0.05426759158199633, -0.07987364431255282, -0.08906282786084814, -0.06774629159227871, -0.008224577304864028, -0.044317615304541, -0.1006625433832584, -0.07175616911740668, -0.03434956207592652, -0.09028108734649155, -0.05162111287905463, -0.10026191792308152, -0.04673165612938596, -0.12762048168241283, -0.048585792144231525, -0.0997556601345671, -0.10245628965634665, -0.08573360342532954, -0.09481528075607396, -0.0929784883692071, -0.08262063773875668, -0.06687149707004644, -0.026020577813394268, -0.0826496328728121, -0.026196691027704843, -0.03593531702496037, -0.07652401996652698, -0.06427185785662794, -0.05012345724822856, -0.06079794270227431, -0.10089426340902827, -0.007064998838507314, 0.0027499564656881716, -0.009746394778196624, 0.03599753299919377, -0.08313214409627077, -0.0850660632792648, -0.041318318342215124, -0.07826912928770885, -0.029737927644927026, -0.015955665997266773, -0.011767685947074225, -0.07875131732686634, -0.12164050824127562, -0.07489569129633025, -0.08942216111906993, -0.025107168967274485, -0.1055627193788301, -0.05597667959995615, -0.07527879295179972, -0.04478719749482664, -0.10055211033037292, -0.026822208242079856, -0.03627419927956328, -0.04296304911875554, -0.08699149043849398, -0.054753433290179905, 0.00700004993887322, -0.008620600019243974, 0.007225845335856909, -0.01436477136834596, -0.07908750350976526, -0.06939037341739865, -0.058116093396925805, -0.049664803093880106, -0.03321103399505394, -0.05994818130346091, -0.09883441492552929, -0.04709751941629691, -0.09716516904081034, -0.03700517015809596, -0.09795851436541937, -0.03958571349311437, -0.03199600813223867, -0.12762437512046104, -0.06112252450864556, -0.09208750227775968, -0.08268346621235466, -0.05770510252718198, -0.031200697731467133, -0.07032724561493378, -0.08530101512541037, -0.055032520545290876, -0.06376517521301305, -0.05925801808395262, -0.07730595376738778, -0.0828482221832645, -0.06295041181601277, -0.1084166957989686, -0.12523199977007157, 0.020696273947483225, -0.0561317448794073, -0.07792081373548614, -0.08835802322917068, -0.011173893152906818, -0.058162032934512, -0.036441909751553675, -0.11407993545978547, -0.07165858659294216, -0.029568597915163353, -0.1076960426468893, -0.05811656457076945, -0.055965973113915435, -0.112454698212334, -0.1034064698645138, -0.019536100755172637, -0.03467110726002672, 0.014585131405978589, -0.12203305461344786, -0.10704625024057449, -0.013673909507789283, -0.012769063509802153, -0.045566030579866044, -0.09176002657440796, -0.0017803551075183995, -0.0646211290647353, -0.03603086464179248, -0.0977890588526363, -0.1178661179349669, -0.07002718340469267, 0.001250691388130726, -0.07867113790619305, -0.09342101360980201, -0.1118234066516899, -0.06499890256863819, -0.03897039046038306, -0.06980014824850074, -0.08282013355360926, -0.15702845559911055, -0.06531091142837284, -0.05190754932015431, -0.060037524870617205, -0.029199206223283244, -0.056450602008527334, -0.02999426530373695, -0.059557730174806714, -0.08603210136686126, -0.09396930740992965, -0.034870116376610576, -0.10661227222197908, -0.06933572020626484, -0.08883121442307548, -0.07241630411475301, -0.08744385211547957, -0.047323846227292875, -0.010832492018983987, -0.1189164818880882, -0.1364602710845434, -0.017052693979527137, -0.10815235606359487, -0.06303256740586297, -0.0839471079775998, -0.0539842638766906, -0.045776953500672436, -0.08185769795160648, 0.010737787912568303, -0.09053496832311286, -0.11973612919217473, -0.13291456547336555, -0.0983044355035323, -0.031883646664498125, -0.042358512655624556, -0.012924957090718659, -0.064771670635281, -0.050512596684917144, 0.008553212917980692, -0.07691876231641848, -0.06997294757207481, -0.08111122858020615, -0.061707990779832085, -0.14313384911378013, -0.017859618067178496, -0.024295345778191597, -0.09551458195032334, -0.03992153035427819, -0.06797757929955081, -0.03749454290953887, -0.08600854768571128, -0.10054481926765294, -0.06649640872115391, -0.09102785450873697, -0.0650271504475124, -0.10899456832230331, -0.08514781771935957, -0.07697033142416833, -0.0524174542390378, -0.09166003845030084, -0.08150315220351638, -0.024768411107454417, 0.026576496561155037, -0.04151633088832983, -0.012897444866101004, -0.006517469893927735, -0.0717599066934945, -0.013667093794030267, -0.06940703746873278, -0.054663583693248016, -0.09931626218791938, -0.09172528507739433, -0.06462635519546334, -0.0381011068537909, -0.06651680467996579, -0.10019499008393008, -0.07863462240955914, -0.05574977232958222, -0.015396057257217622, -0.07518741058049275, -0.1414899149479534, -0.07198169448755265, -0.008886343311092466, -0.06891839656412015, -0.12395884316920505, -0.06345037581470864, -0.09167184249458428, -0.12684721094513646, -0.04847918017467267, -0.046257907998450296, -0.05436741074593752, -0.011306589026673605, 0.019833351701387624, -0.03745946516236801, -0.052767880030872384, -0.10423867300237707, -0.041011334554266206, -0.010190732134178619, -0.09225664931540559, -0.07590435905324174, -0.045598087629381376, -0.006954463919665055, -0.09409925486245392, -0.028664675129890665, -0.07682196605541144, -0.04900541858174446, -0.08823120884143754, -0.06546405942405407, 0.005686318174923861, -0.11799685904008876, -0.11737832058247064, -0.0797914406172483, -0.10765182605391939, -0.07726296225735642, -0.1585661314898983, -0.15557583652665571, -0.15131610743263554, -0.10187357916107029, -0.08426284422390048, -0.07572137027446683, -0.04425619089001616, -0.03606896033076017, -0.03745800603174067, -0.03791409795288478, -0.08886097515336423, -0.14560052937987292, -0.08682939142912856, -0.14606728136043995, -0.014992565692479332, -0.07857048214482203, -0.06042535546866118, -0.03459570882111315, -0.051731853272297824, -0.09802574376693968, -0.00821420609595109, -0.04167856889820724, -0.060599948856494563, -0.1041611876204926, -0.06185096093313314, -0.1050754426091576, -0.07567418993767365, -0.08204034236195747, -0.12456131579615451, -0.12228047156756962, -0.07799024805030215, -0.059918769634110615, -0.021408891019963388, -0.017210663215010826, 0.011342585382953128, -0.03835942159780729, -0.03631246017700241, -0.05917579065416015, -0.08976259752354569, -0.11907185901945003, -0.08548853324204274, -0.060613657864903664, -0.06695892735333775, -0.080720699828593, -0.1245066135024913, -0.1630019790364567, -0.13317270204361184, -0.11917021695574868, 