{"layers": [784, 100, 52], "cost": "CrossEntropyCost", "weights": [[[-0.03158889698256815, 0.012326913541318665, -0.023820624832234294, -0.0096919201168422, 0.03381704040079074, 0.016796950236584257, 0.006390426143417433, -0.029324420524726513, -0.07348576490937887, -0.012851309215059867, -0.06390454691659433, -0.001825631337708702, -0.05713175764729442, 0.013305491180968748, -0.0013690366546285286, -0.03899399552973632, -0.06620463765655675, -0.020446009668675432, -0.023058778567927384, -0.08343166014264985, -0.008216018117724455, 0.005271584298598349, -0.03324301480980264, -0.12464366222495074, -0.1342327017722651, -0.09060891214517601, -0.010020942972229746, 0.07355701534286412, -0.03162920597431471, -0.040673781370300297, -0.08237788011550715, -0.027218228832889494, -0.0547472950535301, -0.06161973225872066, -0.05027975453749558, -0.02047001225151348, -0.05961722632483183, -0.10416552406844064, -0.11395970182523942, -0.0832895746966549, -0.08423339575770049, -0.07083847687490752, -0.08020168552337426, -0.061023552117142034, -0.06479823921412337, -0.0903845052289976, -0.11728588393761005, -0.10980451002080936, -0.1884223815276805, -0.21884785437629034, -0.16470549603215295, -0.23580164834098816, -0.2482542336525263, -0.12712466258568178, 0.009757926801744385, 0.04330006787765829, -0.019005332298475713, -0.0021465937768506403, -0.056286438777421184, -0.014943867547213975, -0.07746316475618031, -0.08559809753710149, -0.14173415396360023, -0.1922316798388441, -0.0970864341844795, -0.1748685552021193, -0.13615505024024516, -0.08155501790778179, -0.10734608238995495, -0.07746308437319785, -0.1806331675553865, -0.16949829268558295, -0.17936137096795346, -0.188118688840746, -0.2121416321078667, -0.19678962696724434, -0.17259711358503693, -0.2660485124193698, -0.19278897295129196, -0.16337001157150954, -0.15146339078606105, -0.14672240435380116, -0.03553412208964082, -0.016518871174152915, -0.005224539347004699, -0.0983130173590165, 0.012173672803805621, -0.054547806289888964, -0.0026182911456910482, -0.04198792096014602, -0.08091577981530426, -0.0999790492362989, -0.1268387203185541, -0.0798826931190002, -0.11387192946949767, -0.07996071523599116, -0.1439861371706555, -0.09169183231721736, -0.09771569963487818, -0.1680303151780009, -0.15775874572801696, -0.17291976651388272, -0.1434189810617098, -0.11015721866662251, -0.20332494229350506, -0.11378951794156557, -0.12033493489597628, -0.14407458432876422, -0.08171183169912849, -0.06494616019894803, -0.011036441307006619, -0.05319363373781928, -0.03907984076193611, -0.11746603355695216, -0.09510310566149036, 0.007390864803637879, -0.0610427595929213, -0.01020224783892987, -0.08240952483492267, -0.04602294046558015, -0.09189962328878513, -0.05269960049621535, -0.057717309553180586, -0.07759866916853395, -0.040578697057654885, -0.034335957000362176, -0.05342392833441828, -0.10266906244195978, -0.14023585168925332, -0.07679781687302167, -0.1391979757119274, -0.1336989681326555, -0.09458962535747938, -0.0905764898613748, -0.1868400657210534, -0.1294690572567586, 0.005352544702378793, 0.05117093158893088, -0.0632414187332856, -0.051261912077227786, -0.0106881233441449, -0.06710987931818889, -0.05499628439411711, -0.045259708711216824, -0.014180607733658023, 0.002975428597700225, 0.015185585405555901, 0.009242626506990335, -0.03364632282270124, -0.049596867414211696, 0.004685853418534511, 0.021857749623044403, 0.06380800225309113, -0.009061906094172666, -0.007455841886314522, -0.09289449607796745, -0.11355275042486994, -0.03911084973694221, -0.13706380621062766, -0.00978973685826469, -0.11976873976740414, -0.1290480241925916, -0.13602556921806688, -0.024771191170717334, 0.008487861191006174, -0.04215470729228382, -0.06266476742631434, -0.12185521859383273, -0.024380777275770756, -0.10637184474491354, -0.003948530279850063, -0.00939545772103353, 0.0007848855233356936, -0.016661460699342916, -0.0054509646483020995, -0.09280910546576349, -0.045078268841896176, 0.033858781943581766, -0.03385807281334489, -0.057767382671572436, 0.03922776689752751, 0.0006764226835980858, 0.009374949548664985, 0.019624903698292607, -0.05283381822438017, -0.08353908967235271, -0.07077456115879016, -0.0639063984222274, -0.016084061155061526, -0.09531272987368568, -0.051696412685434213, -0.0140136505933176, 0.038139396601836906, -0.06162416114550717, -0.1279874658822147, -0.1978841178314635, 0.022099680737039152, -0.09005350682404725, -0.045957425895693765, -0.03679711137220364, 0.004778271090448885, 0.007374638821443479, 0.05634543833620746, 0.031066841135914805, 0.0035428932056311997, -0.05466264042402666, 0.012254701743325077, -0.045648413283530045, 0.034721926473119794, -0.055087205021789085, 0.025625586087413887, -0.0746437453375399, -0.06455156738323917, -0.017015560494038705, -0.04759874240138858, -0.1120655413788849, -0.08428988691849114, -0.07680010075454917, -0.03584247708958596, -0.05111844509622654, -0.0651054108920556, -0.13736766206512516, -0.10826888670347454, -0.10288404197517333, 0.049091928515261306, -0.005785091066902895, 0.058403520990210726, 0.05583001598542393, 0.037021716546114886, 0.025726160349803705, -0.037073894587872684, 0.014184225527015672, 0.03567138702770757, -0.05381583215892972, -0.03638928297817721, -0.015045833577418885, -0.00657740571743649, 0.06650476801600419, -0.0340536176453243, 0.04714022072555077, 0.02942730897701014, -0.0025359947305436756, -0.10958368286560093, -0.043415974457274034, -0.0594600354944181, -0.11588313140861987, -0.04080781506943893, -0.07736150927198719, -0.04065165261116784, -0.11870357484406929, -0.085115648922813, -0.12494043821754591, 0.01056491126574346, 0.042111519571691305, -0.01459998338382467, 0.057790607069245596, 0.010384670754199882, 0.030671705796983827, 0.00047761268290631947, -0.0024975103269438896, 0.0809537864419073, 0.0716646888645376, -0.10075884718967677, -0.08759180829790048, 0.0024178604984066727, 0.04396813932200413, 0.015622168049953663, 0.02251441436722495, 0.04107030149159095, -0.05330190476692316, -0.008530643738341963, -0.11850872766011547, -0.07693248056635692, -0.13705249355747562, -0.06248548226604683, -0.02933654658520163, -0.05901658711803522, -0.04012735058527721, -0.07167485531941789, -0.031191764351577778, 0.016609536073186146, 0.0022814682145277897, 0.022471001523861993, 0.060382934872370064, 0.0286721926332834, 0.02022548317447822, 0.08177341857733691, 0.04706499354055801, -0.058740492075248785, -0.03648909291933195, -0.025144727188812853, 0.005902960457960199, 0.03870826146736463, 0.11135198449962375, -0.01896777052680928, -0.02735270829556668, -0.01595658371757809, -0.028516263718647752, -0.024150379709406606, -0.03252527228026421, 0.038601343362539516, 0.05664589023717787, 0.010845777177556873, 0.02016993046380535, -0.06126525208963741, -0.05352371455548364, -0.05140616467362017, -0.004377249193296247, 0.060082271755081754, 0.0236219191569476, 0.0007696796801593236, -0.00033457199772252003, 0.05844445478982745, 0.06972254452347998, 0.11292036283967447, -0.011353228053116653, -0.027349556835419023, -0.0154185784332117, -0.04837718809949525, -0.015742549789873005, 0.010869917503806704, -0.06863490881105498, -0.017978085244483237, -0.02257528321178954, -0.02482098915822786, 0.00668880319059919, 0.04720693438338802, -0.01566587934896369, 0.09275045159187364, 0.03622462128168768, -0.057204459050936456, 0.0025473558614591612, 0.009623240645251937, 0.04354895745498847, -0.014852302703141917, 0.08077698965768322, -0.0035131878597892486, -0.008680619671267655, -0.025517979877598435, -0.011869362252758689, -0.05378766072880365, 0.005873748366261478, 0.12879973315660048, -0.006237290614374355, -0.07442864232995305, -0.05512607962498557, -0.13837806139040168, -0.012322039811131972, -0.13123237703439808, -0.053070809586955224, -0.020033846349187506, -0.07383762579688187, 0.02982504069022985, 0.04186597974423005, 0.08007762016887333, 0.1497500228132539, 0.09984922984716638, 0.044504296019922285, 0.09367577322040867, 0.07070664509431104, 0.04707249701641474, 0.09022523023400904, 0.07262439168289972, 0.09063477570048506, -0.007101549778624341, -0.04342425483225952, -0.05833243284721736, -0.014706585716561435, -0.0510402428784699, 0.04921722370308397, 0.046742284062633324, 0.007440047436062407, -0.038533487788148246, -0.0495383430520332, -0.09335453817456428, -0.08869482141141125, -0.05335406394048182, -0.020648851260259508, -0.0036483440978620214, -0.01895800034183836, -0.06926331752878502, 0.015710925050583954, 0.07851429308813357, 0.09456955710169239, 0.015443421282524464, 0.09412041059761372, 0.040738045185237375, 0.11696135003923565, 0.08588034073236914, 0.08479027713083687, 0.050708591504844615, 0.08954733787820766, -0.007209075572677271, 0.035909675186430054, -0.06983862889044594, -0.010834967530971908, -0.08894781018680463, -0.04469441236646677, 0.0714084743993614, -0.0010426441210456103, -0.06819175877391853, 0.006302512576934133, -0.0642358386763438, -0.062241127963171425, -0.08405498360674034, -0.04050352506289922, -0.024228463198059578, -0.039549713447262116, 0.0024409222342470873, 0.06722887902648254, 0.1329808720233349, 0.07289249322530714, 0.07361748838386897, 0.09837864121104016, 0.12014953269124258, 0.12468210202585464, 0.025102014358824212, 0.10691819270403259, 0.08886457160204492, 0.0962247213907604, 0.016600258650828266, 0.010699403200726175, -0.13761042090708026, -0.16039474938777645, -0.13554192241674898, -0.02712772955208674, 0.03321400620287948, -0.024757517570076316, -0.0700294159995243, -0.05007700201611376, -0.02778106617264881, -0.010140521105591611, -0.06390776843628158, -0.059339012948742074, -0.006130471659429787, -0.010678932709627864, 0.017495348199016953, 0.1535308050405867, 0.06881106645241708, 0.07890888956357917, 0.1456967987566467, 0.17453054599157214, 0.12019387817914798, 0.15837352206063715, 0.14407795367696644, 0.08262313442242197, 0.08121955678184757, 0.05811779599787701, 0.021379757616424803, 0.02537131406466514, -0.1451442922420981, -0.13017974411048097, -0.19391285999609334, -0.045732097596275466, -0.041001479417436155, -0.047794544928432166, -0.07427904158091854, 0.035534402068079216, 0.02738789882176671, -0.02334211371878537, 0.004487441169401159, -0.004145841968493181, 0.07643847545571862, 0.12791621801867048, 0.18003889781045548, 0.13424823995714763, 0.1343005282650882, 0.24026187137256869, 0.21347509055217637, 0.1190577253541412, 0.16298057694983248, 0.17386118146130303, 0.08988494546444535, 0.07680232480007698, 0.0187227530445203, 0.07118762066804912, 0.01351160504483107, 0.029223983954838658, 0.01898708737228345, -0.146194718020165, -0.1311652321449941, -0.12025596091580044, -0.03588626234923488, -0.020814519060033978, 0.036709137270751376, 0.037103892548812634, -0.02556186821461466, -0.007239215420742911, -0.048714314323513454, 0.08367507313764584, 0.051110039944708155, 0.1520171857529756, 0.20983402994011555, 0.1553230106275278, 0.22168729014469218, 0.24655143289905646, 0.1937092191551847, 0.17027167841016275, 0.15801432110012065, 0.09805787685803072, 0.13930710187071635, 0.04693958893350741, 0.009687447927465646, -0.012785590283399746, 0.0007086944175743953, -0.029446408998891057, -0.019561303045074207, -0.13539099189840376, -0.18225120379519996, -0.1276910337875017, -0.009594526853671, 0.007039869122979599, -0.03483111312209805, 0.0633727728623955, 0.05732015281739627, -0.0021389893042272922, -0.010263730376365285, 0.040142908448770435, 0.10744806280111834, 0.17126509308665383, 0.228503452755445, 0.28025140235018525, 0.24418478050422185, 0.1309578317868502, 0.2003832531546021, 0.1370138260991504, 0.12942930894581034, 0.1314958156512709, 0.019744505902656268, 0.02523722789039959, 0.0068684976124615315, -0.10109611961203138, 0.0688982293515366, -0.08681421192213469, 0.011369192999556119, -0.12399123597754884, -0.0912091593499386, -0.03695101218518938, -0.035009913097721, 0.013212808139753488, -0.04358956594681722, 0.027215378697820806, 0.008689279770702439, -0.02819738261578572, 0.0641237016786551, 0.12906624273417427, 0.14908792480857727, 0.20678075872430207, 0.19951676299951118, 0.17903568050742813, 0.15566886403023988, 0.11474624424139175, 0.10449535690251308, 0.09961104436443934, 0.04848544023205309, 0.07629789004538651, 0.046822149845580543, -0.01615722329745408, -0.048761185622813806, -0.07796035153815514, -0.08278956685223675, -0.0191348296289855, -0.08118902061905896, -0.11701714788048903, -0.10437261671024572, -0.019703267189619626, 0.04059984789501122, -0.01891609187130341, -0.044750160825358244, -0.02779511325920968, -0.01569739814783137, 0.08384060679781714, 0.08014204679737881, 0.14845462756400388, 0.18651119984570716, 0.12688155768467904, 0.14337587822389883, 0.11398332056464164, 0.08113957993344194, 0.05391914164790421, 0.10690519868583677, 0.022578423049938096, 0.06368180387923188, 0.051299651123755625, -0.052089845851760914, -0.008017334844809628, -0.05243921986896804, -0.019314263404507693, -0.03237515468815311, 0.007450405420275986, -0.10547649470475441, -0.20411834515487104, -0.11564175907514362, -0.058091737465849225, -0.05297815518240963, -0.09822671149714526, 0.013731155258289681, 0.004333151425287098, -0.004382463749940316, 0.08863494267010506, 0.11206774298176864, 0.09479589329965726, 0.14723671871719984, 0.16980593744765576, 0.156065989295314, 0.07490669715685987, 0.0693280163350598, 0.03767079663722664, 0.08777503646676513, -0.0014977750477875073, 0.005572381607266537, 0.015568811566086423, -0.02297649832031221, -0.09443456497255104, -0.05286600604125531, -0.03056555870990281, 0.013902853484394543, -0.05614474973456248, -0.08677200981555831, -0.18255604271309858, -0.08502634318117105, -0.11077538425740183, -0.02749527147984103, -0.045798984931526, -0.13677169810442752, 0.03786642344637353, 0.14167802101807564, 0.17926680503828465, 0.13640232677063008, 0.14721620298643331, 0.053985055229021466, 0.0351479478679148, 0.11379754880145367, 0.02420153730295224, 0.024763156861298617, 0.030417800124655923, -0.03000958576412703, 0.051411307423239384, -0.02895801272119467, 0.006586301844377801, 0.041094317038484915, -0.07877214463900913, -0.017736962318285435, -0.044310851351187, 0.028397902753826754, -0.034863843213782546, -0.14401120900579556, -0.15969430715538965, -0.057285859581202234, -0.07230139515589014, -0.05344360018634508, -0.089906110901105, -0.05630140349206182, -0.05029487896483227, 0.057547391674788985, 0.17226760292066132, 0.19886150865394756, 0.18458692231956633, 0.1277785477676374, 0.11837533483144476, 0.07104183622747821, 0.08090088010618039, 0.06237739617156074, 0.025725504046037302, -0.00624310935972488, 0.03842842848880512, -0.014631884901969028, -0.02410837320790088, -0.01674204325656656, -0.011482239959503874, -0.0619521218629704, -0.039745075483584164, -0.011829692438013276, -0.1131833933139312, -0.18547425576896887, -0.14423966470561608, -0.0666107383634302, -0.05791124558037056, -0.12244489432579483, -0.09632528127561228, 0.004081430850875427, 0.045123849722640955, 0.19905196154004065, 0.22557977593092024, 0.19841777900486285, 0.1880203323007652, 0.07071842210010669, 0.023876900991043393, -0.008152492573064853, 0.0578731366034831, 0.054796958651584245, 0.02040808259927558, 0.01066353701884189, -0.02714437475872284, -0.07495830125213361, 0.012559586944575504, -0.005399226226635693, 0.011917109939291895, -0.05932020394009084, -0.03478539789959546, -0.03945696183524018, -0.13877585608325121, -0.12223327084857004, -0.11599273776553298, -0.0812452563913259, -0.08202511546621988, -0.0630737022880203, -0.014722047086492085, 0.10867680789617921, 0.13250319407200029, 0.14110419881782527, 0.18119978133822512, 0.1462920174069632, 0.09586400022773105, 0.08226578501429102, 0.07385387293156202, 0.1133630091770385, 0.06290875029325921, 0.009860661607034651, 0.00932336503138325, 0.02536042688248184, 0.041090011830427535, 0.014446379812607877, 0.016600166193845207, -0.06660737992987896, 0.008053330332402886, -0.06992283239593605, -0.03225135165734115, -0.0652163811354268, -0.11308486809233582, -0.1963409866924684, -0.13632697547901693, -0.11358952360209001, -0.07945271790438097, -0.017626595961847832, 0.01572557941723755, 0.018037150333368616, 0.08873579065101345, 0.1705173895709744, 0.15775415677676574, 0.13232610409238232, 0.07856251037721451, 0.09822219309053941, 0.10196144805484258, 0.07001803629415752, 0.04194548593260851, 0.05619193916313755, -0.013529502100717704, 0.01252371421034223, 0.030997905489131842, -0.0153366995604492, -0.009798469240266859, -0.025782513161503866, -0.0007995509033633713, -0.049047167527483025, 0.014841827329949172, -0.13377882407445457, -0.1310043240800721, -0.13004621015351434, -0.088528192926976, -0.008999134505882309, -0.0396358046056293, -0.023428415630945353, 0.04245833632316269, 0.06945206946584036, 0.09297855634823868, 0.18743174272069243, 0.14157923803394526, 0.19980793377534747, 0.10454538603298243, 0.16711850782026383, 0.0889031624967281, 0.08247651659290506, 0.07660086353849979, 0.14743525281735792, 0.042887353107329204, -0.036302839138373254, -0.006331772856009882, 0.047175806453803815, 0.04278016945908406, -0.03216068359942229, 0.023989856798020768, 0.03286998000825948, 0.0007085770567322079], [-0.014535767310876602, -0.10678155721864793, -0.08489433101832906, -0.11893105394539669, -0.1110586306784835, -0.12359968580380708, -0.047177030360002155, -0.11242841036597795, -0.15748863587747683, -0.04047611815910184, -0.059512691432289655, -0.08309812997875378, -0.03439134319220811, 0.04607699322770617, -0.0073630867999187645, -0.03795855484659587, -0.028040309057131167, 0.09540457067707139, 0.12932365959313114, 0.014079422988377468, 0.007083310343859685, 0.0238613146881191, 0.04481260150621569, 0.057191223097742654, 0.05673702217900611, 0.05610076280844432, 0.09361471758600239, 0.18505416578940045, -0.07684546236015902, -0.1148135677357515, -0.19436880026838835, -0.19256063763234832, -0.17630380762811157, -0.07345656158541654, -0.048651297248413335, -0.18955324850936434, -0.12354200748459618, -0.10925413283750336, -0.0514976251852946, -0.06753988909598146, 0.04886327029448351, 0.13077189448949503, 0.051899147060104775, 0.08076524777301863, 0.060250836632314966, -0.01757941934753378, 0.022154724580720753, 0.01734171927146445, 0.0136704558555464, 0.021972097584617406, 0.10062353083062922, 0.12238502371342902, 0.06808859052433255, 0.032606146532924415, 0.08471728883672304, 0.2081772582289567, -0.017980640763417627, -0.18044177183158353, -0.214340156924443, -0.21648887735272548, -0.22787991813163633, -0.1653702664356295, -0.09392606098828911, -0.07522374918053815, -0.07476757637522659, -0.045831478433332073, -0.1228677961195265, -0.05217458814893346, 0.015995116926754992, 0.035175191355123606, 0.080272439618076, 0.07108304468282227, 0.05332428384445322, 0.08927978598722625, 0.06638491934548763, 0.13785715028192536, 0.03507235179689753, 0.11873986340151582, 0.18725133923060602, 0.07521404497046856, 0.07339025278786358, 0.06364254940612807, 0.1433736910656425, 0.1861416022440734, -0.12141292885115362, -0.14966219829075547, -0.17249847488570247, -0.2027098540983288, -0.14572469778636565, -0.193046596523714, -0.0919540411311278, -0.08215643393559208, -0.07913098235123434, -0.10477328819113337, -0.10206566526399713, -0.0911697041394398, -0.08477831307602876, 0.005290149080029646, -0.05256794479420475, 0.05132033825108121, -0.010698324402020142, 0.028958827835083217, 0.09920189126944687, 0.035740783383273356, 0.053495347232721924, 0.00859566907751556, 0.06431698999861121, 0.003119461273857954, -0.03664906232132772, 0.06719627492209497, 0.11232944617447688, 0.09607314988511605, -0.1385427731224877, -0.25948857628738325, -0.2328198251642621, -0.24333996435111574, -0.17634094912279627, -0.04397311003115009, -0.05333316186768675, -0.0342559101823835, -0.1099308935627411, -0.12189143445360562, -0.062170352510440445, -0.06704549274078603, -0.047690406132711784, -0.033605308574899094, -0.039806026514449935, 0.04074507099148782, 0.07556865583418722, 0.05206237800400201, -0.0378115287127637, 0.030685969002102957, -0.0021494598857266785, -0.03974834873646291, -0.0374633056099432, -0.0985272426995161, -0.038644279244865215, 0.06454693730094119, 0.06435489751367009, -0.07104117106300124, -0.1318937132257232, -0.24079913819872792, -0.2105361580919119, -0.0973516993870494, -0.03888473188728385, -0.011538083768706592, -0.02499641258815924, 0.007500832924755759, -0.08047915486089972, -0.050744974179309905, -0.035748101392867486, -0.047158334496662305, -0.01188989962479979, -0.11053590389600088, 0.014835899003080098, -0.044224295500322613, -0.08176872727443905, -0.015038329762229708, -0.11762320763433952, -0.10213022221128062, -0.024276981907533537, -0.20602494339665178, -0.11050622986606219, -0.14061313720731977, -0.0742187143254569, 0.07818926826353002, 0.10238053481750946, -0.04684798566066177, -0.07921453570812295, -0.12829273126316437, -0.14309775490148222, -0.06941252598294029, -0.06069154998777677, -0.044891830160153225, -0.06092585845058595, 0.06812321423878365, -0.008757522963676715, -0.00899525928056971, -0.05958067467176326, 0.048970654555631946, 0.05648148359247776, -0.011099467407174593, -0.05293158975916586, -0.08408911154117418, -0.09712822348150439, -0.08926335113250713, -0.1014467592966665, -0.13543190685794257, -0.1029390340013998, -0.171719330714682, -0.16241801990354618, -0.11069878044808287, -0.02901679938264559, -0.04244744665825547, -0.02397966135751968, -0.09209451353933545, -0.13941301775336534, -0.0882200974390942, -0.07306017484775801, -0.016600348094056704, -0.05021834068415963, -0.013623347159542156, -0.04031720351413692, 0.013027942569800631, -0.053880743214290656, 0.0065374880344931325, -0.002735948986586188, 0.02452096061256364, 0.012522569622452875, 0.02135169601157282, -0.06322209321009999, -0.06830605059458911, -0.10243890629431604, -0.08622243025725575, -0.13232897411795316, -0.20804682164401386, -0.14385701636069465, -0.1708677855853342, -0.09664538756108197, -0.1370486843984006, -0.11315653131883911, -0.07943461138571853, -0.14352693338337286, -0.08385449040546514, -0.05713349859432, -0.027778923451018653, 0.0014255529530480388, -0.1045070760248067, -0.020412058090252375, -0.018650646256626106, -0.04453090543379182, -0.057033347291165215, -0.027444631939723133, 0.055862547696882425, 0.015287608919747312, -0.019135700287071632, -0.00521270708349097, -0.007002132890789575, -0.09900343778131879, -0.12450107093863416, -0.13211228999631355, -0.1753088833920201, -0.27187293949530567, -0.1559284446374904, -0.13991171445476996, -0.16674800923705135, -0.14676750275502082, -0.04326602427717767, -0.033729085582765564, -0.05933936301886021, -0.13046574736870625, -0.07231945131892399, 0.026455894521218073, 0.06722738642717353, 0.0901404886019447, 0.0627100382102074, -0.042898584196904406, -0.05216417572821671, -0.03152344517695375, -0.05627888376029424, -0.042250748540264255, 0.08931570569807128, 0.016010001730033998, 0.04651611090670012, -0.02604034971347854, -0.023996275557557598, -0.10282509891847083, -0.12855132216086046, -0.05949161721302382, -0.12092456988600078, -0.18964065499982527, -0.04046851917952938, -0.11339885556672175, -0.10283021649434987, -0.1399685503223503, -0.08428913497249295, -0.030770019634123028, -0.13093591956718098, -0.150812450908611, -0.09835623136841057, 0.04202912573089245, 0.12693047770650234, 0.13881993452680197, 0.023377271460330695, -0.09312639309411848, -0.052845397813765196, 0.015322001729211852, -0.08573318785276936, -0.006685131516239979, -0.0352660834644784, 0.04264366863182867, -0.005731390865999371, -0.0895938930399794, 0.0025625513796424513, -0.07402645839662, -0.03454143431792622, -0.07675210682894171, -0.12255007194430678, -0.09036836544644723, -0.05653070500780596, -0.08022805131301343, -0.04763251899563934, -0.06929705582171454, 0.010255983009788047, 0.004141110039820116, -0.03933093560036775, -0.10423048190025495, -0.10772347430329036, 0.06760181430877592, 0.1464792466151946, 0.10805247841826357, 0.03296854221459531, -0.015216268108119393, -0.0017440073783509193, -0.0237203101210535, -0.058531161560493115, -0.010644909443170772, -0.008505995599813155, -0.001990241103248965, 0.0062706774115321145, -0.043980822910133985, -0.023227255523474356, -0.0018622771479586129, -0.0027442909471784875, 0.00882105830875864, -0.011193967460539606, -0.04064548055315221, -0.013298280561202677, -0.012045966097302957, 0.05592535551863169, -0.05176367325920593, -0.017957891677157452, -0.0505259819888397, -0.057276068819272906, -0.048031775897429685, -0.10187557545740154, 0.11442796875388365, 0.1673173729859934, 0.21901924412515472, 0.059377925721207384, -0.07716426811399375, -0.03836107409893603, -0.057614372058831555, -0.06114418196701167, 0.011578619694849898, -0.08014598023939379, -0.05015574370774133, -0.09036544603157809, -0.05728205854674756, 0.03077096010881304, 0.04305675178886066, -0.015025525725000499, -0.018897055651617256, -0.17766166568245417, 0.006288173622335868, 0.0437314418004976, 0.015469167375128854, 0.0006020011584762497, -0.016573318292059075, 0.015529181013321547, 0.014644721275954363, -0.004259581060582206, 0.0039449951571558315, -0.00861606758080211, 0.06866430405849216, 0.1328224570064717, 0.20820787500990176, 0.029654993751616534, -0.06640623890605896, -0.01977164568494449, -0.12207843384183154, -0.022973646944571186, 0.03750640246304349, -0.0648034831658987, -0.167412369883642, -0.0784763579998009, -0.1039296352989592, 0.05751523928256329, -0.07263681643322968, -0.04597919550225533, -0.10976689769746176, -0.042887414586588735, -0.004128002726936267, 0.06453358353490375, -0.052512436051389465, 0.002273565476758108, 0.08858382744400206, 0.024732564145027218, 0.023756005565487816, -0.05849399373108602, -0.08465270781173774, -0.004178952719705457, 0.07021764186351075, 0.2591860026622932, 0.3051168321986341, 0.12554447773462146, 0.03064739246545014, -0.022208851549230198, -0.14261912487809775, -0.042088093221604214, -0.06307493187558304, -0.06332339613711761, -0.14920980379605842, -0.10232990214731502, -0.0689781015835463, 0.09074496278772735, -0.11605634641429853, -0.10761147038436353, -0.017273730331034926, 0.0188686260465712, -0.009497043821741352, 0.03299684629565078, -0.0625458915879235, 0.07959766154484009, 0.10360261904390021, 0.017839036032589642, -0.08634924640641667, -0.006553955341726495, -0.002425312852517034, 0.01679608814247327, 0.12167323692043511, 0.3238269159828609, 0.28073566434814357, 0.1804525376577302, 0.0855861299803457, 0.021176621970842694, -0.0049864310185840114, -0.01925097690881678, -0.0035180933503338504, -0.006641565045989641, -0.03937260606276184, -0.023507983620120774, -0.017031897035338348, -0.030265654518497394, -0.016397516857374488, -0.0027676146759473097, 0.04558558977271079, -0.0045931869710207265, 0.03184639352598729, 0.07881946126852073, 0.0049125589128259034, 0.05017774700786728, 0.01853862320669534, 0.0185528287662026, -0.022290990504268828, 0.09048500440047455, -0.021026811949931442, 0.07615550397080714, 0.129533322327218, 0.18672565958865853, 0.23993087079273837, 0.16192893691250768, 0.10277464561620167, 0.030371543576749045, -0.07005853018073929, -0.08432269118566647, 0.039751981144386266, -0.04647962554323445, -0.020318475971231664, -0.09214925067428627, -0.08119078380470987, -0.04516207765704253, -0.007890125552022486, 0.022714414382749546, 0.014789067143796191, 0.04656613159835216, 0.08032047171456681, 0.016858089181621225, 0.07289766044564557, 0.0851469740023021, 0.0552978702401911, 0.06423575654403005, 0.03431023251906049, 0.0072011806176364036, 0.07268142678733609, 0.07079224833769047, 0.034429669906028325, 0.14864760674703964, 0.1812203851638172, 0.19856779025749405, 0.06639328814713608, 0.060609288231026036, -0.04989557526489781, -0.128870381546259, -0.08007754094121747, -0.07536912422406611, -0.04219170522180482, -0.08505156616699915, 0.005718438110930851, -0.06365830335307045, 0.015603229915720898, 0.05116385089730522, 0.015428094860603758, 0.07611187612656184, 0.09961793621060006, 0.1400834834093679, 0.11482585092232062, 0.0650555909242427, 0.10977866427829229, 0.05745775935161952, 0.06899353573612109, 0.029838239649550537, 0.0883254790614903, 0.022100836044757998, 0.08335267477206058, 0.07445022135212176, 0.17620093527613145, 0.20552742535568558, 0.10179769700702147, 0.054113148377430934, -0.018673463589602146, -0.04606063649559923, -0.013296932184529889, -0.041924237111316126, -0.06850534205809139, -0.02320003628078506, 0.049075668325224225, 0.020017613673802167, -0.031112437146293647, -0.010478788739675568, 0.09213381781926469, 0.10404476297630044, 0.09912560892139907, 0.052022452502001174, 0.0792283310661991, 0.03815399133616293, 0.11859158008534947, 0.019202946152435642, -0.006553444569077808, 0.05520541298970047, 0.0730936881202341, 0.02397842862525528, -0.0013393505503480028, 0.12366299390968577, 0.08881953993600472, 0.07924839691683189, 0.09836591659134282, -0.01078025914012885, 0.036530564272184846, 0.0548381737766162, -0.034113833540391304, -0.13040927764126797, -0.09334764266761601, -0.06484139805185003, -0.03444419719908049, 0.024403950679949625, -0.0024328585199501957, 0.03867365662609956, 0.0318966475985809, 0.029229042996663502, 0.09951480277523472, 0.11425872935654477, 0.10426551121131276, 0.059293151824736254, 0.039893687237112924, 0.05540387988547234, 0.015463863787234331, -0.01030386848275473, -0.03521368669628111, 0.040557942194557065, 0.0781689521849147, 0.07191576397963924, 0.043012781477718996, 0.10133461368396894, 0.02622281916718657, 0.026812601527242356, 0.042920789082084645, -0.01615306849975946, -0.01591785461058502, -0.0953264743985142, -0.04971281999323855, -0.08717019527214687, -0.00962264985470884, 0.048744436019497565, 0.10433850235715264, 0.04228982669178551, 0.09296230500120747, 0.026217948575747833, 0.10520871406820322, 0.04010488007082591, 0.04503044185873242, 0.031671593773555745, 0.03556127115418719, -0.006362848999979909, 0.020031036441721183, -0.009429789586926418, 0.02116630341131516, -0.0030056475606809836, 0.054854517544941216, 0.006465456197599488, 0.08486432049625817, 0.09009453384266414, -0.002791148990978676, -0.031656776263533054, -0.004464524389586092, -0.01237734463719182, -0.015039855988024249, -0.07585593048500258, -0.008853216556275403, -0.019415124493503046, 0.05015507115235471, -0.053680275320013925, 0.10002629982045426, 0.12845003233341154, 0.14643593332230223, 0.11202498353076794, -0.009449625368234033, 0.020393989892470925, 0.017160215193934257, 0.0005967200875093059, 0.044023040093820784, 0.009918053433612233, -0.012984217883676694, -0.057318427185585684, 0.01398269211967048, -0.023126709650232682, 0.05445789877954381, 0.0934686957998921, 0.09525215708226575, 0.1228233733286826, 0.055320758422536406, 0.04007088918149405, 0.0025366231287864537, 0.02743688093862447, -0.01273209641288467, 0.06002806608317724, 0.02103613558963869, 0.11999850764573351, 0.059307937154498135, 0.06197215402015646, 0.030118993210280685, 0.1794366972339078, 0.13555241677024518, 0.13790955344471195, 0.08012278188675968, 0.05150595336804095, 0.07210540190620422, 0.017519184732010806, 0.1266721989441719, 0.0043986689947360415, 0.04137589866016626, -0.026144526912368602, -0.014051822731787336, 0.03134513198105822, -0.0042844321235157475, 0.00042459216256094745, 0.07083877626733404, 0.054555695986971894, 0.004850952509539536, -0.01586547665191058, 0.0002887198789647528, 0.03196600942437853, 0.045060268814042764, 0.03141145001943711, 0.04210908276886656, 0.10208915405212124, 0.13658788067039934, 0.06811670062487936, 0.12027984566127677, 0.1491417179385371, 0.12233872539625286, 0.13631726175139627, 0.05444730360378682, 0.05130948756325161, 0.058776493652660904, 0.06580208462360956, -0.012896273637339105, 0.008694848662667032, 0.06922584960560407, -0.03819356896999615, -0.004278808481951442, -0.07588578467342667, -0.09049881157566689, -0.062083328398115124, -0.012122873491905106, -0.01990226272046409, -0.04418355729478546, 0.026630273554037614, 0.03021909896086444, 0.04160627026773741, 0.0051549504899936205, 0.009046915492017783, 0.02081499387992051, 0.05924079905648197, 0.10255201469089333, 0.13150337527684564, 0.10826457299898598, 0.12280693999211935, 0.08904000917638843, 0.07570753494163455, 0.02583447253409948, 0.08619855662638166, 0.07614449222635297, 0.03233701946006176, 0.00015556280012092116, 0.011277165129040702, -0.007180521359633436, -0.09381811140796306, -0.05293004727937008, 0.008410404329486839, -0.04632577859296475, -0.03134491836050263, 0.03833474506205351, -0.02968890416943057, -0.048638176812174395, 0.055139318193017, 0.12414623445108926, 0.07404868237795272, 0.022481899431371126, 0.09905103808947069, 0.12298630644443938, 0.06943235996828226, 0.10324421293487343, 0.09309477155411737, 0.10145169420405795, 0.1618243648011382, 0.07116422131799642, 0.061270284025370846, 0.03601275778476015, 0.0482484194593341, 0.04969348989024068, 0.09845567088213822, 0.09037089556875523, -0.05199298762004072, -0.05534791902140773, -0.01369748804428542, -0.03511972492604539, -0.007975741114025159, -0.09097479178355519, -0.022639085752777576, -0.02368791073710524, 0.014332279617269397, -0.03154838336993212, 0.014000448068391192, 0.13580756496375154, 0.08629923519011441, 0.1402755459911082, 0.13480482988270626, 0.10716123142824169, 0.0980268925621571, 0.12375114335766617, 0.19082345374777734, 0.19924591288743732, 0.12008767591721, 0.09801798570365314, 0.16586425804364482, 0.031245216655013255, 0.10404793794462287, 0.015996375418676826, 0.035799953955077915, 0.04511411193079462, 0.044710027974453725, -0.024335337663565902, -0.10007213222433595, -0.06709235923538424, -0.045188425808902186, -0.07836950193896447, -0.11517926725576012, -0.03826995987878536, -0.07682995857991097, -0.09421668726585888, -0.0016272211048513228, 0.038835554029785876, 0.04130260494081714, 0.049048645098815444, 0.13206304954978806, 0.12323548914095799, 0.11861307839846816, 0.17101254803323745, 0.19933235836458607, 0.19880767937015625, 0.12811160562516183, 0.15248934914565856, 0.1196851211754979, 0.017857622568515637, 0.06477400851051628, -0.04341332554606392, 0.025716440753671722, 0.02848395005655029, 0.0029737558206977747, 0.016872931625837837, -0.08609323600991726, -0.03141090409609256, -0.03798799439193806], [-0.08021904387201897, -0.054033341942445925, -0.06613276603362735, -0.021327701053007485, -0.04699511210110876, -0.050818896016003645, -0.06251598088289752, -0.050532548649323036, -0.0818414256612421, 0.02525890575510751, -0.07552440388724073, -0.044048245374596826, -0.06345307595251126, 0.003581984939665881, 0.04213759218179809, 0.030218426195347526, 0.07707107805496179, 0.11293780840230194, 0.07844017646183267, 0.08094971175323483, 0.10986629517215044, 0.057225748007905954, -0.027525363035958126, -0.01780557848122205, -0.027916125977148723, -0.00017768726536695052, 0.019319496985461083, 0.01454382809645576, -0.05737987396275957, -0.09134387826358238, -0.07133482625022636, -0.09135360792727393, -0.06403395239861448, -0.07708750971469668, -0.06149852862899982, -0.0743922139388293, -0.055586837173901754, -0.06906078577344821, -0.026306714641421848, -0.055087188660746814, -0.049024753404304205, 0.03280935111689784, -0.025492195307523256, 0.04727287245693005, -0.056005934562843786, 0.04539754257518229, 0.07499845186825016, 0.07694527240460791, 0.06773910262451835, 0.06591990683315635, 0.06829041498666721, 0.02631029246238875, 0.014424299184527443, 0.041192494814832156, 0.006705513275023825, -0.012890634080818753, -0.03169954473237987, -0.0933686183762243, -0.0929931357413532, -0.01112215651353311, -0.11090204240412657, -0.0439131290036463, -0.08258562362576143, -0.07134318505656745, -0.07787578564966678, -0.09182755202347562, -0.06208086294701052, -0.08881776886229138, -0.0714353177339661, -0.028995917661384044, -0.02749372768106287, 0.010968566193544497, -0.05917955889932021, -0.001715317572894714, 0.021941398687267247, 0.045615908513971695, -0.008736291181182517, 0.030354807596057812, 0.06504475631271679, 0.029653959670860708, 0.020584850320025116, 0.07383398140983298, -0.00043914978826958237, 0.014616809212313333, 0.014846925003570747, -0.030191987565776564, -0.07801427277290063, -0.048245676243789594, -0.0527265328157559, -0.05027558537805612, -0.05690576138240925, -0.07206968695441739, 0.01148429172341815, -0.06379600305414738, -0.0382958593886466, -0.009701181846859822, -0.02290012787404747, -0.07316769913902609, -0.02002267852693021, 0.03341026355536756, 0.10674950324953832, 0.07016509943401016, 0.05575731623305625, 0.05344263054344949, 0.07415281457092794, 0.025751897345605665, 0.033668443954907666, 0.05128716516462986, 0.05119136402541297, 0.02467932009731947, -0.020089087854658648, 0.009037837703724167, -0.07310903804615042, -0.044692270573369254, -0.06995431421939792, -0.07475438209675991, -0.1074226104595615, -0.062152660475816884, -0.018073771758049938, -0.014072008665353644, -0.026191443637265957, 0.01581157500643433, -0.048415750568697354, 0.03674021397688515, -0.06051989642097573, 0.020614092804810788, 0.02212865082376859, 0.012421546867265609, 0.02930546773191718, 0.027191241971799163, 0.009087092546365427, 0.027821168117681535, 0.06956713268933828, 0.03641986800341319, 0.07020746880078306, 0.028991084820410396, 0.0603666400619183, 0.04145789887083979, -0.02809467954965074, 0.08125704787433752, -0.033757115802599734, 0.0011911810898475206, -0.032483105953700825, -0.05236057925185881, -0.08152249918910798, -0.07836065409712503, 0.029888096404550753, 0.023075364731063225, 0.011456653840705688, -0.01092131425835468, -0.0371031632603075, 0.012157448663075766, -0.01777065153526562, 0.041771071588362685, 0.027942458711708588, 0.00958417196933753, -0.007639565465757372, 0.08233301963029087, 0.05551807548112918, 0.051386041823923596, 0.07553334120342498, 0.03176198149866686, -0.04704340128836236, 0.02923214552636809, -1.6304618442106742e-05, 0.08178529978596803, 0.05397752340562667, 0.08334886262852796, -0.07179233406940524, -0.056453325752755995, -0.09780426393814244, -0.07937133201225789, -0.030243199040074872, -0.030175411594688655, -0.07683862340807118, -0.028481078021113715, -0.00805937060538346, -0.015394579195755823, -0.04579199186890786, -0.028111010587955836, -0.06846151398521325, -0.008459260564822704, 0.018779417240341132, -0.0010063992190376503, 0.005622122727870186, 0.09802561533846284, 0.019524656465328527, 0.08327738433335106, 0.022257910022282435, 0.018573423980628355, -0.0015618631631682217, 0.04333022352382257, 0.07761543258883628, 0.06252490536422758, 0.06851248595396195, 0.019585039303871205, -0.03829772028637763, -0.02841562043481289, -0.04422503216109409, -0.025531572989064725, -0.05443741055537835, -0.031710880887412224, -0.016501192183492237, -0.06460185821916534, -0.05658594783351687, -0.02579811375987517, -0.08758689099464846, -0.08581110798807243, -0.0644297156371001, -0.014618812499748541, -0.025980436893265846, 0.03572573830753209, 0.03919399804838858, 0.09979962247047568, 0.04625515542319896, 0.012566003182754542, 0.07267408918084133, -0.017890308412567002, 0.025661676507466712, 0.056237657820858294, 0.019347813867418052, -0.0001275632128473226, 0.09445024622825111, 0.05490441321119041, -0.1061622144894938, -0.08271395739681352, -0.08097349636083408, -0.12838040885076132, -0.09968624050639627, -0.06922978215394839, -0.07633382467413177, -0.03579059881806161, -0.07290935091990271, -0.06813067204873556, -0.14903380856422394, -0.10013235928261295, -0.11218384208803062, -0.09581551018324069, 0.03842610238214971, -0.02232973035514632, -0.017266048927493945, 0.03757349194837574, 0.01952878178395879, 0.007450424420947264, 0.009184444456585124, 0.09498469224110194, 0.028737494238813905, 0.04498165015224231, 0.05066162333099372, 0.016163947422902836, 0.033190304740419646, 0.0661233459527967, -0.03238336032172576, -0.09504564303671564, -0.11184869125751982, -0.08066397695028521, -0.09169228991140813, -0.12265962201697589, -0.10678043888067265, -0.08735008318045881, -0.09471919507421968, -0.02893193240332545, -0.08827110405303157, -0.08376845956291794, -0.03968014188122602, -0.023864159820297486, 0.01136549649132309, 0.010515789561795571, 0.015031121754519754, -0.015132500877310629, 0.06933940380877514, -0.006627856915386955, 0.022972934291261887, 0.02021262745033473, 0.050301472963335064, 0.02638893123912643, 0.08915658104641384, 0.016308021099566167, 0.06093880462606342, 0.005402195228943283, -0.06690429514133606, -0.0898614622440742, -0.08637912805455152, -0.0988269093017512, -0.05979565625882404, -0.06377238505388594, -0.1320925454317639, -0.10210887304691421, -0.10809650369636158, -0.10221332625992398, -0.026052414821608486, -0.00890606211893036, -0.007439430821171905, -0.0021652566269138936, -0.010567819496187342, 0.031599890224393044, 0.026017589418454307, 0.02409056982380718, 0.028444702977283687, 0.023998391449693703, 0.026794619783928636, 0.007835363980813567, 0.027668635035661235, 0.04482847458972269, 0.0796897513934781, 0.05541813804246836, 0.002158633027479814, 0.041017680352423896, -0.09255534331171704, -0.017287094973248176, -0.055483580321971634, -0.1014202842772461, -0.07372957014145204, -0.08654391881658298, -0.09893939203773894, -0.03897781311382598, -0.0895689698896478, -0.09555255984698188, -0.044435187428388874, -0.0017829211060952904, 0.0023208394635885828, 0.06093448461965705, 0.0330149729064343, 0.04846061563836057, -0.006286682658344358, 0.05471451234114667, 0.08212166734762658, 0.08463209304099223, -0.051014378110858086, 0.036457716971658734, -0.021401591544604606, 0.060003509736895326, 0.02056212654781148, 0.015872758826725324, 0.05928561471952099, -0.045402161860154396, -0.01937107186093371, -0.0303433911890851, -0.06210749373620147, -0.06074031569944218, -0.12733630150090158, -0.08565814562384871, -0.07145078787488147, -0.07899932773560371, -0.06263110412813301, -0.014517745578558483, 0.0038591565085282827, -0.005124297759149038, 0.04325933265575077, -0.03316569811882672, -0.00884077633812598, 0.043318830346585846, 0.024789657405280663, 0.018016184473658013, 0.015780884761229824, -0.003940604489586495, -0.001277239841371655, -0.012416249106798347, -0.015557525835182726, 0.03488042001894926, 0.015542538018858841, 0.010164362339262533, -0.03579567393653063, -0.01745740809482616, -0.03926422203301699, -0.020447444251172484, -0.03507262031474735, -0.07244093156479868, -0.11266721129681358, -0.02729200472834899, 0.006227220763187777, -0.018466963224594797, -0.010918781247409207, 0.027797897839107667, 0.01142412405062049, 0.004659757789173114, 0.035667041947213464, 0.04978306103135229, -0.05612745879066578, 0.03966927753550168, 0.053546692290190115, 0.028263390410455915, 0.05060819678875655, 0.0029361365054731458, 0.02460673165571869, -0.007968604318409601, 0.046565234849338985, 0.03939734904731322, 0.02817321029441205, 0.0014713885175327364, -0.028379431900796247, 0.005915413701959551, 0.01887592950499027, -0.03282181621114314, -0.008789233791655979, -0.05123778441460877, 0.01313281844121052, -0.031064745975309987, -0.03970737041521205, 0.018764792446542743, 0.027355686353106066, -0.034454058480612997, -0.07103877204412672, -0.0006013840342948998, 0.0008398815389541405, -0.017993456762946024, 0.036632310661085916, 0.017711112359800683, -0.02368013563223086, 0.05991380001187061, 0.022740570874105463, -0.06704355675876772, 0.02878320145258335, -0.0063925039130551305, 0.0020149953737096373, -0.01584012037512207, -0.004587378153264638, -0.019105943600150034, -0.014291009270004092, 0.019750233480775963, 0.037129487900674225, 0.050131809991427294, -0.0235041600371211, -0.03532297536597491, 0.020064283716635854, -0.10441543157011285, -0.029928840179845522, 0.01811507637036095, 0.058474827288284924, 0.014015147661094282, -0.06411193143740664, -0.036936584596167506, -0.043661982043281186, 0.00975259290122967, 0.03250165775874847, 0.034423701429743714, -0.047201608249000736, -0.007147056567121829, 0.00755401862920673, 0.044722438233838764, 0.0025422284004036544, 0.061674165590069836, 0.06361212809466435, -0.006835206494605787, -0.028395418784145803, -0.06917367792265935, 0.0014124849062214784, 0.009858881263732367, -0.014285335088692242, 0.03524863615089252, 0.004200669970799702, 0.003697080820102623, 0.05242453390413428, 0.00867179130516759, 0.01855063465389445, -0.010825659418406566, 0.02962933528016744, -0.030933529134315668, -0.009528373042837402, -0.011566739630572032, -0.014764215280201207, 0.036819390770880187, 0.04608920176931047, 0.027516598625794045, -0.007686814863427613, 0.02319395477856842, 0.012177935262887248, 0.06535222192596779, -0.03145533766626069, 0.020925467145462017, 0.01139388968909865, -0.05849226541624116, -0.006375677987083104, -0.04792185384620213, -0.04118300421772852, 0.002261461188613157, 0.090507264720972, 0.05088501144666006, 0.04417992554627834, 0.06373809955319311, 0.08321213264774072, -0.0033577999678626414, 0.07137362924891247, 0.008684647292721722, 0.034617435151730436, -0.04535873567820553, 0.018651003429940884, 0.03307036852083425, 0.03802867245133548, 0.04658458444268762, -0.03224884726509055, 0.059541781703864476, 0.057821148496534795, -0.0021050008733947603, 0.0013765256991128327, 0.038263135256155455, -0.015071363462615341, -0.0033845226275337655, 0.04980942548249323, 0.008876363667173339, 0.023219566124032247, -0.03490754047965963, -0.04837586656406715, -0.03809416783807898, 0.08906036567244138, 0.053070086778073906, 0.04899176663277791, 0.08330583401438058, 0.047330259878722566, 0.07161183425043674, 0.04476645540466146, 0.0349676736845423, 0.05087925750001787, 0.0003111842805640034, -0.0076640967944936935, 0.06370693593508059, 0.0803576217296916, 0.07826160915922427, 0.08839963051060766, 0.10192086076377259, 0.07231160847285321, 0.016509127824710586, -0.015962441788718744, 0.04248650661932788, 0.009573852693109685, 0.025412032728778344, 0.037152517273245304, -0.04058084829822504, -0.03791927296774633, 0.0031965569831597655, -0.004912124987718575, 0.021241025742771178, 0.0747176702683524, 0.06888201413586487, 0.037943459476115805, 0.04848503345008265, 0.07092844319529938, 0.02486354108818873, 0.07822897725196368, 0.05339839699888677, 0.03217750429594924, 0.012832434360346385, 0.08528207520063566, 0.07831063073179029, 0.021796992768330498, 0.06363612944524316, 0.002794847803094363, 0.04300647007431968, 0.09009208456723737, 0.074888526391906, 0.0883625600907904, 0.009578478501906674, -0.022148324309458272, -0.0018807095689032192, -0.003919100321856352, -0.05612729133307389, -0.017329623348070925, -0.0062184938319809315, -0.008281198647914309, 0.07647960279109813, 0.11125021102317902, 0.09007198619521603, 0.10188652153467265, 0.07803427051594762, 0.12004908835235387, 0.1124893168710922, 0.05588102468555691, 0.06177003935056754, 0.04817387425342335, 0.03658725343100025, 0.07262061567168145, 0.06512385725019627, 0.02446777456044497, 0.056728174054764297, 0.03194397647421661, 0.07562677529945652, 0.01907117195344735, 0.06082307865395922, -0.00705271452464385, 0.042119171971583214, -0.06115112032020031, -0.031525175190320054, 0.015564281341425597, 0.0367812641644136, 0.020229815099866343, 0.07587092033907067, 0.002180535034853088, 0.031446721323823396, 0.03373072800118735, 0.09676047723085075, 0.07390208363599295, 0.04458972782989501, 0.07724439624197778, 0.07598977949383101, 0.01718687310925471, 0.09578292416643755, 0.005800196528522352, 0.04908598172212903, -0.0016044621028296236, 0.010300333196900944, 0.09222223757177292, 0.12145026239499208, 0.05173653433388688, 0.021467933958924997, 0.016191307889850404, -0.020998590937247652, -0.034759191877820166, 0.02597066836009905, 0.017878784333600097, -0.015955298517328565, 0.043726436247461274, 0.039351547998227605, 0.0851854706212312, 0.06219386853248838, 0.06398451216902687, 0.04032723486049794, 0.08446563591404586, 0.09678499816829982, 0.03133151023998915, 0.07616918671681827, 0.10530486244559006, 0.057429931476066655, 0.04337745218670372, 0.131077947081961, 0.052543191101360756, 0.035329567235259436, 0.09238374885461065, 0.06664617914463097, 0.04793043525390731, 0.12811575127894972, 0.10912762593364024, 0.02301580246560667, 0.011630941267662906, 0.02344392498623064, -0.06472766831987402, -0.008868110239759384, -0.020396796657338796, -0.006256423961359969, 0.01978568292828386, 0.02662371556885549, 0.06275188048485025, 0.030803747658897963, -0.029827122163119765, -0.029294907683554316, 0.06174247989391539, -0.02818629237325349, 0.07688413845894411, 0.06338677642149518, 0.0654607608672483, 0.056829662355392566, 0.06306560379535539, 0.10042992513658008, 0.047833459859794134, 0.029713655410151297, 0.07118484550493374, 0.0332722423322796, 0.08122266728384045, 0.050081941311278765, 0.016114379664226134, 0.02031279978115116, -0.01880303397116388, 0.0479294718416699, -0.041293827127761494, -0.009859264868814447, 0.015439896756497231, 0.018911538512570398, 0.09282975319327595, 0.018422581344095898, 0.07134874427042445, -0.008750962248299977, 0.023530502387422443, -0.05045928879689861, 0.02069414906642117, 0.03668167230947592, -0.0040412925414924335, 0.0077887482954554004, 0.0751393724665739, 0.06950736713620498, 0.02180160303845009, 0.0044382832844308325, 0.005610966218027338, -0.02539521323918183, 0.06374552583900864, 0.009971684477471304, -0.005689351827738505, 0.046688928945326766, 0.017776234946513716, -0.03047415172672582, 0.016162696818625765, 0.04752497175892667, -0.005733836264930268, 0.0443811377715132, -0.015822117594002514, 0.06664398359157525, -0.006200129702974173, 0.04820401797230679, 0.01609252745249009, 0.05114619411879983, -0.007196478698931589, -0.04184171405286944, -0.021666076944682554, 0.043826195857788366, 0.07641990922996376, 0.04305508499553033, 0.08438412378744958, 0.06141105078013178, 0.07601396988738299, 0.07566297358408425, 0.013622886878278596, 0.04851423485354704, 0.08740171942755003, 0.017873699929563554, 0.04547708732028535, 0.10635448368497726, 0.057319180490659934, 0.031007321581742197, 0.0246870132096781, -0.045156991813353815, -0.014192643744415688, 0.017679663339263255, -0.009779710863026151, 0.04149960017368306, 0.058437193320659546, 0.07679202218091884, 0.009407827056094421, 0.018360989341071995, -0.0026534736423180134, -0.0577847604427471, -0.06240981624429386, -0.037649488496857786, -0.031406125057774736, 0.009385846381743631, -0.049924997355679464, 0.039299550906652304, 0.02257250215331059, 0.04111002377443812, 0.07861338498584257, 0.07768334006502127, 0.05888952533311646, 0.02236311093975963, 0.03369615669198826, 0.007988610241769101, 0.02276399716292666, 0.08784253445577704, -0.03083443335978335, 0.021517093747399855, -0.04956542479388413, 0.04180234353199742, -0.043074272018371516, -0.020045749952017543, -0.01266532571442955, 0.0032874779733029083, -0.022676945459763516, 0.0759447135846503, 0.00481259882323519, -0.046156997793837806, -0.03196440245828156, -0.05810458919132588, -0.0049125744108187005, 0.04273651542629978, -0.00845986195024821, 0.031267901331562015, 0.006809779960123117, 0.03142118542410874, -0.03168918052772463, 0.10710081060270309, 0.07336929925833859, 0.08176709495672879, 0.07809147721390612, 0.035643534063409914, -0.005374867914983919, -0.0030337836516214373, 0.11891052085313278, -0.04568198316563161, 0.00919398989895639, 0.04567549168453512, 0.02278150935418262, 0.056485165169115614, 0.05351766647599422, 0.02943681616602254, -0.03557254609293413, 0.02969960857953682, -0.03680795600874904, -0.05549425807275653], [0.10154841731536801, -0.0009289600312084769, 0.018362672787916163, 0.08011410753109816, 0.16677916656773212, 0.09831827369493605, 0.052420009464038096, 0.0983942765976514, 0.05183329569422027, 0.10181055840351803, 0.022360861009272648, 0.04064718038931775, 0.0538046787615478, 0.054059742569057254, 0.06407692250202243, 0.03796898137796659, -0.019469632712654655, 0.01848185645961274, 0.028155646032470723, -0.007901989487610058, -0.017502920710181426, -0.07320866937850846, -0.04429398825395785, -0.11661887851973045, -0.05401926455942443, -0.11726222604328072, -0.04589266490840788, -0.008679578324772367, 0.09246536887094696, 0.058902370219925414, 0.025417220577376033, 0.12198313719756329, 0.14331068842870218, 0.09147560431427196, 0.05353130967771668, 0.06095740207429832, 0.03937850451061342, 0.0531927322706623, 0.013529538122821195, -0.029497333343008997, -0.05648240579020312, -0.028196503547947747, -0.0029463136268611904, -0.04185913077794502, -0.046040858404000094, -0.07428602928271576, -0.03956336469369491, -0.06997301685239105, -0.05975999510868817, -0.10207023797793496, -0.08800301592499563, -0.12592221434533726, -0.12030921517192589, -0.1043136289454184, -0.08147852427464783, -0.08662741103495708, 0.02682991814339111, 0.08758685731583536, 0.07250226646787553, 0.07214725139860254, 0.11711900549971915, 0.0640141514123675, 0.002861777378974775, 0.02671192872467346, 0.0013687020736961823, -0.04066564469190857, 0.04172674677393555, -0.07232927326542891, -0.027522324337650336, -0.07977903535783448, -0.06792919150910731, -0.04421255679264922, -0.07209034561531821, -0.11087717492518234, -0.06536726855849097, -0.08431115091752012, -0.12820658893494644, -0.07801451916511462, -0.12115515475389822, -0.11043986840232932, -0.1881743941379433, -0.14624707354572583, -0.13740424868155893, -0.21044074404398128, 0.0703493107608856, 0.05497231788195728, 0.0821382140061456, 0.03651115423548324, 0.04385845911799375, -0.02949086420505669, -0.011047560766575353, -0.01534196813775818, -0.003523575692917778, 0.05327227687849592, -0.08272249635806371, -0.048170584326476674, -0.0007673676450688092, -0.045649910984961475, -0.008327395140733235, -0.08069924161721724, -0.07097072718096491, -0.05779631646311922, -0.07082424969221852, -0.07088290397968076, -0.040017671448403416, -0.14805258685014794, -0.12048895098568117, -0.11357906638095999, -0.13999602153728796, -0.15335077788607615, -0.10246467023618051, -0.11007247655313468, 0.06958397033239021, 0.11111599137358888, 0.04546289800278175, -0.00886130318892293, -0.025503493954342652, 0.01750300917234713, 0.05734696206302367, 0.05341587312143882, 0.08118553300387461, 0.04084843076145676, 0.04050301486564955, 0.04642980547106679, 0.06360643762775972, 0.051399029036214613, 0.09278168478664231, 0.03394287266113241, -0.02536794016426586, -0.016182617374793363, -0.018671348162872966, -0.10899919537383736, -0.05461276769617522, -0.036358004301393916, -0.14163128409501924, -0.1310377531098063, -0.04646199087444372, -0.01920787763872791, -0.06584479601260293, -0.12056683286908723, 0.03198624517277953, 0.07394007350618487, 0.027466631244976468, -0.014465239628735789, 0.08548186741332972, -0.0027296339246733444, -0.023789735662337767, -0.027881608599848992, 0.012516622863923636, 0.02272194913699978, 0.005178952868986607, -0.021850030489290302, 0.010078277366864894, 0.09017173152303246, 0.03537801149072165, 0.0672721627940449, -0.013101243549120834, -0.05554581535711238, -0.050425034395548816, -0.019426327051639346, -0.05217102162545592, -0.11249768757796122, -0.029922009947099273, -0.08792185160029417, -0.08711269537635373, -0.012240406367181583, -0.07213026319597378, -0.11566068857707178, -0.02869432664344835, 0.050874721972204356, 0.07592381029566098, 0.06941864816437157, 0.001854392832606602, -0.007098387750250687, 0.012154180597409529, 0.007609243528068476, 0.024939441114195365, -0.04709540351473188, 0.026271161458875876, 0.018408973958971328, -0.021579011649231913, 0.00543052098527033, 0.034824621935394796, 0.05910023557512588, -0.016102766715332673, -0.08131386813503577, -0.06407532370087596, -0.05626219124717208, -0.04204580442650805, -0.08583298253258728, -0.06958796852467528, -0.026434930429936762, -0.06501632791897671, -0.022687813412225002, -0.07920805647080649, -0.0387943648067893, 0.0003737625551421495, -0.04108378485751806, 0.01468992610662066, 0.0008472285403889363, -0.04323455879458401, -0.02306845330025549, -0.014140322389974641, 0.02224899727463603, -0.046537079696053266, -0.06316459671379825, -0.053656611630304156, -0.10833124900771868, -0.022935351011792043, -0.051605374825871346, -0.01417181478520968, -0.007107612908352371, 0.0021243399986004153, -0.020551879820361014, -0.06995239616839997, -0.1008710442213886, -0.037886477053965036, -0.10831459782622864, -0.10105185171470331, -0.11473656719405742, -0.07951475553150636, -0.01914672477574942, -0.01421552447428148, 0.08027004416280646, 0.007067170159329047, 0.003427797862151619, 0.010261973618202155, 0.04902968084201126, 0.0036825030729229244, 0.003780495494270008, -0.015203649925951216, -0.02581570811485543, -0.03773046114492319, -0.06334589700863964, -0.11854356378401432, -0.01470044212383435, -0.07719016022962549, -0.030148549261952737, 0.028814760157721706, -0.01114496512481576, -0.08700547155212368, -0.07989707396051261, -0.08667467473441336, -0.09578487986402671, -0.05746520617623512, -0.08816777350518228, -0.12393109457030232, -0.04929247805944718, -0.05223139410770112, 0.0021228093048593823, 0.005833671414689039, 0.09188701072453244, 0.00834652509789697, -0.04174972016339293, 0.0028063332507125604, -0.05058546691952644, -0.04880629198911863, -0.03864042607172139, 0.0008970694642839084, -0.051991021236365655, -0.04617048063948348, -0.09406128596726616, -0.1150513275487353, -0.06111680890915958, -0.1088656302863179, 0.06463302103371234, -0.033549048705626305, -0.0526014872562897, -0.017911143537177487, -0.051020144558438736, -0.06804739178149787, -0.05705591031508944, -0.10370741924029349, -0.036180338121006614, -0.06728891843861215, -0.045662964263920344, 0.009778577843921993, -0.007059509804340218, 0.08434442021316096, 0.06995896073782894, -0.012595078585222758, -0.05485998072900845, -0.04568497563008964, -0.05179990299105503, -0.05917968145731217, -0.03470414037040486, -0.03790981367084754, -0.04001879391334675, -0.05176692088575758, -0.033797189753925004, -0.08185960603652029, -0.04815475107645569, -0.031367286931208986, 0.058654624218597275, 0.015040420510327104, -0.0665579467608918, -0.06959426871666785, 0.00380180312667632, -0.020104815650290857, -0.0567289713824943, -0.003156141976819196, -0.012588712561825423, -0.03280559584043775, -0.01439347291228227, -0.025043545354919504, 0.03943298833790181, 0.1414249687655271, 0.1400728043202857, -0.10318901396853498, -0.04701260821136233, -0.044512038304779775, -0.0411898373428774, -0.05013878822176287, 0.008345068070794803, -0.05803229711553626, -0.03545205553369028, -0.07693130448792809, -0.042167651735265724, -0.048868252342678026, -0.04278970077239958, 0.044631362670494, -0.0013918348387280683, -0.004934782000873895, -0.04494128131484635, -0.006879020551480897, -0.0033622211440708116, -0.013182795922779517, -0.029740385058076895, 0.009038380524691568, -0.06542524316898986, 0.061760843641674695, 0.07682277268543566, 0.040115228548979975, 0.07604823902395477, 0.06446772249905758, 0.22239067378374955, -0.05152201591096513, -0.053373731158063986, -0.06933998238361043, -0.04615022452935576, -0.0430610119099493, -0.019100175741037458, -0.021112929496460882, -0.004509835545760653, -0.03311750690509622, -0.04273684529987076, -0.014342653686681434, 0.013302612451607798, -0.008769185396236464, -0.0335567763913411, 0.035190236545289695, -0.02000968767287546, 0.001969892739247564, 0.04285480176435442, 0.053329090401627664, -0.017304480856501655, -0.013244396425524989, -0.017233826408732167, 0.04492737430138357, 0.09297460343536218, -0.0038566517981766225, 0.06507217796426941, 0.17664524501518156, 0.1719365067463589, -0.016765992817125857, -0.08525101039634157, -0.05149935626359077, -0.08863232508845263, -0.037334679926183105, 0.013475177517905328, -0.021534218177957292, 0.03491646640138089, 0.017319413557179565, 0.012300540189164301, -0.01892127114367785, -0.03433621728634735, 0.003987804934264802, -0.033495619324315294, -4.616174554603232e-06, -0.038951644194339205, 0.0329871828579597, 0.04767264612468614, 0.024653253646189952, 0.01743038485054114, 0.013832208128485164, 0.009312496782029351, 0.049144408320902534, 0.08943609797284743, 0.07839085700294877, 0.08827907641776644, 0.17338085331283914, 0.15978381297926897, 0.02370932529247403, -0.041126798909547534, -0.052723656527768316, -0.05522528280110795, -0.06640189366177329, 0.009647796147919545, 0.043732914994488364, 0.01791469537776469, 0.0018903265840606667, 0.02523557608636873, 0.03665111878179683, 0.07110367620261512, -0.023619276773876503, -0.01287210890184266, -0.0008214235583661222, 0.07064988140174196, 0.010070945943485883, 0.06450644031198746, 0.09439616093005708, 0.07041109326713182, 0.011818128647676276, 0.09128496656023263, 0.052437966322318924, 0.12875711062574324, 0.05979281784314884, 0.07469209700850502, 0.1596710623621763, 0.14040071763701503, -0.02875363918126133, -0.04533469902441117, -0.03150550379213256, -0.03166869431937677, -0.03254925027853809, 0.03941066030283804, 0.04408287132741673, 0.0037421443748506486, -0.005355108730694289, 0.045259258242979196, 0.0567829044961622, 0.0629746541858725, -0.03400339935807668, 0.021260067717531434, -0.0010905545189773178, 0.021056582833598816, -0.03463886175114052, 0.04902132623602546, -0.00661233393911941, 0.0183295962978343, 0.1322053358549391, 0.10111273087429005, 0.08828919497013013, 0.07742977663637597, 0.03726385565195521, 0.029516056253658187, 0.019956032665519704, 0.13759909728585928, -0.04649541292364044, -0.0540935893698207, -0.0587462377302833, -0.0685232562984097, -0.08805512264664324, 0.07138229881470788, 0.1040707599709456, 0.030652300581834005, 0.023758034082713313, 0.025139206147665186, 0.09008669933187181, 0.012118783799651232, -0.02011503704434901, 0.0023434808354537086, 0.017584263159444224, 0.018532240497975496, 0.00449419452057408, 0.057903510541856176, 0.03858250320151186, 0.05945867462640108, 0.15544445376632332, 0.05903893316931028, 0.03331356460247845, 0.08328270275982766, 0.10643044092677624, -0.02261043207855904, 0.037525738450365775, 0.07570247810400375, -0.048036588480536616, -0.006347419337567893, -0.07729008449955191, -0.0823121508834277, -0.027583111777167026, 0.007330584191916059, 0.07268536230707108, 0.07883857164289348, 0.05803972126461627, 0.06564398616760651, -0.0010460405754138958, -0.03349120651201596, 0.0380773311584004, -0.08380533292116803, -0.027937593722317033, 0.011397676702140109, -0.009192043839828168, 0.025984061466449136, 0.010822137892021952, -0.03701435324662442, 0.03633734934097423, 0.037196861603714396, 0.08130261124772663, 0.04796455089708703, 0.028897586447466837, 0.003989871242711948, 0.02746013677987099, -0.008342194818312472, 0.03456033217540826, -0.05573341359850086, 0.005642688162456704, -0.06817133521407227, -0.005798535615955849, 0.05094216120579696, 0.08884489563128958, 0.08378754731560373, 0.06097873632306453, 0.09734763242168158, 0.0280252433826096, -0.06119249048445943, 0.0084451688936702, 0.023108716793057125, 0.02585936502843708, 0.010219988089655272, 0.021663768084088403, -0.0028280151591434754, -0.006620711961803742, 0.051167955211869065, 0.06936658738177245, 0.09152364857894636, 0.07957965235916163, 0.039603540515897526, 0.03395686641786677, 0.009068137543115551, 0.0021879893600649414, 0.07530979258806592, 0.03447572114216963, -0.04656237458609173, 0.021588416140959316, 0.04655692765490678, 0.08323550352968699, 0.05346662580945188, 0.08953763172099888, 0.09969932710567919, 0.09017968891222759, 0.10238949082117171, 0.07644182257419067, 0.018536820888309245, -0.009663529124213432, 0.07369749773046379, -0.015522934212987694, 0.04774410089015299, 0.0585536095498519, -0.005066510798816776, 0.008697651903246121, 0.028290679435690694, 0.04790434113578449, 0.07611860196540228, 0.12375537719207513, 0.08553170585066001, 0.10038794138927001, 0.11781829946934547, 0.016229341852065128, 0.045060721788383405, 0.012762276299257271, -0.009057994229901955, 0.024587843725764617, -0.03175051685551572, 0.10160385971114544, 0.07617337876011654, 0.11223425895960375, 0.08859808509471528, 0.08227134466665142, 0.01313416734178567, -0.01910536215014406, -0.02281065839732262, -0.016301742296287197, -0.06515690740198951, 0.005482273936591194, 0.0016617993241233346, -0.009363479221532767, 0.0004166661151816886, -0.022597048880906145, 0.02417316088948405, 0.027607925647841907, -0.01810459895265003, 0.006913889305276643, 0.07069064001989173, 0.06312440563389157, 0.043978150662079836, 0.06970908949486741, 0.018681943137185127, 0.00783983192893364, 0.020475031775156777, -0.06995741853752639, -0.10620741002798954, 0.05949874902049434, 0.09280010687741548, 0.0141050605542677, 0.002558353434988716, 0.017733368645695517, -0.013163503274731026, 0.004479190362184294, -0.017004805764239607, -0.0666321725146688, -0.04551025070110628, -0.03199352758900768, -0.04283133805350591, 0.008945169039289687, -0.0028797159794343562, -0.01988476668871302, -0.016136765293533677, -0.04267964044889052, -0.034162383683188455, -0.014647211494848841, 0.056875718876658744, 0.10193109759470309, 0.012792792645282316, -0.007612974830182978, 0.08904926511807248, 0.017552626173555297, -0.018805885130384028, -0.06195383693755037, 0.007455875889146186, 0.07780789415606572, 0.02707922977045784, 0.004845434967446039, -0.003237770581363485, 0.02857298841034133, 0.059200608654248935, -0.026124747741805364, 0.016923668150987708, -0.06263821390683676, -0.03934706670926193, -0.022084095923710235, -0.022499446632622246, 0.07659151311586646, 0.008043095433257461, -0.009401095490754137, -0.05309280845769262, -0.06030113359276459, -0.03592504222138614, 0.07802431746016202, 0.042456592475630696, 0.07697242154127197, 0.03324676455588366, 0.014838033419588987, 0.022920074146413928, 0.0041301596178340075, -0.013654855110714176, -0.06929518498184586, -0.09194072049271358, 0.0289196309757677, -0.0051677693977334556, 0.04288879464972981, 0.06087590283733035, 0.065522956952663, -0.006196040099335031, -0.023860490923472425, -0.027158467102930885, -0.04927372960068016, 0.0018694739005040994, -0.05818339122817801, -0.032370016758816414, -0.0003941255108051611, -0.04269282443537687, -0.03472463550684293, -0.004363860402444679, 0.032844135713436286, -0.004296393262096449, 0.01801666741660754, 0.007768190998635922, 0.06541175799383643, -0.014768156099274399, 0.06782289215783247, 0.027547893473585928, 0.07638139686030002, -0.024807194533832504, -0.0879360334066295, -0.017768555979932155, -0.04217813202902257, 0.011600768083453759, -0.0060062588075508825, 0.05129698021764693, 0.12925219499040105, 0.05636895908220476, -0.0646396713398148, -0.034952972358182274, -0.02949746078580586, -0.10725752578260135, -0.12679517114610953, -0.04278117976171587, -0.03127738410516462, -0.050710943019302075, 0.04523751805915635, -0.014283547763198628, -0.02395382327760508, -0.036866198366007574, -0.03764501802349487, -0.04947624876956226, -0.05817611996581953, 0.047770010863658376, -0.043237479324899845, 0.02568331139379499, 0.02831989399641762, -0.03540888327772767, -0.11701462242024245, -0.04693938577882393, 0.005136328043997328, 0.001790390890109746, 0.08438091178791023, 0.08147950587567905, 0.07523567222460383, 0.023120805167696955, -0.009921169138768456, -0.042871972124942904, -0.09254393747011508, -0.10002983044004204, -0.03861707003192051, -0.062060102862440694, 0.045821939107528346, -0.08311529700145534, -0.03935327551893208, -0.09090227798804569, -0.07697390083043086, -0.05405625873814401, -0.06939058203580248, -0.006989023958465753, -0.06290679849594588, -0.040689657225437735, -0.06809186941875182, -0.020852462223058543, 0.027257844101141005, 0.028962695474168156, -0.04308468669252192, -0.03522334789873992, -0.10329431053908011, -0.021799350923867863, 0.06639527723333173, 0.06987335235566457, 0.02689057900507673, -0.05916204161207891, -0.007832271692800102, -0.02412279658878794, -0.09904788047766419, -0.04833845445689247, -0.06254484923913949, -0.12025812373907088, -0.019366006381939395, -0.08330886200519161, -0.04332933733620747, -0.10068000347434694, -0.08467183973942771, -0.02128932598332889, -0.03213567507159053, -0.04598082312348727, -0.047258776604086034, -0.013166733115517554, -0.05314429569944238, -0.02028003093565705, 0.022316229582401478, 0.05461090877440401, -0.00017393470568636125, 0.042758742398626544, 0.025717126941898205, 0.019282948351834864, 0.004717119854014504, 0.061867010250235555, 0.002661901253711992, -0.048202644143498355, -0.03524322108364785, -0.029241166634162357, -0.056295366284999086, -0.08133042658530681, -0.036650089497650855, -0.0563189989782386, -0.08326566487299618, -0.09118819362967909, 0.018046991919067803, -0.018266988451961116, -0.016870100541556375, -0.033917837292735814, -0.059935787291834505, -0.018467227060654585, -0.04229195565741145, -0.02227380172892414, -0.01062240042993158, -0.0022663605188971096], [0.00826436465579729, -0.0352819997466431, -0.05407757067556497, -0.01160521576818478, 0.04688148980395727, 0.07871884419465601, 0.01771263972824941, 0.1109124038937295, -0.02644005094460527, -0.03620140232111099, 0.12229087941909818, 0.04909625166751211, 0.04334500122255586, -0.00643736521646261, 0.024875770675796653, 0.02212554127948071, 0.12229011294837046, 0.08948434658817539, -0.0011274996277357992, 0.006956573131317095, 0.033128025225925666, 0.062509116439112, 0.08669005808188539, -0.03400705375289305, 0.009805913563738552, 0.0492672782076915, -0.08411828434857262, -0.0709282264945342, -0.07451322672481286, -0.11884464675109183, -0.053956819013133456, -0.0427779199018752, 0.001518378717934292, 0.014050748487065692, 0.009096416042476088, 0.07904228141115723, 0.00844483977499354, 0.055135624367539916, 0.05490470658175818, 0.02259512822476283, 0.07962784702980105, 0.07355162955962961, 0.011322667081719345, -0.04701512433245337, 0.004915590859414658, 0.04946504769620526, -0.026606003486108518, -0.014660975731550426, 0.0043661220048229615, 0.026298677541376384, 0.016512744214814152, -0.011287814815191713, 0.03006490415795489, -0.06159289094495003, -0.02371164642312974, -0.052327187456793434, -0.09490187260061818, -0.13753003071469802, -0.08878589921687478, -0.02725055321159888, 0.05465021627218528, 0.01043126571733169, 0.024761825515728496, 0.045688208536038034, 0.008701022836068453, -0.03207357431072601, 0.03954590412795017, 0.07540611316255706, 0.025443525544960415, 0.07523031821112013, -0.00715401264624607, -0.028556190787869452, -0.0469582203171749, 0.018579676925069153, -0.030908686967510726, -0.031742793382509495, -0.07118775512442281, -0.020821252548372724, -0.034069456354731534, -0.09395795326275386, -0.06998488591860028, -0.1599431223770738, -0.046082366320916, -0.10237604719413897, -0.07092369694066919, -0.11027659458965966, -0.09785941456667202, -0.0738603056037338, 0.041924273061119524, -0.026486972573747804, -0.07492134108328813, 0.03766223600792761, 0.003007689824830247, -0.05381415565529337, -0.019480880095383832, -0.05146776664159341, -0.03439373659067323, -0.021338758299089933, -0.007985920950526658, 0.03747488899035614, 0.02529542740788592, -0.021232031124342354, -0.051667312325575074, -0.03351483159136979, -0.0661806221137167, -0.06337122316177426, -0.039019296821400595, -0.01748060164235685, -0.0140563647179992, -0.0012899528647246652, -0.1443716396142215, -0.13766554957282962, -0.007505096919778586, -0.0782603188756409, -0.1406781458542181, -0.03106626798683129, -0.005498942424769122, -0.041131277211360145, -0.007765336228853798, -0.020252747202996347, 0.04615746637342236, -0.056523499313598374, 0.01044364285501788, -0.03380396128987511, -0.02445583099444607, 0.006157095238622881, 0.04629975123388105, -0.022029559320799877, -0.037705607172814494, -0.025376744529097186, -0.039992143858918354, 0.010326095206773321, -0.025781179331850014, -0.07344647145862178, -0.002210871507222204, -0.05628529502684979, 0.012504008272195558, -0.03978167906673226, -0.13107723133582225, -0.08361279461731519, 0.01518859987439183, 0.011202803620407494, -0.06831090176506747, -0.020069121758884798, -0.05126316951175596, 0.04815775477750204, -0.03788881966252313, 0.04234471302118481, -0.0007128781410903379, 0.025567463467727595, 0.03182978534925083, -0.023445087647658396, -0.009936289794324257, -0.021793106425328716, -0.0033294680791160873, -0.04895138816071755, -0.06782532188881879, 0.042196904991359245, -0.03470833720388236, -0.006368910948157493, -0.07184460416529771, -0.09291571097853472, -0.0898298120056105, 0.004391530730774627, -0.06550107943458958, -0.0655420794188833, -0.10364666649037245, -0.06008702393851443, 0.03415122208775424, 0.04473169067702405, 0.016767946477434424, 0.024803441180367675, 0.04766922970261441, -0.014113482626100576, -0.01132283926544998, -0.0024528252766960793, -0.0009757041844034854, 0.07316848241726748, 0.07598005093715034, -0.02048041438916581, -0.020375418506354777, 0.022707318717022064, 0.03188103841369204, -0.002736148364498359, 0.007071297993729367, -0.013940403976310979, -0.06702256570243326, -0.10539292567077532, -0.09972050244569554, -0.12981142449449307, -0.08090218028071999, 0.06322492289707277, 0.011321459776695457, -0.14769515217880813, -0.18546218528125435, -0.1124330169576428, 0.061779022707649026, 0.03451321413858913, -0.013608374028073567, -0.007239515866419821, -0.06332770970524368, 0.030222475435811233, -0.01925617722314389, 0.010759057091839884, 0.09146717391296268, 0.035305419508332755, 0.05082419599100488, 0.021257692061915877, -0.015474850979839238, -0.029941646976950773, -0.05960840366781459, -0.06595126694599503, -0.05564739289141881, -0.12450957178717577, -0.053294242030922125, -0.025852000031633928, -0.05882009648328551, -0.09378256495800898, -0.012944398636108264, -0.03730371271495081, -0.0400976816588123, -0.11989504612178589, -0.1048402168599681, -0.14331783887531252, 0.1198821882703037, 0.047660096772564046, 0.020200597794539456, -0.11737189459314963, 0.00791703683229782, -0.0066554422731700535, 0.022565765086382427, -0.006068867004579218, 0.042528074014811124, 0.0022031434372495086, -0.007041897034646142, -0.05973207491980418, -0.05135738121728042, -0.08749238394560924, -0.06856246135290796, -0.05029917127423989, -0.10755811492082598, -0.13131883881706988, -0.07321370128119507, 0.009004460172344662, -0.04990469472822472, -0.04581073498713546, 0.01654889480881941, -0.04293543256492666, -0.12030162019945109, -0.17752549968271006, -0.17443826166326443, -0.20763200637221718, 0.0702498348426179, 0.05116151368397396, -0.04810714432298192, -0.021725423110336407, -0.0639627506025974, 0.0010171399427863902, 0.06099084775478115, 0.04455274563225935, 0.07041953644802627, 0.08562621000822329, 0.04305178636204497, -0.04464854679082344, -0.025509066986403556, -0.07616364597525419, -0.014315954768507036, -0.11830230607091441, -0.08794074263374926, -0.0010219959782775969, 0.09020915500219229, -0.015392228176752926, 0.02438356588758643, -0.0058417352099989495, 0.028181442923548718, -0.05369826772652989, -0.08620771854556045, -0.04682425885894362, -0.1094086338473725, -0.17938050580589116, 0.11474790250126465, -0.007349257980968143, -0.036989701601878595, -0.0716850212565945, -0.0069757503595997035, 0.02871677974309442, 0.09898037628589194, 0.052077666371354886, 0.10262755863402288, -0.016574871334340886, 0.01804733229547992, -0.08369334760558184, -0.03154308369156195, -0.003949313522658772, -0.04213070212017223, -0.00976474402966946, 0.04328059411184396, 0.06744302870200593, 0.13798451653380425, 0.076440710437223, 0.02105894453711395, 0.028534137411473984, 0.06355978116255574, -0.07852078205448677, 0.010384331718626362, -0.10305768681175707, -0.10353895190023865, -0.17913516561291842, 0.07900083729000665, -0.03272704030113252, -0.09184580000412093, -0.10523305046429825, 0.004363914621653837, 0.05773237184645073, 0.07337439407869982, 0.05060161351168749, 0.07202959629420333, 0.009365942616414961, -0.023611702684036336, -0.055470128914811484, 0.025505475520979187, -0.05559212437552511, -0.07961492774976209, -0.05536973912279565, 0.09687867891745482, 0.10241466408750469, 0.053341078174408516, 0.09863835232571046, 0.04115538638261431, 0.09128138213151551, 0.013007349224581369, 0.02189589311481698, -0.013948165916773508, -0.025514084645362964, -0.08109280421363266, -0.1475156283952623, 0.027728036320410487, -0.056188697120595536, -0.12220392833120401, -0.10851859666766661, 0.04642900101057079, 0.02663481564776906, 0.027586804133151028, 0.07877590506385013, 0.011881947841709442, -0.001039934982293372, -0.07851339650084353, -0.04818314641650493, -0.03555230071133415, -0.06949333340404124, -0.08005741341226208, -0.028259282341679813, -0.006797558037117469, 0.03781533246085719, 0.1125836011374111, 0.0755647382062279, 0.030989666661640512, 0.052741290191581615, 0.05119267606939065, 0.11249564898997572, 0.025970851806275126, 0.07252631562741159, -0.06626643919815906, -0.05961969676200335, -0.053029839872452536, -0.11763669385110648, -0.10836800146911545, -0.1409050606020446, 0.01776753683755207, -0.01650537229878336, 0.032063542650099204, 0.036914510413102015, 0.0186605460878421, -0.027463090585434804, -0.03541421787467321, -0.06781021536280216, -0.014548858873867178, -0.12587394950707095, -0.013452359421949181, -0.04173223068612591, 0.008263037900852954, 0.009928286991138655, 0.06437279762208824, 0.057632845920874705, 0.09129384258363929, 0.11516757715991449, 0.07467550096897171, 0.1129343095386658, 0.0481106156541389, 0.03824621373924897, -0.015567639950206562, -0.04716021518746271, -0.0855738866990159, -0.116369644955117, -0.10284271123646402, -0.06162622520504771, -0.033746398353020596, -0.012468165429938892, 0.12466526371267592, 0.03378877807074229, -0.02775248168310003, 0.005917747265974146, -0.041605000024751114, -0.04689723019228098, 0.003387816083009309, -0.06433438614458692, -0.05407568823558019, -0.04522618749733566, 0.05697426843114761, 0.021166545242159523, 0.13317063281651395, 0.1196396726994305, 0.09555677048439316, 0.11039381949344504, 0.13519872094013505, 0.16145864364773915, 0.0929440943555608, 0.08663646545264647, 0.011055278885447512, 0.07833665803193028, -0.13479342383294912, -0.1700764439083726, -0.14670666892096812, -0.10693562119975691, -0.010728284237234311, -0.0387859578023924, 0.054559976112823594, 0.01948747794151953, -0.006586224729008432, 0.0033728717224071197, -0.04303643989675977, -0.012015552946310619, 0.020996771031602114, -0.07520751187135157, -0.01344794287029964, 0.0438433178558027, 0.05990472222247364, 0.09744894453703619, 0.12471311157946192, 0.09797019316069322, 0.05670227886375923, 0.1427204076928727, 0.08867636207158996, 0.10795408420522597, 0.1135096392583778, 0.04159782861704332, 0.03859352951214232, 0.046372747988727744, -0.10075066042299799, -0.10097189614488275, -0.09835999470547484, -0.06456372052920933, -0.053704058925957254, -0.05324114845958377, -0.028455088514268752, -0.035799183847371276, -0.048542516530883165, -0.027156818860158687, 0.03344248558973782, 0.015654134261327588, 0.018050544930406646, -0.03436520686287358, -0.02525632298538807, 0.041558836777571925, -0.033603890619064776, 0.0773186087524843, 0.10366271926929592, 0.13216568692772496, 0.08137407751290032, 0.07037095967737561, 0.1058378060367161, 0.12764763881251512, 0.06054049164365403, 0.12204015598013473, 0.06916728516806396, 0.07806826737678185, -0.08212916787007407, -0.062399997208802745, -0.10290537663913507, -0.025135532601417473, -0.017810793586317097, -0.04112837079689187, -0.020481587717776965, -0.046715559714321425, -0.04675723131308457, -0.04585837405262714, 0.06601027893580481, 0.002715082236130003, 0.02290180318370634, 0.010048286682050968, -0.016824190516864405, -0.0034701919786122018, 0.0028392314330389443, 0.03722594116347961, 0.055415578471261905, 0.12369303573563181, 0.12017892449003592, 0.07919542334710279, 0.08839866621312352, 0.10300185641870335, 0.11331576953862173, 0.07928869377744445, 0.13433825581625652, 0.09910314726237245, -0.06317788858456472, -0.1274562921597413, -0.06755882976889202, -0.1026414952922375, -0.029336333920773675, -0.007701155922054098, -0.0541266743603776, -0.09179499537147699, -0.007671978559566452, -0.017231130852038614, -0.0022787572703931902, 0.07392942276811029, -0.010203386746606685, 0.03214382447282079, 0.026262059184456135, 0.07658319121372122, 0.05189588897068523, -0.004369144885217777, 0.07144388731884789, 0.1273420196215999, 0.07771455404182992, 0.1720574743793735, 0.11545764391492915, 0.0854412122981786, 0.09623001467325167, 0.14160368794621891, 0.19330738114503296, 0.12187165970483813, -0.07630154746652214, -0.08496258792429612, -0.06451673972547682, 0.0520511771226127, -0.08495254236909161, -0.10697054840203672, -0.10609245106929265, -0.09032649010700096, -0.0023226155504209737, 0.032071883215246975, 0.038589463099383596, 0.07450966338664301, 0.003193980508969221, 0.06699905614205606, 0.03766240563883469, 0.08348285467136353, 0.030704842773957415, 0.024874734619022655, 0.04058898788111795, 0.06893510034533373, 0.09656290589994347, 0.07374375287205491, 0.07754622674267386, 0.12769405158194141, 0.0778579223955632, 0.12453689966189876, 0.1924256917544541, 0.1347299034882093, -0.0857705764395463, -0.05508651695698288, -0.0358237893738553, 0.012676992385940928, 0.0017782686482092777, -0.07604081994093201, -0.06392950159741996, -0.047276978650495204, -0.06473629808008388, -0.042546067479537396, -0.032725539491179886, -0.03983240768908766, -0.019254355167654183, -0.0485359323950166, -0.006558849994159639, 0.04513354015836506, -0.004527148532307146, -0.04859717119641144, 0.0500861446580666, -0.022017149180784405, -0.010983251986154071, 0.05237234512357523, 0.08787232367141022, 0.12697513067446173, 0.1577135954132117, 0.17319564459313344, 0.16127332997612714, 0.0875031202672844, -0.10337145720606986, -0.005275758756072024, 0.026666933209344157, 0.03854755274728013, 0.07349595460165413, -0.007908255641524557, -0.03251210493386026, -0.09983650329513968, -0.04384709887147114, -0.06780617311683122, -0.1549929196294522, -0.002115123367547503, -0.08214059238447104, -0.02992378616229535, -0.0036838392184125246, 0.026784131658258183, -0.019189246509217904, 0.001163855732300566, -0.012256871128212074, 0.06930564826893543, 0.026921913748626375, 0.03300349700836537, 0.027010128897791353, 0.11634619956178997, 0.1625444203617093, 0.2262010177899978, 0.16101654520726805, 0.08372259165047759, -0.07997326557142465, 0.032919819609553244, -0.0016166467513826443, 0.021784677681759113, -0.013485695754041516, 0.07346452142209363, 0.01853046598847449, -0.04221150520042891, -0.0786056430413858, -0.09761206637016975, -0.03450025752408504, -0.034461864640873495, -0.029056624800917107, -0.007947090155463975, -0.010188066657489097, -0.01630052331062284, -0.0042073625113716664, -0.051057009527768475, -0.043392378407180604, 0.026364386600177384, -0.0023697474471332646, 0.006493853054484924, 0.02144297121782428, 0.12147473947694085, 0.09826038655190021, 0.1064337438089839, 0.09768175960784009, 0.08171327549620382, -0.02557401626963463, 0.08080528459075449, 0.014892114229430046, 0.04419390243250149, -0.013862899977730717, -0.029896715789468026, -0.08228553565610584, -0.10735582202337927, -0.09668731736732555, -0.053688214489007235, -0.008961260001491363, -0.05728293394944828, -0.0491388703705741, 0.024407332768487635, -0.005849368299442782, -0.02483015963344586, -0.02657743460750381, -0.14003548907794253, -0.02187480942952782, -0.051526313103889734, -0.011937096452783, 0.03439818155082968, -0.009126639168319926, 0.051502661410386466, 0.03681137415065095, 0.03882257784814083, 0.07390689835832483, 0.06301686438729628, -0.010993863930388478, 0.06834078197473308, 0.13664750297453976, 0.10302972310613936, 0.006145208504724229, -0.022116227929877698, -0.06065249883077287, -0.1315049193533574, -0.05878346573904706, -0.08323108331255066, 0.006059195107243731, -0.06245450015675293, -0.07053770130592117, -0.05639188490039565, -0.07045919577762953, -0.05129647661140519, -0.10172954942904743, -0.06930939530812831, -0.006082886842218937, 0.025229149905971266, -0.024627556466691073, -0.07010829888832457, -0.02892124887380161, 0.06418418823941185, 0.057538097493528215, 0.0616192176817584, 0.06351641917846672, 0.06977448911891082, 0.03712384593293519, 0.08480763735176902, 0.1345770498768948, 0.12319150204834961, -0.058786252462601926, -0.1218061698262114, -0.17306303801702355, -0.18482809259034363, -0.13434451272026757, -0.1393235233423024, -0.07888657350503621, -0.10871710599860647, -0.05880728823167148, -0.07990879728002061, -0.10654222053954855, -0.03983719958690232, -0.06324844636781177, -0.022112229691738833, -0.08792358681124444, 0.039570050724959345, -0.07553031413633075, -0.07464393445503609, -0.02933018724828562, 0.0018441206571941802, 0.014488675727105044, 0.007728048384702814, 0.012578734989454571, 0.05048992165535918, 0.02721894113842873, 0.10031534678162564, 0.20717065139947075, 0.08726731641491801, 0.014157502745929735, -0.048401703727734634, -0.03337126224910732, -0.05883897470997938, -0.13857357016442776, -0.04763662017150679, -0.046861928473068276, 0.0024871416756310203, -0.05793733507447166, -0.041043823800848825, -0.05241886036743687, 0.005949723041156567, -0.07415284486980622, -0.09967433574785983, 0.05926104569387438, -0.025117272178189, -0.050435051129747874, -0.03559390465044031, -0.06688176430212055, 0.010405846709294593, -0.014321207140221332, 0.03307984339406645, 0.06812305833411049, 0.0008095013443617707, -0.017989713437487464, 0.1423246531807451, 0.1383711490307961, 0.07247053000525334, 0.014563288769256465, 0.0011350478793936943, -0.04068456856253283, -0.015484726129164168, -0.08780944579865814, -0.07930465211226194, -0.050782802668445634, -0.013650086879810472, -0.059434810639932466, -0.02282533542312702, -0.043885694908491396, 0.012256284053586378, 0.031108714949626796, 0.02985192287330492, 0.06682089519199695, 0.04072693606255937, -0.028797571761763903, -0.0932037638440507, 0.01549478813898868, -0.0614239561539396, 0.03069375263078674, 0.01585010930301918, 0.02648277242290054, 0.02169742808683804], [-0.05413150652288619, -0.011746116893535559, 0.03657382009239231, -0.011830627065201268, 0.0018057077014756958, 0.03886905157582653, -0.026869987830477178, -0.06689599508265162, -0.011041925918344906, -0.05765464189042862, -0.03173209135019288, -0.028442394725501804, -0.09266813553609281, -0.0834346636460579, -0.06319962812246295, -0.07568128893552985, -0.04726376435184706, -0.026624999837381272, -0.0698890099489583, -0.09983341887275285, -0.07072888960959026, -0.04943737955131752, -0.05680266813172389, -0.08026591276468847, -0.06987762141949896, -0.09513924973339775, -0.06177155992240881, 0.03835809544537813, -0.014575319318261896, -0.015460811984709527, 0.03569449609206542, 0.034280275908957686, -0.034779569971028435, -0.047492712390443184, -0.053747810687461206, 0.029425633929715325, -0.008116448409341547, -0.0476270446101918, -0.0958884832314548, -0.06798703673140681, -0.10238236477623988, -0.1454263057768987, -0.09787874247293317, -0.09742591906294465, -0.13327549260198088, -0.11311679112268166, -0.0738583353365787, -0.17866059133100293, -0.19568365125321188, -0.13693650055184597, -0.19562750304116475, -0.12430747015348985, -0.07242763207211134, -0.08330669996214535, 0.04140974467249637, 0.07323604610190912, 0.04196621500737253, 0.08193166091644011, 0.05426438934911359, 0.075313759095405, 0.034571802111519945, 0.0229416140053795, -0.0959425587158563, -0.031928821863845505, -0.0018568522690467124, -0.09178137768508816, -0.14842136872192072, -0.09899853386299831, -0.1378306330724841, -0.14151467429961914, -0.0825955707726398, -0.15906708654872237, -0.09678672505559764, -0.15147086946375632, -0.1848663344260226, -0.2514712920780991, -0.16329312798422385, -0.1973396727516195, -0.14871271026797955, -0.10215463369658954, 0.011978859753651205, 0.028443011759312343, 0.07134933151642332, 0.15124189802640542, -0.08246014624564393, 0.06493650214206971, 0.10959562273864772, 0.058295769363965425, 0.024236342128785095, 0.01164688567641515, 0.0010120357498302115, -0.06679658868866731, -0.055683121769036566, -0.05202069301375033, -0.10798228761841497, -0.06902748253088893, -0.06436799077061903, -0.16161430816325584, -0.031713275135205894, -0.18166480648956737, -0.19006256815055642, -0.17260165721554577, -0.1923995941423389, -0.2057705511656462, -0.14772615971779127, -0.08603553849477877, 0.010875972203087472, -0.04379058710639033, -0.018961611420605477, 0.07467273627911203, 0.0896764858023814, 0.09077182102128507, 0.028141697613298305, 0.12376285323578068, 0.13461485051827102, 0.07092314739601266, -0.03471271153058382, -0.04562435650319947, -0.17055278134018398, -0.07226143878802, -0.08636632798502993, -0.05386450540000878, -0.10769514771579476, -0.1381523713104818, -0.14313289545022456, -0.1800294787581385, -0.21344981468636834, -0.17762518647937373, -0.16037313827678093, -0.21977484952800322, -0.21786480840174074, -0.0883352393335624, -0.053459820296151844, 0.03257641675143808, -0.04126422460119111, 0.008674315715182967, 0.07057170221292605, 0.06242731475615259, 0.12071991025934177, 0.07714426019059233, 0.019023633568873665, 0.10133820122928235, 0.11721147232213193, 0.029334467267077446, -0.015268789682018774, -0.05121524776923402, -0.08137732026909213, -0.11035075954472044, -0.06293139089699276, -0.16163338783261125, -0.09109819812593081, -0.15672855881661876, -0.19190030236425296, -0.19770688959229707, -0.2247618033840343, -0.23954490727170885, -0.18041766279838387, -0.10915462864104193, -0.06834471334298052, -0.018038907815429554, 0.02210892309519932, 0.06833417991181233, 0.08178412123695557, 0.08002189220446129, 0.0580871473707624, 0.06137541622197516, 0.09812046486079486, 0.10341061988497151, 0.01722154768335754, 0.07082299033765532, 0.07898036767081379, 0.0336268140623098, -0.04083760189385169, -0.06164684878111921, -0.09236139450350289, -0.13472961521962198, -0.09313119641068343, -0.05435595096844289, -0.13823801504472183, -0.1790561196201963, -0.11462291502304284, -0.18912363850531663, -0.14709578800260711, -0.09578209657056735, -0.10971656512279382, 0.025875685118738192, 0.07720664241418605, -0.03056464127647475, 0.09763829093320296, 0.05109171930070746, 0.08626185335617123, 0.06700654179232769, 0.0617888443001961, 0.15755163897535787, 0.1451155868368021, 0.14823598886736758, 0.0841079056789993, 0.051789759495763504, 0.052355723418874, 0.04272048931895516, -0.07431701619952788, -0.09419885980050018, -0.14065504943367738, -0.07113724376427086, -0.11229301639331413, -0.05281700829832134, -0.08925762412280154, -0.13657163689650934, -0.15125351119180586, -0.12765479765572346, -0.01848791240807064, -0.05292939290223771, 0.04730691479542881, 0.09957754375344084, 0.11791324401378032, 0.05540692733586604, 0.043577008410913616, 0.05444180708128447, 0.057271578095197895, 0.18461901999231958, 0.11673357809083201, 0.1569562605481, 0.1943180031627543, 0.11663596205432605, -0.019953194169903807, 0.004170305252435346, 0.047796444881021166, -0.0038791676987037227, -0.10797990066644655, -0.13335189417607266, -0.08577602512956825, -0.11327073425119431, -0.07034157557680899, -0.10383351299032147, -0.0734635518026467, -0.13451801585568687, -0.04379694484834368, -0.0361762222684105, 0.036109445414740225, 0.16472096902115246, 0.1167316055912532, 0.18454009734207785, 0.16170424531228939, 0.10356228757920005, 0.04072231161668803, 0.10247040593508604, 0.16101663518856152, 0.06910734057041099, 0.04904742725824021, 0.16922860223724273, 0.1836000255104375, 0.10816309471368692, -0.013316342592480516, 0.05400546635648762, 0.05348500484609148, 0.0883890714684739, -0.07516196289455475, -0.13864390343978872, -0.08859155783052326, -0.09631814601929613, -0.08887587587284237, -0.027930893090736337, -0.09622099323222617, -0.061257758467705495, -0.020702789806666372, 0.059652333882582995, 0.20117336296004928, 0.20371631605674537, 0.19056299217520348, 0.12774058555721157, 0.11896331734704427, 0.14909578858499467, 0.14760640804235525, 0.10369129153039087, 0.14837319142152203, 0.1447360812968876, 0.09922118757153348, 0.15241320316310839, 0.13833824495336763, 0.011897404731489111, -0.0343836337643937, 0.013471513238278495, -0.011699476608709097, -0.0177953654490817, -0.07043384061594095, -0.018635190505276594, -0.13238021710001885, -0.11667630801331196, -0.1120541602874542, -0.10454441026754169, -0.004671116538655745, 0.021321767184991413, 0.0448818428259441, 0.11798391535081487, 0.21303595435411352, 0.2274137340214688, 0.17358820993185226, 0.11604402144706426, 0.1293159486371614, 0.10454921772464217, 0.08383326124277893, 0.06251148305924555, 0.12038451922179251, 0.11524684300878664, 0.032982647574569986, 0.07914376803993879, 0.14021141417936067, -0.02647715612476863, -0.036213291878206294, -0.0029622635864473973, -0.0074523312236308, -0.00970289830215013, -0.047582928350758266, -0.06981643805132108, -0.04832600391257345, -0.11581565376835391, -0.027296938379389932, -0.06331243064621872, -0.04108203807694408, -0.048890646174236094, 0.05612382994668326, 0.1831162933432031, 0.14523191058164905, 0.1315546264223517, 0.06082201532151497, 0.10808398264591268, 0.03596981785746248, 0.0873698242352651, 0.047471082568882696, 0.07153858353457028, 0.05874919262884893, 0.06366652488840459, 0.04428079878473379, -0.04693773338710802, 0.07434023695855536, 0.014437156891834804, -0.09929728978695095, -0.024486912628677335, -0.02196002639190492, 0.034080980341781836, -0.048285827888138316, -0.06891202862295076, -0.08145726322942116, -0.14864545023984327, -0.08823751697886754, 0.003289739064298804, -0.026510224498795254, 0.06470873440522885, 0.09471478374142604, 0.11855271029595431, 0.20479713436089694, 0.12933990318776745, 0.10841336329357486, 0.1597323751146524, 0.13472218385780962, 0.15185730232180797, 0.045406638429005185, 0.07064555369477929, 0.02025573604044615, 0.08586789545908703, 0.12196357574675222, 0.0058243414206298316, 0.04391232130517698, 0.015273501281314862, -0.10126449669262236, -0.04696239928016889, -0.054168790386190914, -0.0010360696504089061, -0.01744936053537579, -0.0020428723455330807, 0.0518974979241656, -0.02513718379971317, -0.0854978901415652, -0.02308527441331079, -0.010075011714801062, 0.06859572512680141, 0.11810651997578123, 0.09739954115882046, 0.19635072204820472, 0.17504594049468242, 0.1278216570466007, 0.09428215890900828, 0.07994748170942013, 0.13062012186211755, 0.14050239400342387, 0.056506032909827954, 0.022540712043015117, 0.111098295761414, 0.054405104880669075, -0.014405580925949011, 0.08569593328686298, 0.014087527188160923, -0.0537763323383305, -0.04258270465318065, -0.0019449193699095407, 0.049679644635298496, -0.01217346736659447, -0.07807925790537858, 0.043075225762881496, 0.010969500314969691, -0.09256854620020878, 0.039953631008964915, -0.017965703361582028, 0.07282495730193238, 0.1373466826661756, 0.12448476811815559, 0.15684448113217137, 0.13332856440914215, 0.20480157489226028, 0.14127379254837671, 0.1012866475373052, 0.14311079049797135, 0.03026580562633893, 0.11656427118935589, 0.05855076476362029, 0.04525709889391811, 0.009044840689650595, 0.05397328554361361, 0.040844889740423364, -0.015548277705408635, -0.07151676744587564, -0.05025053264340603, -0.05985644442749546, 0.06225550034636022, -0.007100425102645544, -0.01755632016965802, -0.010038228860261475, -0.03979435988382995, -0.04478447893335141, -0.041681343913217844, 0.01655029247706049, 0.03701833376749791, 0.12223410837579536, 0.08253709677148258, 0.09717357137746019, 0.14698057226313152, 0.16519294224138253, 0.1312852387850067, 0.15228424457537898, 0.04216004160965554, 0.06686785393813682, 0.04975509836139749, 0.025197729449315816, 0.11312515791136432, 0.038327679175042366, 0.007731553146646497, 0.02000969687951782, -0.005332162986065157, -0.05256838875885839, -0.12017214937485918, -0.035246423285458545, 0.06997498186565035, 0.016205114190184763, 0.10524575690974956, 0.04372473221403402, -0.00037974858392065695, -0.032583276187032065, -0.02407550223987942, 0.05556915881141178, 0.052765603459555714, 0.03860109753389354, 0.09409519974583512, 0.05723386235630222, 0.116061640912297, 0.14122801102512988, 0.11945268653778399, 0.09721917612132018, 0.09588005545207405, 0.1674426402807833, 0.09288059529971583, 0.00956042178639918, 0.049237276930244586, 0.030460413035682053, 0.01448430496174501, 0.006519585243564987, -0.028972538047368726, -0.09640542586024256, -0.045054418574338014, 0.05749320635584045, 0.0573378618988794, 0.027402114466654606, -0.031524680086715946, 0.009817753128891849, -0.01446801646646222, -0.08205105383835933, -0.026371644009947515, -0.010250298443806262, -0.04459849065685048, -0.0029167481969826227, 0.0849522672746744, 0.017295204052594482, 0.08964841816223348, 0.10759457778761594, 0.04828856039747591, 0.04483521785521607, 0.07726367663915716, 0.0015715941348291372, -0.016227779653512093, 0.007957415861795615, 0.005509735550416656, -0.005802612604167632, 0.04395976190400805, 0.03020582639863219, 0.0064667171984970195, -0.1551877411653611, -0.027294507050375245, 0.016704365966981608, 0.03171346209913712, 0.08267526844492348, 0.018684205684272443, 0.037491123522547166, 0.050722302692842884, -0.015847028269528007, -0.026085900049477216, 0.02124750221070393, 0.03563463402362353, 0.012845387506987419, 0.006102474593889327, 0.0552814772486698, 0.013604378511623407, 0.019191024586051035, 0.11039521623769064, 0.03696752911069989, 0.04490230005076201, -0.020912303493469345, -0.02954514725115236, 0.0041030921472899485, 0.03370962989679139, -0.03893036087090858, 0.057089333065392836, 0.020913860666253135, -0.017770542216787682, -0.10532470514611199, -0.026291925437262713, -0.04417117417972476, 0.042436924743222755, 0.03325780300914921, -0.013159588537328501, 0.04059708763240451, 0.007678394410662788, 0.02740068980205475, 0.003734939139776053, 0.06642707898855305, 0.05611817506165637, 0.013910642013497305, -0.0026066371755796474, 0.009773600176505531, -0.001848461215252852, -0.045819665361850524, 0.038697229929642946, 0.0014076250043301012, 0.04710139937704582, -0.05215072850226093, -0.029866963248087703, -0.03584051478189277, -0.028660599409748997, 0.03295069062603782, -0.004063878928364026, -0.004062806146442888, -0.04859784168656041, -0.06378260556810483, 0.02637306216952555, 0.07018789953917064, 0.05398185820212457, 0.08661912419111858, 0.042955242172395866, 0.09574062142739964, 0.06257812816116834, -0.0158400789431989, -0.07538678311853532, -0.019934043993685504, -0.050115591708699274, -0.06064741952572503, -0.07525832150497817, -0.055070236674824864, -0.009656526672136206, -0.018497711749140958, -0.02070885504940067, -0.007864419888158563, -0.05660904593241274, -0.019462205966360842, -0.10777360347271228, -0.0016093644966738829, -0.10829942312537098, -0.04455896136176373, -0.06422653691130202, -0.0033468017720383178, -0.05897122648652437, -0.03551802560017709, 0.02816680995308473, 0.11677258337517828, 0.05658001947543808, 0.046206164631914924, -0.0009765275955894183, -0.05107368839813707, 0.04091041195837723, -0.02384623237009941, -0.10535811981713408, 0.0002930212776723263, 0.0028124868649999834, -0.014680228759769763, -0.05708330810946031, -0.047205575742955364, -0.07080395772205769, -0.08145252436272825, -0.019446736648820333, 0.09167826561238143, -0.024507408226470174, 0.04767310878288786, -0.024811421840008077, 0.008690646629763888, -0.014725279266158004, -0.03456786335707858, -0.057159352229468684, -0.095280875116041, -0.027989263656938573, 0.07175293411202628, 0.0732427856465878, 0.0867754571866243, 0.11019788788594378, 0.060062109212150896, 0.03707732917209575, -0.03647990612787014, 0.03513557778012876, -0.04586807269570307, -0.06820795030857753, 0.07938454949556763, -0.0282207038546032, -0.046246599387939895, -0.10189272371831543, -0.02401931796605107, -0.021199321018610082, 0.005945863442367727, -0.055460306772882634, 0.056896108396236295, -0.023508606328178625, -0.013928779766898736, -0.07701360677502629, -0.05381375476218916, -0.015616166448958593, -0.0671349047269435, -0.04318427389507983, -0.06224538517365366, -0.06491611799900575, 0.07016302989589399, 0.1055342756958702, 0.13403868576572012, 0.11988773837637277, 0.12490100639291705, 0.08724855926568383, 0.028412857192409702, -0.05225963436104325, -0.0041885652961466645, 0.022793438335514834, -0.0011013293214388183, -0.028730411317229445, -0.027397107479647277, 0.0061163969542510745, -0.09393444805807358, -0.06850816137519791, -0.003980451083003008, -0.022506785123364976, -0.0186232599008274, 