{"layers": [784, 80, 52], "cost": "CrossEntropyCost", "weights": [[[0.0027761601791637066, 0.01990297971284684, -0.0124187444333024, -0.03524704956168739, 0.057121858146119565, -0.0023579490444761665, 0.05883915882922737, -0.007892915065702014, 0.01869304464704068, 0.04167772501291066, -0.03777167555540617, -0.05972109616765307, -0.031686591258844994, 0.008532321325744163, 0.04453532714566474, 0.025365852862088024, -0.09814509111027467, -0.04961698309120658, -0.0002258823081528228, 0.006802698077160837, -0.015572063367243422, 0.01071507514769906, -0.0490351384257818, 0.026243351043767477, -0.0010750166900723077, -0.01361414368736873, 0.06965342328083356, -0.022268480560319687, 0.03151782535723789, -0.005877893043129061, -0.01743880922630777, 0.03752331199520328, 0.06445648852991527, -0.002493058785414945, -0.01191288385370847, 0.005470989679780421, 0.07904478845373808, 0.08870506069590274, -0.030312516407680973, -0.026307102370098506, -0.022187116400130595, 0.011377049196906226, -0.022748354411093165, -0.0008913854479152107, 0.016669036558958957, 0.03199479807738886, -0.010770720766471288, 0.04980474399341111, -0.0017869890693039364, -0.01564456706915067, 0.006942556779914358, 0.032859140309818534, 0.03352082273065424, 0.01060282646904918, 0.020702262523218412, 0.05923999408366029, -0.07266675458259925, 0.05388479265866948, 0.010851637780600061, 0.06119270763095036, 0.08318446177734382, 0.0038426936267876373, -0.034029001363658266, 0.023152734609776442, 0.019624928734028903, 0.010653552676977648, 0.014722992473382771, 0.01979751074618174, 0.04104126735251686, -0.037757036495960405, -0.0010262038548583745, -0.017749898506901614, -0.044901724509649514, 0.011989893150773125, 0.008216276008482437, -0.0379498396791827, 0.019023366009855606, -0.016136498650740756, 0.02663618361350051, 0.04801016409029845, -0.04067171923461031, -0.01871226125871082, -0.019116528483720432, 0.013295811992516003, -0.02642799807524814, 0.03262739564941258, -0.008021994725134813, -0.004188963445565719, -0.009136634314191126, -0.01546663398286514, 0.022763654402872334, -0.04483803282796828, 0.01779144669286215, 0.026145468892578808, -0.019924878960076168, -0.024578506101018294, 0.02442388439225186, -0.009687695660057782, 0.05367153718447819, -0.04726223855521024, -0.012302433590875263, 0.030015797428162454, 0.06483937285986684, 0.08595860924744586, 0.0025280369930944153, -0.06147734915229623, -0.03315248049728719, -0.021423323530516153, 0.04993875148961197, -0.011053326721652447, 0.008289866042009021, -0.04994113113678523, -0.0013251421887943299, -0.012597054692639545, -0.03946127580019434, 0.03425246252264385, -0.0658167748111538, 0.009807339927805215, -0.06357244950135843, 0.08469347388824133, -0.005722575061329716, 0.055227850713535205, -0.03830751297147928, 0.04739317558044059, 0.006548504789801435, 0.03319630111912189, 0.01689839668098352, -0.01168306710337652, -0.0177321124188868, 0.034392471038116046, 0.01711837747120412, 0.00869576025361633, 0.02738392213501486, -0.03545182547779166, 0.015043570647031303, 0.01659600619779567, -0.02107501875906081, -0.01098239043506826, 0.09388179978508118, 0.04554926794493178, 0.007730265429048075, 0.028401305541638895, 0.07341412884820865, 0.03354211167641967, 0.05078912333193599, -0.008251835919895353, 0.005662302207263672, -0.02787006514837186, 0.007405071570905337, 0.014560697208431185, -0.019107080512634655, -0.03871224596228808, 0.021713518409141565, 0.017001019737773803, 0.013940172542411935, -0.041599818562991844, 0.06327246304966071, -0.029575234127274978, -0.006911363119769825, 0.004269667971152617, 0.04789044388285355, -0.03211740430338595, -0.02164257340528771, -0.030362758967233613, -0.05592008282985525, -0.015766970667178117, -0.010948027174774838, 0.04253267978345484, 0.0746205462068584, -0.001049608708746106, 0.003107050933945661, -0.030248619362645612, -0.022776578421241225, 0.039161087065868995, 0.027944570954347422, 0.007233105373030571, 0.0440909193704893, 0.01060649833185959, -0.01405273213900576, 0.06185887472778296, 0.0024083333801398514, -0.01665859622178178, -0.05320144037124943, -0.06518492060350765, 0.08942746610645697, 0.0011980449914887178, 0.06326118916519555, -0.006196989843939574, 0.023448379132621346, -0.06083985343880324, 0.02741720631606961, 0.00277130606280201, 0.04206467239673666, -0.026723181104345725, -0.08681620392681129, 0.017208448098699095, -0.001872132457086476, -0.05071162621644391, 0.041336785193760994, -0.07357133972451921, -0.0035230713342504633, -0.016744913673161686, 0.016176907627944232, -0.00996261898327721, 0.013310861135141414, -0.02682425734661216, 0.014712459922827357, -0.021900444230728785, -0.06464134379544625, 0.06570491584603369, 0.016679898572166722, -0.040097774131509736, 0.06557877492857316, -0.04387750326323464, 0.00532410366295782, -0.013427169042135458, -0.012550641299115867, 0.012897857407014783, 0.019304511572612978, 0.005038389227158956, 0.009448669486565505, -0.0546737334877614, 0.006124801266934854, 0.025478559102244225, 0.03420519515837642, 0.0013856345768226567, 0.013101218504494366, 0.013097233749994518, -0.013700261035493735, 0.04954039584854009, 0.049750412797353025, 0.02356945073323222, 0.015328489129542985, -0.023991456689441224, 0.018406082778803404, 0.03059099958170295, 0.028634151900362576, 0.09412342746024727, -0.008945625163453813, -0.007041076968604458, 0.010406122709197534, 0.011626470588351036, 0.00979623944303973, -0.04905926214489725, 0.018592868439980058, 0.03508471449694357, 0.07451870551369413, 0.039456180497534445, 0.07402428680760693, 0.02373159322748438, 0.003270535969424273, 0.031618690561125096, -0.033595487792181467, 0.011290176797764203, 0.059916934154073426, -0.05245853232310161, -0.041041055741423124, 0.015110251864788891, 0.0448172689785332, -0.05583586799609354, 0.04302149231212308, 0.11020027994774154, 0.026358176193492847, 0.018165941129247642, -0.03379302611942699, 0.030290477510574485, 0.04224222264158433, -0.010474735838910218, 0.013571165137313964, 0.022928594292968396, 0.06482324842653894, -0.01043043928841297, 0.03940644957059536, 0.039579089256987304, 0.013760241382971794, -0.00020006738107688165, 0.027327149982287982, -0.040277858529622276, -0.007169486549019128, -0.0091513036288381, -0.01195898174900391, -0.0011435911549458344, 0.00733367618703355, 0.018412924671878488, -0.02302510710373412, -0.000439558317712822, 0.014321115080070123, -0.005235062382046538, 0.04225649668921769, 0.004177584265638628, -0.024996724279210524, 0.013698730925993356, 0.03186556945847475, -0.020823274209018097, 0.016792793886749622, 0.04944133059265034, -0.017709025613644912, -0.0102172641952508, 0.0012085695174224819, -0.03460019022941127, -0.00382139848174069, 0.0269062501326158, 0.04378015667944994, 0.0016660166788008992, -0.007239896293811132, -0.0017538864187585683, -0.04434881626749701, 0.0422029656641739, 0.03518545206558392, -0.038352693167783905, 0.00570906123582049, -0.044279135258072734, -0.02665663015175845, -0.008064724124735807, 0.009622905594457363, 0.04703862919038785, 0.0009403879724816012, 0.006633366998575724, 0.02449037762732475, -0.041170056459401555, 0.03218490013941747, 0.01918276764531627, -0.015288802075315668, -0.002027035556174045, -0.005479034407702657, 0.043765051143079235, 0.017124123781559537, 0.019242107706992626, -0.0610389686857222, 0.05956458117389773, -0.042341178590625826, -0.030577997119961, 0.004299762718160429, -0.032236290414050045, -0.014349615319543069, 0.03950656742457216, 0.020696531787921503, -0.0821613516017656, -0.008734665564717586, -0.0008445697313860068, 0.022533902573079048, -0.0035362294341903956, 0.0016876227739495045, 0.0485536040210762, 0.013490037199371993, -0.006140781096236939, 0.037611397749971597, 0.01740472971056022, -0.0807689254330126, -0.008386485873961675, -0.02587172595366952, -0.05686680424951969, -0.007831558008209326, 0.020876244519322174, 0.015154479142968979, 0.0030006062175816904, -0.03644356404639442, 0.011724575805391537, -0.016335531022498864, 0.010022945525865622, 0.07967213461596255, -0.0077845991620460325, -0.014909282779092422, 0.03154524571598092, 0.047091614824001496, -0.024340128631137825, -0.015706319736492863, 0.004948424803576138, 0.02153477974449863, 0.07455058442285446, -0.007610623122474269, -0.02457572469272837, -0.010992431905802335, -0.03664877204460336, -0.037054279432776914, 0.014396461372735937, 0.028222137010173377, -0.012722491795367434, 0.062344948444077536, -0.015017044818593906, 0.02957319361466611, -0.012525034186243808, -0.038574399310632265, 0.006744919176141413, -0.026273344259072982, 0.0749221912584776, 0.026858172046381433, 0.046922617348831526, -0.010011948208743035, 0.008579957397047951, 0.05109702148500703, -0.0011760981662336377, 0.017124592636024807, 0.019535470819456675, -0.009953427847200167, 0.015574677547118455, 0.02081833178197553, 0.011047137641716527, 0.03609266880475157, 0.0101306285174737, 0.020503087164254818, 0.048487552083371036, -0.04138881002353802, 0.02238586414828337, 0.005391981851676792, -0.04811962048194315, -0.03261153825210175, 0.0338524305724898, -0.016951657145027842, -0.0030007133116234275, -0.004964168626872479, 0.012368606270829703, 0.014788040634453346, -0.05975787207441467, 0.06420798573616392, -0.006836646206884169, 0.004076588218631401, 0.10216418322291647, -0.010473687408846646, -0.004395033005154653, -0.0470702515561657, -0.018801547125100074, 0.014569264800585529, -0.008845434388266661, -0.06695766197903275, 0.046777042815215386, 0.0002206395380871662, 0.06613993702924367, 0.0233537750592843, 0.06351456165632668, -0.011215742434271559, -0.018332855663679693, -0.004477302946576555, -0.0034201026922056816, -0.0003091232418803434, 0.04458346817069185, 0.01648040394964417, 0.042025418567166226, 0.019299246717212826, -0.03670004881218513, 0.042896150108831, 0.06791667456308802, 0.035674748646401064, -0.06191520379770755, -0.0052557620774911174, 0.004263749438910921, -0.0075778210811567066, -0.0016316935405848332, 0.020608429179157665, -0.04954682367945958, 0.024616400638993376, 0.04258815785844745, 0.020898269362984983, -0.0092265368062192, -0.036046814649950194, 0.0003890856508798159, -0.01988752567279917, 0.017004492570319257, 0.04178751745310757, 0.046172572657555803, -0.07966134013615017, 0.02934118910392894, -0.012815573665368857, 0.033582056148276584, 0.05596282705304694, 0.04242854848159808, 0.023456955555743186, 0.02972136912201423, 0.02401624595904979, -0.0588832958193681, -0.004405991334534974, 0.0053105396070837136, 0.06528370139441078, 0.04587755116434529, 0.0749757606780101, 0.059538272941247306, 0.036238768800712674, -0.048501504981628196, -0.022240774687549356, 0.01939472743572999, 0.025252348073488414, 0.002266542129839314, 0.007460788059308654, 0.04446812921815679, 0.03141696282956651, -0.03058849271087797, 0.010210341197188154, 0.08127643591098344, 0.009065719157853017, 0.014552823235153318, -0.017181855944358778, 0.020879904611544823, 0.08038291925729696, -0.0019559377491110133, 0.05212830187337983, -0.02011391185934576, -0.06647200997260541, 0.015236344224703935, 0.035766021824928024, -0.039114773845030634, -0.000418909394935307, -0.017957366387914626, 0.0176235130489817, 0.04529968545236333, 0.019518042033669962, 0.041528384426969975, -0.038250980923213676, 0.03196838045175091, -0.045367874163813715, 0.026770655558327024, 0.0012112409812887288, 0.025624947999976427, 0.06458323488355705, 0.041734762635039745, -0.0012266348238409743, -0.04286968229079618, 0.08333023934652502, 0.024737087721832914, 0.030026836385841294, 0.010388877981698517, 0.008750523809019297, 0.03767192843596645, -0.00415537280387892, 0.0613540341763628, -0.007956176771522563, 0.06586613188664223, -0.03666113801738067, -0.03803940211654152, 0.03604786842108653, -0.0013243966299510503, 0.02430173822947891, -0.01083593180172488, 0.0068031510648128455, -0.0359048865339574, -0.020135253201473868, 0.026216123173051355, -0.00753145612743584, 0.014931614039119486, -0.06583513337220885, 0.022107221128303302, -0.004410903686204863, 0.03559951817910071, 0.010891698742587242, -0.04569477570093061, -0.03957201610370233, 0.05796844977468562, 0.0618856530672469, -0.006753670198087505, -0.007038910077063505, 0.05063122141944569, -0.0023490122736176972, 0.0530887851074774, -0.06541342208788742, 0.028464174107340444, -0.07621399913897704, 0.0075768465670230595, 0.011169007821621868, 0.015521094241371972, 0.07372237962637199, 0.035037388669385564, 0.007132989671472803, -0.054402138653755525, -0.03288362146604961, -0.043862340836323364, 0.028525719898581995, -0.042295798444439724, 0.06070251667572954, -0.01847345331637388, 0.01446375037749812, 0.08632533821700047, -0.00121212930461139, 0.004557816671329165, 0.054598541066253274, 0.03019404225254858, 0.05133656806858741, 0.038281090660646944, -0.010038682003242752, -0.03321285512590825, 0.02992890258519535, -0.03710740044638024, 0.019153970207114394, 0.005397371739038599, -0.06791370099354349, 0.010362659054158658, 0.04117581044150229, -0.005252201719148881, -0.0025406248549480833, 0.032342423844240145, 0.00868346210896808, -0.03735060944136729, -0.023797009928194803, 0.035264301855858916, 0.02875308085584914, 0.010886417018761089, 0.001567036716262946, -0.010832792183893625, 0.0015324478273331023, -0.00876034675811003, -0.055100814714104336, 0.0609884862044019, 0.04744946609622735, -0.040639293737836, -0.027925357392369482, -0.03032394385283314, 0.023267951670480305, -0.02965776241791877, -0.02109059798042562, 0.058397018034213606, -0.01725205855184649, -0.012185672114073417, 0.0059915156363795664, 0.07241755740189203, 0.01727722808032791, 0.035257618051323186, 0.013215455126103726, -0.033404378315155074, -0.041725331584767794, 0.026434270005079488, -0.04091127748411029, 0.04690702267267783, 0.007306168617271557, -0.03201322830690016, 0.04444392395758089, -0.0720330843224154, 0.01599019866009175, -0.004676057815564439, 0.029197122974601242, 0.017939115774410035, -0.01256175573962048, 0.025942973160314794, -0.023741900857825245, 0.0005422256854021643, -0.02983068178882953, 0.048517556465119155, -0.010969665046604566, -0.021450403442682706, 0.024367528565664497, 0.009611580469656744, -0.004209016527259625, 0.0128490364982084, 0.02395382575373331, -0.04025669334332523, -0.024666422520253518, -0.03710542558458013, 0.01723348934948386, 0.01012025205293597, 0.04740123423758215, 0.017528373409411067, 0.012040867182997754, -0.0036204628264150367, 0.04964797972246067, 0.024613084583838957, 0.012169835374123892, -0.021377340478831795, -0.018455370073054773, -0.008476331654246926, 0.01036237421595681, 0.023761249915254228, 0.0012539712007499702, 0.037887386109929755, -0.01634296207862902, -0.037670360856263005, -0.004116386496291032, -0.038917254195427575, -0.036912792390304906, 0.00745377409754269, -0.015854205661427364, -0.0023138127190297686, 0.06669744091487013, -0.0353334964476273, 0.03700895553614259, -0.029995167285125593, -0.015505506776727941, -0.005860044595074523, 0.016322081088805392, 0.031385996580004696, -0.0035965308361868625, -0.023956533509769028, 0.06281074972336709, 0.018219122420687742, 0.0019781320613440332, -0.030242869056636354, -0.029828806732909205, -0.0007294602179905449, -0.017511445783012367, -0.04676314616083882, 0.02940929162596414, 0.04137870531572643, 0.017374136456153096, -0.02468744677233806, 0.012301236892207938, 0.0018961197260842963, 0.03572413262013669, -0.050606338287709184, -0.04292738952241244, -0.024127111005950073, 0.01606727581356335, 0.017800319028940536, -0.005354611377126126, 0.025277174600274913, 0.013445849176169169, 0.0006921601869450264, 0.0246810773528695, 0.04903803511269547, 0.023269774214392046, -0.029093503638352277, 0.05837030481999345, 0.05174813436517802, 0.06959991033697772, 0.05201274009256181, -0.03644719841746674, 0.033059360273389196, -0.011007452577749727, 0.004122031515852824, 0.02380475531064223, -0.025620077943313686, -0.00504520891141124, -0.02507491918606694, 0.06518567957898043, 0.052396352177981435, 0.03763080344828141, 0.0456754171363228, -0.0018613383950721175, -0.017149206274571435, 0.003450051248365836, -0.015083243617497216, 0.02702122788433689, 0.0016979553002811887, 0.06530904350145682, -0.016467861047827107, 0.05598421220490286, 0.018575408269107398, 0.015261215006305378, 0.03298626454299781, 0.03178966329652837, 0.011674359193430805, 0.03802801256610141, 0.08122969972957317, -0.04561526843487653, -0.01917725606409466, -0.02724715870961333, -0.02154667798423998, -0.022191705023869825, 0.01663147343637226, 0.018021247846928875, -0.029733840097645653, 0.01406657318125353, -0.0009231505908441112, 0.017945005698671076, 0.03163426797489572, -0.041932058187664746, 0.028103360105866042, 0.04539263640231012, -0.037765506030808256, -0.002051799454184486, 0.03806181492086188, 0.08101404083644374, 0.024708321959622352, -0.04955190619703656, -0.02971463367784048, -0.013087880355063955, -0.005864183871535509, 0.030065386809253313, -0.004922777148307835, 0.03463344565275294, -0.011145859247139924, 0.013279782332156084, 0.0029299253648477045, 0.01760224766390657, 0.03603362639840424, 0.020565830992149, 0.022282337597481407, -0.03526485545690195, 0.011156589459824331, 0.03826183139625118, -0.019210281612019466, 0.031826568816507396, 0.01712223393547768, 0.03490194360439395, 0.06525948690286709, -0.022255844395718455, 0.05642560783134396, -0.07053821460722588, 0.09765646494593234], [-0.0025204200841752395, -0.023145383533650813, -0.012168215756380085, -0.010559328892428119, 0.03070286539249633, 0.0012797228966381184, 0.020257817055540205, -0.1068372298249853, -0.08528816538773505, 0.013469087938256472, -0.017923927522745055, -0.08393346060489307, -0.01918742036416863, 0.008053805725627933, 0.028680166158047277, 0.02468007727249243, -0.08052238149549369, 0.03869257296750184, -0.05015434684891999, 0.016328499723559528, 0.048004467411447725, -0.05126622654707333, -0.05324900625529074, -0.0440204524002515, -0.1252404870981951, -0.201246116615786, -0.07571927694393205, -0.046899872218547786, 0.006956163741240268, -0.005377439432152784, 0.006671982184867775, -0.04082198613516258, -0.06953710093616361, -0.015520359603238752, -0.10449635964521568, -0.12479904444398672, -0.12502376864396275, -0.13630092150520307, -0.1561984470050118, -0.14721179716761382, -0.12642827834166742, -0.08494682125153229, -0.12315398070294141, -0.10136130396284743, -0.10786456844461284, -0.10327871038535842, -0.09953476240815379, -0.06310959102632824, -0.13490235317640245, -0.14042297525456351, -0.2730186516814015, -0.17955570059575995, -0.2536189708050713, -0.1807622874954855, -0.11173587304657893, -0.026943884201913744, 0.0005011765645096143, 0.009664724762419965, 0.04147846183515063, -0.027407666738556387, -0.11518074226412393, -0.06585050003011264, -0.16820136894469737, -0.12492654055361245, -0.13344619774471073, -0.18492333173369752, -0.22369987073312989, -0.22843113673913515, -0.19912679399097846, -0.26894229554903304, -0.23653163681422967, -0.21720346482702482, -0.21320425545666213, -0.25978051986095263, -0.17270270591798667, -0.21948505490540296, -0.24285846488411988, -0.21766260935963397, -0.22439170538054318, -0.24698886785359114, -0.2222533162818495, -0.1829063453726424, -0.05005539895108838, -0.005418050966042395, 0.01335695427618766, 0.06731858989575455, 0.011781646698004232, -0.02803507883553576, -0.03315195846733312, -0.1458094346834924, -0.14044220771206933, -0.11368668540668506, -0.09762137765661137, -0.13324848762622005, -0.21278450305461843, -0.17802290200632492, -0.19577571977812777, -0.16908687454801932, -0.19745005627526704, -0.1872981236152167, -0.1357913284432789, -0.2053235498883233, -0.21438762398870845, -0.16076142876119093, -0.21743279641014138, -0.15160719249261964, -0.17757440112351905, -0.14808187893254152, -0.0756904609699062, -0.030435034939401785, -0.05363690543894591, -0.043048555348846024, 0.07774610298564551, 0.016565467483435563, 0.06678793015359732, 0.029109031379968467, -0.029420690576068314, -0.06153092327989328, -0.0949577314976266, -0.05281879922183821, -0.022783120662053225, -0.1039424239433727, -0.049183536752659636, -0.15483603747632754, -0.08215888193794608, -0.21108459922933281, -0.06219810380626866, -0.11187508381526289, -0.0899259273100675, -0.10811125176619424, -0.07736140480513067, -0.0678670590149191, -0.07242585751048869, -0.07563306682142418, 0.032130747767795904, -0.06219032975544837, -0.02531486606659211, 0.05572157364731118, 0.11181217699146503, 0.030562954276246754, 0.019787156941915095, 0.08980464750727102, 0.06272430328016278, 0.026456972469812757, -0.05404174864229504, -0.03518911878195014, -0.034422391861772185, -0.06096488456554964, 0.013211347138669437, 0.028199688730072236, -0.0472033746751104, -0.09013630953141462, -0.009466158059468868, -0.041394776479094675, -0.07434360528995013, -0.07663117620810563, -0.026708598647120635, -0.06736169334014132, 0.04667641795870998, 0.0519599118164684, 0.07719342507437371, 0.047190520208432736, 0.055535552079935366, 0.0788330408834192, 0.1102027285298467, 0.14417618168668186, 0.14826619705325783, 0.054545670294473124, 0.013027732784074736, 0.03895836369688539, 0.08327778513001521, -0.021159747832796904, 0.021346991957428414, -0.016357280329186544, 0.03129970911417028, -0.02227585294989695, -0.0019778617873047345, -0.04213303054328683, -0.044173120646617894, -0.02597515740992406, -0.023045085081366934, -0.045361669063843216, -0.017948045666596055, -0.024421442759190816, 0.020688033394823894, 0.09947499224241502, 0.0873056249725589, 0.07957689903791954, 0.0945362622072103, 0.09946415652893673, 0.10856252487317211, 0.09987705690043043, 0.13237048546538752, 0.14252425038160585, 0.14636992431689358, 0.12654388722199308, 0.02912182496659579, 0.058322098292971955, 0.08203406869935655, -0.0037048252438078976, 0.01932523361799706, 0.02255027995507089, 0.04634372642044847, -0.0419148839947355, 0.057576522354801485, 0.044817806496976885, 0.01744471868104652, -0.01294440002918807, 0.008140820538734191, 0.030730074499475325, 0.0692463140933759, -0.004468737481442438, 0.05663110433652295, 0.06368248627636346, 0.1135861164532639, 0.1364944894361689, 0.08766158986732757, 0.10227705605909092, 0.16651450113861369, 0.14022634268545214, 0.10512718518379686, 0.12779195688489434, 0.18571033820178023, 0.06466835275410017, -0.00987917924274259, -0.021886579051670938, 0.0727148402016678, 0.052817386849212035, -0.07044497011654391, 0.021863342986296743, 0.043150564107120815, 0.04943666033208008, -0.022315758745383035, 0.062046726426812186, 0.06717738572584435, 0.10821398981834507, 0.05143623190677049, 0.05838900606590041, 0.0352277491411901, 0.07791409390493294, 0.06664703031851, 0.14934729936460894, 0.06696560951268234, 0.12315783311218613, 0.09729975595076547, 0.11914954020636499, 0.14902989989759333, 0.16400166860762166, 0.17123676093435633, 0.1750233221867707, 0.17616667013412848, 0.17524455049074392, 0.05645592222586658, 0.07323006712841758, 0.04622680783177188, 0.03495805933891702, -0.0016244124932157122, 0.04673764996768133, 0.06381538401543985, 0.038553229132481576, 0.03521200355392063, 0.06096941067358041, 0.036305714217199636, 0.11071777055394424, 0.06328820034423632, 0.06960289369104512, 0.06001588334670373, 0.10448113396303971, 0.02914983859531372, 0.05410968649902679, 0.10378592659906286, 0.10740682456384074, 0.0951424568147361, 0.09823455767532428, 0.14013687771010716, 0.07481074985328191, 0.12935361115624724, 0.0866104115833873, 0.13831459397036913, 0.1498599183145495, 0.014205433647819364, 0.01763567536868628, 0.009758436223491502, 0.05446466987080662, 0.05088901029115986, 0.053406656281195716, 0.020218674919094546, -0.020950361837267915, 0.06549037110823477, -0.012316799511390966, 0.0193509456435001, -0.008742998372972058, 0.0261334279596828, -0.012007246428491752, 0.020504086031084293, 0.0033872326222404454, 0.0024826003178394303, 0.047109637874550046, 0.05121615655330167, 0.06855071552443141, 0.10273747437504847, 0.06619768968915518, 0.10766486580283634, 0.09680531736381111, 0.09327732954269866, 0.10321192925445288, 0.12403716817538889, 0.07512875970402629, -0.03232959224165823, 0.06519368757930799, 0.10602491548299203, 0.10204143603219389, 0.07448274076003047, -0.0277863672791654, 0.04634413383674489, -0.01223821234179038, 0.00526292074683937, 0.02819641651472006, 0.10831426419670905, -0.08183176328192827, -0.0008062903945056416, -0.04049447170147428, 0.0019171138249193765, -0.0372568410899805, -0.007408012783604083, -0.032923595124176926, 0.056255214582805815, 0.06496572676359093, 0.07416727085596111, 0.029252892191114325, 0.1424832202191204, 0.04784101255654742, 0.07103971092533974, 0.09110421033242169, 0.12700254587844165, 0.12376125833438205, 0.03416989094946791, 0.0710790921285112, 0.06686727520953371, 0.13546124393420325, 0.024583909946941745, 0.06357516330057227, 0.0830643622365772, 0.014630334914699812, 0.057421520684429427, 0.04809314415148562, -0.010082359447578012, 0.009025469643905505, -0.009669382382208979, -0.05845273509295489, -0.020414553727324505, -0.02559164950968435, 0.03693720788051314, 0.022080535412309997, 0.01608076194655874, 0.0272498096308187, 0.09889407903113513, 0.0031747409071850837, 0.021050804318693647, 0.03243336345376337, -0.027426397926746497, 0.03932756402951871, 0.12303638047192088, 0.07963164272944886, 0.020002409386172284, 0.06790331342487646, 0.045572557878729776, 0.10358450170197532, 0.11423404405070726, 0.1220907858915212, 0.06413948045981294, 0.054258295340828336, 0.012158183190249501, 0.08360150934422814, -0.07829215635262614, -0.03853627754841382, -0.057815831898084515, -0.06411104773329354, -0.09260561094048196, -0.048714429876200394, -0.006075367702342022, -0.0063801032316581595, 0.03593435804782909, 0.02082332773508415, 0.018387096618784435, 0.012709721156352504, -0.037873972911878974, 0.015576421154041028, -0.013094757058500038, 0.032237179191891, -0.017969128048994178, 0.08232839890957591, 0.03637727966312593, 0.08133659942422432, 0.03077024939879796, 0.140907040549911, 0.11900332245290512, 0.1806941980150809, 0.10219050346037446, 0.0346697431033324, 0.06485729317844709, 0.02805408559517973, -0.09583696656602549, -0.047280014699154854, -0.10957226522453556, -0.015006418934488107, -0.1051213562946013, -0.013252176788511144, -0.02961026524499295, -0.0016773922248577364, 0.026117484799595803, 0.008047471164226902, -0.026093896034859565, 0.020162255241069644, 0.014517895308585566, 0.0375348557468343, 0.06722432392433925, 0.04423658352825198, 0.060689247176120814, 0.10177051304655164, -0.000735111402402566, 0.053463404480162846, 0.10787321856104505, 0.03825288569043853, 0.13786438818197988, 0.11223764177387097, 0.07654210865403392, 0.029290618819069653, 0.03699308678146332, -0.0720100105643806, -0.03207636994302112, -0.10066185414289885, -0.10101033874327323, -0.1091582596657631, -0.08686549956483464, -0.022563272133157283, -0.05608800002360047, -0.0622267350659667, -0.00853428986670182, -0.018554853673487852, -0.00792382768934055, -0.03550160108897065, 0.017850388623129335, -0.002190940185447995, -0.03497128645955977, 0.013155629382224412, 0.009606538760361036, 0.06549742411045513, 0.08179733331941622, 0.09692289356224795, 0.083217316087056, 0.10711282916519431, 0.16662029309407378, 0.21757594295747423, 0.0691827320208515, 0.06194521369683588, 0.03809841804387744, 0.004909219138248262, -0.09832303124348325, -0.1357777785671497, -0.1001933436788523, -0.1112671610407944, -0.05184277658567638, -0.02730546306297187, -0.04467681106267416, -0.06898590027342169, 0.0004306678946649801, -0.08123336521948701, -0.009434557976083476, -0.006321514763799138, 0.02659583036339773, 0.050167090182514425, 0.03870677199230486, 0.015973389898524246, 0.019938944270315225, 0.01761977650789577, 0.06465852353554585, 0.053070756505845466, 0.09364553528760923, 0.11054680140300445, 0.1737703145797446, 0.12172264600773339, 0.049075473174196915, 0.07331192057528955, 0.035234045201822745, -0.05394327715104851, -0.02300592821818291, -0.03837598531025842, -0.03886207013658796, -0.12881940811194564, -0.06570630748405477, -0.055470100402676775, 0.01830519351912853, -0.0778380442097895, -0.055191314123709485, -0.07316334704899691, -0.03768193451797645, 0.01931826848784919, 0.003359406640238619, 0.02327952326049292, 0.055470995469007266, 0.05717724602325466, 0.050537439086059385, -0.017724126892608976, 0.07728222034949621, 0.023731098347683627, 0.09757143146779937, 0.1254407895521028, 0.10518118984625086, 0.0912927222834216, 0.1557777430342423, 0.07606934912285669, 0.07605970289519033, -0.05781263058757245, 0.008646667521742443, -0.04878260597240305, -0.19607583672599457, -0.11524866913428888, -0.04374286505262837, -0.06943764867345001, -0.07287113507000235, -0.02782293210968043, 0.01259535375753427, -0.058157942509244415, -0.018556065336495068, 0.03304874393290089, -0.005253796793937425, -0.010453476171213644, 0.03326720764694833, 0.03410905224308862, 0.0595290899969519, 0.04719983122839405, 0.06609013457033504, -0.002351783663716562, 0.0230870796829117, 0.06805152156840867, 0.05761926097562541, 0.10795926023053588, 0.08955837736203846, 0.05348426583450451, -0.023912135599943256, 0.010776323572989814, -0.06254808965609039, -0.04413264157086365, -0.10324619118614269, -0.10932028905584572, -0.04745914311987267, -0.039500666776954414, -0.056382796108335236, -0.043642885713314865, -0.03829695669543373, -0.011056329490027604, -0.024106944157338564, 0.016048088969049464, -0.017005058849164513, 0.02705498926970283, 0.02237153286817645, 0.012693664225396096, -0.0329226291343185, -0.0035178978758133653, 0.0055656643938153064, 0.012132059370538587, 0.02379782049429096, 0.004677340021042601, 0.07177595302725881, 0.14648507157027835, 0.06405955958804016, 0.09110044094791474, 0.025783665075637088, -0.08563041982017305, -0.09476564995167079, -0.05573006125001382, -0.01744406442358847, -0.04205899084224791, 0.003917524415750369, -0.0003558365385949628, 0.008652434728429657, 0.02564485729555574, 0.002622092738546695, -0.033340542306725875, -0.03819988152813982, 0.017672532336276383, -0.013349584812763443, 3.857063325523821e-05, 0.03498711021530409, 0.026230779321768073, -0.024791580377051908, -0.03237744991789287, -0.020979617138180768, -0.007401591333474432, 0.002895180344063975, 0.04615905736889932, 0.06253783837773265, 0.059608366737373165, -0.001959056131999803, 0.05748241314445874, 0.06390827790942044, -0.020796650620568517, -0.06327742643521707, 0.03245958317006023, -0.025689935706429814, -0.08133195381867431, 0.029226068237283933, -0.06793354736221068, 0.017822058530813638, -0.02791370377923936, -0.03184451734078602, -0.06161385862111216, -0.015751698613099874, 0.006653170062333068, 0.0031289575052786713, -0.14406510303913964, 0.012581845798108863, -0.020063070193988543, -0.03591758010736858, -0.015058311456325926, 0.01131684679779318, -0.01631781602680333, 0.006983287671758328, 0.07230330125093695, 0.05810399245278625, 0.02131796206572121, 0.026430540471803987, 0.035137701794055023, -0.006419178304300944, 0.004640764796868961, 0.058753018469384154, -0.025001635445658095, -0.016530727403082913, -0.02961354979247437, -0.029925096337874112, -0.04832611109552381, -0.01951623207334011, -0.03515337637736482, -0.06883746220068838, -0.02236393757856719, -0.022796963321266416, 0.02708392063519731, 0.01116577717409465, -0.010085797135995897, 0.010194623247934027, 0.010957531945335518, -0.022762816681979475, 0.06005328466393336, 0.016686943817810426, -0.06799807238611776, 0.06293535166530827, 0.015194468628464292, 0.05516187617998532, 0.10244481348739476, 0.0294826824492827, -0.017250446315560945, 0.06680808621229513, 0.04448636050768922, -0.006904221099582579, 0.03159655658854835, -0.0581755573913861, 0.03136056443316688, 0.017428595858086034, 0.008456753390367097, -0.05794266708033842, -0.0595527140938964, -0.011123537773542547, -0.06022979022154485, -0.04661857396297915, -0.02539714107974918, -0.049060216218355976, -0.021103416719375847, 0.002377071145935658, -0.02033873852483384, 0.03995888931896255, -0.030062237858166526, 0.01795249176669744, 0.04418331873334993, -0.015123103591059386, -0.05411066693591956, 0.02481554972189397, 0.006648879395132439, 0.047591163255817685, 0.009523589649422376, -0.038723172206967284, 0.029098060889509746, 0.040228180636077596, 0.046448023201857334, 0.08031513974399682, 0.006237990290293625, 0.005230415805542952, -0.022415160253539183, 0.03174316566448637, -0.059405779629877364, -0.015294974131515943, -0.048857723694048255, -0.023558958943398284, -0.09824393377737602, -0.030333794592082474, -0.009858814633609297, 0.011844580583259792, 0.028337823228545844, -0.03384388397982458, -0.036012455388520576, 0.08396843848160385, 0.015021347273243953, 0.012666442116422419, -0.04028303095263808, 0.02494054660671366, 0.05367740726276226, -0.06497991417768628, 0.019657633361016957, -0.0573727162013, 0.028842090877010593, 0.031057358492325847, -0.01172435878182425, 0.031856331466293936, 0.011026918944902243, -0.05666271650058022, 0.03347789365741245, 0.015585100138351113, 0.04574799813297838, -0.022417233094883127, 0.044014716195299355, -0.008902546687694633, -0.06340667985631178, -0.03340098251931674, -0.015679669697059077, -0.000516726742211061, 0.0162462212004421, -0.017967967044579727, 0.020169247254005065, 0.040042941173439386, 0.05190444915736041, 0.09683767035497777, -0.0007883923506594308, -0.08766982573851764, -0.006563394421250381, -0.030902109182413307, -0.02557694041998497, 0.012399701029468134, -0.054987938459288094, -0.038092728983620046, -0.07806166919511702, -0.024190407341004635, -0.053420936034526856, -0.0003204318778020462, -0.04803621347075519, -0.09131266100998471, -0.047831093816550874, -0.0019261586597290247, -0.05810013466664225, 0.011943734720900257, -0.02235169329393987, -0.0012433146024956568, -0.05352838353102815, 0.016284533774807923, -0.006278000432645594, -0.00024739335534534413, 0.03543703273605273, 0.030938766343312375, -0.014096653272881574, 0.04697909911147941, 0.05527715242751327, 0.0037704238798148947, -0.04544651132340228, -0.0730020012626693, -0.06150985093863149, -0.0749592079094077, -0.06967198890994698, -0.03704121496954241, -0.04111684631629239, 0.028342670317071404, -0.04775922791381048, 0.030605142197230244, -0.02546069844651531, -0.019443484776029335, -0.08693527627931208, -0.010264572412426997, -0.022087517280017985, -0.04992935033577087, -0.03219854601244615, 0.015132300795621082, 0.0871456475989107, -0.0034218437170217744, 0.044224702785087916, -0.008663717281186725, 0.005626416213863754], [-0.023674183896635805, -0.02996027724734012, 0.019254251714947827, -0.032192659943311976, 0.04234062764508968, 0.03978454959327771, 0.02604119333084907, 0.022596438900065047, -0.004390364109657778, -0.007988568316895253, 0.016645867065991103, 0.05304372677955347, -0.02263885946695557, 0.02828987442253101, 0.067592222524979, 0.005648837704151868, -0.01681147549111546, 0.027973936995218086, -0.00593113587529045, 0.006095533705307335, 0.046952427260682536, 0.022128716324111824, 0.050399803143531964, -0.019119734513577034, -0.01650797083908153, 0.07231090985474747, 0.06443479776503387, 0.00423812179425881, 0.04042003359269199, 0.029728575021512486, 0.024501125716909183, 0.015035082277197938, -0.013437021115294443, -0.014247137490371306, 0.026515644334471223, -0.0068827266801975515, 0.02388846470529533, 0.02608281889593154, 0.09485592996939875, -0.013721330297812653, 0.06893760642796821, 0.036333373703122666, 0.03189616336257308, -0.007219654632501928, 0.046657598173720824, 0.01734817887784324, -0.009668886613863354, 0.004253660171804981, -0.021644300460112217, 0.03764102278571841, -0.011866086939308906, -0.025917931932087242, -0.01112099428741921, 0.018843364018671885, 0.0012851934358595405, 0.039634250222119354, 0.015543192790428914, 0.007693148113943172, 0.0006088636872544167, -0.004191830105851788, -0.0027610072209353067, -0.028214380735684223, 0.04159036110498713, -0.03788898890515673, -0.007676727231230165, 0.039680793771837475, 0.04879384764461545, -0.05147687384982289, 0.04067359054370374, -0.01760411700777586, 0.014000750479753757, -0.047801105837603226, 0.010861592694105927, 0.003264777881833406, 0.010753375443140185, 0.018939552877859405, 0.08306685637880426, -0.02140688952371544, -0.04884074576378703, -0.06174386149561768, 0.0035741604081655255, 0.03357393687241912, 0.026693715974713005, 0.08530250776434757, 0.03931031422894577, 0.0576091367324705, 0.022039403436382672, 0.03746021901501481, 0.058025730463913815, 0.003643551230827295, -0.04770491797628399, 0.014577972962471335, -0.021200628802671116, 0.012546417035491983, 0.0218052626360807, 0.016238231543913066, -0.011582616275455043, 0.0066635013851687385, -0.04176727220518322, -0.012170738079281297, 0.002325919941869659, -0.04790015531801096, 0.05530819031420692, -0.010848003936404248, -0.008385341639454268, -0.02133094471485238, 0.0010547079193342131, 0.05096837222251221, -0.04415614605272276, 0.030700515273041233, 0.08284644889206423, -0.00012333586652979152, 0.05622362331943349, 0.08464641406678469, -0.007734551908068744, 0.002856155225523122, -0.013271716149751055, 0.02604989103528499, -0.014000105301615853, 0.008608443375238625, 0.032357924074092395, -0.005906911793131548, -0.010161476077281292, -0.029617967502426876, -0.023280096684033892, -0.05728253127362928, -0.030792298814880662, -0.00810833705827652, -0.001290997412353847, 0.08237946252397353, -0.03462582739618557, 0.004971611533970461, 0.023789673028689257, 0.031436880865587546, -6.0902897616171855e-05, 0.03454256969032184, 0.05847322662316513, 0.013134247989153565, -0.019480498237552178, -0.028063716538766693, -0.030489537769761026, -0.038595528510630035, -0.0068485221722414105, 0.019356068564590892, -0.007782553996871859, 0.0071619715506653055, 0.027430749150893535, 0.008467195264521606, -0.07451806330394802, -0.044541034093189096, 0.004969899267097409, 0.017218930360362632, -0.021232192386688796, -0.013827993952733314, 0.043005214075645004, -0.05938273051581831, -0.036656121524416115, 0.041917811275778455, -0.02150276774272913, 0.038548878678044386, -0.01249578353592168, -0.011280658262456864, 0.0535449902919929, 0.035089221167538584, 0.004887735275466447, -0.009805805874162292, -0.08524681706487228, 0.033111745927785895, 0.02751548568865794, -0.11370636154715462, 0.024055313823582985, -0.004319650712296211, -0.0007242044127111273, -0.048421413284181404, 0.0017652849323875543, -0.01804026628085005, -0.022255472174525604, -0.004403576469488129, 0.08256770329590919, 0.08005467597844533, 0.016770925531031832, -0.001494217882969889, 0.049169685102194965, 0.009251164070995915, 0.00834075353114108, 0.005146475765654936, 0.023136593107991828, 0.12168688796138702, 0.04759570746566622, 0.051255500413990816, -0.007315190075154329, -0.020894168130766843, 0.0018958021993086547, -0.020781210805830876, -0.048560120282387736, 0.03484191035209521, 0.043283208408904365, 0.04233094652920877, -0.018030402966432678, 0.010616196005992968, -0.044708393990550335, -0.007840975017883507, -0.06165638988130924, 0.011217847420132382, -0.04477702049028299, 0.05072484214828062, -0.05206622619046837, -0.01543753928414363, -0.04615684923626989, 0.046496159764058215, -0.019454082024631534, -0.020789948611092006, -0.03177120346539567, -0.02819218601639572, -0.026805777869177566, 0.019559659334890355, 0.04804837104919692, 0.01156520457959097, -0.003324828912545891, 0.005793666408947379, 0.07275991157679788, -0.018929119625469473, 0.029877877086089785, 0.00046139541078465686, 0.015210371488964137, -0.04407900945570181, 0.042173568432746146, -0.04852244734980186, 0.014686505115831196, 0.00920825510652431, -0.0176280984518918, 0.05647314325216535, -0.018015814795906755, -0.019312108305652127, 0.008609032020871118, 0.052740630287487954, 0.04577878642457871, -0.047264090497450645, 0.03269334553540027, -0.03573919003864702, -0.02817536889851044, 0.0013362376890200202, 0.030695178767016145, 0.022378217285110864, 0.036417993118543754, 0.06384539112428478, 0.058051777790017293, 0.05164402103435336, 0.042773107860991505, -0.00782587087762073, 0.006867055162592983, -0.03413566015551375, -0.03570701945211985, 0.00685981944451445, 0.02521799784973532, -0.027032256055419486, 0.04419333009056898, -0.010887933014328078, -0.004252698774078866, 0.062379437308335346, -0.02383711725040487, 0.053145975742618784, 0.03341614125078519, 0.031068693509849806, -0.0020753158103384906, 0.0036556183469776777, 0.004177696756689235, 0.011574246192808413, 0.029250552014005952, 0.06765403163065181, -0.012248217144769535, -0.0191904684426036, -0.040732157749301466, 0.03772704079325783, -0.014708942092215717, 0.023756687276126173, -0.02560112432606284, 0.005656971127980964, 0.057564930067159736, 0.02576358568994547, -0.015031586167470945, 0.030541368448818728, 0.07943757291352943, 0.04279869085009443, 0.011797054051799805, 0.022139579626412515, -0.008142998807772668, -0.04880196529241871, 0.013033043758787352, 0.013147828168208205, 0.030524431682977998, -0.04059291438625623, -0.038061382480175945, 0.025749132519647264, 0.027504759063321105, -0.03940811198985308, -0.03579138553101507, -0.008076252790762097, -0.003470554224829688, 0.06100419834010629, 0.0026699351672825984, 0.02641562753963973, -0.0010780155077548912, -0.021738127541363915, -0.006864212413435473, 0.06568047140202853, -0.0278753603955088, -0.009716706495917772, 0.017972811801178438, 0.01904098456780165, -0.0019307712027682878, 0.06227491726427548, 0.0066726618506267, 0.015249011294465814, -0.0764031464604626, -0.0013847538812522936, 0.00030300759920005534, -0.018989602601331368, 0.0683942238615073, -0.026495716273362335, -0.012149723846760926, 0.05142145831578071, -0.06883223477383893, 0.025128736987021928, 0.006262664234489642, -0.05042367084277734, -0.0150998439123749, 0.0172162326699556, 0.020285944370209547, 0.01605320901295998, 0.02374524520224385, 0.06686553136561937, 0.022114418591232306, 0.06288222558894052, -0.009653266395640856, 0.0075475102571678715, 0.052874286058199056, 0.013783942283505017, -0.019283756111628674, 8.376662183498503e-05, 0.04986246353957237, 0.012357548465752825, 0.03934985915302914, -0.04749707012105129, 0.07171104662339971, -0.0031385212084570533, -0.004930879636991162, 0.02842979518860668, 0.013009364251296106, -0.02994715224319134, -0.012728956346376961, 0.013963428780728409, 0.012177764264941692, -0.008200701627908464, 0.05045085765241307, 0.032521033703720295, -0.010380765995828541, -0.017890780995904316, 0.01930341037934077, 0.011791927598458126, 0.02934931634197373, -0.024500582778544385, -0.06536109208291223, 0.024211673728870564, -0.030335001999451917, 0.0045005510933947175, 0.013423375168174965, 0.034796320201052604, 0.03600433863676785, 0.012694257711367932, 0.003455770626025927, 0.10457925624362037, 0.03894153158069531, -0.0030447851319896253, 0.023207929251095428, 0.014738386452487776, 0.03094520865877668, 0.03814696054814125, 0.06715928111347937, 0.03762025811764855, 0.0518758710441304, -0.010403625147232467, -0.015799775165424003, -0.0002642818215286494, -0.020946132460699204, 0.03443320615392707, 0.0397848884231809, 0.015935785663861536, 0.028658354022560974, 0.03563724062227187, 0.055121344675789496, 0.013967559129092111, 0.027843100553961286, 0.020027984711183864, 0.027044775460962275, 0.002484597685990069, 0.036929022709089605, -0.037024018154091794, 0.002599705687999981, 0.06393690170596301, 0.048072526487208056, -0.021543085278561483, -0.013579345612656557, 0.01754917365445349, 0.010863296199785415, -0.04655594967526801, -0.01430833593144146, 0.007916318303937782, -0.013719251879712372, -0.00496510495182168, -0.01705927122194943, 0.045204923660167075, -0.00904085285794968, 0.01089253415793807, 0.028555660871816935, -8.594978482181378e-05, -0.027234899830085556, 0.021800976561928396, -0.05739595745806271, -0.0876150261295085, -0.019810686652038716, 0.0515943936672276, -0.021465425889641662, 0.05023449637561607, -0.011595907455313744, 0.003840530948614661, 0.03168128686438461, 0.07255701708158595, 0.01699049139355231, -0.023316530577840562, -0.006141453514216579, -0.020478864074772226, -0.019027140202079136, -0.0006681407889227562, -0.03433658978184412, 0.0060935282932759955, -0.027924486688810157, 0.05111722969285037, 0.000568367250901867, -0.009732444850256131, 0.0353841956036935, -0.008222670850489269, 0.05769374000980191, -0.03968479668004039, -0.011905030035668085, 0.034888026466281766, 0.06309653572074933, 0.07119919633710843, 0.0931835165503407, 0.039690524682781565, -0.05695019088646727, 0.049287427397075305, 0.04129594194214301, -0.044221485897147715, -0.08930770419945716, 0.01563833046500427, -0.011054287780616375, 0.01002124453675916, -0.03577987130028331, 0.04712318760731946, -0.01776063013862656, -0.019168124412230043, 0.025719438146933955, 0.024018384123499697, -0.0804211977930084, -0.025285297180894607, 0.05063342749701798, 0.03169965874991417, 0.029278985242618096, -0.009068473192970827, 0.06312006233016337, -0.023383496706898287, 0.046262340597468275, -0.045219875231388255, -0.027469772118057144, 0.0021208766190462533, 0.047744517046839886, 0.003342995139839051, 0.040667434746263, 0.026476116394433265, 0.056095473852046863, -0.006636435132513088, 0.03360595564051905, -0.0301175765232786, 0.03484914414061787, 0.03641911497861666, -0.0005077565781370478, 0.04756997968470802, 0.0505396593703902, 0.0442353806461085, 0.05917309483771073, -0.025498836396290348, 0.0026083084177402726, -0.015151208393601913, 0.05944146199226916, 0.016713197812028856, -0.0023530236310727068, 0.010945030026376477, 0.03599814679896257, -0.02222622969391411, -0.03912515940671505, -0.025700929554554313, 0.04923460727916318, 0.06143244385997604, 0.002511760886489473, 0.013523784696606669, -0.0429236085297134, -0.024930074975201104, 0.026045393185326362, 0.0192255612001884, -0.038471777878251436, -0.024203909315629126, 0.025036632776552638, -0.007764454151187645, -0.027196181325511756, -0.025062510405533783, 0.001320176818541877, 0.04543648442205513, -0.043500832483819155, 0.011528897878926834, -0.019844351014195787, -0.004737884498545984, 0.021964467751841063, 0.010012447482336798, -0.004797673321301945, -0.024849807702350846, -0.03944561184545307, 0.03306727921924073, -0.008865607200612717, 0.009019476868009592, 0.014664430372110892, 0.04725241902356666, -0.062300771743509335, 0.0214817592224816, 0.03031405673249922, -0.017546732076568837, 0.05074879163242611, -0.0371189200190776, 0.05749307034177742, -0.03481962015603763, 0.008071085730508763, -0.012228211602846654, 0.03849878000706081, 0.0651622558486685, -0.0021217017973558802, 0.02962276778518928, 0.04441707358084765, -0.07528399303390534, -0.03580916451559086, 0.02550273324648596, 0.07984530742314941, 0.022564488161603, 0.02374942003857293, 0.020715713996714836, -0.036574912393886876, 0.035352839730013144, -0.001011611919417861, 0.026625981448304584, 0.015377721301186663, 0.023139153790998908, 0.10857394567726625, 0.010227205767429186, -0.009664116049366777, 0.028912874859413948, -0.02372840280079538, 0.05467522114989283, 0.0023785329340498527, -0.012516311498434064, 0.022638860832382028, 0.06878627457413689, 0.01616788953405301, -0.03427845584576186, -0.015739230456864668, 0.0901083992896825, 0.02537874260927905, 0.022250274990825075, 0.05171658087021127, -0.023508066477063678, 0.008285462400781726, 0.030285903154083933, 0.011099107055524901, 0.039178957635293936, 0.03163800200414262, 0.034399883485334695, 0.03467697335009442, 0.04303125766893734, -0.005681782423101191, 0.02333745333350295, -0.029410940028349764, 0.028587489983538994, 0.041013252556155386, -0.012768662183394168, 0.006292471367525967, -0.04916734488511169, 0.003405821299437415, 0.0518472061058163, -0.029602139150445985, -0.005646739689298033, 0.04258515211559278, 0.055951396593365975, 0.01133169587508862, -0.001978351738170753, 0.05588055892117637, -0.0064402782833205986, -0.00217825771811891, -0.07148120713296761, 0.06989640247223289, 0.020379474838611703, -0.01674716087277192, -0.019767637048665767, 0.02068191550503766, 0.005493646858194772, -0.010638050319100154, 0.07852320400190646, 0.011076837310253303, -0.007262353335615832, -0.04306137821343356, 0.013187583868172866, 0.0010644462262873007, 0.07521051085324049, -0.004462850043815922, -0.040449189788931576, -0.05742917392468451, -0.02631630133072892, 0.045460458127180595, -0.042253234032513826, 0.008235292445852142, 0.06436753894115047, 0.01918800221753418, 0.00860953821000714, -0.011610464247742458, -0.055697784174046285, 0.03895892479510308, -0.018646838396693004, -0.03356752070685849, 0.019583143777829524, 0.004369689701332802, 0.019558379925486664, 0.017929650873690597, 0.02093678570992563, -0.010526473450700496, -0.02599931693122692, 0.04722501468640494, -0.027915063214360006, 0.02258751853824178, 0.017992130724176734, -0.012118485055120143, -0.06954681649782313, -0.010840260246815904, 0.018832391653873588, 0.006395750025623365, 0.08434134400481534, 0.07379432674052287, 0.0030550003717318606, -0.023585938140186374, 0.016047375489220254, 0.06150633032359715, -0.0029663289042745336, 0.015948807753987323, 0.013338142990726604, 0.017162073827905463, -0.014298522882728211, -0.06168234380591845, -0.03815318020749623, -0.042094073192653306, -0.005213566726496857, 0.02983693828259687, -0.0315076286571148, 0.03422589650227201, -0.033149371491707096, 0.0267148695760432, 0.027541380050319638, -0.0036567165770235188, 0.08709006739645204, 0.010110288735579167, 0.023010199665249653, 0.0031417365820073056, -0.007576971544490848, -0.01031896525530007, -0.0023916633529771024, 0.018283183914561078, -0.024402821793113472, 0.010536484188296901, -0.030191062912094318, 0.07768259647784029, 0.020925714104447247, -0.0010250926297703418, 0.012180652693312114, -0.011340170594032882, 0.02946595880613766, 0.012566329791770319, 0.029504240419745944, -0.009117759107920878, 0.003834493670299895, -0.0464374759573853, 0.002362302727252705, 0.013295222803516431, 0.059475355643830136, 0.07329113232412889, -0.03640059680385293, -0.008881732343778752, 0.04465078211227839, 0.003762189085177006, 0.005924139491122252, 0.029236072232027854, 0.0008342638787263949, 0.03875180929092289, -0.02842925935247387, 0.07170263808618026, -0.005374224495117077, -0.007147527788125997, 0.03868311383316053, 0.03836472334493142, -0.012993606456176842, 0.0076534105213412916, 0.016265753639593598, 0.012681337808664319, 0.0275563787066684, 0.046192370716012454, 0.02214143120815133, 0.00022067781347063787, 0.01173401752938255, 0.03678555377343216, 0.0015803689448133198, 0.04104525542012514, -0.024147315582980167, 0.004989671463532242, 0.005145562883283559, 0.028908167085724655, 0.09070714158711811, 0.05181159630243184, 0.07485592411315822, 0.05160213092761936, -0.030620054073468194, 0.05395114583968725, -0.10134679107131489, 0.0036927368032412446, -0.00034856924515496855, 0.03094270611684491, -0.0006618827701691257, 0.057306470044874304, 0.016258687429369114, 0.002259235149190407, 0.044860987684026805, 0.00779468139360024, 0.09013115090818083, 0.05238742263617977, -0.04534809976689763, -0.016042617705178865, -0.02808482589477992, -0.05783396132965888, 0.048562800463183425, 0.008648611667483671, 0.0016076121506611286, 0.023929940950074162, 0.0419538869058282, 0.029394726557946973, 0.02602620010286195, 0.012339117302010939, -0.04792709661752693, 0.01921498499793119, 0.008095668711510112, -0.014241236773299967, -0.01801848324600562, -0.005893464896059536, 0.007315188236922211, 0.09024658947496607, -0.019310289400885194, 0.0034070877482451343, -0.000555719666671755, 0.05116305760410845, 0.040554376640108594, 0.04462308449732157, 0.0552735590007471, -0.01267432182645911, 0.03055954554355356, -0.022749959828772592, 0.029557648025423593, 0.08865616217372015, -0.028537880562238254, 0.022179622517305885, -0.058240743189017063, 0.023417466244479386, 0.03779615726515069], [0.055462070761641634, 0.1462078894362474, 0.026645655674012544, 0.04136721151771263, 0.07230737130742683, 0.07284105361892318, 0.0723689371058784, 0.016010250319303632, 0.022273597200459756, 0.07258461126767894, -0.006950601208377533, 0.02566984862859006, 0.026486276662802392, 0.025919866744889046, 0.046274837528311095, 0.03789772670001791, 0.04664096932495486, 0.07093563453772671, 0.11217730949736295, 0.04869257539342137, 0.04491392466444338, 0.03821463391693352, 0.08183200138527785, 0.09411703654321765, 0.11079094630957614, 0.12025857159368855, 0.14768913711491452, 0.11652223277054773, 0.04267854311195152, 0.08522319219516035, 0.029721787760741553, 0.06293405205246971, 0.06107538151839178, -0.001210006527922348, 0.031494185430378165, -0.08013341128901817, -0.07221274935630961, -0.11919481635920696, -0.12229408976273919, -0.08951379916733918, -0.10595296093687517, -0.05151568831402806, -0.06442386998980192, 0.007255545089656326, -0.025303230134821053, 0.027925566126340777, 0.011152799394649818, -0.01985291004267531, 0.05100380289773198, -0.03903048245165303, -0.00018436855799818636, 0.015782254524766632, -0.001153966443549954, 0.09569496555096599, 0.1314473416589881, 0.12606671919644563, 0.05884799723557186, 0.0945630333193428, 0.06580254418181554, 0.03260384693304007, 0.02764121824237132, 0.03238634240079381, 0.007033791838017035, -0.09116187706435043, -0.06854988968909857, -0.12326680772322099, -0.13271368964301097, -0.1331194786157777, -0.16139176926484083, -0.1491176845456151, -0.11092440598241163, -0.08736827905199415, -0.027824021495108202, -0.04755507978876498, -0.099765568116817, -0.04827723169042626, -0.10097255451137764, -0.05674288453789432, -0.04771070531896972, 0.07344221609775108, 0.02369371393584573, 0.10996198152227124, 0.13978152507511293, 0.17240287669013835, 0.10869713748765032, 0.11699787397413314, 0.11020336689349103, 0.03830512195882104, -0.009601100067137755, 0.020202471973228026, 0.04097110815706361, -0.033220276294157046, -0.02701207475251718, -0.037843261288855096, -0.034370952316856454, -0.10834756070271506, -0.08312326307839243, -0.1091505585802496, -0.09907703507349103, -0.09393509974767687, -0.07340382299722183, -0.05009717842453916, -0.09864722017827023, -0.03517691793406469, -0.029417817606225038, -0.0031454706228681807, 0.024485180906453314, -0.0046974282301259366, 0.15386419629830408, 0.1026220941106995, 0.046905378429427755, 0.1859835317645579, 0.1719803278452478, 0.11789923693833118, 0.07639498336142875, 0.0587671626444482, 0.06499323068187582, 0.07482236647782625, 0.04220395727325223, 0.06430493481439048, -0.00801320181067873, 0.025845066709844242, 0.008160562411502672, 0.04185859364833113, -0.0499354218778098, -0.046965501067443176, -0.049255941113577784, 0.00636874158275546, -0.07152099807994793, -0.02706502052493055, 0.012387821734714479, 0.05017779561625752, 0.0077111306023031, 0.07762577399911218, 0.09840220853146527, 0.1456767233844608, 0.11790599091249682, 0.14279037093482178, 0.08144587037789873, 0.10571061736599015, 0.13124222130396213, 0.11434998369712611, 0.11858304871984778, 0.05660227245875542, 0.055541186000611094, 0.04697987614190999, 0.10779890272033163, 0.07852581413610314, 0.09016513847895043, 0.07450969132955386, 0.08080204058646176, 0.06962379049107377, 0.052178560324421225, 0.025850363686260362, -0.003175772776998924, 0.008919260557246695, -0.011179537326451763, 0.016434851917264907, 0.034005963589065845, 0.001131461602519479, 0.0828200867311193, 0.0946531540166455, 0.09271140632639742, 0.1301467884097884, 0.14189060900808892, 0.07726920223558445, 0.04884321444790532, 0.029086958367459965, 0.040714066214887566, 0.09388290752196304, 0.13779347143033296, 0.10346190217052066, 0.1417461974216671, 0.15263973376025058, 0.1017708250717914, 0.10131943523960427, 0.10160144533925497, 0.12269939447280254, 0.08756789968736914, 0.13394723178369916, 0.13939327335663168, 0.03901374831717605, 0.021501898242989398, 0.07972848883137205, 0.03516602016717815, 0.06819872147513725, 0.010451815095784996, 0.040972890212384726, 0.09935495547984893, 0.10557781110948602, 0.11806654549612423, 0.11356257696004526, 0.0670353408550162, 0.04566610152881782, -0.06201863752408613, -0.009246412094607134, 0.1318404913103941, 0.09415090144295038, 0.05860941415085725, 0.10500452928224759, 0.1270956138356614, 0.13629640780506394, 0.1431530657383674, 0.10757987047299165, 0.06560338763214896, 0.1478489127421421, 0.12967018069058486, 0.10291632759174188, 0.1901465230118781, 0.1621478958960516, 0.12940032712125438, 0.13219680365791212, 0.09783819239213444, 0.14992537733005884, 0.11656685635836404, 0.13915432449783713, 0.11352357856929822, 0.2058561013135069, 0.1091749210618229, 0.07575625864286624, -0.0003815973207983459, -0.027814284646799886, -0.09605231939547379, -0.022228955025915518, 0.09126981835395322, 0.0879910823189352, 0.09470653677977653, 0.12158005812344143, 0.16491703795841797, 0.13023253486485747, 0.12831392549437273, 0.05402059797866782, 0.12118558939379076, 0.12427506495078013, 0.17272868422698032, 0.10342136794801987, 0.2250268779009959, 0.13154597845310162, 0.16684625293573138, 0.15371191499796935, 0.08631709511887714, 0.1782833510811647, 0.1785134181323462, 0.12225520902183928, 0.1519328484273985, 0.10550168152273698, 0.06116647740693078, 0.049298946448082345, -0.10120745475180448, -0.08622782362852044, -0.10295991128207617, -0.07580569006532772, 0.08563545903266749, 0.0269583965688917, 0.12968017930260767, 0.13159757647198464, 0.11536981180808707, 0.10896584133153214, 0.12308037302125141, 0.12995405947699493, 0.15074362156066987, 0.18594961403480806, 0.15283117315424757, 0.1341839914033255, 0.1145703377634549, 0.11353762847435832, 0.17953459503543148, 0.1327547546702271, 0.16339755489842958, 0.11103354815465452, 0.14173942844133133, 0.09732797261068032, 0.06211476825966993, -0.048678964661796546, -0.02783072906354393, -0.06132089305833364, -0.09946944602079114, -0.10720285877323237, -0.13433737924439934, -0.06283892381567503, 0.021484568035893676, 0.06505448837881068, 0.022949162449117086, 0.02564252070490337, 0.04105787058485715, 0.12997834699724656, 0.08429355895804654, 0.041241469828355026, 0.050129939902857905, 0.043923637356462035, 0.09572814382763431, 0.013855144797968484, 0.0010440546058628657, 0.0393340330606252, 0.07379282633202952, 0.09135331267386991, 0.020925783020571766, 0.08459583854243741, 0.08678069269998795, -0.0017255114480986165, -0.051014610914698964, -0.015356780885358955, -0.07324712764721951, -0.162683429736047, -0.14428081090820197, -0.12013064295405855, -0.06699902606921049, -0.15699558978681205, 0.05277814551369009, 0.03123481263838109, -0.013365908195612152, -0.011624788639589346, 0.07405258565100797, 0.025873913087472913, 0.05435061258456753, 0.023962231075655906, -0.04307354759480391, 0.017384911737890238, -0.041186303023799026, -0.01924803142778279, 0.017441146121086326, -0.023041020647040163, -0.009881157399956765, -0.037998013727281565, 0.02774925395389744, -0.022095637432497293, -0.05276019681952629, -0.04166044299174729, -0.06721858037121844, -0.07941392433919967, -0.12894847639500157, -0.13688798115021664, -0.16364801948949992, -0.12575960560851018, -0.17043714088217155, -0.1260931222847065, 0.11390454167167743, 0.014014784427124137, -0.0509878831860405, -0.008590726919160963, -0.020109708726659584, -0.027418126943299224, -0.07082193701562217, -0.07259824113585256, -0.11158621566837074, -0.058251440571855086, -0.08877276119563017, -0.04991178794790647, -0.01548110565447611, -0.0713720953857634, -0.07108860232027099, -0.06053209226735163, -0.0354981201660869, -0.08729950209594071, -0.0702013760928601, -0.11855451463903041, -0.09027946953344033, -0.13492433392815412, -0.1111563705991382, -0.13514934452897645, -0.1481087539039439, -0.15159348255735194, -0.16873227383026837, -0.10004376542531006, 0.056953033793359684, -0.018842114692605053, -0.06973889362131372, -0.09570685578640789, -0.01496744099978015, -0.07574480461753355, -0.018115178595959236, -0.11358124942344613, -0.03611929387685263, -0.07019448434746535, -0.0913852512301345, -0.1450703366067333, -0.08188919419021554, -0.029815563207250605, -0.051641976894016256, -0.11552305236131986, -0.06840441367964367, -0.09988013664542446, -0.11731391950231611, -0.09281758302402916, -0.12409455568953186, -0.15308568250604315, -0.1488531780924152, -0.20034554695346707, -0.13510835692770332, -0.15236660729759785, -0.13216369534644656, -0.1572144469938553, 0.07883786651732817, -0.07197705968293916, -0.13524271943873123, -0.16416642672872236, -0.153757455416375, -0.15126512872315526, -0.10736757099813715, -0.134116900998011, -0.1327387765714228, -0.09965801323374009, -0.08935553698364923, -0.13024820365346912, -0.06978901413841458, -0.09013286017355286, -0.19944315909045318, -0.05392501930992146, -0.07343527852382987, -0.09365657904979496, -0.08315446997352798, -0.18516613125341408, -0.10014632451706608, -0.12435119461496487, -0.10560216635674585, -0.08060795102370254, -0.11539010363513252, -0.18995947264755245, -0.18569682712887756, -0.11996980885443354, -0.029153201760902702, -0.1369722172057038, -0.2249354959965751, -0.1239788092531173, -0.17854253659620117, -0.1060269195024455, -0.1263292859315926, -0.16989176134933948, -0.1523051440803726, -0.1886872953485073, -0.1109125585567697, -0.07630202865688039, -0.07637233083888238, -0.13624532417354754, -0.10464033347669684, -0.1066210418485876, -0.1379555694567702, -0.0711635310985774, -0.08933763674131057, -0.08720008284562367, -0.13521224725496056, -0.11331601788915353, -0.12459747581492911, -0.195164914589268, -0.16015529370700318, -0.15465266258324806, -0.13115399564176386, -0.0720104914874076, -2.072496576337939e-05, -0.04883240682472376, -0.21240509808513763, -0.14379821601172924, -0.12449005418343641, -0.215550665685285, -0.16424339123048431, -0.10729371868651028, -0.19079315031204186, -0.1253024685898112, -0.12125034555395847, -0.16017777405208264, -0.11995585046737856, -0.08740260413614873, -0.05143058758144987, -0.05093981972926457, -0.06895917775282241, -0.1354093600090495, -0.15136276893499867, -0.07676275143913583, -0.10933540862739698, -0.13258208587078593, -0.1244671662411984, -0.10282387389215417, -0.11837511268872693, -0.11121276394931112, -0.11734529695134908, -0.04800405376993073, 0.006294602819136882, -0.15533633345803524, -0.20814222806716365, -0.1896454152157261, -0.15248905657941425, -0.11501144464323955, -0.14092580022904966, -0.11620421196634591, -0.07605168820676263, -0.12502525997362834, -0.11803132045987859, -0.12558840050573924, -0.10096444795651817, -0.12134779746656293, -0.10530345544300679, -0.10627735811361841, -0.11159592884136792, -0.08326489634490579, -0.10133491149286486, -0.08187123825677864, -0.09836335968767752, -0.13752878784584643, -0.08129965662124362, -0.1596278669364998, -0.10182650796604713, -0.0707323416625699, -0.046893195594791784, 0.06457824756354913, 0.011655337733903091, -0.08642973606076162, -0.2104551673698369, -0.18544094158207902, -0.047207582885571565, -0.05492228151106315, -0.06105547736915876, -0.08503120345777682, -0.1181672271166769, -0.08017719655073846, -0.09424622777815536, -0.07756638485038089, -0.10851648532638017, -0.08149228971836475, -0.10338672983774226, -0.07300309369606857, -0.0765191252537279, -0.02617780318240482, -0.056403034734294685, -0.024867101661535898, -0.06426984662254957, -0.07243881018956175, -0.05229350050179106, -0.08976943177691077, -0.046211001001802726, -0.10287437309172175, 0.02192554990899542, 0.05784878828837059, 0.05215672025053455, -0.10634951885892978, -0.1479922332839912, -0.1631309833803748, -0.07246024076409607, -0.0317637457985231, -0.02167019590827376, 0.00023114661288806734, -0.029724364145074577, 0.013735937585463046, -0.03189661548048659, -0.043242896404461294, -0.06943820910042575, -0.10895164284506478, -0.10250699482401639, -0.07715867295266429, -0.041941833048902734, -0.07142777543850652, -0.055981001223489486, -0.08206929493212524, 0.008324309037376583, 0.02605063846941498, -0.06697983898147931, -0.09438691991061476, -0.06220358340400722, 0.016274702765906424, 0.011310592143924401, 0.1064106923957729, 0.002911786482534485, -0.07339754638859347, -0.12294889149055895, -0.15572030927491165, -0.03457207082375747, -0.10191354775080616, -0.05549761752062726, -0.0391732116288908, -0.006462622608659186, 0.03628225432863799, -0.04878725037407655, -0.030785336438655993, -0.017423184458644346, 0.031546937995074714, -0.049771191175401006, 0.0007684411052658347, -0.06175887575177764, -0.06155820602355942, 0.04935123861722309, -0.029474209258352094, -0.02944765675136426, 0.047860820487431156, -0.046692650140888185, -0.04286831687751703, -0.01335187019314781, 0.011621304098509082, 0.09808370848918918, 0.11435502926744158, 0.026037423293070128, -0.019665359626005005, -0.0891086003944639, -0.09106793156244024, -0.015330173997534627, -0.0070347964760203606, 0.016540889033517955, -0.03891491804223739, -0.005776812250463841, 0.01687367019330754, -0.015904364699003633, 0.03929840603367497, 0.028303393798880406, -0.024648554953655564, -0.01641593096665941, 0.0015307436838005494, 0.04909061668859923, -0.0432239262663394, 0.07386526921686491, -0.013129520423038967, 0.04698123346628901, -0.0597254042104228, -0.05612642728903775, -0.011854445476888666, 0.0031546312908825934, 0.05247718815480218, 0.09082312605172166, 0.0930594289968036, 0.07767653828624126, -0.026139854111459422, -0.10612481876085186, -0.07603892537769125, -0.01827087764059497, 0.0026809651745359174, 0.01199204133130865, 0.049464758550725886, 0.042277470421271765, 0.06977040475511932, 0.03477426000989565, -0.01653222026355644, 0.05796865271027958, -0.0036189350168450082, 0.005655448937767635, 0.04426322483025234, 0.017639690878844826, 0.023661840066115578, -0.02330180593837306, -0.0010554441689998326, -0.034048148986024804, -0.007639523898612815, -0.008095240606436425, -0.015074850210334854, 0.04405674989724708, 0.060978645472229656, 0.06523117317177929, 0.11761961365389603, 0.03482891307397317, 0.04264822467991486, -0.010775903335210434, 0.05172953010961614, 0.002221279179322404, 0.026305022783854687, 0.0593379899828784, 0.09048296077432257, 0.08565613004783953, 0.016810722428671626, -0.008653017303935948, -0.029445338351127236, -0.018325490170018718, -0.0464408648740654, 0.05063121574707703, -0.025146658056870275, -0.007939851392747124, -0.029610360664221267, -0.0035435720147269797, 0.07280829692081109, -0.017043375461194436, 0.03679024219966847, 0.0338734549202007, 0.061812643462750776, 0.09174836824643771, 0.08488610947967627, 0.07744581487068664, 0.12108899688440317, 0.06056972001567513, 0.05436044405495159, 0.020230642267261845, -0.05219503189395646, 0.02707751312591623, 0.01343089199622652, 0.06802528807004181, 0.10987764174943268, -0.02556887841444665, -0.032133877405861, 0.015286186712136501, 0.01873010656094293, -0.017969528202858475, -0.0644468452034778, -0.004093008195748497, -0.019232132651720683, 0.031138798911275665, 0.013412180436899934, -0.0878031028591848, 0.013492437861981812, 0.015373732830877104, 0.05108765983582699, -0.027448936355407145, 0.003267119011025088, 0.10424600793282657, 0.12020902378843241, 0.10417508726606885, 0.10173175168814454, 0.07485336273034898, -0.004991229272678638, 0.0031653249117572736, -0.007886836053378147, 0.10855045410088641, 0.05254052173817327, 0.05003450916296133, 0.030685014892884572, -0.026815224670176874, 0.03875323673058789, -0.03756915387131994, 0.026078290064023065, -0.04277584482223969, -0.009364254757902903, 0.03880788542817711, 0.05242710873845612, 0.03925458358952659, 0.0036155040395685497, 0.02611559946017494, 0.01938764185388866, 0.09188057573655066, 0.01871353763301502, 0.10241087286245969, 0.10226792738468257, 0.11435695005719966, 0.11354118893954174, 0.1797643626351864, 0.1193186183068063, 0.08723282518241554, 0.0038244369965594023, -0.019246636372627447, -0.012914328415601946, 0.08986907886567042, 0.011593096377775499, -0.000274335167398353, -0.06820184102399546, -0.01291780371545963, -0.0578280924634562, -0.043236017923961576, -0.05823452684061751, -0.04770201501073021, -0.03916824625087146, -0.06344978977822598, -0.013680881691628042, 0.09771325827577378, -0.041398724400409655, 0.07800039479923032, 0.09928735172337139, 0.03204793999893132, 0.06793900379332067, -0.03790967947673204, 0.05650082015580181, 0.0692984723002276, 0.1105815278844738, 0.08355107676910488, 0.05873082901688282, 0.1389192994231016, 0.07575213925997254, 0.01885693151764754, 0.08284718774284967, 0.03139773794062375, 0.040813664468992435, -0.04768221038524221, -0.05905556300894725, -0.021432446175731305, 0.007347132567241658, -0.0054529618528791285, -0.049752142366271186, 0.013857959971527173, 0.001135133419886512, 0.028129419519956688, -0.02151553886617665, 0.07241836868998945, 0.04167213464539737, 0.05984850908787171, 0.0827122748577626, 0.12009555189194501, 0.06634913815117208, 0.028457915917858772, 0.07550047995510209, 0.11167354022039036, 0.054804428091048886, 0.0657994509831313, 0.14132337260989467], [-0.13614945175791618, -0.24131721643358256, -0.1945683333326922, -0.16831459430502263, -0.19465360267653156, -0.20262742507492018, -0.23702577134973696, -0.12274457896745822, -0.12986319589471226, -0.08947385296889984, -0.01786195594106423, -0.0017186302839900603, -0.027219245263474322, -0.003645539609688632, -0.038148034922673185, -0.052200917221887355, -0.018400744161154337, 0.0028799576353800873, 0.03632748336895781, 0.011518444309761039, 0.0035259751783902433, -0.00038085113612414676, -0.06259911233268421, -0.04650770315564889, -0.07943043328375572, -0.0441606236635492, -0.14296836089391582, -0.12243116393516387, -0.17811118105226514, -0.16488119970158882, -0.1972760473072418, -0.19491857552929706, -0.2859395471897706, -0.23814488896825609, -0.2153443477969286, -0.17483339717853166, -0.07743847732266035, -0.05754063874274101, -0.0830113191570896, -0.006776572025431164, -0.07541138781280605, 0.030492457745819185, -0.06023582086095456, -0.064774049119991, -0.039749495567071226, -0.01933872360037279, -0.041463277243850974, -0.04026819754594462, -0.029351304749636306, -0.07062783212577775, -0.057754370383240335, -0.08369125945735821, -0.21042102253161676, -0.12663418535179735, -0.1337032181544679, -0.1018737219745495, -0.147266119979256, -0.20517646188922445, -0.2528476724515214, -0.2481527994150335, -0.1830512619669953, -0.15964820847747044, -0.16308946395288576, -0.12476122123708223, -0.1465415935314768, -0.11881812515468874, -0.024536142223422874, -0.12487850308900168, -0.02852388894436014, -0.10769854346428909, -0.08118288940970132, -0.06077602061219242, -0.07017234182684604, -0.06458703089664034, -0.11224455934440151, -0.07462529990934978, -0.13892831352265242, -0.0904483512732578, -0.13203726695488463, -0.14554781186665447, -0.09264962687853766, -0.15523402088386054, -0.08390014656729376, -0.0859336769534948, -0.1834634147036777, -0.1628316441318318, -0.18711888424787923, -0.21037489136761509, -0.14218664992171884, -0.15693772937291545, -0.09002208629595856, -0.08412863824813833, -0.15397597620971554, -0.0665979134907519, -0.10513369562590806, -0.09443338713131913, -0.0035137687421376543, -0.02753340591798334, 0.010735138055246703, -0.07148079412195729, -0.04398376293572138, -0.06801579340365062, -0.040114754681865296, -0.039737892474585645, -0.08084731977805558, -0.07655036566408518, -0.1096219973163694, -0.07972680536078405, -0.09235261511497019, -0.056818164618513065, -0.07799352024292297, -0.07041440234178337, -0.15575849511773945, -0.23395204706244044, -0.19019662480757188, -0.18591135673176545, -0.13809774552823906, -0.04687977753421951, -0.06630614484371088, -0.03527093564689031, -0.07675229318245937, -0.057698527487138496, -0.01334907266457107, -0.031485249810281155, -0.10936105653629215, -0.05226252624278285, -0.0122417399379594, 0.001700487653783209, -0.006774248029310701, -0.046215101401955276, -0.02330416067021956, -0.04802666202948679, -0.056796992195527855, 0.006742761444535911, -0.012916302663960691, -0.04116513346449973, -0.060765753862781574, -0.04372799896061202, 0.01153163610573835, -0.011823354875412962, -0.15156178361098432, -0.1095393879680327, -0.07023069756864654, -0.10491379603570097, -0.024718323840710633, -0.0046273765293055585, -0.034902608962043426, -0.06185874809663911, -0.002576937407986042, 0.0059315464311720965, -0.010655186565329532, 0.012144711092909023, 0.02999317402420093, 0.03845464400346397, 0.060274310051447524, 0.007123948823090752, 0.018588041172367193, 0.04406018679765135, 0.014714973348343544, 0.037249334693427054, 0.014206249351212983, -0.07941027412537448, -0.0722971416876045, -0.038026083277780814, 0.023627850468108245, 0.006067187342624736, 0.07062855431709772, -0.003676745416271637, -0.1261570877832019, -0.08840768987797414, 0.024894769533923767, 0.03919616940409979, 0.02741883228444749, -0.0266533996119279, 0.04221461005532027, -0.0043498521811140955, -0.02957056043655005, 0.05552419304045212, 0.03664002193367501, -0.026008945448199244, 0.003293141522093625, 0.023415341320109567, 0.08562474378174502, 0.06737537476754865, 0.044871736522212026, 0.015088017660878607, -0.007871270827097765, 0.014053385747117232, -0.02785362804771516, -0.050856631085923865, -0.008334963515524403, 0.008884130326388613, 0.020287335388090112, 0.004366925506821321, 0.008237186969240739, 0.026653519412124554, -0.05972493343942357, 0.008628686878074521, 0.04263752560690053, 0.031595223382349547, -0.02274178311313469, 0.05062969796738346, 0.00573034133891056, 0.0500465061884468, 0.048900101807997386, 0.08419994743006953, 0.0739305749924546, 0.057715507338545746, 0.1318643826605029, 0.10043769481527465, 0.08433361602147846, 0.11087156617067553, 0.047528729631134074, 0.025310926304130926, 0.031024574349933404, -0.03061625592385883, -0.0167430535374976, 0.04389455235823565, -0.05213831281071992, 0.06529809279936771, 0.06684005090949593, 0.020046759334636177, 0.011140674009838716, 0.06214336647742122, 0.03454165341584107, 0.11086218548155756, 0.13429469450401038, 0.1154754714567047, 0.02897097658302366, 0.03461291023032047, -0.015100212074402845, 0.1055847150803446, 0.10296847063015944, 0.10083063616392607, 0.03188556150980624, 0.11199679814088652, 0.0703160005184934, 0.09559692915377788, 0.06828598193771987, 0.023352193082098217, 0.016729386127444436, 0.02166650412638296, 0.07849807198541038, 0.004056543081621725, -0.01218222649217613, 0.01944027511052, -0.008382978618654684, -0.035298422871682056, 0.005078125123830514, 0.05000543342335379, 0.05944406242635238, 0.029308636022086262, 0.03507716365567886, 0.13681029126688396, 0.2191597951132039, 0.17718253237301304, 0.03535853751235399, 0.11898474916355291, 0.03130245456610094, 0.07015849989837498, 0.08871765028207865, 0.00485541687601346, 0.09144903175392008, 0.05866663229609546, 0.047850389988408626, 0.04773742895652774, 0.06938568252508454, 0.06325861361504428, 0.04065881340255586, -0.01439196882030099, -0.05282009441015213, 0.0596843538645407, 0.030797227519019973, -0.002045048960348951, 0.029994550598222234, 0.028696255739886923, 0.05107332408145769, 0.02641045528143463, 0.06568771870972524, 0.055663291172188864, 0.05636013540383445, 0.09281840743771441, 0.22426503494403355, 0.19771035907678433, 0.08427001899357975, 0.13790025206163029, 0.06904129907583319, 0.008851103438356739, 0.07640916004064685, 0.08134470912308542, 0.0287901698329114, 0.016609491072746375, 0.0285782631019946, 0.07770215693503608, -0.011002169072082736, 0.01737371950164567, 0.04776153923727394, -0.006204785946714646, 0.00276285872683124, 0.10369794171837936, 0.06717778613257527, -0.023944574304093438, 0.06929822049413505, 0.09625416319466265, 0.07232436153672978, 0.05462698435959229, 0.0063393962978222935, 0.004666849318574255, 0.11066344310869448, 0.099115488119443, 0.141264270947215, 0.15651782695473734, 0.08802056151338802, 0.041941665818805075, 0.07179608951175827, 0.09260255675571719, 0.10088706133377219, 0.006640539691384756, 0.01488460868988278, 0.11575807534327123, 0.0433335192496149, 0.07694905475784007, -0.027686159370899348, 0.048541494156528114, 0.025182229991515384, 0.02165987354016591, 0.04014384761298369, 0.0035684796323738025, 0.022501037752854586, 0.019234489667641845, 0.06542464270661895, 0.030024210258920464, 0.08780943363414878, 0.08554027575802933, 0.05216111675684653, 0.020784550778013184, 0.08059558121218016, 0.16140637430115531, 0.15774946503497222, 0.13291205393033573, 0.05053460850321113, 0.09287234913420034, 0.0798830988363381, 0.06714392378584287, 0.01827174137158856, 0.019326823181561936, -0.011332523934847575, 0.06291505185999399, 0.029717933883762596, 0.020335482903164236, 0.03034082983927695, 0.05696420941027111, 0.04638898735919103, 0.04605644511340996, 0.05211925867646942, 0.08786524928684394, 0.10473615212573938, 0.10238523863526161, 0.09360128835750782, 0.117705071665669, 0.07312822148058844, 0.07738346320337863, 0.05808145794441529, 0.007988018809995423, 0.09372842690434885, 0.14308760657073755, 0.08806330853164851, 0.12988309949897814, 0.11306615622664624, 0.04243280930943143, -0.009526977376998938, 0.02165056545207036, 0.04513138385154339, 0.00932748702095462, 0.03278008937065473, 0.007362364218631345, -0.06856794080975533, 0.0705810609379133, 0.014302965273982839, 0.020228000411208574, 0.05904678968053672, 0.03195543636879547, 0.08158634916526405, 0.1380395276875769, 0.034757393695203025, 0.11322815116561115, 0.07725728987910412, 0.033443907443371355, 0.06269996151197262, 0.04842338284364097, 0.05657774631671966, -0.006896064655153501, 0.03359662303283125, 0.13238726478751864, 0.13930849250422428, 0.01698913085293727, -0.019126847330729547, -0.06061550157391299, -0.01846726530535176, 0.0017134333594324312, -0.002901981614622723, 0.023156512484730923, 0.017751300281248397, -0.03720042596280413, -0.019567390387384368, 0.031266787271154915, 0.04070466798249989, 0.008062168712236485, 0.04954400833356262, 0.01763962431102835, 0.07253843256823635, 0.13054119325042476, 0.14972152748192458, 0.09338206075228205, 0.13066234166385363, 0.08026541221387178, 0.1184787291095255, 0.061257996798507124, 0.06030415229682364, -0.026559884232010698, 0.05691704164488207, 0.034267820939450494, 0.12136322625783377, 0.06047560372500473, -0.03976964982504338, -0.02392723795963334, -0.018318901120457098, -0.028841646363090775, -0.0017133713992649735, 0.025109460345486907, 0.05016341276078769, 0.0011770696250358757, 0.002602201160187697, 0.022604170273355442, 0.013905142698090976, 0.009112092028378854, 0.09027884457269318, 0.06292600573848071, 0.13330898063358199, 0.12618707647605862, 0.1157199224630118, 0.09484797343090177, 0.17442553110717607, 0.08348013388801194, 0.09292423549660632, 0.06953736496858837, 0.029110010770093266, -0.02449480428611635, -0.04266306307851841, 0.09587075005718504, 0.03335818026342144, -0.010337538472442951, -0.001525749638588066, -0.032626725625136514, -0.009467284212715213, -0.06783761891474065, -0.01936558479856719, 0.0017021616680929197, 0.03125321466003724, -0.04546906499463875, 0.03292600353981384, 0.07084486939473418, 0.053177538054190156, 0.04877576404740196, 0.06847472414431051, 0.12010705309646347, 0.10293479777143495, 0.06349199370174934, 0.22462253703722693, 0.11092126226650142, 0.07788877774941651, 0.1370072510876704, 0.14777308707979575, 0.10940617271992184, 0.026164879762197234, -0.02220385881561603, 0.014454162084610308, 0.042039231370601074, 0.08523943600987596, 0.0005644476892617224, -0.05622036895181244, -0.0877322882489688, -0.0544630675782652, -0.007169362982665737, -0.008126533511900505, -0.03688004043659788, -0.014277653029798491, -0.001403573771217228, 0.05340262153239852, 0.08915351136170634, 0.023722321231800614, 0.04989987710975041, 0.07974051683482782, 0.13879787260519338, 0.1920995048686275, 0.0664301926431548, 0.13293177715586124, 0.14076816924709618, 0.0627033761725012, 0.11681012920674695, 0.03541712745920408, 0.03235660538763832, -0.018679870648621234, -0.015337115956389917, 0.003149788288338304, 0.012820437340887053, 0.049927058291828856, 0.007417902179040945, -0.1049522388910461, -0.030551660719883047, -0.05504274944505201, -0.043171642688238726, -0.05299137935284939, -0.018714453714844273, 0.06422634580979404, -0.0060396975962107935, -0.01436710749566775, 0.03012993316851778, 0.06532705239937388, 0.12469282242412644, 0.11351432837944694, 0.049551027145941534, 0.14187508051884504, 0.07786309845489991, 0.08172548054443594, 0.07887271797780415, 0.1298392692362114, 0.0597666503055083, 0.08126085532460711, 0.023702598566357355, 0.02742612029571059, -0.0068276667449397935, 0.022229520616050453, -0.0051004446684920456, 0.02599771492535753, 0.02232122255244751, -0.021852962860009102, -0.06681008441191912, -0.016172223489533136, -0.008640772965202962, -0.031644036902292574, -0.09134565994611445, -0.00848205257229893, -0.0007486439771850464, -0.006175460646346598, 0.07047616242345857, 0.0644627540037454, 0.08133071030969996, 0.11908094498238048, 0.06165861769983468, 0.11839054623432468, 0.06579370850809728, 0.08318246283476549, 0.05816484485811302, 0.05693756242715542, 0.08869025818149753, 0.008703724812019554, 0.018411177723505784, 0.070590002531692, -0.08980433952567944, -0.05442040152210371, -0.0011973498228806012, -0.05943271983851505, -0.03573712722674096, -0.018636572142157335, -0.07838921512310809, -0.11606045200059913, -0.0418369858282885, -0.05696113061941937, -0.047035710780935026, -0.09717584781737001, -0.06199307548803799, 0.02379868738203901, 0.031426959776887795, 0.07258284302383572, 0.016991440462423475, 0.08471729115798159, 0.1557633150868017, 0.02972852339044995, 0.058917042456398956, 0.06765934570968164, 0.018274158468610847, 0.03874235810648748, 0.03575037280507938, -0.01307693508998735, 0.04105604582006227, 0.020553378514464454, -0.08569158903183385, -0.08972660823001563, 0.0029104767416122434, 0.04570455635591465, 0.06136448164631069, -0.036605920922653794, -0.07629931565423147, -0.07170275286875905, 0.024938023772239838, -0.017691668374938956, -0.06777188289426331, 0.013412212266238259, -0.040455335787502794, -0.02422454158875675, 0.03873773577261447, 0.06626056835796194, 0.07401940907981798, -0.05166020228012226, 0.11283015594761575, -0.01573527615640601, 0.05012705363712668, 0.055997725872168426, 0.009893984526063012, 0.03349604674269755, 0.04708894087456782, 0.052182159715717664, 0.003786836444240131, -0.0007989200821601311, -0.054515629205852206, 0.005539727839154059, -0.032564541611063404, -0.0041434627715236745, -0.01316285950685756, -0.056332802530719935, -0.004931723725328712, -0.054865362519410266, -0.06800629924238043, -0.032836292783605295, -0.07260904457204735, -0.05413715412847357, -0.030322588142047437, 0.016156830347927722, 0.04579164768059746, 0.03806984723748987, 0.09524664328949065, 0.08551546557696992, 0.020045749307854376, 0.0050447010840777035, 0.007422235825309641, -0.00776802585293067, 0.05597242204562139, 0.02310503996733993, 0.04679533003010176, 0.02118035367427288, 0.07933112282739466, -0.047894557974778956, -0.008270932138526026, -0.08598210168940558, -0.027436624256325773, 0.0021250682559315155, -0.06511479018368505, -0.04571036609644672, -0.06425284967613996, -0.015837169075097236, -0.08840679354116558, -0.11908021638251626, -0.02257169488801694, 0.056373045035825374, -0.02129551325488958, -0.0021488395422087207, 0.07478571864157137, 0.04888551126481269, 0.007494558797360251, 0.019693658808075387, 0.009103305403618193, -0.013345621199881568, 0.03719168187370164, 0.05677142233216885, 0.03570350929189556, 0.005049367203075507, 0.07006361270706221, -0.00984179434338461, 0.0773636159091713, -0.05777671506252723, -0.05436595795263711, -0.04524079494853405, -0.0025953696750375247, -0.02407605462030519, 0.040207547492236706, -0.004976470943797297, -0.033369748527831526, -0.136582660811941, -0.02289989700933336, -0.08023330791303829, -0.058639233215535075, 0.036066114594728645, 0.02375717407970699, 0.029117747915849725, 0.10205638021416268, 0.05456565093096638, 0.07724719510995064, -0.01205445315506381, 0.028868258582461847, 0.008712711755118464, -0.019810907800489993, -0.03455166241093348, -0.0033363573386749105, 0.05372036858432452, 0.038939685189929144, -0.0061265900817439245, 0.008886581636032157, -0.02774500157358971, -0.06707930404837897, -0.1607208987854581, -0.028420730752720273, 0.04206827925331697, -0.03673873558330638, -0.007110671759593695, -0.03012517614027498, -0.08556694473898745, -0.027335158377159132, -0.014897396882509755, -0.037720794641422035, -0.041697756743164976, 0.06146130180702652, 0.013835613467120063, 0.021723651290864752, 0.04479401145424639, 0.037989833165194026, 0.0292005489510637, -0.0068287134015379385, 0.03395386058606138, -0.03393822722236432, 0.015035066782863784, -0.005699621643678584, -0.03255251181186881, 0.005639783846602422, -0.007717684939001145, -0.06923807252909112, -0.042303896042554474, -0.07385338059290063, -0.14739614109120722, -0.17121222527849067, -0.02088134138233869, -0.046979472391664986, 0.003863991482377099, -0.04582273062463561, 0.014625363115341343, -0.036038799799703786, 0.03464687733121923, 0.004602331298035636, 0.01535312260113318, 0.025293307409876297, 0.024281698938094065, 0.08892896495093565, 0.05213919011807855, 0.05949248328985497, 0.03927380635886788, 0.02694735695244206, -0.03641340645696869, 0.006661795180375262, -0.057635880439105676, -0.007232744657984486, -0.05344895367306751, -0.08610510089833885, 0.009150741687323433, -0.11826269559731882, 0.024648567424648684, -0.126996677398817, -0.16371989391953629, -0.1336495716056372, -0.1302477980302893, 0.009709385388587942, -0.03545017668102618, 0.00943132705545566, -0.045143986872843545, -0.0032973191551969256, 0.05574590514055046, 0.03558977796613989, 0.03710556245268238, 0.01853262564701524, 0.040289667192136926, 0.028268645823463154, 0.10513765920566645, 0.10920967263793183, 0.05929116340100322, 0.04448319779640538, 0.040812016025650925, 0.007604769089875336, 0.017125439145112647, 0.021214019400316184, 0.019223945609753205, -0.05964015736571925, -0.05405010339784535, -0.05465732723802902, -0.1057763326763626, -0.07572259090058708], [0.07298480033574707, 0.05617242926459134, 0.05957347287617916, 0.15547651793135933, 0.13161819000428948, 0.105868170072062, 0.10371290174123758, 0.08511302165048007, 0.11227570664056771, 0.0501959340190416, 0.053647859958174754, 0.0074262260652643575, 0.033988039810136636, -0.00534801591249661, 0.035377764506346304, 0.04611668425252935, 0.03930791353731735, 0.027400216247315853, 0.048845191568668504, 0.06505301289437167, 0.0711088377846854, 0.015594937496149512, 0.05693645634184666, 0.10871183141871217, 0.06843021193153265, 0.06042704019804258, 0.08372941270109796, 0.05039901767797564, 0.17926760062839098, 0.12723926406670324, 0.0986052517487292, 0.09696624969393984, 0.09063125443176276, 0.0743682818817319, 0.05983244711531995, 0.05977633860306651, 0.019662224695567276, 0.004208871680791432, 0.011330225939697664, 0.037903284077362126, -0.019182053021792805, 0.011378516904976462, 0.048852219927520604, 0.08289658758855277, 0.048402438607805374, -0.013112375757166722, 0.004092977779496389, 0.09324852542353267, 0.022847347655999533, 0.07986859504608904, 0.1262479465245911, 0.12579354878343826, 0.16167619557287358, 0.1658403050619275, 0.01946892810140211, 0.03986423174866603, 0.13671361751057234, 0.14406324735185735, 0.07436804469857189, 0.09758920893883054, 0.07111942985456707, 0.06443650972521137, 0.02570978474148515, 0.012470852481466467, -0.0010284971424399062, 0.007872794235251498, -0.006719774741508682, 0.02579888403325579, -0.0902460412022892, 0.03351547428202534, -0.04386791643477998, 0.025595111124083695, -0.020620869509834317, -0.009108737103861295, 0.04948331845529491, 0.03365631232385712, 0.06501376112619703, 0.08165188281470286, 0.11322427045678654, 0.1521464473917388, 0.05978793125463434, 0.026723418684189416, 0.017945402458701815, 0.030559067459945327, 0.11874798384196132, 0.026711635925453926, 0.04816159409939416, 0.07980115303790325, 0.07741393069763572, -0.04069428868990262, 0.021915991272829602, -0.017486358367709086, 0.04580629620035787, -0.01129698946546465, -0.03222296779412693, 0.04143297793876186, -0.006550675462719792, 0.006612116031026642, -0.045190324484153166, 0.01058175312228138, 0.09695298960869991, 0.05201720340456422, 0.009423318634632758, 0.06159810225861314, 0.07797791284338475, 0.10703016402105228, 0.17443625050150785, 0.11211249011164867, 0.03217204105428182, -0.03863884694726761, -0.06662106674614195, 0.03064218007618239, 0.10025905564734791, 0.060463367241122085, 0.016779572580627396, -0.028490137739590835, -0.013571705385217717, -0.026562254118558597, -0.037002529973710965, -0.044759700027554236, 0.027208483694179702, -0.07044118275168837, -0.04200321055173127, -0.015924092735553112, 9.996824061886792e-05, -0.06552326726362477, -0.01088206670957514, -0.025975056482816367, -0.03481244071222727, 0.0011004259175377913, 0.07741095604719549, 0.01577850523892714, 0.017608832337528992, -0.0056230153951672135, 0.0698610177086713, 0.0013810917253510866, 0.032286402924495736, -0.03224136108046134, -0.09176966767640533, -0.01453421183020626, 0.058481874861013514, 0.05587785620491713, 0.02870347115916583, -0.05439361745775073, -0.0071042616864482825, 0.04499796231542741, 0.010783656395043832, -0.0026910369401333596, -0.015307019114976542, 0.006570626679453795, -0.05335080983609204, -0.0033161228307003582, -0.027789779711398774, -0.055864818823227046, -0.051841198221949644, -0.06513294899210915, -0.02472089055955221, -0.005973729455982254, 0.010590463606162918, 0.06983838057623838, 0.03989656517078236, 0.050313701654124146, 0.08002490709911778, -0.0038275668978229728, 0.0015960342835742542, -0.0524762027344464, -0.10380349207012829, 0.00926856843844211, 0.10059178013985981, 0.07065765824200165, -0.010498798533075523, -0.03936821647716899, -0.04566308396885864, -0.0071838403971103745, -0.0784581498209398, -0.06807561296349483, -0.0443262616063849, -0.05359465343273748, -0.05780839674883917, -0.06731787040660864, -0.04547499512911882, -0.0422996741576812, -0.03141735265247253, 0.035438192144826575, -0.01378618569679592, 0.012297396823569524, -0.00493348724358583, -0.0414262244315587, 0.0428549772027548, 0.05117148417367953, 0.028082425573517873, 0.03492870564074266, -0.029633389500686603, -0.009409000256155592, -0.057747047638317124, -0.05880296568236102, 0.05593128071190508, 0.005022855892733345, -0.05472806652879229, -0.07822484797965637, -0.08728503343898657, -0.0090635550735168, 0.009999965073034153, -0.07242607878671946, -0.02973626024100942, 0.00535226280110148, -0.033605751003115976, -0.08099016942129904, -0.03449684362728747, 0.006712278895529495, -0.06260277850395594, -0.032695902834475, -0.003189257093203235, 0.02682043382239109, 0.014112384989288941, 0.04732125446140191, -0.004786362588921625, -0.004940286930621085, -0.02491392716962147, -0.02610881593441798, -0.03895769087924723, -0.052168525081253456, -0.11912752691753299, -0.10204720351705276, 0.08775072910970659, -0.011348916665698152, -0.12193645481186778, -0.09444860033014761, -0.08981437988618422, -0.01811651126639342, -0.07172654774965086, -0.06726237031761907, -0.06711198514886063, -0.11022488707612486, -0.10461172279687685, -0.04926590609280576, -0.018283756119824565, -0.030970316697287968, -0.041187043703439855, 0.050347369799903736, 0.046950716210871005, 0.07699195520547103, 0.061527437011119825, 0.09714775679764685, 0.049894394899757194, 0.032870012167030734, 0.02772562141199583, -0.07548352882251591, -0.07848025491463709, -0.041433728362717644, -0.10624850247957121, -0.1454581348355142, 0.06050166951534983, -0.08886626186394433, -0.07788029776674504, -0.15657728323059888, -0.08675168235419285, -0.09559027670474957, -0.06302805802524132, -0.043060539096955286, 0.0015511794670906263, -0.06427008320751494, -0.1294180877971174, -0.015493831973009213, -4.145850896525695e-05, 0.00510934705616294, 0.01385692520783848, 0.016417360080550676, 0.07694745464324604, 0.10775837180748382, 0.07275590851137297, 0.05995027309584089, 0.053275898050105665, 0.013958587761751927, -0.03136878560223815, -0.14554655419427323, -0.043587523995133014, -0.1545783106797842, -0.1432566844753583, -0.08694171609701493, 0.06356491213840805, -0.12407189172963035, -0.1690822020662551, -0.14158912240054494, -0.05637596360273045, -0.10660786007516872, -0.051516409456702626, -0.018428492066463725, -0.04102696542167883, -0.04241886515474613, 0.042743892952197854, -0.014377211623791623, 0.028114813659021343, 0.014323074622890498, -0.030395724752312954, 0.10902958782369852, 0.06301521433148666, 0.00019856562095798766, 0.04861524769668816, 0.04360035910476531, 0.07997390207658582, -0.055425820581180375, 0.018878021151040505, -0.15692303728719548, -0.07467289382108569, -0.10974645156543202, -0.11967115144064616, -0.18033253604736998, 0.015478792240962096, -0.03164177325779972, -0.13499135452073, -0.15097363010826276, -0.05923218030083716, -0.05121997971561594, -0.014618927793654084, -0.029253148173250695, -0.023383079182054484, -0.02167646828616315, -0.034077583014264286, -0.06926905403243988, 0.0005843803906349892, 0.028340381066834973, 0.07675993496373583, 0.08131002007867193, 0.09707890745514251, 0.1025401485629424, 0.05935640008921822, 0.04847059877664405, -0.03557359967598455, -0.044328301327157205, -0.053918760361097426, -0.09567397031868738, -0.06702679826143963, -0.1307723053839906, -0.10380672456354703, -0.12570914547246048, 0.04624254656260099, -0.049558059749956, -0.087133001931865, -0.09724558333958548, -0.053044127018482955, -0.021600934830819252, -0.01742783042382944, 0.017209455677340828, 0.01754803080221229, -0.016940315063085912, -0.01401937260589327, -0.013398710636384105, 0.018060875683805086, 0.015775891572719393, 0.05048724822243667, 0.10363159121681968, 0.06502917140342303, 0.018143718920705498, 0.07392607517451966, 0.0016927871985502226, -0.06538808710204626, -0.06628745319803173, -0.10895648619557695, -0.09051692156553266, -0.12452978380948032, -0.15271939911320842, -0.1697061601993692, -0.13223841738587744, -0.004348307990971148, -0.06468740976389181, -0.10778327067935187, -0.0763892945545412, -0.01118277743989459, -0.011208068830337278, 0.06900044144083015, 0.047868004013729155, 0.031030324326169756, -0.054560221530378095, -0.01663755545919177, -0.01838614743164842, 0.015849623158819708, -0.028349375289344666, 0.04617046265367607, 0.04448238857249882, 0.019193071695311106, 0.013764167836814941, 0.01945383313040973, -0.012162258941591415, -0.05792456598468074, -0.14120334279009028, -0.11576419682502269, -0.09708826265513282, -0.11556414079798764, -0.18404020469054153, -0.12116438241608501, -0.05886811222043443, 0.005800582288918587, 0.04728202156985135, -0.06725987943002358, -0.009436251090863693, -0.0017760980211480248, 0.04800988340148703, 0.011701913730141634, 0.08692514356728187, 0.014300991997473967, 0.0753004760196146, 0.00797878382327874, -0.020798626419349934, -0.020494532690961027, -0.038737550172575456, 0.038339535024268435, -0.026635785953324415, 0.007298692273324428, -0.0053027355275355025, -0.018098315797388752, -0.07240924371505959, -0.0896606002447287, -0.1377143934730828, -0.1094678861394701, -0.04273595256055545, -0.1258329799376819, -0.12422962976837723, -0.1118463103400949, -0.08437558126681782, 0.03975572440364915, -0.00644197432340629, -0.04964840158938807, 0.025088473136844747, 0.06192445209706311, 0.101506066848278, 0.12150476829688567, 0.1461724381395731, 0.09318542321625738, 0.08897919107555609, 0.08862303912030807, -0.02413867869859817, -0.04105402418680048, -0.04590663439991487, 0.02516376013571063, 0.0017962071318701075, 0.02358596288346643, 0.0077824221869103975, -0.0800482879846143, -0.10313469102389815, -0.11547558750496713, -0.13056584535533508, -0.15273396708256992, -0.1296738053686115, -0.18844063526584662, -0.1022758598994152, -0.1665572023315835, -0.028185327758333018, 0.09034693228007191, -0.0600492665050673, -0.0027830212960966113, 0.043544098856030014, 0.07380050434976639, 0.12839670124231398, 0.1851443828919913, 0.15059969525616365, 0.06947389135594668, 0.0376641469932022, 0.0013677882970080666, 0.019934778025871024, -0.017358365341185292, -0.038196001153182536, -0.012717446636597277, -0.036268057325523274, 0.048233804365598855, -0.06117711696744539, -0.07972897699800062, -0.11274271439566622, -0.10638828852765986, -0.18558649529461588, -0.14288885664785161, -0.15380550266293416, -0.09448898641969744, -0.19584260076931595, -0.06280049132173769, -0.059558029275725594, 0.11889345617092803, -0.011908164068914165, -0.003066784657443613, 0.03556027300206853, 0.08306733278445405, 0.1083670035085781, 0.13642685053270598, 0.1430219580564186, 0.10363276180058237, 0.04035514897549285, 0.05461980809236802, 0.05702322406561846, -0.06731373517937993, -0.07957997285989092, -0.08465057696657809, -0.00379028916885495, -0.01869948808202637, -0.07021405267059237, -0.1318411256612195, -0.12787998895959737, -0.14372633678009783, -0.1168529657794241, -0.13462968018069665, -0.12933082122886297, -0.10931195231100667, -0.10827395678524482, -0.12991995938261483, 0.019586131820684752, 0.06076610034738124, 0.012051667367025301, 0.014812004681330294, 0.0902565202187606, 0.1412076187728323, 0.13629000747509815, 0.10527601748147641, 0.17244031860754, 0.1158518359829843, 0.10410683431027208, 0.037106018446758426, -0.03583989982392928, 0.02587867550668586, -0.013679073759099708, 0.09024852026759668, -0.03029989154645999, -0.018251611393853805, -0.07386645988192683, -0.10105539669415303, -0.08322166419727485, -0.09497656623702852, -0.08187699615640914, -0.0895857782365676, -0.07062114033001884, -0.14133958233672653, -0.0912169057357605, -0.030840035497910083, 0.02439648010367605, 0.03151035634704596, 0.07319753342032664, 0.12139173477506633, 0.08832204593632742, 0.05055159178390122, 0.1589450199679493, 0.10408293077025485, 0.035369649780713726, 0.1215095519649751, 0.1317689112209957, 0.03794206633650602, 0.00892164450558405, -0.05539191894008365, -0.043169006365433006, -0.0668933744000442, -0.07823767826780927, -0.029407954995587012, -0.06664443458042484, -0.11072721324670991, -0.12180670809126579, -0.10226263224145594, -0.09020566260378017, -0.013716980243399055, -0.09661634930640367, -0.05939227945452453, -0.050350304759443534, -0.05575729060640199, 0.0229234148542957, 0.03858243061082961, 0.021949919198281348, 0.029174477339370123, 0.10757258686164396, 0.090470570782457, 0.0961907058114932, 0.0700099392029988, 0.08306955723780104, 0.09426011519787114, 0.15210290230301532, 0.00936934560326508, 0.04133191636746499, 0.0077050692285066886, -0.02165193939125653, -0.07385200042791354, -0.040047587610101854, -0.14307365285745272, -0.009907355484786261, -0.07505421625097201, -0.09694719403164362, -0.07405492986767956, -0.07900718376069446, -0.07698127659517101, -0.04863584453687926, -0.047060745837245246, 0.02113653004685134, -0.06266320506886297, -0.037355573920281146, 0.0931879746647275, 0.09231280374322033, 0.04553406638321172, -0.007079753067272179, 0.08524882736833561, 0.029907748150505082, 0.10904596600350769, 0.12739623687462395, 0.1482042401918663, 0.08802207225905442, 0.14508917550303982, 0.07349049783207971, 0.020502759032846207, -0.020810399913871132, -0.06622013850171155, -0.007742578420918074, -0.08082072148245759, -0.05621788806736412, -0.07640680824040487, -0.06225587243752297, -0.07332217223920111, -0.08797531437529922, -0.0645876228763512, -0.017903982628788177, -0.08569099824870377, 0.02258370477108709, 0.043911354925999804, 0.03609607426897486, 0.03211755483374625, 0.005092127051251849, 0.009036467868067981, 0.10421590103081195, 0.05475551935940197, 0.059688138305161294, 0.044064530060227966, 0.13230430824061207, 0.09330645815867775, 0.07185350739498356, 0.10557237646604052, 0.03233873425970839, 0.018327596211630732, -0.0437890961219369, -0.026395917132200547, -0.07012690037240585, -0.010072630838938005, -0.06392702282221269, -0.11969741605047106, -0.08238603702283342, -0.08087522478293518, -0.020294795440943956, -0.0025593904245343898, -0.06728497591472861, -0.018799249505541654, -0.043610690190180115, -0.015471798420101539, 0.024557884758728624, 0.09462936213626466, 0.037500720461320594, 0.052212408751084356, 0.002614626995818288, 0.0568798295861542, 0.0446259976287785, 0.056583416637745194, 0.15486788749489033, 0.14372002313713453, 0.0679816123601673, 0.0524178384423084, 0.06034099488523598, -0.019569633449538167, -0.06537042001698269, -0.07797468310333588, 