{"layers": [784, 80, 52], "cost": "CrossEntropyCost", "weights": [[[-0.0021079280866496035, 0.012689928317209442, -0.01878421901066099, -0.038555419674802534, 0.05044422727616548, -0.0077388309010495565, 0.05198371537946891, -0.01512496917866362, 0.010299472945493526, 0.032933665650206924, -0.04628924624333459, -0.06730183178176988, -0.038351006192255475, -0.0005172284556554428, 0.03347469888230506, 0.012948961276770851, -0.1076980514069045, -0.0604787222296023, -0.01336710225214089, -0.005713237013284903, -0.02665218975999866, 0.0038333409547676974, -0.05070359597979011, 0.02423596050878546, 0.0011669769140070885, -0.013129327027872829, 0.06463666533541684, -0.02508573930725705, 0.02491932966766438, -0.015003390001853023, -0.02701523061075046, 0.028841047386634785, 0.056683034982248234, -0.009152351931735693, -0.019847649325542713, -0.002423044589159444, 0.06681946109785293, 0.07512858175015066, -0.04005200061684742, -0.038045056581141316, -0.03333402326473581, -0.0009041677495810467, -0.036988534909142036, -0.017371705867958186, 0.0019404692591312544, 0.0163292756190472, -0.02528099694426746, 0.03324957900616799, -0.01375779771424505, -0.025441594717681853, 0.0023955594840441574, 0.03395733082218791, 0.0345580780564439, 0.012557632289551144, 0.01915016764596396, 0.056144127013608436, -0.07920103624279927, 0.038452132342240375, -0.0030837539245361493, 0.05095532032987991, 0.0762793821708709, -0.0005590731813727071, -0.04005343433625179, 0.015080507341466497, 0.0076947506438547865, -7.388123423616565e-05, 0.0036687766481636177, 0.0049587015904010365, 0.025395057086601003, -0.05290517381967791, -0.018436896950819178, -0.03461099952778936, -0.06288032387136991, -0.0034570229434415407, -0.007026602263542111, -0.04895879528689578, 0.008753809634518484, -0.022300368836527702, 0.023073918006596104, 0.04591125501901829, -0.03862891552822997, -0.015960016498932438, -0.017019254885489315, 0.013708152096390496, -0.036063409370161364, 0.014969656770723002, -0.02574638262794574, -0.018255521850339986, -0.017040513683839777, -0.021579110557520022, 0.01464444663589033, -0.05153273407513125, 0.0074060844508280314, 0.011645300163080002, -0.033762270955759094, -0.039494302910982645, 0.008137736617108543, -0.024395729828483165, 0.034901831134471824, -0.06287871025849559, -0.029271684985696548, 0.012307984272993282, 0.05044683264966698, 0.07244245742907565, -0.007303687388311676, -0.06963493358898598, -0.037967867990337155, -0.025224215497373855, 0.04807469508235787, -0.009742082237399025, 0.00934890665274033, -0.04654999198031074, -0.012895598792395916, -0.030996729420047785, -0.05561743381174317, 0.01796127684717611, -0.07222616684644464, 0.00534030255022076, -0.06671570825322876, 0.07317947174039009, -0.01585861895920918, 0.043284926769858754, -0.04927614954186775, 0.03589152361250621, -0.003203041705919428, 0.023360486292581584, 0.007510585417303406, -0.022800995287125453, -0.028856283104512267, 0.024089728738199586, 0.006520767127227749, -0.005067649024169424, 0.015594848686167279, -0.04496134908613038, 0.006227110073451678, 0.00958732302454326, -0.02414311704407849, -0.011104432688613282, 0.09560172688275048, 0.04869171635076722, -0.002624832996824786, 0.013806546260703524, 0.0557153509843521, 0.02033642633201878, 0.04389973140667435, -0.009854755251412028, 0.007184356732549013, -0.027791684905304224, 0.005166537789566515, 0.010742206903119549, -0.018738458540451444, -0.040678080277860934, 0.01859255245298636, 0.01353708750912595, 0.010161587186249784, -0.0442173295273952, 0.05534589852946845, -0.03630262599725398, -0.01515068646901056, -0.0049202420167679325, 0.03454686669735515, -0.04365390913025407, -0.03208947226892612, -0.03773832847475464, -0.0568317704282962, -0.014248642545601896, -0.007382374684615509, 0.041079548204745256, 0.06884039571720434, -0.010604255035068785, -0.008890268624436065, -0.04126985440793435, -0.02615263081825636, 0.0367383672834733, 0.030883256181006714, 0.013370480965595741, 0.04770128918676291, 0.0146952154111596, -0.008042537655984736, 0.06689457889883978, 0.010908609846981667, -0.009990397290391584, -0.047621420644768986, -0.06155202920680738, 0.08294306589648584, -0.005816051707463035, 0.05498559102076219, -0.014235988788905819, 0.012937082573833886, -0.07076541153407354, 0.014960631626405419, -0.003314546205915652, 0.0364417550197556, -0.028805363008286063, -0.0846623197107735, 0.016534261341201877, -0.005360259046961542, -0.0559095844773651, 0.03064178020885782, -0.0837131852300498, -0.006932550178475271, -0.017876341416630758, 0.01946916218043548, 0.0010558835463840232, 0.022579598183654816, -0.01871773531908872, 0.026735704999131242, -0.009806029142104709, -0.0511877137437593, 0.07561406125359708, 0.024858189255912603, -0.03581919714797337, 0.06138231869378745, -0.048685199761354284, -0.003472871611847847, -0.02249448446718406, -0.019032081603784973, 0.00289330841462716, 0.010500617178063637, -0.0036090994194273077, 0.002318834546670954, -0.05898108982429665, 0.00037349188359395993, 0.021195348532848608, 0.03011346738485943, -0.007029924879398229, -5.6257734442349046e-05, -0.001575920342722757, -0.020663621965613232, 0.04675166163253874, 0.05266108225199406, 0.03351829438797629, 0.026842413409697934, -0.009687620608426012, 0.028072485100642502, 0.04103259638584036, 0.03747268167210285, 0.10249552433806619, 0.00048776374603304523, -0.002430355466409598, 0.008374834182923447, 0.00448370958778254, 0.0017039903834126877, -0.056975212968510915, 0.012153204950922845, 0.027962784082943153, 0.06736303546877288, 0.029983969175246733, 0.06520259920431723, 0.015361407812812106, -0.003277765803980235, 0.027401828027364256, -0.03598925884627875, 0.00021728123301776084, 0.0435169624755253, -0.06867624991024984, -0.05419887959070642, 0.011618508479353942, 0.048112380468370616, -0.04453872912030643, 0.052916448598095245, 0.12188177356260461, 0.03282832232681098, 0.02608806495814081, -0.02283880095257273, 0.03565928475467641, 0.04469541357918019, -0.008459413302552406, 0.009529476952992635, 0.015576527024559871, 0.05577698986430248, -0.016795799727778813, 0.036423393042880385, 0.038331226613955285, 0.010356190622925093, -0.00730531668088976, 0.01876725778963535, -0.04826316805375487, -0.01523232075052591, -0.013698478825926848, -0.01761092988261377, -0.012427516001808726, -0.008088758220221799, -0.001252332986319694, -0.0373967498693386, -0.002260676984577573, 0.020708525629677395, 0.005230039493054015, 0.05498132723542265, 0.015559616239383983, -0.022898203822451224, 0.014593719669259408, 0.0363898273461934, -0.01863250806702273, 0.01540939817439924, 0.045685819027593944, -0.02226645471387233, -0.014887050019916163, -0.0018059020312761018, -0.03490996639093577, -0.0025504107308169056, 0.025781121625283447, 0.03917938917296012, -0.006271159537448039, -0.01754546494281714, -0.009617552411642609, -0.05144715895900103, 0.037567190270618694, 0.025916985090099837, -0.049356989162480595, -0.0118645085572719, -0.06515173606907387, -0.040666676755084265, -0.01128966227565665, 0.014109912857973651, 0.05864029795790579, 0.015082226586586438, 0.010153639803183638, 0.02104352442530055, -0.043086163260304414, 0.028419255973069987, 0.014305642215257902, -0.02175996025573358, -0.011349988050902803, -0.0129713803474825, 0.03702093026224771, 0.013376651747312706, 0.01974085191203377, -0.05967162697257627, 0.057753577622916524, -0.04371456438645175, -0.03599435635731281, -0.0039974254151629255, -0.04036098370067973, -0.02132938517157343, 0.03712042395273353, 0.00965397019994486, -0.09472979174034298, -0.026936172921011785, -0.020383831789792195, 0.008732669405990993, -0.008694224593246544, 0.006149357864974517, 0.05838132639372298, 0.020458151009776604, -0.004087217023115818, 0.03256887790571996, 0.010569263876472976, -0.08678967375411685, -0.01630827684041716, -0.04070073125065825, -0.06897105147100424, -0.020571668432778214, 0.0118124121924001, 0.01163049138660559, 0.0021907165798266677, -0.03758998637866617, 0.009030538905756922, -0.01998617101921037, 0.004911438325639873, 0.07021907536453434, -0.016021188949226443, -0.020103710677636253, 0.030010549007805525, 0.03348829380742737, -0.03904268166275312, -0.0344958603137857, -0.013495613567775027, 0.010872323288376054, 0.06717118544524855, -0.005473857448179349, -0.01882200358849537, -0.008527149562725538, -0.037517524671240435, -0.045382393623638544, 0.007181736014427077, 0.019018468398806047, -0.024176489299959747, 0.04482306616932237, -0.03152196749758622, 0.013833430027814883, -0.023707674035603376, -0.04097920653223134, 0.003886203348594655, -0.027096335530881036, 0.07210142363798792, 0.022564001537556496, 0.040808302391004025, -0.014596731563764098, 0.0031016468967956256, 0.04682581434105816, -0.0019292739881442771, 0.004652050177506093, 0.005182384758192839, -0.023775680102203833, 0.0008846087155833036, 0.010923919381527506, 0.007023577934383079, 0.03685790828640748, 0.015085082214463854, 0.021475487523940986, 0.04700401078584956, -0.045950211869254395, 0.01810497478216758, -0.005442427136142307, -0.0588346536682892, -0.047022624387688686, 0.017721290909564744, -0.033222368672860964, -0.013088423747323464, -0.007548945425855486, 0.010417211355492617, 0.014978699056259029, -0.054889849653975496, 0.06263951807510133, -0.008667992889531786, -0.0007504768297204697, 0.09447617005006344, -0.01384396044162824, -0.007123788268582301, -0.057879402685270906, -0.03290898225618529, 0.000834385452750733, -0.022561898646039264, -0.07400376899417138, 0.042267386756752505, 0.0031969450192286053, 0.06962131639674557, 0.025452947094137125, 0.06447766216795735, -0.00874132272970777, -0.01539293489966011, -0.008020986950800071, -0.012298414263869925, -0.012659902700853409, 0.02995838667266565, 0.0011755463478549171, 0.032422410564312894, 0.01636763817283778, -0.034087985155423245, 0.04591439810642047, 0.06915386828355279, 0.034530084317493104, -0.0656593215382683, -0.012553832832631426, -0.004288207619422984, -0.013843709921246025, -0.004189249429772136, 0.0081641143681272, -0.06209719363074221, 0.010637971868489318, 0.02894111732975565, 0.01262587827241111, -0.012730817829342751, -0.03016335367507045, 0.006719147088589125, -0.01400602340434147, 0.021995123256836432, 0.04489753100834699, 0.04808670282137331, -0.07857425222836029, 0.025769414481488423, -0.018758465848742363, 0.025953873457970324, 0.04629289106357263, 0.03844001436657351, 0.025224953129197234, 0.031787882477496296, 0.02694240838008314, -0.056591820809180675, -0.007559647512926171, -0.0029994199677610646, 0.054871238574887474, 0.034715063280855926, 0.06420167732546504, 0.053067813494087866, 0.02279657412406599, -0.061032665620027536, -0.03397349400945676, 0.007398000778556724, 0.01645168084851374, 0.0004276167318768882, 0.011248956750525698, 0.04867120928746039, 0.040150469326241854, -0.01878253406433827, 0.018562735820364593, 0.08456089085834559, 0.014434736597595258, 0.015471584574120407, -0.016932810384249635, 0.018476971049885393, 0.07763875358958648, 0.00024374188458200444, 0.05442850328533608, -0.017400341698546457, -0.06416946917437892, 0.013730953210044574, 0.029435715427503898, -0.05012491084554838, -0.013558064889473856, -0.029336816687268924, 0.007463871796927347, 0.03671705889674644, 0.00755359114364431, 0.030176550073042853, -0.04574929748397901, 0.021278190100815025, -0.05230876665746413, 0.0247671750707388, 0.0033287904142801916, 0.032592002109049084, 0.07343470933102812, 0.056299413754095806, 0.011740220585474394, -0.030135777366339732, 0.09010636608516835, 0.028914125275475513, 0.03419858690183878, 0.013225325143808548, 0.013262352787417666, 0.041832034647702764, -0.0032714524280999567, 0.05934421385031087, -0.010433770470633093, 0.057797904703468704, -0.04676543660442472, -0.04965049286696254, 0.021334487517031653, -0.01398427934541122, 0.012950669484279967, -0.018860129743261858, -0.004006745743680688, -0.04308053170754512, -0.02769147359338198, 0.017426404719404938, -0.014213916420029846, 0.010473232838408985, -0.062009354162910084, 0.0282263198486254, 0.007956371536525621, 0.0490404500527826, 0.02272194009513005, -0.03314440697249554, -0.030613849164887727, 0.06369654542287316, 0.0647193548172478, -0.002127882148221385, 0.0017513983633262132, 0.05493662321300294, -0.002729575071631118, 0.04887908935544003, -0.07080148140360325, 0.017893001064560113, -0.08615771393369834, -0.004879154702727388, -0.0035717196219802144, 0.0010919944542722969, 0.061058172999900365, 0.025616307045949235, -0.0037510514716528717, -0.059976504219152106, -0.03998900980305181, -0.04907229899682142, 0.01968291438065216, -0.045040773676705566, 0.059793189593548964, -0.010462216043398257, 0.024861587466214235, 0.0957600559636837, 0.01160213740094283, 0.014082484286648654, 0.05927958461119898, 0.035590661193616445, 0.055301932173020554, 0.04360186471064644, -0.005902614035040544, -0.031623086908699846, 0.02395523732582703, -0.04476645541468545, 0.008265433157073059, -0.007641373022500439, -0.07932000894124902, -0.0030514531548877693, 0.025830291017927286, -0.018907423215117364, -0.014542523584785761, 0.02365182622023148, -0.00033276283891903966, -0.04269848871281848, -0.029999744354989213, 0.02374966013104027, 0.021009180597313527, 0.007676224663337748, 0.001612941348772587, -0.007034161359141939, 0.00985991899729307, -0.0001069495971429911, -0.045159092771125016, 0.06607749782448365, 0.046854616828971025, -0.036912695958534796, -0.02449799626743756, -0.022058333899036307, 0.02482303311508916, -0.03059170862910488, -0.027622767300412285, 0.045930861874561184, -0.030337046910223146, -0.0265052418200296, -0.009056110710105467, 0.05695259042237703, 0.0009505114196576561, 0.018616011429990836, 0.00014283309883806293, -0.04230222197062548, -0.05056958874755265, 0.017973909116909482, -0.04897144487276009, 0.03751363544060308, -0.0010725253041389575, -0.03466624068362791, 0.04239107528450586, -0.0672387660605902, 0.019614400053391018, 0.0029212398048411425, 0.03309037134719889, 0.019959256503049826, -0.014469784618922446, 0.02421961062754552, -0.021309648939153436, 0.0033399973201980264, -0.02780448237963891, 0.04350414010066903, -0.02039336004761027, -0.033999101372981046, 0.00894760834190886, -0.00840056023432541, -0.02199343242349184, -0.0037993452439969706, 0.007381198876358367, -0.0555691264235228, -0.037894742791781254, -0.04839025346476847, 0.009949798525044774, 0.0003354115074775051, 0.03400563773598413, 0.00815953228031759, 0.0016382515103467545, -0.008866555429162272, 0.04471348518761467, 0.023582953299363777, 0.013184367508687869, -0.018366958903303175, -0.017980347116161373, -0.00867544343381711, 0.005766837113682859, 0.023097498058025412, 0.0032084737180087166, 0.0364077676038534, -0.018596567899926742, -0.04502381745367569, -0.016517519635874073, -0.05201058120807646, -0.051694776252229804, -0.010497129631293498, -0.03538886582672824, -0.0208071590265567, 0.04728836274894233, -0.051718865638212166, 0.021075718430353413, -0.04046752404794249, -0.02143942509320947, -0.013093863554218614, 0.007225278755553845, 0.02248298405687064, -0.011564991028921431, -0.024122059642952512, 0.0639110961769725, 0.019585227389964998, 0.0010198833605254867, -0.03312492786714087, -0.03663093286662579, -0.007660462642258658, -0.021644350499026313, -0.04848253545473975, 0.025648882898581096, 0.03573137058229152, 0.010215189979988538, -0.03517351292952665, -0.0024643075844782026, -0.015122636290569019, 0.01651057692243017, -0.06841954856321725, -0.06062325542212068, -0.04219535671178214, -0.002901260626002685, -0.0007637062334817971, -0.02036215726761358, 0.012117435456727636, 0.007253620375530663, -0.004231841087050442, 0.015191892270061085, 0.03760706362581942, 0.016412390631914322, -0.029058021036155384, 0.059647625281053884, 0.05201784677220717, 0.06444900143424089, 0.040258742666719964, -0.04693782112438331, 0.026015453773799265, -0.014617730147378603, 0.0007547724296370115, 0.019770045047545634, -0.03140486046502561, -0.015708537841120727, -0.03883601609959861, 0.04615075389963149, 0.03195437372668169, 0.016117943777183074, 0.024557752115617264, -0.02130973650223952, -0.03957398442862461, -0.0173821013158797, -0.03325578102016408, 0.011118010613325586, -0.011009780266352014, 0.054284725758812644, -0.02060108836798856, 0.051330469837337134, 0.012397025349955529, 0.015710711005320677, 0.040302477208172184, 0.03671072807770956, 0.015310388720254774, 0.03224526274809512, 0.0715451702493678, -0.0539390235454572, -0.02598852385599943, -0.03315888553507442, -0.024556534062696277, -0.02666725538339479, 0.0083645352370054, 0.007224730177502695, -0.04264602969654891, -0.002742995967641417, -0.018859121774437694, -0.0012474299276861868, 0.010939517714915765, -0.06089442237554594, 0.006097042464668221, 0.02619467384744179, -0.05319465264658127, -0.015276094165922474, 0.02640841101340496, 0.07052217555464063, 0.018312895921614794, -0.04989691208443553, -0.028571659082919754, -0.0025334776674363225, 0.005613149257294545, 0.03589773112373401, -0.005539044900126178, 0.027479091362869527, -0.018305293773210215, 0.0023922931321807765, -0.006839372724215219, 0.007743013628409835, 0.02642023679263906, 0.012150371601587042, 0.014875337479014903, -0.04267277982286476, -5.420149176572713e-05, 0.02369985461674853, -0.03299344426405231, 0.01654898452151108, 0.0027320441207473083, 0.016708710161826533, 0.04687705678063952, -0.035968209055524995, 0.04330437945289591, -0.08006771142580214, 0.08550014239441767], [-0.01269891861596678, -0.033478183579771864, -0.02505838666531845, -0.019643417541176066, 0.015128340753550209, -0.004586603661585351, 0.017422508800548804, -0.11958355418523256, -0.09990572563639709, 0.013800407782424869, -0.004839861034873596, -0.054418067736058166, 0.004413625563271957, 0.02393031042898663, 0.05394519570843938, 0.043742589661004694, -0.07012063285380363, 0.03185185227836255, -0.04237408251547717, 0.0480296384174863, 0.062183307263244676, -0.034238250766808205, -0.055097888763042877, -0.06032620608766403, -0.15158147583941595, -0.24826590177427632, -0.12941162605635506, -0.07295855636509131, -0.006437585460847329, -0.015238529410636635, 0.002515715438326289, -0.060541071387634385, -0.08897738969764453, -0.035130484821331895, -0.1117438450414914, -0.13851546511601878, -0.13516235505657725, -0.14480105172445953, -0.15809581615594878, -0.15269943922108822, -0.14393122878316986, -0.09104814118111172, -0.14683887093874906, -0.11789934528917108, -0.14429818300134023, -0.11285922275232076, -0.1136277329453821, -0.08257193500592834, -0.1405356414391176, -0.14537411755141216, -0.29556307959038114, -0.22215317155755554, -0.3096182019963709, -0.2484050828758528, -0.16050718187487012, -0.06482198897143741, -0.002326034874373041, 0.014536631900911841, 0.04007861485072017, -0.03861229337679121, -0.12867021726834732, -0.08076349293094687, -0.17630257023532683, -0.13805163219677835, -0.14248039861420086, -0.20662774079784296, -0.2557185316578663, -0.26302783186445644, -0.24611220444543053, -0.3075856593736807, -0.2780786037377204, -0.23956075303704627, -0.23717184087049595, -0.29273401792885984, -0.2048839627220669, -0.2588507204860653, -0.29867649585078765, -0.266635491305666, -0.25866517915395043, -0.2776148653651424, -0.25828036805240273, -0.21604369753487454, -0.08292994097915575, -0.03361312127598718, 0.018703649811432157, 0.07971126835848329, 0.007882842045270396, -0.027000126320524884, -0.025184230043380128, -0.13188193112401847, -0.1415884643871754, -0.11215003841510558, -0.10129370766047387, -0.1567933321210688, -0.2413916216063714, -0.1947798096758354, -0.20743463804869475, -0.18362939834725545, -0.21037400780273774, -0.19613834946014053, -0.14363472038686104, -0.21567196277224787, -0.24900071403414575, -0.2009045978383694, -0.24721337449405928, -0.17440867074920713, -0.18951266522781257, -0.16057168023653126, -0.08686919710853834, -0.05049415613444097, -0.06971051404812277, -0.06029789093767472, 0.07349116889388863, 0.019508776673639473, 0.056443534012103676, 0.03531882786702116, -0.01738099891280339, -0.05769216594386292, -0.08731140668654326, -0.04542809524421525, -0.01264672271057782, -0.09889409936641574, -0.046811572840545136, -0.1580964535292524, -0.07935217577840337, -0.19863097270328126, -0.062202926943048756, -0.09903796484222174, -0.08773939734444833, -0.11006015182285223, -0.09752899749425356, -0.08650899756610972, -0.07675534193317303, -0.06508930643427274, 0.042813237285295534, -0.05845305274475241, -0.021277089570603185, 0.06914367438819372, 0.12117432802816995, 0.037558880314711884, 0.01840864808270677, 0.09223146380615171, 0.0594321502344849, 0.022453092721561724, -0.03984039715407362, -0.03014087649813308, -0.024638531793084346, -0.05421771466142548, 0.02247354115495141, 0.03956161733111854, -0.028911230438873066, -0.08370513683105746, -0.011247572946501104, -0.030314766519671268, -0.06967742394722594, -0.07483634307139869, -0.026030770375865667, -0.056183756499978206, 0.028749341793559438, 0.05104794241451499, 0.07550183258323528, 0.06420770272074508, 0.08979643578914943, 0.09807867241139034, 0.11935332446153774, 0.16444212032790587, 0.17266752321131595, 0.07788718249423664, 0.011764000229802176, 0.052114425223480934, 0.08220354726822575, -0.015768568240157144, 0.020437531662616474, -0.01179778389710031, 0.025475799461079727, -0.020328426133655462, 0.005417725915612395, -0.024028444340328307, -0.04136349036252414, -0.013040840470171691, -0.0010379194684853902, -0.03867145793936376, 0.0011597901856128098, -0.022920869456561157, 0.04292801819508495, 0.11952658178557346, 0.09423375159845568, 0.09162604398413246, 0.11015127150459135, 0.12826827135466973, 0.13441318829080715, 0.11474519024899936, 0.15254612996649317, 0.16902382846038091, 0.18966513174287902, 0.17430752381243475, 0.03397456901012146, 0.06952961713972355, 0.07533947319602488, -0.008584687412365295, 0.010587643639965024, 0.01892950022478481, 0.04061654455415836, -0.05162925125246761, 0.05913343642210344, 0.0667957546288451, 0.039133355595324326, 0.00435079853089686, 0.025714832977857177, 0.05264756561890024, 0.08923059002580404, 0.01041731177971936, 0.08228819235937754, 0.09520050530506056, 0.1499972388758793, 0.16070710202357907, 0.12327365428411573, 0.14043725206512947, 0.19204679942740474, 0.16234553740156435, 0.1270987084113992, 0.1697693058513681, 0.23503816486704945, 0.12136470995151218, -0.00503706338230321, -0.008532698882686901, 0.07781753155377527, 0.05224108452816657, -0.08462406718261196, 0.0018562003120997964, 0.019893645108483935, 0.04425139943759509, 0.0022409554124484337, 0.09236868125868056, 0.0932585609120717, 0.12457482792786835, 0.06747701013780215, 0.08214042994528399, 0.05720502077536174, 0.11493578589749466, 0.09949504873129598, 0.1815633055043994, 0.11052351931482951, 0.1754235541695708, 0.13272959178941374, 0.15279699046983852, 0.16870489738439567, 0.18206284054980154, 0.19089248181262589, 0.21262168579984514, 0.2216554889465448, 0.2241875741321215, 0.05814036571352918, 0.08970061945345098, 0.049853212942313964, 0.04103125556750313, -0.009230956786312776, 0.01880343143591628, 0.03198827554481719, 0.035991249764437926, 0.058074942578068355, 0.08316161784009908, 0.04458180476223866, 0.11938059272056621, 0.07426136430062764, 0.08845261186885803, 0.08331184505485253, 0.11673463624697497, 0.05371017265642093, 0.06884126337996122, 0.12190687197834063, 0.1200624865580216, 0.10352539277134248, 0.11308040617883791, 0.15925598824729492, 0.09422268976972857, 0.14924015000445293, 0.10965324261309142, 0.1775566368962567, 0.19092817869156373, 0.022661532735310512, 0.03566882627091715, 0.0059602065364640034, 0.05035301728823351, 0.04811543256858368, 0.04199412449227423, 0.009718800298939323, -0.012318630660923063, 0.07551336469371275, -0.015553076490224405, 0.006670545187312289, -0.010543827812000077, 0.02374962362677209, -0.006477209183341805, 0.006339805788283543, 0.0011311418239690538, 0.012464417005950745, 0.052577057252067086, 0.06912651008193979, 0.07153713968470136, 0.10798521947333455, 0.07230236700923552, 0.11254803203880609, 0.10147028250846842, 0.0872487942223577, 0.11993474807081657, 0.1566480627633404, 0.1130690793210455, -0.008851292654539503, 0.08054718301438367, 0.10912341988007972, 0.09852238084708985, 0.0755035848893742, -0.03590930911362947, 0.035277940716738454, -0.010403777842711993, -0.0030716728569092355, 0.013290544842387083, 0.09281430840114137, -0.09978590377040553, -0.008202409617775547, -0.05697256392566599, -0.024800156877215984, -0.04574546756813903, 0.0019710138058358162, -0.02874330463460249, 0.06906542180735956, 0.07408099413781193, 0.095116701207418, 0.03594382454202845, 0.15217707412506995, 0.05091596621149575, 0.06892273798965876, 0.09906232919427556, 0.15148440571082614, 0.14804702315616797, 0.05019137556474627, 0.09062287341512289, 0.08020919776099757, 0.15686070588719617, 0.030376790660429184, 0.06359488273739063, 0.07108660097950573, 0.0031515126409423647, 0.03337083316355674, 0.03310018769553366, -0.029018968492357074, -0.008556377375863702, -0.027334988631876243, -0.08375249798316209, -0.016363195362349245, -0.024256323847565497, 0.04905234701430554, 0.047058984649461635, 0.039505091799082646, 0.03303405812214563, 0.11243532815863594, 0.01775193745165817, 0.028822769905556284, 0.03275730180681123, -0.037732483884304654, 0.0361280793031599, 0.13986797222463856, 0.09909462254469302, 0.04853994674297227, 0.08874653151436261, 0.07357681611280241, 0.12860760146519862, 0.13782245427508336, 0.1350934799608188, 0.07959587386291513, 0.05876470218836845, -0.008299090735886321, 0.07324011564495515, -0.10733598156120888, -0.0560883477781387, -0.06320718116982517, -0.060894529792381025, -0.0712362260037195, -0.021185542398802073, 0.0281435268507504, 0.020948046177221045, 0.07058569499291029, 0.03600534350719823, 0.036216026813485167, 0.006841614283669237, -0.040739538520391416, 0.01163319397025021, -0.014295963235762809, 0.032745982480714794, 0.0028403660837518665, 0.11119709701489819, 0.06742166388149354, 0.10257267607618449, 0.05605574981030254, 0.17605349991250901, 0.1272935206522607, 0.1986206878151285, 0.11912785309335085, 0.03295436890998422, 0.04665456052565984, 0.01741271354462571, -0.12521988993545927, -0.04547184079545895, -0.12390637333112756, -0.014211184391234283, -0.08142233857838459, 0.02666597306203229, 0.0027280577764196394, 0.014942380263286576, 0.04949129140130502, 0.02634697776830951, -0.01771318763984299, 0.017230792280856642, 0.007396541501398147, 0.033939439409630276, 0.06883691474277888, 0.0447576072791845, 0.07945950163410732, 0.12780872123266654, 0.019444667255737614, 0.06964202225576456, 0.13020737144221944, 0.05964414582190239, 0.16112140248828988, 0.14302005528045691, 0.09060842247669978, 0.02650598066739959, 0.023868421130992117, -0.07797646971503654, -0.05449052482714563, -0.12429975723988163, -0.11194483362931955, -0.11344272909959516, -0.06831160340459642, -0.002162104261782446, -0.05168958288257657, -0.06417360453645073, -0.00037901125478472853, -0.016277052067820034, -0.01132960562589776, -0.04218831482142143, 0.01137698290634034, -0.008764258800411883, -0.03409953239535915, 0.016307755658764772, 0.020968802441856997, 0.09047006456291752, 0.09622027772073295, 0.11862821096829425, 0.09134993853469697, 0.12578855598551597, 0.18641464768120813, 0.2661449134535046, 0.07710225690375173, 0.05823375260407692, 0.017676942491255787, -0.00890268527146034, -0.11237288017536215, -0.15408277317726515, -0.10457900672355322, -0.09536726359002465, -0.03255396369153503, -0.008683623733921605, -0.025211473417288056, -0.06330991989136309, 0.009789107726532515, -0.092224124634896, -0.0195780114809756, -0.020901599122719355, 0.015402073037140694, 0.04335409698232828, 0.0325547114954798, 0.013088883070553715, 0.027945061949204, 0.027025467054721482, 0.09374683079655102, 0.06406137042409792, 0.09352050420705266, 0.12258290148872125, 0.2112974557649839, 0.15269614236822798, 0.06126777680276809, 0.09074251843476161, 0.021774896602421462, -0.06806103627949486, -0.02522279647141223, -0.054816831374063985, -0.03238990117626746, -0.12179148788025915, -0.062196844663850545, -0.052735131247368276, 0.029483104016865436, -0.08642770986763011, -0.06466503476976303, -0.09041987900771983, -0.05058921440727258, 0.005694049713398489, 0.007154835372034314, 0.01805073615325319, 0.04788620269984316, 0.0520687898109486, 0.05438911699091857, -0.003061150709157864, 0.11686993215950166, 0.04133296031930251, 0.08883968002743706, 0.12475209920683553, 0.1289073946750196, 0.09985456567682845, 0.1677151773396963, 0.07599237735889107, 0.03632236383371888, -0.0765953147904535, -0.01208918403395631, -0.06577484261402224, -0.20631927055694121, -0.10695646786115032, -0.05226818700111786, -0.07557177682651699, -0.07624682811006796, -0.024708403665298598, -0.0018308896800977473, -0.06927232660379505, -0.03380939337539331, 0.01751705227642879, -0.019830503320016065, -0.014327700429094859, 0.020819287916195275, 0.027853112497600523, 0.0798492510779191, 0.06466846565255543, 0.08923688301882622, 0.005973262424742491, 0.013989645647251353, 0.06979047321944935, 0.07407281682765848, 0.12178153181952463, 0.09523173312444155, 0.03574546259845458, -0.049421266673762856, -0.009173201987551375, -0.0792258446447653, -0.04909985510695625, -0.11373709623071762, -0.11452841023516923, -0.036256226256633065, -0.01922636292505222, -0.049996389419464396, -0.03929283415715833, -0.04250055464517812, -0.02377678767379974, -0.04130009336379552, -0.0003303180935426899, -0.027075395486962466, 0.020578649326939057, 0.023888320154388003, 0.010679854616459511, -0.019041092636094555, 0.01234053004088952, 0.024959557001425554, -0.00016747834821615164, 0.004762127429628155, -0.0022537723631336328, 0.08124945782903888, 0.16387669363650045, 0.06954814690960189, 0.0753201008703245, 0.0015701402875339249, -0.10910499507694599, -0.10076719537523589, -0.07076883479537455, -0.020314093038856444, -0.05241904233012588, 0.0008905684895254358, 0.015637600681543667, 0.030158458521406296, 0.030617225260816717, -0.006029858349728117, -0.04567013123195374, -0.06008557405016789, 0.0026188171714990804, -0.02298222510286676, -0.010291306451360897, 0.03085694630093302, 0.02173021982341796, -0.013193635751711032, -0.015506982353868902, -0.018155674787612434, -0.026206781693066984, -0.023174609044802848, 0.039937319092930586, 0.06584320247183263, 0.06099418376757581, -0.015113454412987812, 0.053152445895163235, 0.04979204060750613, -0.025631203841231572, -0.06423661781290838, 0.01662122228100042, -0.03273286558417233, -0.08727177959871243, 0.02830532447758434, -0.0630811772156221, 0.010640297015952139, -0.04685187072814105, -0.057906407621258926, -0.08198246679466764, -0.020923273751400552, -0.0064054139850332325, -0.018559153788127176, -0.15655543398495253, -0.00035574612614612956, -0.03511337463260671, -0.0369109842743527, -0.013003434542170431, 0.008370702875155022, -0.03584500336762616, -0.004568053129261846, 0.06931697530227768, 0.05121769613944422, 0.02171551558973133, 0.01372190385096578, 0.025406319576227812, -0.019580411905159488, -0.003032184957472695, 0.06101010908282149, -0.022479771421357223, -0.02366782365797796, -0.031053909074966097, -0.03169241909419496, -0.06072458827578548, -0.038038671528240704, -0.056435754850733245, -0.093056379169316, -0.04510866341496487, -0.040289763097689245, 0.0016386212159591618, -0.008879138106744107, -0.025511023127795036, 0.003507131301140397, -0.000590647788518646, -0.024952581562163234, 0.05757403302536764, 0.012391320865267954, -0.09711845312231718, 0.03442823292859528, 0.010590179976298601, 0.051350377687152296, 0.09786792910282334, 0.02954471367376209, -0.020102992130722603, 0.053702600065237895, 0.052332590237396316, -0.005028160612266625, 0.031968822348988894, -0.06359208190741664, 0.01823036960251783, -0.001272510134147261, -0.020792291235140824, -0.08207557627906267, -0.08156013208952247, -0.03784988196470545, -0.07857471849566887, -0.06744914950668054, -0.04527797327817345, -0.06095273623682293, -0.03050690049599759, -0.011838793487914749, -0.031076578628871077, 0.0354024502048276, -0.03476496297053304, 0.009375710022881392, 0.03989631057278474, -0.032341891242793464, -0.055506694068201176, 0.02323051325260184, 0.00948767020697912, 0.055962758271853416, 0.0023411639723507492, -0.039923969293674866, 0.030445787476364013, 0.03548747980741938, 0.037373976751873, 0.07096088512436509, -0.006797689622109474, -0.008114252443733856, -0.0405092938740841, 0.016736857466665436, -0.07203108717272871, -0.03132625791725124, -0.06337251383321618, -0.034051656506854766, -0.10225347933247975, -0.028538879264956536, -0.011384889727293492, 0.003656582416790435, 0.016265218301791437, -0.04692933152801817, -0.035525160478683225, 0.08855198116607658, 0.020504692946404352, 0.003304264853297904, -0.04768070928420313, 0.01912047856018788, 0.057140576879585965, -0.07838809864320574, 0.005250061113837248, -0.06237678204245267, 0.026137934423446453, 0.04497648105764591, -0.011311501612026022, 0.027530670364128373, 0.002256719115597827, -0.06796323716379836, 0.020225579653680197, 0.016773629088180305, 0.02321821996343888, -0.030051709983109954, 0.0232212950429916, -0.022919553167819975, -0.0729711142714, -0.027630991663747162, -0.01989258303608259, -0.007186609301363109, 0.0007855954596812648, -0.029291074079988235, 0.009957988389305587, 0.0648156030896898, 0.08508741612995407, 0.09487287840277686, -0.01544650069710534, -0.10359836558743592, -0.028904044483961337, -0.066658741204419, -0.058366774287431, -0.01823812124947358, -0.06856038485723522, -0.05129866418033545, -0.08468585719883057, -0.021373445947277275, -0.053854859311389454, 0.0074860365371697555, -0.04881070727086607, -0.08032561332019819, -0.04647539547033554, -0.004472432129890452, -0.07218100340183549, -0.002020494149013323, -0.027857774705712924, -0.002557325253871906, -0.05420862499386791, 0.010896219013528316, -0.01924016849525684, -0.011003950594005676, 0.023616270110036326, 0.04576159084798397, 0.011202255608677877, 0.054572910938891966, 0.05084896171845666, -0.012367292696683982, -0.08071801061185792, -0.11108625039316279, -0.10495176346826862, -0.10560035899708861, -0.09446952755086613, -0.047802583853195614, -0.03516575206716301, 0.025092518579748254, -0.04605573697727841, 0.027509758111026923, -0.02367136608338962, -0.010679727459877735, -0.08156780762907205, -0.015166830432022415, -0.034166742727914985, -0.06637566348114383, -0.046232887829446255, 0.015021261288936688, 0.08391890732679652, -0.0021670786169421126, 0.030261290811538222, -0.02293339704014058, -0.0020580361954141936], [-0.02098980230757493, -0.02726448166206139, 0.020550723012867343, -0.029804612365744627, 0.043086352696139855, 0.040682611918299236, 0.027283258504806104, 0.0238719415209837, -0.0025842771195248317, -0.006061393142540774, 0.017925857851670748, 0.05343564794231696, -0.02067624988727077, 0.02897161863827531, 0.06726422189715763, 0.006734354089319107, -0.015206075535794757, 0.028515908695745603, -0.004426052668293078, 0.007584381833130592, 0.04753165268899749, 0.023406159707171262, 0.05115208140847918, -0.016648891407505556, -0.014138952698827418, 0.07239974777216077, 0.06468564205790216, 0.006171193829032857, 0.04146188932338188, 0.030818273257040434, 0.0255044273888997, 0.01612868674778052, -0.011588981886691906, -0.012376666501760348, 0.027398087220329666, -0.0052094927816788315, 0.024700980915415036, 0.026769755143961082, 0.09380782804406324, -0.012166216876688202, 0.06838969270245168, 0.03651307241711681, 0.03199745032505916, -0.0061710519602356136, 0.046453705973240916, 0.017885244144300736, -0.0084553281691207, 0.0053794157980304605, -0.019683017086557543, 0.03831733483189547, -0.009864281418471415, -0.023500734923854457, -0.009052848426738393, 0.020133154810875197, 0.0031100381968520237, 0.04064244549360601, 0.01707324261331516, 0.009102615058422305, 0.0021204595114656367, -0.0027075328429614024, -0.0013463557225951253, -0.026214107044565553, 0.04182443266237701, -0.035879440076142535, -0.0065035387812390835, 0.039710512932008696, 0.048443284865917785, -0.0495549387442662, 0.040380789286314625, -0.016467752648456617, 0.014335149728153817, -0.046008487827505745, 0.011364213398348439, 0.004023606719089203, 0.011445066924007671, 0.019540522983129586, 0.08230800799315788, -0.01952428812273745, -0.046317596764305635, -0.05884832550303352, 0.005015264442198723, 0.034411049813153925, 0.027793638676622476, 0.08510910024272685, 0.04015703029040669, 0.05775101467465664, 0.022913922865860564, 0.037775915475315315, 0.05784726554533479, 0.004700001040176581, -0.04563755633770499, 0.015013062141932727, -0.020035665406285343, 0.012764740616544428, 0.021691337290375663, 0.016262439964731024, -0.010834700079710442, 0.006989718404811154, -0.04028530294236726, -0.01132889112258936, 0.0029391362340630985, -0.046057782328108504, 0.05485929907273265, -0.009707495148980633, -0.007171016295882293, -0.019687975662836144, 0.002178497124662827, 0.05084158695643033, -0.04183514329054115, 0.03142671478857729, 0.08246481725113225, 0.0016212604811999514, 0.05673186910639498, 0.08421548317866814, -0.006222893571544585, 0.0038853226275824566, -0.011995109871225285, 0.026248765184287825, -0.013009533788509752, 0.008874648331641857, 0.031965528874157566, -0.005478972088702914, -0.00976599537586579, -0.028679206912401313, -0.022482098322103915, -0.05561700741304858, -0.029652741041682088, -0.007439903208942985, -0.0007568391593889265, 0.0809736959795243, -0.03317668744287808, 0.005591993857040877, 0.024002806335775652, 0.031508556194786125, 0.0007743428534891958, 0.034679159339962004, 0.05810912184641017, 0.014067958770157398, -0.017483347008598143, -0.025823181724069524, -0.027782768238276457, -0.03600246505567685, -0.005343079119545715, 0.02000810940314037, -0.006692026086661592, 0.007755197016896594, 0.027437390154534017, 0.0087531443274508, -0.07239088798071813, -0.04327454007156977, 0.005142390347014962, 0.017126152732195237, -0.02039122509759217, -0.01312904971625884, 0.042486812698768285, -0.05751948114109839, -0.03534951852523799, 0.0414161796642791, -0.02038799657087155, 0.03825759894385371, -0.011580860653168823, -0.010413423883477744, 0.0529115104019106, 0.03495555375914734, 0.005708235514677038, -0.00835927027336582, -0.0817564000679921, 0.03389112600122726, 0.028842562043870628, -0.1092095732676827, 0.024923936843815105, -0.003149761699102824, 0.00011163380282236644, -0.04655617876183421, 0.0023122545434985323, -0.017052213648111554, -0.021281701893505332, -0.0038137114083626215, 0.08112291310715454, 0.07867147441429503, 0.017032537328293143, -0.000918152682472795, 0.04862184438992238, 0.00965771506774245, 0.008705740200224884, 0.005484364097176322, 0.023146801314793384, 0.11922829046546653, 0.04706074993097263, 0.050603540234877786, -0.006569460520351906, -0.019748688304792348, 0.0027069811956941924, -0.019203276104137232, -0.0459038837561438, 0.03558732694156035, 0.04428277531707659, 0.043185705348371295, -0.016148179877819063, 0.011469394980628489, -0.042887516900297844, -0.006921837684277903, -0.05951674633927936, 0.011518007120520802, -0.04312443080603188, 0.05016214837816969, -0.05010500861112635, -0.014288484789196, -0.04435547800919686, 0.046119587038380365, -0.018192719011568433, -0.019466713444843114, -0.030221514168542078, -0.026805595205728745, -0.025390490235644114, 0.01976985545833832, 0.04762302915587378, 0.011946409201847833, -0.002638968952133008, 0.006390007807656438, 0.07186781424090039, -0.01740766373373298, 0.030565011568437658, 0.0020384760002873695, 0.01700147515670224, -0.041162323156911595, 0.042555522244917474, -0.04627744014459629, 0.015047738042249507, 0.009745256891839554, -0.0163959102513056, 0.05589086785479602, -0.01687736974092387, -0.018000436194315832, 0.009366302420104056, 0.052523792500177025, 0.045717637983975205, -0.04511049082845711, 0.03293363667327896, -0.0337979604877969, -0.02643300180451662, 0.002247308046223023, 0.030932722142708886, 0.02275079976759992, 0.036343827282237076, 0.06312725758701801, 0.05745999842494428, 0.05127716893647403, 0.04269323052125457, -0.006555337784806208, 0.007994118760963844, -0.03168771062062866, -0.0326820759775928, 0.00842089566989241, 0.025908753437743095, -0.025464533754873123, 0.043811583385212176, -0.009861879407829365, -0.003302845078136227, 0.06177464739170023, -0.02235447534512702, 0.052885753663568694, 0.03372444290968729, 0.03155825051237973, -0.0008169181371381085, 0.004790933810957158, 0.005296172470644791, 0.01260358269814215, 0.029821540369911706, 0.06712305481553707, -0.010875117932792017, -0.017660586149144303, -0.03873164863936303, 0.037781420833086436, -0.013494509211678314, 0.024147048691632193, -0.023965425414919136, 0.006631329464202254, 0.057452748236290554, 0.026692546074274164, -0.012646357770501375, 0.03148837921995219, 0.07874552937925045, 0.04263556423233837, 0.012198044288005035, 0.02237987490599058, -0.007091792150022866, -0.046607571869268, 0.013774273152213821, 0.014067714453367125, 0.031083331444953077, -0.038336695189900134, -0.03570717941042472, 0.026593125941784316, 0.028241480918076597, -0.03707741457793123, -0.033708226492928234, -0.006660777873327518, -0.00210722484062349, 0.06085900408380967, 0.003784753920990896, 0.026825063877370096, 1.1587581963880924e-05, -0.0201232587438321, -0.005710731134361862, 0.06519947862272686, -0.02590631753035833, -0.007952738214638981, 0.019500304598703073, 0.020111479680371205, -0.0007971207506522048, 0.06159168138289564, 0.007208949481859413, 0.01559732140753881, -0.07364435788869303, -0.00014943161946380168, 0.0015866845176812107, -0.017159723994957275, 0.06825206623189496, -0.024460825824410316, -0.010376844694212886, 0.05168041787304259, -0.0658426976145887, 0.025839582490003968, 0.0074312929570865905, -0.04796364569446838, -0.013391415800119726, 0.018242449183222494, 0.021082163937339474, 0.01694635295372774, 0.02444716865050839, 0.06638715790360585, 0.02255282350037412, 0.06238532487006425, -0.008177782159024248, 0.008855947313624364, 0.05339289101683676, 0.014887067705013687, -0.017812151647827828, 0.0009140016194265498, 0.04941024698456616, 0.012868566175334006, 0.03945562767046466, -0.04508949890734591, 0.0714882754143868, -0.0014463555516402522, -0.003174895430323834, 0.029304474546086725, 0.014229872822384236, -0.02786886046611493, -0.011256988643816052, 0.014887145606566152, 0.01308296858714198, -0.006774502570231416, 0.05064371746836546, 0.03326370297364289, -0.00876503548734885, -0.01605571970987401, 0.02022155235900394, 0.0126148590423545, 0.02965236978596823, -0.022948556049224942, -0.06266035932437208, 0.02509916793807132, -0.027930732273407557, 0.005739816146058382, 0.014020136615324313, 0.034801912335198484, 0.03599229461879015, 0.013277385919332372, 0.00448907997686487, 0.10341485677362536, 0.03947199365312981, -0.001388044677620401, 0.02424277066159395, 0.015890528782688408, 0.031666021142740676, 0.03845955978448954, 0.06670043784115767, 0.03781926876086203, 0.0517879157607424, -0.008940560876665228, -0.014030856411711194, 0.0012465710606732617, -0.019030568025833847, 0.0350703796570409, 0.04006886495306135, 0.01663896431577014, 0.02897578842857261, 0.035876145504596016, 0.055040042729883894, 0.015080628756564103, 0.02878642085005093, 0.020826111786163913, 0.027407929590090384, 0.0033785538194790908, 0.03694397110367749, -0.03505697033193225, 0.0037073122581593645, 0.06371528831617707, 0.04839953593947944, -0.019518315312137643, -0.011820514664568772, 0.018537175028065254, 0.011909047813199456, -0.04430905691180651, -0.012941167291377434, 0.0087487285002845, -0.01230974866248703, -0.003689146966308533, -0.015265829850131809, 0.04552276655044078, -0.007346673720642739, 0.01207730961191672, 0.029184859681236613, 0.0011048649712907888, -0.025490740661601136, 0.022346557980196448, -0.054819398137496214, -0.0840781402967733, -0.017830186980423008, 0.051654185268411305, -0.019917780417116185, 0.05005253644700055, -0.010306900912959886, 0.004769185430805118, 0.032104576236142775, 0.07204225544455888, 0.018035355914922356, -0.021338183389355433, -0.004584326057880508, -0.018618186173257348, -0.01745542730655477, 0.0002724078131247315, -0.03257053494131424, 0.006990495437152279, -0.026129809674851505, 0.051170956948523194, 0.0018690962984338525, -0.008107451446309498, 0.03598093237739336, -0.006716388431704213, 0.057568250361379594, -0.03772254093829751, -0.010689378084491346, 0.035087021206753326, 0.06285354087539986, 0.07103139712216629, 0.09249203732981838, 0.040054441549740694, -0.0544810235871613, 0.049304547579441034, 0.04141134955924407, -0.04213554383819889, -0.08611503141685319, 0.01642308294688962, -0.009517942299644418, 0.011081318723590089, -0.03367984634118527, 0.04703052420715158, -0.016433093688678665, -0.01781196541531636, 0.026066914178423915, 0.024510715006414514, -0.07738130646889717, -0.023481036972665622, 0.050757007289581116, 0.032239359055845164, 0.029908586641237755, -0.007664208767454229, 0.06268562755847296, -0.021872792190026857, 0.0460228805176524, -0.043098007552332715, -0.025479353137662336, 0.0036610300173571366, 0.04812282058273157, 0.004534127634554714, 0.04086957635642858, 0.026993062853325474, 0.05587557182838783, -0.005587538460581962, 0.033763838296745924, -0.02826076949406653, 0.03526747103187398, 0.03666867279048758, 0.000633329663593316, 0.04739061063814399, 0.05018367830284975, 0.04409313511985184, 0.05870467830624089, -0.023867805590480552, 0.003622593415716858, -0.013611246606071721, 0.05927751878115013, 0.01763073721520844, -0.0010779990140134732, 0.011767899573847933, 0.036127530208973545, -0.020827029188753586, -0.03733638885105307, -0.024047155195129736, 0.049349206355529356, 0.06150346854504464, 0.004024222109863288, 0.01454838293068684, -0.040714804778316876, -0.0231291087882261, 0.026566871577843362, 0.019676990536512007, -0.03660920418593123, -0.022464746940814358, 0.02557849979354012, -0.006427315631654503, -0.025357096697751165, -0.023402895467672352, 0.0022665467044714546, 0.0453847474937393, -0.041483904941870514, 0.012237046960761635, -0.01828352448132281, -0.0034656815429883344, 0.02262314381024022, 0.010921535038601014, -0.0035314185594248113, -0.023320793137186838, -0.037653662748991956, 0.03305680389081895, -0.007768503985257253, 0.009876526955143242, 0.015672027018943362, 0.04774111857183251, -0.05924401078044021, 0.022345063904138287, 0.030777562335056383, -0.016045438219678944, 0.05044332367051252, -0.035464795092871176, 0.05707857364081235, -0.03287189149427459, 0.008958287393305224, -0.010802076480993654, 0.03876257163167729, 0.06467469867035472, -0.0010110530279376783, 0.029942865444268073, 0.04439537671744785, -0.07242013878833181, -0.03389146510845064, 0.026043543637087507, 0.07906591772323003, 0.02303031736054132, 0.02419941600523114, 0.021040480142807936, -0.034957607958263234, 0.03527323031168712, -0.00010207690812339501, 0.02706773002874009, 0.01639340001228551, 0.024263476622579938, 0.10765416649336636, 0.011307018886213896, -0.00831685703379167, 0.02929341522076501, -0.022281153953921714, 0.05408664389224015, 0.003138285850119157, -0.011322715791308878, 0.023118941358377405, 0.06819884110431923, 0.016810517849335148, -0.03243972736076912, -0.014327777831065005, 0.08900197095390441, 0.025713573473729285, 0.022575992024163806, 0.051452289567369844, -0.021915444729149042, 0.009042319058616678, 0.030489273294694665, 0.011577850153163777, 0.038959472862900066, 0.03158801834841223, 0.03429490688393089, 0.034798609056736936, 0.04319315767502012, -0.004162646193743918, 0.02447395389921112, -0.027180407104073236, 0.02925690438343024, 0.04122540152421597, -0.011452261971604124, 0.006856025345081391, -0.04734386247275787, 0.004038647164735601, 0.05149347733422915, -0.02800863844192415, -0.004548610302237388, 0.04259839504475071, 0.05566065023930853, 0.01196497423761139, -0.0010864414274964372, 0.055343011964406025, -0.00553009724512242, -0.0013470099361642639, -0.06889805043912739, 0.06897546513701748, 0.020628016624713877, -0.01558729506245997, -0.018574337912121503, 0.02077237753936414, 0.006043198921909591, -0.0094788866149939, 0.07787327413453372, 0.012267142186336233, -0.005393014522736447, -0.0406583891763781, 0.014096410839384468, 0.0021396114606306122, 0.07424971263253378, -0.0037406024828437958, -0.038873248657293094, -0.05541631581203842, -0.02494966304017348, 0.045203585055970115, -0.040348513523630475, 0.008920663759626914, 0.06373285419813195, 0.019464559311799672, 0.009068790244135668, -0.010737166389052779, -0.05386045502720186, 0.038610784356185056, -0.017494963085376052, -0.032118690207007805, 0.019732312112200175, 0.004850980930026729, 0.01965064819398462, 0.017967776277040555, 0.021092733201336707, -0.009310008692807948, -0.02409296209640334, 0.04756542674987864, -0.025538977420513226, 0.023503659698860032, 0.01879622428310104, -0.010799515205018853, -0.06710197416319673, -0.009875213541207952, 0.018997273892736685, 0.006816518317552111, 0.08291725169616238, 0.07269937162968851, 0.0038291777148435928, -0.02221082428728915, 0.016478613178441032, 0.06069581071877477, -0.0022363550853360574, 0.016268930682448314, 0.013625131564253382, 0.017399760283896407, -0.013369358161603465, -0.05953660895923974, -0.036606307590412564, -0.04037364984644595, -0.004421857711050677, 0.0298088576564002, -0.029860195110306718, 0.03443794093458197, -0.03115287348969904, 0.027494111717872773, 0.02854578432150096, -0.0021355996580937394, 0.08625275802015445, 0.010873883685254802, 0.023279326429579278, 0.0038563266712519284, -0.006734172557387454, -0.009474252383695989, -0.0017206352504124788, 0.01843489497628024, -0.023186735471624087, 0.010951241399092764, -0.028797372330269688, 0.07660705957035979, 0.02117269258123225, -0.0003304977649865832, 0.012476745490394223, -0.010404513071704088, 0.02941013023530513, 0.013034780693045759, 0.029573194168134666, -0.008031594614036883, 0.004593912481807058, -0.044330519020571016, 0.0033249452625498397, 0.014118814466203177, 0.05930024754616639, 0.07294014188832493, -0.03380113376046878, -0.007206052535065183, 0.04495459590880839, 0.00482967164560571, 0.006709906166170792, 0.02939058075511467, 0.0014831386355581187, 0.038555800905674724, -0.027050222259396656, 0.070744691515233, -0.004397727366454858, -0.006172036912399824, 0.038706996878011705, 0.0384249481218486, -0.011690667786982868, 0.008344903422493596, 0.016692390988993378, 0.013236296683851229, 0.02772436230838733, 0.04593019774116269, 0.02248757495397276, 0.0011260020410357385, 0.012482155082052526, 0.03708144617754822, 0.0026282523304164596, 0.04126945598111166, -0.022210641565361094, 0.0064265896249588225, 0.006774009265339595, 0.029849453120618773, 0.09006454761883796, 0.05199371830461224, 0.07422746627737306, 0.05139361208892774, -0.02891699432513718, 0.05356812631993132, -0.09799026859730252, 0.004587800303767948, 0.000673219139418265, 0.031231022546552363, 0.00046083164918651605, 0.05701464652557924, 0.01701099631030466, 0.0033106807438189555, 0.044894536138334884, 0.008736749179446454, 0.08904459077135038, 0.05221601683131596, -0.043142457525579984, -0.014494004994703815, -0.026174975051965928, -0.05518902330850591, 0.04869386460605881, 0.009881273083949071, 0.0030754648084875733, 0.025025334954366967, 0.04280800785414388, 0.03053941628830466, 0.027237256918008046, 0.013703287333664061, -0.045257276302412296, 0.020019138211280096, 0.009202936011369818, -0.012728824974985228, -0.016418094513587885, -0.004592132204316615, 0.008321413809186743, 0.08924258616258687, -0.017661442733762973, 0.004576772966817982, 0.0007014212478319669, 0.05119834589266474, 0.04094999785242506, 0.04489638075160619, 0.05531430166345134, -0.010980823895120239, 0.031216718775550135, -0.020744094755367492, 0.030295331785912802, 0.08793542361915471, -0.026358859996856093, 0.0232321812609773, -0.055172868853953595, 0.02463737056234454, 0.03882510138593959], [0.06877195206592303, 0.14090785102714273, 0.014746392697511566, 0.044378633816560646, 0.07192044933353331, 0.07232396833707042, 0.0759892579686521, 0.016709193865730543, 0.03346414542454671, 0.05879951064291918, 0.0018300330934048897, 0.04164176935654266, 0.05514636310772908, 0.056481199917788875, 0.08277044082624774, 0.08040573839766359, 0.08018237496367463, 0.08551370030726473, 0.13599694183306946, 0.09138964662151935, 0.07080144079575988, 0.057955647046146766, 0.10749245644827134, 0.1068081230352673, 0.11059275684031258, 0.13289713438599246, 0.17320568358215258, 0.16645307845963195, 0.037805506721199124, 0.06520255567181699, 0.0037849716897251045, 0.02694068915242473, 0.04005140536730293, -0.01423365083085047, 0.03139169480895425, -0.07870151687602941, -0.07914012392954602, -0.14165709917047783, -0.12464986716921408, -0.09826086031548768, -0.11360504318130259, -0.04178607299782158, -0.04141745009148333, 0.035433474411581914, 0.0004363283816019808, 0.02960804441776144, 0.028324741853818967, -0.001990768580230567, 0.07239312271665306, -0.018321585713803427, -0.012375363969051924, -0.0016809998388669005, -0.011262069190480175, 0.09836678671620892, 0.1562361489646078, 0.16867246486148102, 0.056574840884422654, 0.08004400917648355, 0.02934122109520137, -0.00032699097728203344, 0.024026040531942364, 0.017620967498986045, 0.012079121744890632, -0.09626132797921799, -0.05643110402592804, -0.13166644761185103, -0.1538029929510419, -0.1466056031790468, -0.17772242192917387, -0.16095259003886295, -0.12069986481951171, -0.10085237960367038, -0.030077078285582592, -0.08467720195730895, -0.1148749316090776, -0.06155396099323205, -0.100120703972018, -0.06424446743907679, -0.06304916811575045, 0.07079154439349314, 0.0247983346504728, 0.12564262338236043, 0.1487367406461151, 0.21273759113043333, 0.09516921054300218, 0.09780168318952734, 0.07088224913838054, 0.007697303078211202, 0.0020248909243026116, 0.013665887959811529, 0.04826356510533215, -0.020974821240874734, -0.020274464432247227, -0.03563175361820691, -0.036512793526944795, -0.11906453331749141, -0.10018779254772679, -0.11379447276677429, -0.09821050506550633, -0.08112426217323807, -0.07743759400326689, -0.045833677480905964, -0.10168300723838257, -0.025863051814978003, -0.031215305770154172, 0.002189957856704722, 0.01885784361486797, -0.0006352759510741668, 0.16629597477383368, 0.12473225352386194, 0.06481081441674999, 0.22312335412802933, 0.1498263530892552, 0.09847873151481902, 0.05703710633931399, 0.04852389758538292, 0.0821312855332112, 0.08225366369118539, 0.05378368736587999, 0.06665426364465761, -0.005507337397682617, 0.033376808698526834, -0.0014144080608805426, 0.026948459428702658, -0.06286367524107894, -0.055403492481272805, -0.03436732144725767, 0.010232349085865788, -0.08306065000427125, -0.0228821886675501, 0.022322892906146356, 0.07665444190135824, 0.017483208121896663, 0.08796869665161722, 0.10751211699188999, 0.16442463928893858, 0.1525245058949169, 0.18255428974886878, 0.11637125974207432, 0.13649013085003436, 0.12670210298624418, 0.10894937918723772, 0.12488310139991209, 0.0663506491852525, 0.06489219519494975, 0.05096666397457527, 0.09713227126963796, 0.08115576520005405, 0.09834502079052658, 0.07705981267191565, 0.07790427465086044, 0.07353991279057291, 0.03658978820228862, 0.012095328891344853, -0.01775831175975006, -0.0029513350082216567, -0.007279979192335437, 0.020099515381902005, 0.05613563224656595, 0.031700135237801935, 0.08847896170647795, 0.10006601895187626, 0.11177252378378798, 0.1526027764897461, 0.18540955688419705, 0.11667472807683392, 0.08001771048977721, 0.03773099859702406, 0.044099309839746116, 0.10534809046437654, 0.17089929029985984, 0.13553927326071108, 0.15695147884999264, 0.15772026457671381, 0.1211998613660627, 0.11486920028114389, 0.11767799232894316, 0.13652541287319306, 0.08915059697030324, 0.1390363839698632, 0.1494667644827752, 0.04641897051021889, 0.030287305246741263, 0.10446365240495166, 0.05719141781230244, 0.0852037639136604, 0.018200002001942682, 0.06482001703235923, 0.10934255325927104, 0.10893739504372829, 0.144916057562578, 0.13307150184326597, 0.09445931074489947, 0.07262809585905264, -0.05379285096880406, -0.006636083376903407, 0.14968097583180456, 0.13058044990837414, 0.11358397053591612, 0.1614887806358489, 0.17860282306034114, 0.15927950557599305, 0.15907676455192976, 0.1357311871296735, 0.10769643720592333, 0.18494489309149884, 0.1575233901247441, 0.13727881235103165, 0.2191203348547222, 0.1873825398637626, 0.16153386785335838, 0.1781334695812931, 0.13077483856925493, 0.18173784969285217, 0.13303794787882878, 0.1661864753656673, 0.13952397138059472, 0.22941046951121583, 0.13039988570019007, 0.09087199992101351, 0.014776954650712803, -0.016385244290225122, -0.12144148853958116, -0.04593921023165259, 0.1308930370917079, 0.1457376576884123, 0.17610221728527545, 0.19645838656919595, 0.225250221576904, 0.1633112732168063, 0.1443026167257519, 0.09349039842601978, 0.17128981714269323, 0.16869150877973255, 0.2251536587828135, 0.15913047702320782, 0.2838315123672888, 0.16578753181471062, 0.20349006323437133, 0.19467675166905574, 0.11435808605113595, 0.19852213098006097, 0.19787656530328676, 0.14547248647195923, 0.15882132705995927, 0.12669866471862576, 0.0651956190068711, 0.0546489257152837, -0.10502319217673195, -0.10051003964619756, -0.1412046703446139, -0.11425697553597218, 0.13110110885305085, 0.08673190744968273, 0.2082404546487745, 0.21308612457867318, 0.1676330978289192, 0.14113253569351059, 0.14138196444616563, 0.1524718283914313, 0.18394321844668698, 0.21215275015192336, 0.17599574513554883, 0.17057669436909875, 0.16146307282478747, 0.13931603754163166, 0.21224896436817886, 0.14946010011757857, 0.186336995110679, 0.10903326943353144, 0.1317263143381954, 0.08543609575541299, 0.0663237910363329, -0.057620488338702015, -0.048854565436833745, -0.06756326832188557, -0.12318681281513039, -0.1496762065530545, -0.19883963432996518, -0.11314400842953137, 0.054977109726171404, 0.11631270183470879, 0.0850465384677728, 0.0912068139432925, 0.09265923228401055, 0.1520704976994614, 0.09528171946113374, 0.06499985495006631, 0.07659932599381386, 0.06333797028502475, 0.09873494303952732, 0.024023885937085397, 0.0088788999612976, 0.038443925488577696, 0.07499355170357512, 0.08353791931805471, 0.020237505683543124, 0.06769795873758411, 0.07452111289606227, -0.003692943940132159, -0.07571295812500761, -0.0534347364604215, -0.10439628918878484, -0.19526662272439108, -0.17366230347978268, -0.18104720257434645, -0.14477854591446465, -0.21669178351789783, 0.0700036269242144, 0.0550770856629573, 0.016599389641709556, 0.03223639392273799, 0.10749502884870876, 0.018177161113448526, 0.05401049500847921, 0.024988674208810298, -0.03909263575676855, 0.03147645327504883, -0.03541025092293947, -0.028275054445996466, -0.006343613393497305, -0.036009657595016134, -0.025318957379295903, -0.04958042559741546, 0.013229565220293383, -0.045640680944404106, -0.08130334362375713, -0.06950459849844887, -0.10333748677253424, -0.105783810497695, -0.15319871326315673, -0.15791570066746188, -0.2056565259240309, -0.19793949145275908, -0.24706638779553744, -0.1970038156918827, 0.1148293142019323, 0.004056768778429253, -0.049346827517743906, 0.001100652234038328, -0.02084785826000794, -0.03937464775348777, -0.08487607414543624, -0.08092815654328675, -0.12063384267054089, -0.0682515103190698, -0.09560467003271064, -0.0625478946802842, -0.024279987503749236, -0.07847727073500024, -0.08050049320921254, -0.07038105798625639, -0.052695285419678536, -0.10113146934905422, -0.09666836521550602, -0.1360616605756059, -0.12882941511807297, -0.15666939568016677, -0.12258003671391277, -0.15281955643369435, -0.1984485438026159, -0.22550441951628292, -0.24774604870609515, -0.17822682785327687, 0.04644861295001481, -0.03456696137598759, -0.10114602409661298, -0.13389720730863128, -0.0386315101552095, -0.11336122477181088, -0.043505310254764916, -0.12177324646899529, -0.056534785039127004, -0.06481984958408053, -0.09311784245604114, -0.14883231360612809, -0.09159850631418788, -0.04690464650976228, -0.04632534790176768, -0.10285243317734728, -0.0678261788441579, -0.10255421499412087, -0.12133595499751326, -0.1127513356881684, -0.1395390384974722, -0.166362418530673, -0.1636509504272808, -0.22586522158904204, -0.17840928292951364, -0.20838385139848425, -0.20474027228050493, -0.2194647803699664, 0.07164675493886218, -0.09986399721476091, -0.19756942536753516, -0.22476564729100076, -0.20015505111358617, -0.18870867427205704, -0.11191956026774676, -0.14062012509342942, -0.14534980370155995, -0.09301974143752825, -0.105537511806454, -0.12968094424795923, -0.07765976427389985, -0.09106747222909181, -0.20207154704522598, -0.059997701937935764, -0.07997268761162078, -0.10013447858604811, -0.08286239966300359, -0.2053568599621315, -0.11209284342520134, -0.14144096222549696, -0.1262801563113601, -0.10754566725131605, -0.16271878456218528, -0.2414925238527199, -0.2533647129222927, -0.1777830631105269, -0.041813214205991135, -0.18446002837897577, -0.2801652753763262, -0.17960776805783596, -0.20071678902444512, -0.10919045788588104, -0.1378176122821566, -0.15481110613141366, -0.1358809617184708, -0.17724157340471625, -0.10954995708129074, -0.08981709760390033, -0.0888707045546892, -0.13304032916525213, -0.1214464592182427, -0.1385694414730669, -0.1589584866661031, -0.0917260226563818, -0.09748985202403594, -0.09266480330867087, -0.13932445382822406, -0.11570093441938366, -0.13366220153671382, -0.22046240824788804, -0.1942284278056514, -0.19836183101069066, -0.18203872742488636, -0.1126399677567386, -0.025288811238245598, -0.10249344805448693, -0.2773298693127547, -0.19588397658108184, -0.1507603401473743, -0.21258370127123621, -0.1678957733831558, -0.10416761833312937, -0.18685440870046788, -0.12283505653804601, -0.12178232527589901, -0.14388859058487638, -0.10489580284324118, -0.08342802640651761, -0.07248550955929979, -0.08386419805863161, -0.10540218864426151, -0.14169494906968655, -0.17079881946798264, -0.08690641611877653, -0.11068683053358835, -0.11254886983720182, -0.11793730899445995, -0.10735596142482422, -0.12918830647687377, -0.14504167093741469, -0.1641660619227745, -0.07134893064931115, -0.019928520937665277, -0.2164082700384479, -0.2718334845072183, -0.22701978897665967, -0.16742639425535277, -0.12579094617160447, -0.160794451589355, -0.13308239969894112, -0.07277363577263553, -0.1457211116264136, -0.12436641060238172, -0.15063884103819017, -0.11073960291891774, -0.15447521211384196, -0.13319054486421278, -0.1402528183041597, -0.14823272010733976, -0.09658069157973002, -0.10773501162636803, -0.07406383221495573, -0.09824098910272526, -0.1222466904187784, -0.07001657876690391, -0.15441610197053332, -0.10871210657025239, -0.09393761103271268, -0.08410470411229884, 0.05425546145293531, -0.01664213072488869, -0.1371321510042383, -0.2592719372961287, -0.20918203773912658, -0.05659790894514248, -0.07480247073726541, -0.09712098085742972, -0.11250789645422635, -0.13698198169503215, -0.11040886140395298, -0.10933890302755363, -0.09324687102133677, -0.11744032258058262, -0.10452888307075843, -0.1331057250768835, -0.08770313976853122, -0.09016496498480069, -0.04310289528515433, -0.05930287172482741, -0.014055245520005656, -0.04724149510659005, -0.05308817894194896, -0.035833794033625, -0.08168272779486724, -0.046283423604738506, -0.11447161197280677, 0.006835083906631179, 0.07052067405566227, 0.033419132958910414, -0.15195339713829953, -0.18261194159189534, -0.1509221646500778, -0.06887353307116731, -0.0514792923523309, -0.05508527462053051, -0.03390661651213801, -0.038139259211716424, 0.011196556665944015, -0.05069973544629145, -0.06424036992367012, -0.07601576543442834, -0.12604050056943136, -0.10050478694146323, -0.07995245869247437, -0.05514819134600069, -0.0633505394243693, -0.05614405878032897, -0.07005781671885294, 0.04026957470505841, 0.0472763455580963, -0.05695128592355965, -0.08853322356450194, -0.06636123192406125, 0.01687706590232793, 0.012704012350781724, 0.14122327786625585, -0.002739993708345516, -0.10809965036890963, -0.14462075802612012, -0.14869648596146004, -0.03859722209400754, -0.12439209726431545, -0.08059148669748793, -0.06786479654318966, -0.018400070639936355, 0.02998935429225364, -0.053217366406655656, -0.040498572639874074, -0.013916826377802618, 0.023759924909487664, -0.04785616948477959, 0.004624981299466086, -0.0638271090448293, -0.04739700710057491, 0.06818140427036505, -6.702893684362756e-05, -0.0005970905747142183, 0.0716262101534914, -0.033099643787479684, -0.028082996161887638, 0.007004337095654573, 0.022812857831966564, 0.11870400983430228, 0.15187515445844685, 0.02570178312623509, -0.05844379387963138, -0.11253277180449213, -0.1085519636025556, -0.04907361017727164, -0.03280038335409116, -0.011729204467619957, -0.04851586394888625, -0.012417786301054388, 0.016201681437871977, -0.009511144165628652, 0.03572932463636973, 0.038220928050655155, -0.014417126529983362, -0.009358546814000218, 0.009435947832508632, 0.06837006350867274, -0.02527931399728581, 0.10082187835731392, 0.01646871007896641, 0.07912439254975408, -0.03489738745625613, -0.03841598838353529, 0.0005925328814527253, 0.006963310267508665, 0.055585077352900955, 0.1104775374333249, 0.12994928545169981, 0.08365384163918205, -0.019873633473574428, -0.12683590406855086, -0.1039005016682754, -0.04530005447293284, -0.026483569389286036, 0.0024500858360095895, 0.043142122932921, 0.04790424912147432, 0.0658583654348531, 0.015662010956141566, -0.021253016272896448, 0.06361293352523509, 0.015091657461602816, 0.015425778715192575, 0.06033818438066596, 0.03739827674426403, 0.022270244343326223, -0.00402090482607716, 0.019020230668650263, -0.009010060811998845, 0.005956939627380204, 0.0039937220855933405, -0.01422596975308616, 0.032225644818491016, 0.06002265121560653, 0.07898585592429076, 0.14456815789617383, 0.050610384931088805, 0.04436281290286198, -0.023512553326919282, 0.05342399660631625, -0.017954795066986967, 0.013156183518002868, 0.04294449150070941, 0.07023703530180787, 0.08218059723681705, 0.0042316404096224775, -0.023246389117343176, -0.031093516997558426, -0.013600115440419263, -0.028405855521643146, 0.06587235285074237, -0.02494788143399118, -0.018994395928054346, -0.030208345425418934, -0.006569967944319737, 0.07905323124145426, -0.00851637180604576, 0.028070631571412534, 0.03863367571973034, 0.05940094066049282, 0.08214147652555025, 0.08832163332149053, 0.08547857476623866, 0.14272061676907621, 0.07115284237652116, 0.07150179778287939, 0.026670293325320883, -0.0431806381883945, 0.02190772911647107, 0.025169230252527982, 0.06504111273198691, 0.09855120360500859, -0.028282109839187084, -0.05406366431297489, 0.0091769496291473, 0.0059421487476370785, -0.00567206418525881, -0.050552496099200595, -0.008019780079887583, -0.022927207398628358, 0.031331781968542215, -0.0013919529683793562, -0.0966411851772363, 0.01332415402023065, 0.02093367842587739, 0.0482739303562373, -0.03219601771478962, 0.0005386364521950365, 0.10299572520248997, 0.12870949774958043, 0.12457677496492921, 0.1283310989861228, 0.10743270254228401, 0.011407549474015677, -0.010916452226438585, -0.006613622591836646, 0.10557864280603314, 0.08762027603391521, 0.0637749476936639, 0.03801249736723603, -0.03152810615752266, 0.029538301641564575, -0.03812363419713425, 0.02732669408380188, -0.027835466327029934, 0.017926015707221264, 0.046041087086163, 0.060829135194245744, 0.03463020752153871, -0.00757701866887008, 0.025464850531863974, 0.011742582608490952, 0.08580822842670413, 0.01650168859247905, 0.09930148325786432, 0.09930483609375361, 0.11402095323393202, 0.12336910444779903, 0.2010095002452421, 0.14972750251857378, 0.13319745879305414, 0.012736781534470405, -0.025697813815901246, -0.017576036857314854, 0.08851096754660659, 0.028111190336321496, -0.0049587448376734004, -0.08607256244608849, -0.02876332825858693, -0.0711199130336069, -0.051514973154256065, -0.06725774006455143, -0.05288226592929249, -0.03860724143429224, -0.06064356558471017, 0.004437264486401762, 0.10479275954540064, -0.04056507590220054, 0.07584003049097066, 0.09196137175844914, 0.034598564962495804, 0.06676328340078944, -0.049709230007514704, 0.049771031116104016, 0.06589279618489713, 0.1219967898385706, 0.10868991668131471, 0.08866938485929084, 0.16989479850874337, 0.09073650030719417, 0.013979371620730536, 0.07024128989401021, 0.0390645966593616, 0.0333672902065268, -0.05379911963547346, -0.08841366535514078, -0.028087414736324257, -0.005005281797681313, -0.0048733068197074755, -0.06666312482337032, 0.011928377569083583, 0.008501526692493547, 0.03229702495559715, -0.01380102848314435, 0.0837169899104773, 0.04102454690431336, 0.06221453489374925, 0.09027000509666784, 0.14194891344300709, 0.07191292448261853, 0.03331035026286078, 0.0779717293073745, 0.1203862779253015, 0.07626360380310238, 0.0928445172001986, 0.16830754359587335], [-0.17637615604586207, -0.2852350517853479, -0.24094631114036227, -0.22515314074562146, -0.2564920480285861, -0.2581455621032159, -0.270076470160446, -0.1428914498859944, -0.14634141083743907, -0.08187404890859891, -0.017057057209760543, -0.0022533505210493147, -0.037972634792847834, -0.012196935119527701, -0.046349171383955445, -0.07261969902482965, -0.029100412140466336, 0.0106655393320966, 0.034922323250764616, 0.00038535700135513493, 0.0014359996282891643, 0.010293683476992582, -0.06041897735082955, -0.037076886425187534, -0.07713715820793657, -0.04972199108820457, -0.16476869812574732, -0.15345063067502926, -0.22087879114537812, -0.21166344728494527, -0.24827254504955004, -0.249465156021574, -0.3416744919773553, -0.28372920520426953, -0.24471558853930625, -0.20011972939837924, -0.08157341600265551, -0.05855110765162071, -0.08588213703563047, -0.004630164000072288, -0.087213168783561, 0.015674863086353106, -0.08628175531953566, -0.08289318767980677, -0.04719008491135289, -0.015456016301588061, -0.03817482089809596, -0.04419749902069382, -0.029847306410809144, -0.07898476993927571, -0.07002390656845672, -0.0922881277930903, -0.21780271705935733, -0.1544909777010993, -0.1399878847596565, -0.11379989353536964, -0.19359967531019256, -0.25933316810506707, -0.3010729914889866, -0.2867484848432117, -0.22749060912081573, -0.1831085027008423, -0.18073183329451778, -0.15847290736348868, -0.15598341034275662, -0.14019770802529463, -0.04456915487740675, -0.1496663934506328, -0.053654421211978415, -0.13608087424096116, -0.11891007060859121, -0.08084719643256158, -0.08623819067481611, -0.07360856390410622, -0.13135513033439744, -0.09550226273245886, -0.15411375195042204, -0.10109258979876658, -0.14243176903078011, -0.16534015727278226, -0.10839079010796629, -0.164964813250797, -0.08651636578992626, -0.09803103551835539, -0.225059067295001, -0.22010191339875645, -0.22790145009183244, -0.22759047616493874, -0.16815812185613155, -0.1692556393548956, -0.10819292920823492, -0.1040173489069887, -0.16668944302171962, -0.10027904495498707, -0.12521320789233858, -0.12077043039000708, -0.01887050705222003, -0.04514426974185584, -0.017115971933149843, -0.09703570178221976, -0.0577516869072091, -0.08775654316733848, -0.06707271785087966, -0.06423329273177561, -0.08607720560015568, -0.08297466831173451, -0.12533584475119178, -0.09228001419576513, -0.09430863322891701, -0.05577252022076848, -0.07559660884813246, -0.0781382397457725, -0.2021421254786566, -0.27504951699103614, -0.2203010765602176, -0.20665563974304968, -0.16185254332931934, -0.060748840093477495, -0.07954882653932968, -0.0442760598553409, -0.09157192782520086, -0.07679873665193897, -0.023559771494490362, -0.03570078339141197, -0.11301233813424924, -0.0600172375205667, -0.02009521556689125, -0.003050014657683549, -0.004863334501881928, -0.05328391652737119, -0.04056809659535173, -0.07177017747159341, -0.06042862152927675, 0.020546994890925648, -0.03527791094243465, -0.05755763916211248, -0.062178346321874405, -0.043873026467031076, 0.025499056541417306, -0.0031441180839499104, -0.19792086782493193, -0.13020019030861374, -0.09218532530656315, -0.12369751018092232, -0.044348600107122896, -0.02393387353975107, -0.03417025860571393, -0.057351911089395406, -0.012835737593254244, -0.004409472061785479, -0.011010702942971053, 0.01895771943408181, 0.037441061499787515, 0.04190250425113432, 0.046438691118103816, 0.004802411249802974, 0.012543705903681321, 0.01975856991186502, -0.006457640698195347, 0.019093736668109602, 0.004629759403697642, -0.08956748623801344, -0.08371917914371765, -0.042422660156619135, 0.01752661093897075, 0.010703060428046165, 0.0851245483131937, -0.0011951407401480608, -0.14066392277033782, -0.08975483705962761, 0.020060822389875745, 0.03215043492158959, 0.012448871326842395, -0.03196402056163293, 0.021296080009721455, 0.0037153304617585817, -0.028485419594814022, 0.04934081573770567, 0.03979757337738996, -0.015509115048547233, 0.020112270060833503, 0.03346768181873703, 0.08599171372132144, 0.05886827201309539, 0.022454142542529434, -0.009012887697823449, -0.02916431569591682, 5.709736728674668e-05, -0.02071021179522834, -0.044142780589496264, -0.01760138830147632, 0.015044387371069487, 0.015541291504915115, -0.0050202507573533445, 0.015190523119251235, 0.028845866651403915, -0.05676522817413334, 0.021354592963011537, 0.05063211998443518, 0.03725444838059867, -0.03428621119737564, 0.042069971263943545, 0.015394457192639778, 0.04918618337761136, 0.049805823498961274, 0.07910389432151241, 0.08553067058241942, 0.07817130430228354, 0.13831812127699505, 0.1036073362512582, 0.09301769642895763, 0.11704963797723678, 0.04442826188339023, 0.025847968664698674, 0.017351539892795902, -0.037900462941035946, -0.003608523306923364, 0.04664239014948307, -0.05226671198643491, 0.06717314877317859, 0.04863287819704057, 0.010401800793865448, 0.019804934908835184, 0.07450481315527846, 0.046405775438389286, 0.1352660357936725, 0.1573058401216829, 0.12665861567293296, 0.02227299498531261, 0.03841555277108745, -0.0023930816117735077, 0.11328493054276945, 0.09368156915889304, 0.11291556974987939, 0.04366510623751253, 0.1280993374564016, 0.08698502409566673, 0.11299256564047096, 0.09451307311331042, 0.04939482966996883, 0.037335600662931574, 0.02647449962554669, 0.08712386704564583, -0.001232159702806563, -0.005664308505854732, 0.03294121116608787, 0.002698925467552253, -0.0337167189876675, -0.008852358982355901, 0.04517888712543625, 0.074834110176948, 0.05400199242760146, 0.058518423214108786, 0.18125345836638834, 0.2495112787556381, 0.21306351502479587, 0.04604464476562906, 0.13304000372341995, 0.05589831243829882, 0.0810100534593084, 0.08779068789598381, 0.020084123525724307, 0.08856693791210567, 0.06725826451429429, 0.07472275146798141, 0.07507675931777522, 0.10264472535227176, 0.08382562234248711, 0.06234160421510529, -0.0028358174464228527, -0.04557677117946828, 0.06619413417845017, 0.04036625405281698, 0.003218249896308367, 0.020100593885670797, 0.018117328733255562, 0.05026082100219312, 0.031431760794876765, 0.07711896046568208, 0.08014772770256534, 0.08129681136015729, 0.1421934949404708, 0.25711002483012535, 0.22609273086204143, 0.10229668883927628, 0.1621497190599203, 0.10211137790465545, 0.02803888970933615, 0.08865451920555972, 0.09885554393195588, 0.029426674180783416, 0.027903191428399435, 0.04118688270554196, 0.11018668172062179, 0.02286346786022546, 0.038130893046840045, 0.07573182265027519, 0.013638498760907223, 0.01462988592986364, 0.09550545396317352, 0.06614353159123944, -0.037560961128940536, 0.05370909805628071, 0.09301851855068441, 0.0633854696679529, 0.06196557687089312, 0.03078852813893494, 0.02709378019642119, 0.13181917412740934, 0.14202663321454348, 0.18059618223203253, 0.18887641896073987, 0.10798631161986788, 0.08115204883564603, 0.10061052166222555, 0.1040924373238975, 0.10446063769081518, -0.007362788676957015, 0.007772003180263083, 0.10858238429804196, 0.04908469347040734, 0.08498772423204534, -0.020972937014887165, 0.058482837104280254, 0.036712374854442224, 0.0339524606685523, 0.06628639445161977, 0.024532270250109647, 0.040664213159604286, 0.010947098364824192, 0.07024689064746331, 0.02778679737875808, 0.09400242752786474, 0.08702910314145407, 0.07233516633411934, 0.03782150262459071, 0.09549232527202248, 0.19037892797785963, 0.18659883230174826, 0.15181230914967134, 0.05732519006667166, 0.09767285279593058, 0.09428929324109585, 0.07076385238453653, 0.018151123683815273, 0.013640586896763514, -0.01072276566978458, 0.04934515277160295, 0.022774223226962653, 0.021555784197286727, 0.017835702063185473, 0.046385949101426724, 0.05691521668954059, 0.07482874571951241, 0.0864114417173496, 0.09735809438737904, 0.1052036048645015, 0.10038363063932997, 0.09422736420718583, 0.12760946552391855, 0.0787910158551259, 0.08826509050652172, 0.08622543166687816, 0.03225572862119133, 0.10186108993492128, 0.16346836458381103, 0.1045066531029844, 0.15405364262242274, 0.10929986725899209, 0.03837466848310141, -0.0011760458401628509, 0.022248418805055025, 0.04580069357401761, 0.006045425330718378, 0.005159933463754664, -0.002429614826615858, -0.0680931045288265, 0.06253532587156045, 0.01086953282907772, 0.023521009856851443, 0.07091639589983859, 0.045660203924756185, 0.10195471744488438, 0.14077485332148854, 0.041894584155931454, 0.11744531870232831, 0.07719144426021136, 0.042956385350883, 0.0849894105013439, 0.06678596751372814, 0.07969324515025701, 0.020746911635834635, 0.04014697966076216, 0.15002463689365853, 0.1487575373662386, 0.028427192965031586, -0.026097648900853785, -0.05690603005092833, -0.01636701432399284, -0.0007008507324571666, -0.00028832497238737327, 0.02102872682259045, 0.003703173060548004, -0.03421738697713294, -0.016993964588989965, 0.03664559454912363, 0.036312486063022065, 0.024021134530876086, 0.05183177928776187, 0.014632056964106134, 0.06797796018494329, 0.13046152707116906, 0.15634533339540108, 0.11780826287799515, 0.13481669093597978, 0.0861424679278925, 0.1294033769933278, 0.06828281907460235, 0.07508223673618357, -0.0077306273319899055, 0.054005467503600434, 0.04971203875630057, 0.11559815604074063, 0.056754944300111416, -0.05118241391275675, -0.03708078579510225, -0.023919159667106806, -0.03646258665739393, 0.003550030496495796, 0.031162049269294882, 0.055228038616143664, 0.005686112729382986, 0.013635156283516714, 0.0285554125462272, 0.01766699278038425, 0.022923322345954504, 0.09347060224741345, 0.05999797325199177, 0.137687317069259, 0.14025981092849796, 0.13156302932520478, 0.11399603429323948, 0.18053226415029505, 0.08818668734461246, 0.10162858086047992, 0.08095033230597826, 0.04615177928438025, -0.0016108175371968199, -0.04572110708523562, 0.1031506465981451, 0.04458803370492421, -0.018323166426612164, -0.009177981276504765, -0.041630292261407166, -0.020422913471819144, -0.06532778945417572, 0.004073475724330709, 0.014194761955819661, 0.044641186283624595, -0.04411789479700178, 0.03790592080026284, 0.0741900866662507, 0.06548532337497374, 0.06657238096707589, 0.08970814885118386, 0.11100395905714971, 0.09867115869549098, 0.06601955437219463, 0.23383753296059914, 0.11664304906926387, 0.08208954996434298, 0.13300409710687597, 0.15233394496383396, 0.12479296176630367, 0.046991368451084786, -0.011506234861245582, 0.009662422245017252, 0.032438913978749116, 0.09650947147488487, -0.016420498964586923, -0.06256657510094127, -0.10207134352405309, -0.07993277115870821, -0.014715511094879483, -0.012020576648833525, -0.02947776377236211, 0.0018827064255591218, 0.014035586015437775, 0.06501239650326503, 0.10069583728508315, 0.03797421295058864, 0.07416441941328178, 0.10159545014835338, 0.1415956825828292, 0.18537370144347948, 0.07400337261809643, 0.12915231821393067, 0.13078561924644214, 0.06405759537809874, 0.11849263408543616, 0.04887342560188977, 0.043741699837657584, -0.0030922674509212262, -0.003920118001114466, -0.01512023623927956, 0.01553505745022153, 0.05319417199083211, 0.00016404993898976435, -0.10364948022086998, -0.046044017522383594, -0.0591908492845792, -0.05756455000770168, -0.05338180497378524, -0.0054288538911968515, 0.083715155155152, 0.011531938269303404, -0.0007215989221211925, 0.04731329365883821, 0.07316541193795563, 0.14451785683670207, 0.12930272206440116, 0.07056916683389766, 0.1425867285038269, 0.08491763308475966, 0.07446632789625549, 0.07822348506822721, 0.12827312248464723, 0.053642100675091904, 0.08897956654431344, 0.04066998695346594, 0.050875710898278914, -0.001803939491441669, 0.018861671953606392, -0.003066549553902353, 0.03326034801839906, 0.018680037282805588, -0.02611418746090988, -0.07609348878460306, -0.02565925154659562, -0.017815369703791148, -0.03631194391140305, -0.08711788791107722, -0.001190676549874714, 0.019701041741457585, 0.004170293872522244, 0.08129515323075191, 0.08113983526341365, 0.11276734894436825, 0.14464610728938368, 0.08204189607227903, 0.12890511182738454, 0.07604476722544742, 0.06408462684066042, 0.04227599704192368, 0.05641269923259315, 0.094008118235263, 0.02239250519699435, 0.03552141548493733, 0.08903190987947557, -0.08584057162446573, -0.04767903090562787, 0.017358640114053876, -0.04163977851986208, -0.022720277516962064, -0.022863134085844988, -0.06644087167684909, -0.12317039967869389, -0.04497404978521482, -0.04892953385708019, -0.03853075409266335, -0.08998279561935633, -0.06421045531742081, 0.0015235687906435128, 0.015834801945970797, 0.08498938196428854, 0.02793261664314053, 0.10101870078091221, 0.15463174791112008, 0.02914528795408133, 0.04775132697119043, 0.039987730594050724, -0.001697936501796945, 0.030457642257458412, 0.03168569513128353, -0.00185613950979509, 0.05581318965483214, 0.03469041344714522, -0.08880778575642784, -0.09699801167441366, 0.024136301625532368, 0.07345997830139862, 0.06660767422289084, -0.029599275039629454, -0.07690125564791951, -0.07724819758532966, 0.02674401740779353, 0.0014756211381652075, -0.05895222365098875, 0.017318949719199776, -0.04179370814824463, -0.03613037149975525, 0.03821286757455336, 0.0788601128429793, 0.08567107868789259, -0.054168710313398455, 0.10325871434942976, -0.0279213962564498, 0.03196707484457863, 0.045941045903432697, -0.01847847088549444, 0.024758935555437938, 0.05262943765140387, 0.06505507001557582, 0.02724117494733277, 0.013176827442509377, -0.05587650003791714, 0.010075274678714484, -0.022052955549414475, 0.030751324192912842, -0.00900742613302349, -0.05119283320750646, -0.007205586495129575, -0.058767845061243766, -0.06366830693964559, -0.03005636596617487, -0.06252859955955278, -0.03724471228716755, -0.015609979488235247, 0.02142889605085927, 0.04733448949734767, 0.04112022080930725, 0.0967160074667039, 0.07738525098146222, 0.01096698508822304, -0.0184984556395418, -0.005681673709464582, -0.026813662146290246, 0.035697522842914386, 0.005570732974555328, 0.04179271158258083, 0.0397465989105849, 0.10204362289812964, -0.035216276945840785, -0.013481851671103075, -0.09551578747768492, -0.012781425255861257, 0.034140933572225834, -0.06774342427756258, -0.05307528277254725, -0.07112745879128302, -0.009494763644028677, -0.08047606932834743, -0.121742467577671, -0.02698538280739833, 0.06367915838388961, -0.01248325030510164, 0.005111482080390144, 0.08366944879141142, 0.04056690660118161, 0.0017012596890193885, -0.005653435297528984, -0.015298037164553469, -0.029908372799449242, 0.011254553333395064, 0.031806558733975025, 0.015247598785873704, -0.008996282364352143, 0.06564503115876648, -0.004374713017512171, 0.08481728478827984, -0.052745671196375556, -0.06287834995356491, -0.057992043953012606, 0.00200810993754875, -0.003974570978828896, 0.043421664682054086, -0.0071359994118047635, -0.029706693818083288, -0.13102867661633785, -0.012889976236824013, -0.07444594633180665, -0.05262842454013071, 0.04105133744126878, 0.043047842201977354, 0.03654144793244993, 0.10256589818910475, 0.04749764009152598, 0.06487707452796639, -0.03020596537252919, 0.005577200475450136, -0.0021972705456216367, -0.02688205911605412, -0.04665310154168821, -0.011201025135992472, 0.04087540876297113, 0.03458674654226186, -0.015295126313627477, 0.00552852355030204, -0.03738117706364314, -0.07627136659997306, -0.1710373995902726, -0.013200930178336154, 0.05969442513803008, -0.012243725345807017, -2.5057319581568133e-05, -0.03023873018001492, -0.08776766209081185, -0.031974353788263896, -0.017672543853421478, -0.024687971124774888, -0.01628516697673438, 0.08181028984584433, 0.021781601592475507, 0.024723073837330845, 0.03595770967670241, 0.019116778651985224, 0.00732117398191287, -0.02192582281476584, 0.016497251333614283, -0.05290916576221643, 0.0033851683671104783, -0.015519248874817168, -0.03630943607502272, -0.000472626739238215, -0.015595025708386365, -0.08043328679574127, -0.05465493098058074, -0.09033076453104823, -0.17686518117639197, -0.15102213898972053, 0.006264393822738283, -0.014871637765193818, 0.034257364224913475, -0.033121272404204274, 0.023987382676633112, -0.012631088793848534, 0.049758889357822, 0.019568064646032935, 0.03991821017183574, 0.04449321930835438, 0.03170805121551128, 0.09574540135726903, 0.05407328192782973, 0.04977375311540718, 0.028203339560157813, 0.0066459964172057625, -0.04769821594921505, -0.0025442408775594575, -0.06280847525087456, -0.018815343511093145, -0.05567767832469072, -0.09020520124909269, 0.002847099243066926, -0.13084689198859778, 0.007675899165973692, -0.1510924500217003, -0.18014259641053493, -0.12782213347423027, -0.09336043505917685, 0.04101894951424548, 0.002147427324177716, 0.04873951294733879, -0.0016785421257186485, 0.03125351096546648, 0.08043073106738546, 0.050276193954361795, 0.04464922650388567, 0.033581246790898224, 0.05742191556473525, 0.03751708200309607, 0.1050861859904559, 0.10249268346614163, 0.05080172971698251, 0.04401457971233882, 0.04684470421594773, 0.007816150407284821, 0.009378585261281049, 0.017473631127494192, 0.011729635779416844, -0.06689286490551549, -0.061555194135352834, -0.07610675271069485, -0.1296262953495792, -0.10360003582134521], [0.10808132003101019, 0.08490180269891798, 0.09781982272426315, 0.19133848551088672, 0.16502575235244332, 0.14299625553431963, 0.139346134020236, 0.1138654944125031, 0.12745662075238295, 0.06134480469083836, 0.07395246409383179, 0.03693351175327381, 0.05757672909099941, 0.00766295321529993, 0.0444887757541934, 0.05376310226942762, 0.05088669304533638, 0.04523021643105071, 0.06139141330465521, 0.08027992678021631, 0.09068660819199427, 0.010574207797713312, 0.056877249103202895, 0.11837202582507492, 0.09047257117101744, 0.07867932600632735, 0.10968847283823051, 0.06548204331649277, 0.203910172367048, 0.14576576949683231, 0.119074470072935, 0.12135069467924167, 0.1144470709508171, 0.09918119389478289, 0.07739370169209664, 0.05856140272421425, 0.012981085908123453, -0.007528576347410912, 0.007977480554540544, 0.03594271549719647, -0.020173404118785692, 0.0013240149911542328, 0.04175204151290868, 0.07554293162282347, 0.04021175315143072, -0.008948303130797766, -0.0036781159283163483, 0.08941965300674148, 0.026971740186508445, 0.08385189391512332, 0.13548001025027373, 0.1332634291291301, 0.16798762797056413, 0.1767395138644179, 0.009361474347794628, 0.02219547780287809, 0.16008414069997176, 0.1483227389470345, 0.08283974650215029, 0.1048559206625773, 0.09310183570749163, 0.0625256804485604, 0.0218880549958194, -3.489771773740834e-05, -0.032008007644526666, -0.0023865928687976283, -0.01277292243317313, 0.015982597253367585, -0.10427141965898147, 0.02070326179616438, -0.04976393013157651, 0.004546349657353429, -0.02509620357967438, -0.021818191777977093, 0.04486043534863512, 0.04156653031334844, 0.0649488284029888, 0.081704735595242, 0.10316497221367023, 0.14280946601161676, 0.0577453078080107, 0.0011190375749065094, -0.012580906486226754, 0.0054075587862499035, 0.15047596292856508, 0.03602840628097673, 0.054631561730207986, 0.0858501569221297, 0.08006920492085275, -0.04313135219194007, 0.015990616453380437, -0.03549850203494144, 0.027537516305826695, -0.01451681789309925, -0.04174472138624637, 0.044653480560596565, -0.011351674408276618, 0.0080009769310967, -0.05088733062248, -0.004031017752783914, 0.08775656589433192, 0.04961634463880675, 0.0062306350172025215, 0.05632038529208846, 0.07529578906369963, 0.09873352362465854, 0.15860300742594516, 0.09406428950740205, 0.019822219019493662, -0.06891685350513191, -0.09763039382886658, 0.007304463782470843, 0.13116996644810772, 0.07070272348984621, 0.02808116201516161, -0.024316909427796747, -0.003407430980876966, -0.02724687250647824, -0.0343691662540787, -0.04223920025903831, 0.030148763967191003, -0.06094596419971082, -0.05429738095369469, -0.012397204813573587, 0.005589189984838121, -0.06131164577955928, -0.022013260464580683, -0.03146825124899849, -0.04739420653928706, -0.003958101536949095, 0.08588363292790752, 0.0346151725483331, 0.02641328734407994, -0.000774853598330102, 0.07942944210617955, 0.00644460685457244, 0.02637987874666753, -0.0508548446223665, -0.12072156769525653, -0.027172070268845855, 0.0983682388984678, 0.04923941278578038, 0.026401432068656507, -0.041627637922876264, 0.0013927526365658221, 0.045080381314228694, 0.017084265933627964, -0.003184269022789566, -0.012603281449677201, -0.0024672535686114066, -0.06216546918140142, 0.002000453465994745, -0.019447383672867715, -0.06139839714549268, -0.05483477773480797, -0.05907862336987422, -0.02719684983667059, -0.0017532527981752473, 0.02971969708934947, 0.0862448483761077, 0.07087822190088866, 0.08076205336809833, 0.09389888809300613, -0.005749985976357393, -0.009840555779787702, -0.06604599044334963, -0.11807831572099538, 0.019733234623309472, 0.1300069775916507, 0.06815868774067005, -0.02328610197089055, -0.04057240676172345, -0.04319880220038466, -0.006354162147158967, -0.06195209891503106, -0.06579668235069147, -0.047601943600520155, -0.04976482699332573, -0.06888360329537367, -0.05153712863632299, -0.0349600086405456, -0.03982670361015419, -0.03797972297807143, 0.04072028919381026, -0.003459478753991315, 0.027984850933852962, 0.019391924437442847, -0.006379755288166501, 0.0789816367766288, 0.06928748391918245, 0.034063237976387224, 0.02083411023855606, -0.03608381013749865, -0.01861111570004734, -0.05914734385224012, -0.05122884100556311, 0.07856494776467329, -0.00017317037208661634, -0.08299615734200724, -0.10177446303328544, -0.10073290708417972, -0.014366353966613721, 0.008265921255682554, -0.07032596773362802, -0.02549935077741984, 0.010323544694596266, -0.04050767093200605, -0.07771885351177935, -0.02592639413877521, 0.01564521988130798, -0.06654587620290954, -0.022162535604516413, 0.014021000515874052, 0.05098961265173799, 0.03372940839565956, 0.07376100180587927, 0.01976067388782459, 0.002148754837543679, -0.03009786524148775, -0.03829663735205584, -0.0450209345275573, -0.052091343547270776, -0.13285389042847512, -0.10968535107682247, 0.1092823301143511, -0.022355663101421876, -0.1500459414061499, -0.12757781438503676, -0.10465630517475497, -0.03142273748966972, -0.07358494086389548, -0.07452240678517826, -0.06864950959480097, -0.12019685031329891, -0.10780947445227416, -0.05361012099920754, -0.01667777532046987, -0.02657909908964312, -0.034987464229030756, 0.03700534133582523, 0.04711291690025841, 0.10378906097212104, 0.0808802140659937, 0.12421485518094716, 0.06251972253790548, 0.027668123483928782, 0.009692743924903886, -0.09095074054689899, -0.09147724402317232, -0.0511985177814844, -0.13477068564647762, -0.16144962476498873, 0.06944221196766702, -0.10893375271724916, -0.11201224813954307, -0.19735999115055874, -0.11101846651359436, -0.11106293349614173, -0.08414790189962634, -0.04475019820547195, -0.009525958180465869, -0.07757083505375892, -0.13938314403264251, -0.022100443983431375, -0.00457515595260589, 0.016331771735291354, 0.021618721638191153, 0.030649166112927843, 0.10069793939267566, 0.13654794929116645, 0.10598539793792859, 0.081352766149813, 0.06801323664466823, 0.004225684961040308, -0.051974997690576286, -0.1574990337125619, -0.06825193735805624, -0.17130698743672432, -0.16366676959940382, -0.11585796208686502, 0.07388543625406437, -0.14565935459257515, -0.20215510103551274, -0.17287328884876688, -0.08565432545379252, -0.12339603414790604, -0.06752320695250255, -0.031711363431019116, -0.04950557641135715, -0.059744387641413585, 0.0329641666362046, -0.02424765309852784, 0.04214277045365153, 0.023959072744803297, -0.01831694843231284, 0.12906022754461216, 0.07452350102778767, 0.036745033944174735, 0.07562435971735965, 0.07588355991089826, 0.08379631376409806, -0.06421851698616904, 0.00044668484997185183, -0.179337655272903, -0.08090941583895864, -0.12334073462017363, -0.14578374059638124, -0.20102549572534867, 0.023452041686256038, -0.04474894277739012, -0.16835025926755132, -0.1708416776777385, -0.07395137654808177, -0.06935650082684183, -0.023522386267095467, -0.030944965026433978, -0.04706270795687797, -0.02461639871131073, -0.024843499461760923, -0.052676239856090545, 0.01765987693208273, 0.055598991698141094, 0.11087309828370416, 0.10847987855379569, 0.13284160369738718, 0.134908777296517, 0.09352533697778852, 0.061506241994608954, -0.054514946134870686, -0.0730419941842926, -0.09320759460449762, -0.11402838312277407, -0.082862426773761, -0.1365697094138725, -0.13060418937602972, -0.14717617271750544, 0.05787707296852265, -0.046244039374557136, -0.10371195986793207, -0.09569307397502982, -0.043551549351871936, -0.02024431578244853, -0.028360783859075037, 0.01014879147819235, 0.01254771151739521, -0.029643044986325327, -0.020383053256148954, -0.002560641555404773, 0.02933826168808459, 0.027632794049511522, 0.09499541096596303, 0.14468780327242597, 0.09956560370655776, 0.033822525640174884, 0.08287302306345631, 0.0035172221275466273, -0.08983801088188513, -0.1048195117058598, -0.14266677777714898, -0.1069678202789693, -0.13048481005135468, -0.1670028530025631, -0.19819792085423107, -0.15733626438327752, 0.012240563325091595, -0.04974798247378467, -0.1090332719574415, -0.0735602718354026, 0.003307681728292106, 0.0033270456712247353, 0.05908527721081715, 0.04354427808575057, 0.01175043515800317, -0.07358864376547047, -0.013835217331363009, -0.0159233472663092, 0.009659386018951603, -0.020666776446232927, 0.08475512832396037, 0.08716468599409961, 0.06328708598652323, 0.04094955775289578, 0.016290838193616434, -0.030273642816647347, -0.08101341223611884, -0.165010768157859, -0.13214277428038146, -0.10461691417402631, -0.1241718852216021, -0.2012391850288151, -0.1522778861992656, -0.08603350702366605, 0.03327019822618263, 0.06132083439771892, -0.059414955240211315, 0.008896152515072203, 0.014296229991336564, 0.06817469812326588, 0.026072000204528347, 0.09229774698173394, -0.01286805289702608, 0.05716555999284878, -0.0035356496597247914, -0.02300782006376325, -0.013744302508268594, -0.019918860276173254, 0.07441350130408236, 0.006848485053659563, 0.04558101760118211, 0.02040399036469121, -0.019133365719818565, -0.08013957948424122, -0.09993407140289758, -0.16216073081064403, -0.1248030789586634, -0.05612816821045794, -0.12985947035918613, -0.134964660332834, -0.13283720190490023, -0.1034479675401007, 0.07481026547314697, 0.002627886833370399, -0.030731652818521263, 0.04622104102656041, 0.07866423460695031, 0.11585892751314994, 0.14099261013320474, 0.14015425943926973, 0.07292575005065816, 0.0654522063408384, 0.06536900083986234, -0.03145592540738993, -0.045595954991430446, -0.030714562482253193, 0.06200826910134545, 0.03787032860718011, 0.060548326465622075, 0.017405503558562203, -0.08001934696614214, -0.11154551259095878, -0.12772226058803926, -0.14887911084315086, -0.1780737331146874, -0.13779257414593443, -0.19044179358667213, -0.11084712657766572, -0.187829808324488, -0.050750595731879844, 0.1198286037446775, -0.038509195964763196, 0.022412822423009026, 0.07412872162011953, 0.09592373467330507, 0.15092569743669162, 0.19998386310044922, 0.14694200863807252, 0.04559837728536626, 0.022001592143050988, -0.018055516550055474, 0.002066668973162671, -0.02732075217384494, -0.017115163918559762, 0.023119801446887273, -0.0007972320441079172, 0.07253175131002544, -0.051832590477008826, -0.08674601321628696, -0.12241023187675568, -0.11123583366318582, -0.20734790884638343, -0.1604298890602914, -0.16200423415352833, -0.10015311587298371, -0.2090271628202864, -0.0852023367437378, -0.07158634884939744, 0.1450899895229176, 0.017929822532738445, 0.029641094650379257, 0.05516317844537474, 0.10976432007078292, 0.1242697154656906, 0.142644891218068, 0.13407058686191134, 0.09171564883101099, 0.023956935123186505, 0.0259470521804877, 0.03562966480417536, -0.07375068055612634, -0.07474474432893433, -0.06694539056631635, 0.01970639833201292, -0.007156642489146289, -0.06502950989628833, -0.1345537632785683, -0.13745666595413403, -0.1416029904200696, -0.13508506191377515, -0.15463287429668202, -0.13945237614645156, -0.12206911004771077, -0.12437451315782903, -0.14323398797537365, 0.012591023009941263, 0.08907323720971609, 0.03406421632620812, 0.03614022696406706, 0.10503351509328343, 0.15301637955978298, 0.14842809591177558, 0.098927374548949, 0.16553619785535353, 0.10005116076772104, 0.07339612652365769, 0.0051697934247424875, -0.05574892683383795, 0.023648765952119885, -0.01472672777968829, 0.11099907532052744, -0.024367616872684496, -0.016090728614476628, -0.07683773679994856, -0.10289794874954737, -0.09600788597319442, -0.10020125296447964, -0.09796647418552358, -0.09210107003484129, -0.06788884685439799, -0.13962097709826535, -0.0958140291185261, -0.0403344359149347, 0.027752297237595508, 0.058489969300583394, 0.09665102665877598, 0.1223104049514382, 0.09453507770282527, 0.05729688537445131, 0.1498696264877922, 0.09584163790035855, 0.0257064258293275, 0.10994105633774051, 0.12038325530102598, 0.026685701982701284, 0.002972064606728142, -0.05589425225565761, -0.043892400853380684, -0.06170534402362517, -0.0630417684984012, -0.03714043406733044, -0.07834777625574361, -0.12249597080914379, -0.13761795811729233, -0.09835770378663777, -0.08598741150893802, -0.007319748863252653, -0.08831530975040741, -0.04815068424268355, -0.048256979171519325, -0.05256745637325557, 0.03689317245948306, 0.06439256038242586, 0.038264610329699425, 0.027771504715555013, 0.11132903495359801, 0.08143848898985628, 0.07004312800136527, 0.05392010395431741, 0.0654590575477066, 0.08701441238649095, 0.15199752062315944, 0.014801449719734214, 0.04847330977963362, 0.012480783950287531, -0.010009405711366855, -0.06439643482797819, -0.035263385833924896, -0.14743446384567682, -0.016877036877278352, -0.08120612620206916, -0.09637559001282936, -0.06678720959460915, -0.06862344173161623, -0.07098566084325883, -0.03892752821041504, -0.03884261241572823, 0.02757180226833782, -0.05585530591033838, -0.01982283355526422, 0.11592437234651999, 0.09737774240470652, 0.03723484216632916, -0.0024973200757239223, 0.07557450220822129, 0.009981942353491707, 0.09878911023977077, 0.1162284247238725, 0.14708706102182253, 0.10680693330349773, 0.16180447858309846, 0.08314022938026823, 0.03696549473449635, -0.01076723703521605, -0.06239554821045778, -0.014244539538713862, -0.09107957557022602, -0.07249912805228688, -0.07790417171896016, -0.06119946217609049, -0.06308534458364434, -0.07501679184800414, -0.06455319309347503, -0.023487881891139303, -0.08549429895104081, 0.01939536445259414, 0.04885396587085451, 0.05391305590861779, 0.051651785615601235, 0.011122497440793763, -0.003326772892620732, 0.10419868453969545, 0.04129944283784641, 0.0360957513229725, 0.028529315437553018, 0.12743675981788857, 0.10286021406765902, 0.0833958459280138, 0.11209601151097644, 0.036828433039031244, 0.022279061152930532, -0.036713288141967615, -0.03134054667836851, -0.08623001991198039, -0.022566109435499297, -0.07077566714491185, -0.11624980648823682, -0.08577507594858796, -0.0713445249802276, -0.016271761932337953, 0.014788221701136276, -0.06962112390214291, -0.02753244358485246, -0.056752979771533665, -0.016472172797056883, 0.03875305861203417, 0.10883118236305381, 0.03347774995515919, 0.03265810865528184, -0.005637536260098674, 0.04317328190915452, 0.02965438107621811, 0.043756875345218264, 0.14719378326185706, 0.149874410388991, 0.07220759990760885, 0.06397777548539173, 0.06953782992775219, -0.013396147454408036, -0.07025246722504036, -0.09066094333472417, -0.12460368177501001, -0.05421937730717629, -0.05780628304464617, 