{"layers": [784, 100, 52], "cost": "CrossEntropyCost", "weights": [[[-0.03129687949368839, 0.010903138624083677, -0.020595948392742414, -0.004964335124030748, 0.03900346562564179, 0.026440062746950384, 0.01386201815214744, -0.028796585551572842, -0.07632622134319426, -0.011784186093550872, -0.059480359728557114, -0.005120916820444434, -0.06382138329726217, 0.011448239953091265, -0.010581244811720895, -0.050260327866688034, -0.055385496007308986, -0.02549979871560683, -0.027672685343666705, -0.08884289313419934, -0.0073302666077535075, -0.0008280817571628538, -0.04391081917678187, -0.11725159378294947, -0.11390494294949985, -0.07838642240088309, 0.008271912822829108, 0.0747138832997648, -0.023290461401612148, -0.03680556246040422, -0.078727393438335, -0.019687320079779684, -0.040972142972557156, -0.049513669156813316, -0.03321995530635647, -0.009857573440015832, -0.05684765306598244, -0.09863123745454004, -0.10626251001455442, -0.08112295696304396, -0.08142290854350535, -0.0779692568316403, -0.08080023975249628, -0.05615180237695788, -0.05722593350220836, -0.08249791796122066, -0.10752716130511909, -0.10767183382402873, -0.17598261389113795, -0.20897279023486084, -0.1492620243750983, -0.21751610432749757, -0.21379781436069137, -0.09137224673576066, 0.026371876673253483, 0.052059518143641, -0.009109926295658145, 0.005737785665394484, -0.05015351824868466, 0.002245689721546169, -0.05816419725119088, -0.06712892819439417, -0.1263716164145841, -0.18331509148286357, -0.08873735407433204, -0.17076868123941485, -0.13280973549657035, -0.079693845739012, -0.10559617352890345, -0.08008907564786304, -0.17252618905783135, -0.1574928092447024, -0.15838703370768267, -0.16806488112426285, -0.19610827837657221, -0.18457436108674902, -0.1582867050113021, -0.2569722564221533, -0.17257116412975093, -0.14234641500798828, -0.12314938016986737, -0.12173493961338455, -0.013251372529874215, -0.010175204182723241, 0.0030880536727600043, -0.0894169948779774, 0.020096309834352098, -0.04747514595704034, 0.013481758327659622, -0.028184609654553723, -0.06739232306622653, -0.08037252754627129, -0.12108900034071372, -0.07160132094553513, -0.10355332364506903, -0.07547472981686133, -0.15242322918504725, -0.09930614679851785, -0.08477928390021332, -0.15386847522286806, -0.15128956064872953, -0.16204802671721336, -0.13988275252390864, -0.10020203943989979, -0.20051053440451588, -0.10094467525870231, -0.11607391713154486, -0.15264895036683937, -0.07390164380107779, -0.05531337700967562, 0.005049125970872217, -0.03961997638681387, -0.03967194053702923, -0.11472464161950391, -0.09552405596860362, 0.01280105946516654, -0.041225027040249586, 0.003808677279427976, -0.06522589496795853, -0.035286394408865766, -0.08678829667863983, -0.04565887845137686, -0.05508820142985128, -0.07861441605830065, -0.05742966722791123, -0.039249209228274795, -0.05778337521568897, -0.11423182230676693, -0.14768505822866973, -0.0816002678989034, -0.12861646048014064, -0.11645030000649859, -0.08490039569298137, -0.08227093889859424, -0.1883257093262839, -0.12897169941645759, -0.0010970834675079356, 0.05063417285791506, -0.05590206846907536, -0.034110241637727357, -0.017026978398933523, -0.06630937986810002, -0.05784721395943425, -0.041908448263790775, -0.0051588304035187745, 0.004557240338432026, 0.012640999876280397, 0.001959809053460146, -0.03132891436781788, -0.03320185197914818, 0.00790820677947013, 0.015052714485791558, 0.050814598756945606, -0.007005911596820038, -0.011897123694066505, -0.09868920484525381, -0.11800096331640651, -0.03263886885725502, -0.1254027471836767, 0.0011840391881419764, -0.11541051198758519, -0.11840095321635045, -0.13462907292706155, -0.03187905508483864, 0.004976819870805399, -0.04446807082911351, -0.044750368843635716, -0.10851647639345706, -0.02657394041119505, -0.10923490299298712, -0.007767662776000629, -0.014830427901934175, 0.0041553383095513825, -0.022116900865332186, -0.006345421908448059, -0.09870336481055826, -0.04274691377548057, 0.04120747050505638, -0.028009296438350484, -0.05167964854996758, 0.041826598599536066, -0.0035683739689187266, -0.004349831866680893, 0.003487050904758621, -0.04808791586454872, -0.07665788855444554, -0.06214121732677272, -0.055100564613024997, -0.01233413752218562, -0.09289351237859632, -0.04747666687167674, -0.014749153919198905, 0.028531551075392902, -0.05514215910348865, -0.11861044089077805, -0.18516505617951684, 0.017213568631795146, -0.08915919014123176, -0.04886997697835838, -0.035768375998157326, 0.0007306418621106436, -0.005230501705615772, 0.05562622980115084, 0.027471953217229055, -0.0030990569011212273, -0.050769497049797205, 0.014205147434959762, -0.045320422542393456, 0.03916962463867564, -0.06728665885803868, 0.01712354448662852, -0.08000380964210237, -0.0666282601893273, -0.011176723372263293, -0.045958642785385063, -0.10686918658837584, -0.08687130871268026, -0.08161730068604725, -0.03705429768855288, -0.0496278131012311, -0.0647155901054448, -0.13329489817218115, -0.0991335247305328, -0.09097739953161454, 0.0398206225809823, -0.007918023136988118, 0.06293582962124733, 0.04920777108593894, 0.029689670636171495, 0.013411307759164543, -0.04362447847617242, 0.008123972191631832, 0.02375738371640388, -0.059330760172566006, -0.04345287327898136, -0.01733065536175077, -0.0037049340487298648, 0.0674813249376824, -0.034066046755851356, 0.04072849397326655, 0.02323495211432443, -0.003304203454158752, -0.11225762768332197, -0.04316976572310018, -0.062240245065246766, -0.11551458076091273, -0.05020898519964668, -0.08493183758139315, -0.04342040965913592, -0.11306618216780481, -0.08486389202673478, -0.11974756230041282, 0.0038102374822084483, 0.035710033701307695, -0.020974288495573663, 0.04674925436696606, -0.011812780780732446, 0.006182645589589278, -0.02205986248446595, -0.016207127021706406, 0.06526570268832602, 0.06038035137682583, -0.1080311369597463, -0.09587482852486838, 0.006156634975145388, 0.04509232385949514, 0.014274221066468858, 0.020835417265406667, 0.03315762678717846, -0.055307102891346355, -0.007565694561680175, -0.11645956875215492, -0.07627902887610813, -0.1403084278114075, -0.07198834898087682, -0.03977228433006147, -0.06713093581976427, -0.040499166397213675, -0.07632798966207671, -0.038687561593248945, 0.019807086671554865, -0.011809221627447483, 0.015127529967305953, 0.0453362040986574, 0.016683037157687552, 0.0025690130493043147, 0.058323843917966474, 0.02326868242638107, -0.07153094615325878, -0.04562517354877832, -0.02427576111631196, 0.015710278052111275, 0.051395757174241, 0.1188485733966359, -0.016442194626807377, -0.02846239839554323, -0.011838777884670974, -0.032886500613936956, -0.025407233651324825, -0.02646280491349339, 0.0432045801137013, 0.05714598554498822, 0.003983480143091903, 0.014316643845504679, -0.06291459451360319, -0.05857282731392791, -0.061565475445434406, -0.012765952598540667, 0.060273040954662, 0.015480877809581654, -0.006104804612541559, -0.0038319608109907023, 0.04236171488336229, 0.04853689152044691, 0.10552775689557015, -0.013829160744617356, -0.03710611518745532, -0.01979209300297674, -0.02779623582483335, -0.001567261252351219, 0.022542143893001115, -0.06268678339857453, -0.01709824586312005, -0.025402015181731387, -0.022669913999632054, 0.010322998543735756, 0.04561950655089638, -0.012052578847136461, 0.0839272928506565, 0.028618778181747642, -0.06453631478623206, -0.008366520459871213, 0.01014205440715739, 0.041366425324892236, -0.020800787200723394, 0.06954966211048859, -0.005718005433424946, -0.008637849729294045, -0.016175809176577353, -0.013131416337527036, -0.07354536529605624, -0.018199425187112837, 0.11811037527117346, -0.00932277373233539, -0.07092832217819105, -0.04448975994495402, -0.12671000440545843, -0.00517713235801356, -0.12206969905136923, -0.043967101585216446, -0.020307245808471, -0.060047380344285764, 0.036469283137469936, 0.044870449743193035, 0.09016237083261767, 0.16437570759990414, 0.1118511470555792, 0.048723926114979714, 0.09202064796188726, 0.06792595081526612, 0.03814695986480968, 0.08330631207004467, 0.06268996304846107, 0.0876342773901302, -0.007298077240653536, -0.03648567612448128, -0.05470763446049289, -0.00899087320460382, -0.06447573809781527, 0.03991814226137968, 0.03964084739663509, 0.006105911067575999, -0.025242898785215937, -0.04921442626925192, -0.08426649103045065, -0.08753648716138406, -0.050872967881782215, -0.01342129401175239, 0.0019108590357089568, -0.013328564269881377, -0.059986091772296704, 0.022686095037499045, 0.09076255422412481, 0.1071848021157178, 0.031070792347280933, 0.09264609551322854, 0.039004428138695715, 0.11004391676771849, 0.07517289529402621, 0.07702373263937101, 0.043695462742704694, 0.08924232260138434, -0.008171561384262128, 0.03392056174378799, -0.06366950294690764, -0.008323100933494093, -0.10088867601093258, -0.05859235376787228, 0.05292618585446082, -0.008675966786068169, -0.06960874170998621, 0.0014995974207007168, -0.06368898422679956, -0.05810036785389102, -0.07786746177824395, -0.03713044186970884, -0.0193442281726933, -0.03959155177108256, 0.008620814777311189, 0.0824050870615933, 0.14801264067340342, 0.08666431758141944, 0.07814614704892538, 0.09432597833019282, 0.11066190420487702, 0.10777751339953977, 0.0061375169043320615, 0.09203398473129408, 0.08048616957151236, 0.08726351704402223, 0.00867141117377618, 0.006712731604394979, -0.13266321995361402, -0.16118289989568713, -0.14238110333801632, -0.054555671510448864, 0.009356056588830776, -0.04022434833941106, -0.0842302711044588, -0.06027877591827666, -0.03290237696692537, -0.004279501907914705, -0.04844830468648678, -0.04662509621360277, 0.0062380368327591305, -0.003873218908539318, 0.02198820959399245, 0.1611934610255714, 0.06692924933879839, 0.07572950094440953, 0.14051206050835227, 0.15994621309868234, 0.10271798280680833, 0.13942688394798958, 0.12882552908897074, 0.06931476885204954, 0.07701577394472947, 0.054924213909958976, 0.020995818480275475, 0.02215279459788099, -0.15582123593585964, -0.1313583614110478, -0.2032427482585158, -0.05927946922403252, -0.043504557176045996, -0.042828071103325864, -0.08470970042735441, 0.015970869027151485, 0.018994578574644358, -0.010833734554466725, 0.01178711386752285, 0.0038346759231581754, 0.08752384873823993, 0.13241720095400036, 0.18359841945713049, 0.1291121290996054, 0.1248308249758627, 0.22232254469037324, 0.20068217054773707, 0.10085406900163761, 0.1431748747591507, 0.15179933128416434, 0.07962383104532975, 0.06370227741402394, 0.022754883973829833, 0.07230240508752706, 0.006516215698639688, 0.016872819522791325, 0.013145730540851623, -0.15758088961458502, -0.14125814622002775, -0.12056307581369705, -0.02792759632160628, -0.017707014058598116, 0.04341291667679411, 0.0323505394452892, -0.021689741507291343, 0.011651934579408104, -0.03464973725173207, 0.08794983869287815, 0.06182042537988107, 0.13812944365101104, 0.1944537145627394, 0.1374932861819298, 0.21158725230750738, 0.23163269395445266, 0.18023114073207086, 0.15751053240455598, 0.13710779818179772, 0.08118963094563339, 0.1258469231987429, 0.03559258164975758, 0.007956619573149975, -0.009539765350145711, -0.018445932203274205, -0.03180320714846166, -0.02936274058166889, -0.14185192959309695, -0.1939040826898868, -0.12994949770077455, -0.0007101349431313846, 0.0017822680983653853, -0.03818134043006561, 0.06466381905537953, 0.058474733743784806, -0.0031310942791885235, -0.0038924386535356755, 0.04587657314658952, 0.10637526162563789, 0.1571056014141587, 0.2068039009226254, 0.26602752176374467, 0.23011543095662018, 0.11270718596487592, 0.19174360336047885, 0.12513355224615935, 0.11370474499655796, 0.12432143124628632, 0.010017475450189288, 0.01972671981024544, 0.01095671174781575, -0.0973172113173111, 0.05578529676374147, -0.0837541743183436, 0.0039457866152314315, -0.13353409388074472, -0.09428076903153834, -0.03722749047590131, -0.047154260660713467, 0.013338346475682267, -0.03709204886531665, 0.029596304726642937, 0.0098723744040849, -0.026853890280817024, 0.06693177197986529, 0.13208350004221164, 0.13939750166449102, 0.19451310102233293, 0.1893835776221718, 0.16958569061209008, 0.14711173542547828, 0.10744847835473859, 0.1023283932836517, 0.10376135598242943, 0.04929353177555324, 0.08263107593722352, 0.04296000151211852, -0.014420122363225115, -0.036654621973352064, -0.06572587164021607, -0.08759397231240107, -0.016491528342260656, -0.08219641105354317, -0.11478600040995593, -0.10133938289900933, -0.021586867727516584, 0.029941108649679634, -0.01817889723139523, -0.052217226592827924, -0.03309316751327458, -0.012680686954556729, 0.09792516394278224, 0.09119099950589671, 0.1516781052912666, 0.18979792106024562, 0.1320992039687587, 0.14398242646738985, 0.11972975984405514, 0.08667984647433329, 0.05812422361115738, 0.1195931030844712, 0.026890578529669355, 0.07463682988861, 0.058406491598351214, -0.043906706290130215, 0.0019768674985770666, -0.04501380876388098, -0.008992775388071701, -0.030407466260195706, 0.01086093989665619, -0.1113980635977796, -0.19424364704497502, -0.10487632679106534, -0.060711220448950554, -0.06318390146655156, -0.0906273748901277, 0.008051442686467986, 0.005867553058757731, 0.001603617460958425, 0.1036196730383761, 0.12215418897990185, 0.09980229306842701, 0.14650103307671467, 0.16959801368283609, 0.1644718702658917, 0.08409854928701362, 0.07459229781575694, 0.042539251834712806, 0.09467210383495137, 0.005625129316216529, 0.006375387004567537, 0.018399819108249636, -0.01968600277462414, -0.09048830430322995, -0.04344680584766687, -0.025740728469233615, 0.013332803723985829, -0.05511636387324891, -0.08153469440654179, -0.17021754609777856, -0.09347758099638297, -0.12472744282141919, -0.03089241277140318, -0.0491540003993159, -0.13456270123567302, 0.03998228937209638, 0.13499588067549995, 0.1775771005367021, 0.14091656812696243, 0.14506720495713102, 0.04492452855797541, 0.03118604700454444, 0.11330638338685761, 0.02841537182935887, 0.02570191426842213, 0.037682135165039675, -0.023697866887634682, 0.052493391823464026, -0.02672809282146523, 0.0048788974216708355, 0.044039023323260526, -0.07760445817844963, -0.0172521930024231, -0.03555908082852321, 0.02758020761609315, -0.03326114795048096, -0.12877732268505318, -0.14462121964809724, -0.06753405949358121, -0.08894915749922765, -0.05111174258142129, -0.09498315939963439, -0.05531993771543445, -0.051690788480282565, 0.054080436409057374, 0.16130443397260888, 0.19403506148080427, 0.18066937853926382, 0.12413990428401421, 0.11678254513853571, 0.0714002009506579, 0.08485206009124677, 0.06349723251111947, 0.03115789326529396, 0.0009805206885842167, 0.040758451725195016, -0.01741921405228003, -0.023787274862480497, -0.014191130873321854, -0.0033768740448126577, -0.05633605618327182, -0.030712831759974104, -0.009386870642721172, -0.1098407796198278, -0.17191733576563215, -0.13295183926616425, -0.07242279604877228, -0.071965999473303, -0.12616399575490428, -0.1048659486418664, 0.00035980180317382625, 0.038149158549280124, 0.18768297704156814, 0.21183145450824664, 0.1928426680146987, 0.18656268715972038, 0.0746177050868959, 0.025050709156399526, -0.006644054073910197, 0.059913707719041025, 0.055324112424945456, 0.027941406487369275, 0.016709788741030168, -0.03399288739177605, -0.07488183224137832, 0.011887807192916797, -0.0037737196555761004, 0.013114575821767616, -0.05071528024566098, -0.025104643689554583, -0.03438935297997736, -0.12295661221096109, -0.10006296629005076, -0.11051151077990334, -0.08657071794463815, -0.08821883069976909, -0.06522760460913729, -0.02449996180689434, 0.1013659200941652, 0.126177935544348, 0.13026790568236293, 0.17575592656495562, 0.14610053861342714, 0.1018160220780656, 0.0864319046937157, 0.07512984919509669, 0.11299650436709731, 0.06720098681696077, 0.019630685287978004, 0.014328041404347612, 0.022160910637339194, 0.04071377046989819, 0.007942405481756024, 0.016760489084858325, -0.06462114340404271, 0.011651686155802551, -0.0664686315608005, -0.024859748374079543, -0.06197024021176315, -0.10123568604807866, -0.1859285662619469, -0.1399928940842751, -0.1263502080342848, -0.08676384763278641, -0.023110030877512077, 0.007357954679116783, 0.01834859802237899, 0.08603387177464104, 0.1649412708938397, 0.1545593909719751, 0.12550891788235524, 0.0772116579236594, 0.09501688792052687, 0.09920807508462537, 0.06253458382628493, 0.036989238403355426, 0.05519189590777533, -0.019543048523135178, 0.007804416769285099, 0.024629042648078567, -0.02005363080376611, -0.008054573321258135, -0.025415548540443787, -0.00063185329030537, -0.05209216996283443, 0.020740602448442107, -0.11602380268673033, -0.11587245183905234, -0.12531131591874053, -0.09491220355027839, -0.025767109839574597, -0.04886816903532057, -0.02397132252298292, 0.03912444913890417, 0.0679562662451437, 0.08266955757839271, 0.1746593737844321, 0.12120061316394119, 0.18616358378225165, 0.09307362073551474, 0.1562059087252416, 0.0776340032082079, 0.07562126534467677, 0.07536689115424772, 0.14267914223974607, 0.03478787406565364, -0.0396356414229728, -0.009239655230620494, 0.04187850058232019, 0.04115007725186625, -0.03457784344563566, 0.025132135465034594, 0.032328907685006264, 0.0014835602056750693], [-0.011262051716654066, -0.10122738806063414, -0.07619047374343849, -0.11273623751475331, -0.09838348558371035, -0.10806378415425791, -0.036947242280481976, -0.0975326217372087, -0.14572370794730183, -0.03506833930631908, -0.04453037678849183, -0.08145209002538982, -0.029868071957178784, 0.043961138828904935, -0.005690043459821848, -0.03593598039901781, -0.032823563086858874, 0.08062869179193569, 0.12077570795012882, 0.01565275292278888, -0.001061714646862585, 0.024589358073320522, 0.03635829510894796, 0.06218466022834303, 0.05936557526875704, 0.05948228577742429, 0.09941243036781416, 0.16877805375268087, -0.0766837845119219, -0.10854854198216843, -0.18948475545773052, -0.18919385201082708, -0.168092172359627, -0.06279232295326406, -0.04033386814796609, -0.18097136235156416, -0.1190616782547874, -0.11616016326825887, -0.05004085365535574, -0.0791274161228888, 0.039354892553965744, 0.12022100622694487, 0.04531584835824651, 0.06695309718638748, 0.042247917633633, -0.027042985608675685, 0.015379749511635737, 0.013584008327523829, 0.010598330367917439, 0.021256369604000305, 0.09812136411412997, 0.12644091181684333, 0.06764037492749204, 0.032836400680837236, 0.08147952120870053, 0.18260919675502013, -0.017062411684399405, -0.17091927783881075, -0.20715257393099487, -0.21106149316205874, -0.21142129428278786, -0.15110329240619477, -0.07753308996047363, -0.06381339563112466, -0.051579709782231545, -0.029114495749107946, -0.1183876957634324, -0.04951897126777881, 0.01358561727383557, 0.03561576324562343, 0.07663402696241434, 0.06567528976959708, 0.04455911694026941, 0.0687886640683851, 0.03641044328707685, 0.1296604036844142, 0.03611213188909886, 0.10949383278227423, 0.1803172598174028, 0.07561445268594957, 0.07317566970332605, 0.058798983873475194, 0.13132958864667396, 0.16718312060515259, -0.12260149566430222, -0.1414161518311682, -0.16360539200719137, -0.19493161910691675, -0.1357193721204668, -0.1913837015546254, -0.08647007421127975, -0.07103898202496632, -0.07105344954239953, -0.09038416808577907, -0.10768500452520223, -0.08423834047205923, -0.09472608993747463, 0.0016684677902880248, -0.048702761027392495, 0.05514221956710861, -0.021208061141904204, 0.023015525414332414, 0.08528658013999925, 0.04228348159144956, 0.04815716715899937, 0.008145563612477827, 0.05183622214935125, 0.002638363720072741, -0.03336939104929135, 0.06776166725550631, 0.10196851532679171, 0.08858620198962085, -0.13968906983332002, -0.2510674323218862, -0.21620610098551957, -0.23448286932307197, -0.17096783751640435, -0.046363214420455094, -0.04484628865605551, -0.02098873169149328, -0.09666025511673812, -0.10807989827606938, -0.06377989700708281, -0.07853244435804424, -0.06870873462274328, -0.04030098153982234, -0.03533102056575795, 0.04669834758947646, 0.0787303266659105, 0.059700715004726033, -0.03580047169523241, 0.03349975051004792, -0.007755386781190576, -0.054372341318077416, -0.04489897221415637, -0.10425086748524132, -0.03383635518507939, 0.05978796526310507, 0.04883084591226987, -0.07978467631481588, -0.13550010359798373, -0.23473999739061288, -0.19920598036138512, -0.09795980791927693, -0.039008800693701474, -0.012133772104888512, -0.01758968682901062, 0.017558799418551048, -0.06674663507514246, -0.04158991917278817, -0.04035483009029481, -0.060002256356366405, -0.033570179160746325, -0.11980976285287571, 0.0051959614411417705, -0.032124361052413404, -0.07633995615037044, -0.005063402070774719, -0.10895781540375066, -0.09917509867303965, -0.020362220281677154, -0.19603400698810877, -0.10402013076974968, -0.13143546785574878, -0.07678698818140221, 0.06294913473043838, 0.096992172016113, -0.05002696413751422, -0.07999120273318654, -0.12763788454518474, -0.1385975215981101, -0.06679193902231907, -0.0601626433038702, -0.035437860417030696, -0.045926489476253544, 0.06914621327010304, -0.011509674889251946, 0.0013755437463781306, -0.04979244394368757, 0.04742327474820763, 0.0414563202394641, -0.02715361721571714, -0.052487305700659674, -0.07139614550378562, -0.08825535887846177, -0.07718010136393699, -0.08916713364080421, -0.1282781882715509, -0.08365673683639817, -0.15685185025232984, -0.1518764678356398, -0.10464384220498958, -0.03278894813653268, -0.046694265041490525, -0.02572038602567424, -0.09685036862073523, -0.13545906447518294, -0.08901599562768223, -0.07390365940338088, -0.017222984545942614, -0.04756677599307411, -0.008910597218254237, -0.03888805193490349, 0.010916257430905357, -0.050111958946016784, 0.019901236746294595, -0.002302742319898418, 0.019275983894091832, 0.005958371270452866, 0.011593193866845259, -0.05743780554222305, -0.0677355806622493, -0.0966987933879213, -0.08530593977529272, -0.12285667725275023, -0.193817940955243, -0.13031505950481104, -0.1592703561044469, -0.08280544765906529, -0.12876606513822975, -0.10440298910009442, -0.06825347574074685, -0.1340451827526993, -0.07988443861545391, -0.05970237904023958, -0.033519365104502964, -0.003897978298274445, -0.10529640092782913, -0.011516550166249664, -0.004577738113228904, -0.03609635429731336, -0.055279001691022865, -0.019674458943297665, 0.06164286340953368, 0.009197329836952248, -0.032226581634911884, -0.007659147831197402, -0.012103719978848723, -0.09935739254261397, -0.12321907563281641, -0.13326744537490995, -0.17288752630217563, -0.26177719068034006, -0.13777308152655526, -0.13804169475308692, -0.15897334752548217, -0.13164700474777338, -0.030749327308525493, -0.02591127557922775, -0.04933846808637598, -0.12228331271986861, -0.07490798692429897, 0.019295169699337793, 0.05708162105788516, 0.08536973797612285, 0.06267784571576605, -0.034546561342803025, -0.047013921739594275, -0.01810740581507304, -0.042024582432173115, -0.04200572791699091, 0.09354277428140485, 0.005724958245714173, 0.04203273489234716, -0.03370286204869516, -0.0346097804706051, -0.11183092765013186, -0.1455269506551252, -0.06902939222749224, -0.11415718212536094, -0.18095711703439382, -0.0282135766334175, -0.11092520994151882, -0.09802303981735554, -0.13452325105338148, -0.07575371070202268, -0.02156720159854365, -0.12647828072416234, -0.15182957503138128, -0.09659613114552786, 0.03304205266934282, 0.10706646384113296, 0.13266963181517813, 0.022440975764808913, -0.09477208658726688, -0.041495890455821215, 0.034518100112771406, -0.07476789791270495, -0.017924019741390226, -0.03311844488239095, 0.037576646741530384, -0.009768368459068023, -0.0844871224691452, 0.004054920125913363, -0.07517461564606379, -0.04002531522842091, -0.08425252011338996, -0.11627047902571788, -0.07264799064374809, -0.05455047450422699, -0.07530995196615405, -0.036662220807801, -0.061166527696044894, 0.01710025708610016, 0.006316698279198297, -0.03428384575957537, -0.10735797310783594, -0.10046043662635214, 0.05515829845611644, 0.12412583546352547, 0.09124823822697034, 0.03354969011952619, -0.012777892171750625, 0.0058966742558756126, -0.007993300305450642, -0.04864165126414028, -0.004559478245978872, -0.007136204252578873, -0.0017124449664124245, 0.009284327900000866, -0.03322691864681347, -0.022637588104799707, -0.002488937219098126, -0.011848814279076076, 0.01665799684706759, -0.007896895659646744, -0.03129330130367359, 0.0003673017049643767, -0.007732141474867245, 0.06361522456244864, -0.04223035173342665, -0.011465538834743475, -0.053861695742315724, -0.0595361007822327, -0.05083165783325106, -0.09936098602575914, 0.09980545963797945, 0.1444186806829286, 0.19319575462780741, 0.04653657262838601, -0.0742577220117078, -0.030399968607637037, -0.039031063118478405, -0.050869886446886316, 0.02312563085136892, -0.06980159403450654, -0.04367307536457492, -0.07368823072005343, -0.043107817882727044, 0.031259131487286526, 0.03649360168561916, -0.01458113342022218, -0.027062488187555328, -0.16421670872002544, 0.024778472918421245, 0.057691889628308506, 0.013862793447505272, 0.0075916087131056124, -0.010832589128393537, 0.017224895697587308, 0.002088867238013627, -0.020192091015712264, -0.004494990165626127, -0.013004737945817756, 0.055535160584571475, 0.10606322400140059, 0.17850668055495858, 0.019870311953704072, -0.06141730312859122, -0.007370236622581259, -0.11304788552697417, -0.01360085727556172, 0.044398064999380975, -0.052870799163023695, -0.14975270792582454, -0.05988250754450633, -0.10374414981956465, 0.053266420141977924, -0.08789331739177911, -0.06397737174759006, -0.11267811577292253, -0.04778308006479765, 0.003010295255808099, 0.06661965039965795, -0.042057411576686785, 0.007118871425039432, 0.09196451422685611, 0.018664533655982456, 0.01715628311416817, -0.07319899540513469, -0.09555437863026686, -0.013340966287087705, 0.06337341093116002, 0.23949765522409078, 0.2816720293335236, 0.11600166623665076, 0.022175681028762804, -0.028117832832877998, -0.1418398844942729, -0.04489106874581928, -0.05093164819193694, -0.055403288517214835, -0.13836496231962822, -0.0919728169416404, -0.07156162886155265, 0.08677897236127068, -0.1221546309172011, -0.12303359439687185, -0.027035803152996796, 0.015519806853498573, -0.00463474858892201, 0.030174753249880566, -0.05390841228573658, 0.09303619050481672, 0.10662887392929522, 0.013844373996452997, -0.09115598621969383, -0.019965439869133496, -0.009228779945746906, 0.012672170328501176, 0.10514863345669304, 0.3063727943644956, 0.258242246730376, 0.16920183349472567, 0.07461725744655026, 0.01580978131708748, -0.010331232276628155, -0.015121872325608167, -0.001599249863450993, -0.007946473529934718, -0.031270051625371574, -0.02929860719722936, -0.02488458733350032, -0.030182792366929317, -0.021074268852128885, -0.020738935856603066, 0.03851906440599015, -0.006279145129791967, 0.031358341268138495, 0.08085466278823109, 0.012894903337010814, 0.060279355388018006, 0.024825868610446736, 0.006118771709946392, -0.026424700990448545, 0.08404868176750793, -0.02932690460328801, 0.0676813788183183, 0.11938174903287416, 0.1674263230524711, 0.21647700242700818, 0.14920220123093797, 0.09388898862394403, 0.01760624191690396, -0.07481023986237749, -0.08414833576841992, 0.03906150224042073, -0.05279712081756972, -0.02953975535344949, -0.09018372949784068, -0.08985953057773845, -0.0419999993381671, -0.018008975436713284, 0.01051229980261812, 0.015440355244463444, 0.05126705156121334, 0.08094804474622348, 0.026770839452302755, 0.09547481241099115, 0.09897343917859787, 0.05786496466729381, 0.05506280418198008, 0.029696180387849755, -0.00692806049918287, 0.05711594609886701, 0.05613407354163657, 0.027033440017027212, 0.14587635451131784, 0.1720274714553835, 0.19636062603177065, 0.061275327509810164, 0.06415177341987942, -0.04841194130323736, -0.1290744391720282, -0.07493029972916461, -0.07896062260959823, -0.03622304490970472, -0.08649433148284426, -0.003593185748688034, -0.06991361124635237, 0.005477866400715489, 0.03472634992597433, 0.015870741605894752, 0.07358886997319966, 0.10038430346812341, 0.14776359095847863, 0.12233420679878233, 0.06270097773878316, 0.09642416124718377, 0.04966019832965491, 0.05755248351062979, 0.0187835857717745, 0.08010203759312624, 0.014021031899129113, 0.0825449734851084, 0.07338370624126458, 0.1688020865247486, 0.21162482791186496, 0.1170067250308245, 0.062499061328038154, -0.009656529849908823, -0.046885052279582486, -0.025413108525883594, -0.051935520521907426, -0.07109157676212005, -0.021216847122102585, 0.046679315890448776, 0.015874621052375783, -0.03965790528680932, -0.011061832403748403, 0.0972287799535153, 0.10403019333284197, 0.09964443276928382, 0.051561373487823525, 0.08281531681829513, 0.03785818222378085, 0.10934985248891298, 0.008976190756358575, -0.015763491068164735, 0.05519044788753385, 0.07476688698345078, 0.02630231967242209, 0.005479448502018411, 0.12028930597868198, 0.09160896299228126, 0.10304333350211838, 0.13065852991067364, 0.002548610301191494, 0.043901932536750815, 0.04603029072691498, -0.04412319368685071, -0.13636758364787394, -0.09752977573090843, -0.055564258134008136, -0.03860498624973717, 0.018394240738283475, 0.006437766424018861, 0.04097936384941228, 0.037940335446321416, 0.028752025018930778, 0.09737190338772639, 0.10585614960403664, 0.09959280905374582, 0.05830053265740892, 0.034863106147080755, 0.05139974061192238, 0.014263998001267455, -0.015204862606389516, -0.035184868114573394, 0.04497407975963774, 0.07986197512644816, 0.08017160727110728, 0.05567295709452072, 0.12964593992217582, 0.03376443572164902, 0.0318689335008018, 0.043800503899584314, -0.021538229359513883, -0.028383015254330696, -0.09938193109106419, -0.05487682049779706, -0.08174969015543987, -0.0029755358094858348, 0.04974133272770009, 0.12361221740034237, 0.05725823082853402, 0.0970403483706456, 0.015606114939470147, 0.09429353018512761, 0.03230443945755861, 0.03444851347796574, 0.03164301533345555, 0.03575390193369994, -0.0020889065051907245, 0.0232857011612369, -0.00860701344013977, 0.02547148508861399, -0.0006041373772700797, 0.0634171566293981, 0.01842958955657815, 0.10484456975262224, 0.11144557376096566, -0.002256280687060616, -0.026267758682116372, -0.010875865979827258, -0.016849081622696674, -0.023437202991448754, -0.07872435910109311, -0.022178922463831706, -0.016715387190392197, 0.05539883112471323, -0.0487376610224151, 0.10555698129419086, 0.13673349499638093, 0.14660073343542535, 0.10941651966042708, -0.01465580781416389, 0.019340705641671615, 0.0057285700292341694, -0.007681505739946763, 0.043188253867629596, 0.01411144594941158, -0.011023133107948373, -0.04936693279485946, 0.01782780189755174, -0.019058576630413167, 0.06286383822701544, 0.10999063396373548, 0.12156321978803492, 0.12202845578240032, 0.059788020574370826, 0.041862111554104894, -0.0031712826410177455, 0.032848748949029144, -0.01807528289076763, 0.056804172315878164, 0.010570628369440694, 0.11826031225084659, 0.06171142250974485, 0.07462137534657899, 0.030465069211181042, 0.1838671555281419, 0.13914752050122686, 0.13717238678752472, 0.08027156043265557, 0.04871759581778522, 0.06848544980852767, 0.014327751782262319, 0.1259878568204546, 0.008094053973846969, 0.037562001190423064, -0.026532156640689166, -0.016362798366556776, 0.03196281765247551, 0.0009692231346343411, 0.018450651172863018, 0.08129588539682338, 0.050025664690868374, -0.0016431213621957092, -0.01779151822361581, -0.01047979328849726, 0.02315369433492048, 0.04269793398908669, 0.02512707539023873, 0.035711228478464974, 0.10248133972333269, 0.13916531301011806, 0.06583722272902309, 0.12062384858813363, 0.1593580906826474, 0.13274052563354108, 0.13574213850791278, 0.05475613651249101, 0.05300455161730552, 0.06305970952434274, 0.06457768548627656, -0.010994043351584387, 0.00791907517839457, 0.06972665753641426, -0.03628997259736147, -0.004477511657816358, -0.07686212367435183, -0.0854243655998455, -0.046915389532530806, -0.008726545715244305, -0.01755623121689833, -0.04238827220880491, 0.013929355582228029, 0.01919224298490405, 0.042734998679236046, 0.005448513233013457, 0.005800831113699528, 0.020399850921260246, 0.05599561176960003, 0.09172610826029555, 0.12134300968293461, 0.11095372416334937, 0.12615059003707893, 0.1010964068280463, 0.07921841191709093, 0.023122530356011185, 0.08540752765598424, 0.07741217838108637, 0.027883001143322737, 0.0028657803779272716, 0.007160065081418997, -0.01009472590962965, -0.09403249826458263, -0.05312385170525936, 0.006626371828945663, -0.04192961145007136, -0.02264897839133077, 0.040230053132712724, -0.02380313967705163, -0.055395095720605414, 0.05111604031593317, 0.130484941452523, 0.08912964171223253, 0.029091111730140163, 0.1010279151422074, 0.11110074773025298, 0.05767984430355243, 0.0845747285213301, 0.08619194434616767, 0.10200621260857962, 0.16605852454687417, 0.07473004136092487, 0.05860117409173254, 0.03582698315130467, 0.042623413454317034, 0.04509140566133726, 0.0890808395655516, 0.08606293385761084, -0.05924941957895148, -0.05150289129113345, -0.016022838507141864, -0.03370018534404109, -0.008954074116983799, -0.08305433889656191, -0.014064379071879931, -0.01274590948750789, 0.016438273730703314, -0.03385127445801094, 0.012974174951411914, 0.14913429375713744, 0.10579503002879974, 0.14871263677461238, 0.14904676705481135, 0.10417663230205393, 0.08774649073335582, 0.11706655864810733, 0.19112555239163592, 0.18893750637286283, 0.12254003408475075, 0.10181199952910545, 0.16243119388145777, 0.0275400525151472, 0.10344861976340566, 0.008047188401416128, 0.02674354183142975, 0.035525162710982584, 0.04365433220675171, -0.02396652286502903, -0.1008162334752334, -0.0649772122221473, -0.0439858946953846, -0.07149207599753543, -0.09958892653209467, -0.020854104863269607, -0.07508225267727794, -0.07638373282469219, 0.006688535241225952, 0.047003178346047766, 0.0499825893380094, 0.05722771234407558, 0.13523868618639281, 0.12269347633270093, 0.10708083607051708, 0.15651774816790556, 0.19537259526148978, 0.1964180982046296, 0.1257016564187997, 0.14905046656872004, 0.11410504765609242, 0.01404089047502174, 0.06379094629785703, -0.04486713006976496, 0.01940459894978548, 0.024483242662297827, 0.0008299995545627213, 0.01786784112191505, -0.09133230423763072, -0.03165765239588744, -0.037958854234986204], [-0.07288398045794463, -0.04671593204926397, -0.05721411238215035, -0.010922682780955638, -0.04143387980287982, -0.04428295799700785, -0.05546580239678383, -0.04443541589764395, -0.07636379278040174, 0.03759352752027826, -0.06664203934575688, -0.035769751577065516, -0.0585917651773353, 0.006028722963894365, 0.03772352169344884, 0.02632103617888179, 0.07272925909667884, 0.10200047214484051, 0.06713487068346556, 0.07147154892518076, 0.09937393335961665, 0.05167805224989844, -0.030064862773739206, -0.019366201675436685, -0.03335367394352366, -0.0077111632110504055, 0.014243822486690262, 0.012382164373569532, -0.04902210241811202, -0.08264827405205281, -0.059137605766165086, -0.08049341988123924, -0.05408442936474262, -0.06720891434002334, -0.05042818549929576, -0.06401869208779354, -0.0399830268952587, -0.050673982860048296, -0.012770606630882125, -0.041019549209300385, -0.0389692452638481, 0.037248388910040175, -0.02103966044438903, 0.04975219332291929, -0.05459465676864524, 0.04138843544740738, 0.07241130802519531, 0.06593868996573844, 0.05670485207232388, 0.07070601999555888, 0.06849995601878014, 0.02019023732698339, 0.0062234196838451775, 0.028405233315344416, -0.007402846900532095, -0.014698001274653049, -0.023163130691834802, -0.08033476050833574, -0.08067753111573936, 0.0012514640194948102, -0.10297351545085648, -0.033673074842701066, -0.07145979139670695, -0.06128592154198709, -0.06257941879757366, -0.07298445059175598, -0.04089051468355878, -0.07293108976806438, -0.05816212402634779, -0.021208637741816288, -0.024552889082594332, 0.012916641018593657, -0.0580415463175274, -0.0062404503854312085, 0.019012981823504745, 0.044650065206174296, -0.008550483424642251, 0.02601261323945267, 0.06348698018401769, 0.024681676957304964, 0.01480511464701943, 0.06430500386040088, -0.008225627566051094, 0.010767460539732885, 0.025086319487079404, -0.014208825000596347, -0.06682874750152053, -0.035414702911445314, -0.04143240775070885, -0.04303006388749598, -0.050482874889036085, -0.06023781523443408, 0.026595046109489207, -0.045760740455855264, -0.027017057026706304, -0.0029618431571206433, -0.018506141227665907, -0.07202333178431573, -0.026192291135307848, 0.02700053396633027, 0.10018178333250835, 0.06663128519045293, 0.05341841957417791, 0.04689839603026789, 0.07286405283949932, 0.021477483482651993, 0.03579815815478938, 0.05678536695668169, 0.0455516929108444, 0.01072999282900257, -0.033356686933146924, 0.005531417096666685, -0.06380800592366753, -0.03005377906469362, -0.05555091229115458, -0.05880151955988419, -0.09809313623241234, -0.060086382734240766, -0.015566904496363308, -0.006788588077031759, -0.018817145470689807, 0.0200667944030016, -0.04762889021998105, 0.03785134196142521, -0.059684307315127874, 0.017793784290328546, 0.015096180810514684, 0.005186075180507781, 0.018453450497149113, 0.023756938382454837, 0.00547448709262091, 0.023720785898343987, 0.06961342668035259, 0.03506302413967726, 0.0680935383671555, 0.02301927523509754, 0.04930674636304393, 0.03450632079657219, -0.0398478450631079, 0.06964756420820042, -0.027492951668927977, 0.010637794467369207, -0.017486492174113615, -0.03710102432148414, -0.06806152135325094, -0.07296259455856664, 0.03454993397251647, 0.026065767889369512, 0.017836543899751044, -0.010528140359769489, -0.03844594962545843, 0.0137040189093537, -0.01756385208556505, 0.03935601625431551, 0.027059519207236985, 0.00983872088382381, -0.008882435207739414, 0.08708329241746815, 0.05771579962547811, 0.04926717427515347, 0.07877156090665295, 0.031577927077734685, -0.05041570405999057, 0.02674160278145692, -0.006395462499908535, 0.07319911314412836, 0.03997823750424582, 0.06792438408200441, -0.06601718771795596, -0.045279473215729574, -0.08185610065094097, -0.06368586099268947, -0.02248894420838342, -0.02542227195012462, -0.07127297919846472, -0.028028526745906703, -0.007392860179443127, -0.018804356157681567, -0.04494534310746257, -0.027965675114001904, -0.06606741531763109, 0.0008064364700627152, 0.03074570993476481, 0.008532407316819132, 0.009699425330461156, 0.10592238730267635, 0.024761158547957567, 0.08850627783682677, 0.023578125330829543, 0.01927185922760401, -0.005120699356519422, 0.04365412349600876, 0.07794283989641479, 0.0577268323880158, 0.05460820840930272, 0.00792676645091684, -0.03237612047848323, -0.019202541514713345, -0.028177612701853722, -0.013437431586333632, -0.04506819694712105, -0.025056039868622697, -0.015413643787169869, -0.06213161363336883, -0.05968191670670446, -0.027967737086906468, -0.0853321849813033, -0.07631306795580403, -0.05224703889673927, -0.0035994931959883758, -0.017147479076124118, 0.041342629590961646, 0.04108603905498582, 0.10615708701330982, 0.051830011793077606, 0.013684221349912484, 0.06791205323032384, -0.025226352995505144, 0.022091707658541272, 0.04607975647625479, 0.018525260762300776, -0.0023354112223519, 0.07998987342188818, 0.04578472029273571, -0.10071771446990407, -0.07079345229119387, -0.0619459117236911, -0.1193803372207313, -0.09067060316938821, -0.06347120494147154, -0.07656431315772379, -0.03154436488107968, -0.06676312578589998, -0.061928708158433994, -0.13656878023532248, -0.07698665745342742, -0.09591699856512684, -0.08326364089918342, 0.04914714959659739, -0.019517090593937726, -0.018568456875853782, 0.03850367399577428, 0.019912531317543846, 0.004076943115814248, 0.0017748560557109972, 0.09492397199697888, 0.0300925902659344, 0.047648583080785144, 0.050774317832620305, 0.009733747808404974, 0.019219243671335113, 0.0558556947650275, -0.02319413122006987, -0.07986328201513497, -0.09564593494823044, -0.06781153607986339, -0.0807926179062402, -0.11503919378352268, -0.10209981075988339, -0.0831938465800477, -0.08075560544045561, -0.012450505755899727, -0.07486041976248606, -0.06686806191215483, -0.02982214454374276, -0.015859401033527027, 0.014823664569634474, 0.005909274532792665, 0.014896915532023441, -0.015321190130550073, 0.06928921811336482, -0.015185014091857735, 0.014369143764549654, 0.023745562277512604, 0.05100608770409864, 0.029684343466659834, 0.08769859180963405, 0.014709136511383183, 0.051312318650196136, -0.0029788065611957423, -0.05739426400222044, -0.07752869416279999, -0.06907614812397803, -0.08936148411278907, -0.052932843802293954, -0.05703424928110167, -0.1257088772109338, -0.09311664779531505, -0.10084860803712402, -0.09299544059948672, -0.013589193970270435, 0.0031801205428999427, -0.003504759737026639, -0.006144985151592888, -0.017666007321181672, 0.02020058408389111, 0.02261843582503444, 0.02331234307186496, 0.021738350480017328, 0.023369009027556283, 0.027017281074706065, 0.010532486934254298, 0.03273308792830708, 0.04818172348167016, 0.07994027363127129, 0.0556660558654592, -0.005164394864947716, 0.034559165027182946, -0.08520848868913428, -0.007505843725445474, -0.040868371652260385, -0.08832382489840365, -0.06475951541724455, -0.08012205867860576, -0.09386853495850121, -0.03046899313796918, -0.07983639546792431, -0.08765550174071846, -0.039271069925996646, 0.011725250029802294, 0.010885456965272457, 0.05202668192793691, 0.029512063981105077, 0.043277009579858514, -0.011650029584529091, 0.05721657266554282, 0.07853512750615436, 0.08653935983002033, -0.047354565772205516, 0.04130797396555827, -0.022241522571252094, 0.06505871754803491, 0.023245368540080896, 0.017672232487369745, 0.06247390089418476, -0.04635231761721585, -0.011519305397354792, -0.02529497895998362, -0.048141582833173636, -0.05265605093774158, -0.1252696707937705, -0.08298637869509579, -0.06574316823381018, -0.07417104008624387, -0.054188292374493845, -0.015214721898602878, 0.004438768525496386, -0.0023022708859851693, 0.04017270050376196, -0.04403361808246772, -0.012871640776664249, 0.042846487633213054, 0.02662910541968458, 0.026097106301572186, 0.014962202071679207, 0.004432033705726817, 9.149155526744637e-05, -0.008015545363536405, -0.014363131101300677, 0.038318717945101916, 0.019011314157613632, 0.01566862457463175, -0.031585397934606664, -0.015427971588859366, -0.03726297863273707, -0.016375801406615247, -0.026877173135805548, -0.06537704592811905, -0.11410646469875643, -0.02604387096132954, 0.01254395414827212, -0.016835061717190132, -0.007968822518506153, 0.0332057147989762, 0.011834621562441819, 0.002299787122884182, 0.03416801553305617, 0.04860259745656691, -0.056119063500826724, 0.03473235052826706, 0.05177244120751524, 0.031143527649132762, 0.05190145951399529, 0.0071540973988558545, 0.02947581629942773, -0.0006141711915238042, 0.04886405930182371, 0.04631916139710193, 0.03578986983639345, 0.0069212586651381195, -0.023692104074261016, 0.006688244545538018, 0.0232070620355667, -0.030510878001821336, -0.0070355905820019245, -0.052459610986604364, 0.007337159316434709, -0.03029616545747588, -0.04044960216580522, 0.024973541252774175, 0.02924545146760949, -0.028509705225300545, -0.07050740080905292, 0.005892663968243961, 0.003414172975941487, -0.015227700432544828, 0.04006503071395614, 0.018829561749601625, -0.023109017122301036, 0.052913497832307414, 0.02142766686019272, -0.06563220253689207, 0.03804529739071772, -0.00013349942594771222, 0.01036042077691425, -0.006952082799979756, 0.0034984311060182217, -0.011483491913305976, -0.013558936883037085, 0.01970540121051107, 0.03503932704058859, 0.04969084751213575, -0.022266149161882402, -0.04121019416520334, 0.011980319598144468, -0.10223112560571407, -0.023249420197360586, 0.023165027496166106, 0.061888167018184496, 0.01833290152915223, -0.06096685013494467, -0.0336981857679373, -0.04086310688158257, 0.007504824881316404, 0.03282546297570308, 0.034476207283504916, -0.04770378917249585, -0.014823019071478387, 0.007895449328739172, 0.05535262328263707, 0.010078644879456767, 0.06605571024473633, 0.06968959641696484, 0.0007440212921540257, -0.02494242759195103, -0.06663337118310705, 0.004152875794562975, 0.005740874595585376, -0.02521449380025813, 0.026784624377428616, -0.0022290607617185183, -0.0010656419804873844, 0.04405188136166183, 0.0019219597460605146, 0.016421705461148777, -0.013440603542587429, 0.031883325194637956, -0.028837095974423927, -0.005023123796763888, -0.011678034761476037, -0.01277514761136441, 0.03132195079387807, 0.04263002331450416, 0.02352487789180236, -0.01655612016216782, 0.01766501276474674, 0.0086226614176957, 0.0716378938621577, -0.0281398598348276, 0.019893151649311776, 0.013999478463079567, -0.051299394122354555, -0.003790861907527012, -0.040392868827022275, -0.0381721563093139, 0.0038854637514858276, 0.07307549833774132, 0.03406525995957151, 0.03678755450488471, 0.060111833631444955, 0.07046052234544166, -0.013477765911987804, 0.06647112763486392, -0.001552737832594023, 0.028818145213033452, -0.04860190174631271, 0.013224595762818581, 0.029282132751338723, 0.03657231534040777, 0.042316988158343526, -0.04209841474112505, 0.049637017014243535, 0.04317151276379208, -0.010988250564274372, 0.0021440005131908467, 0.03973115065033659, -0.017371808534947613, -0.0014632657181508626, 0.05488404034598806, 0.017952237695840947, 0.031778344333171595, -0.029025666560419928, -0.04786018455095948, -0.03915436977571291, 0.06930877232334358, 0.03352831371642289, 0.04026118982885264, 0.07590589589083097, 0.03396671604151414, 0.06542679187921675, 0.03870799650893335, 0.025673212185286988, 0.04166564825978158, -0.013459830065979866, -0.020611342793016508, 0.04913263727589235, 0.06168589734139408, 0.06221256268493244, 0.06915261118785186, 0.08506277107676515, 0.054103079695067405, 0.0006042822217855646, -0.022597712330629335, 0.043708974226395955, 0.005176816881033289, 0.021124874365798674, 0.035595242218118855, -0.031939181502354974, -0.03261264362578789, 0.007394425386216602, -0.005489081171187503, 0.021127376798670057, 0.05736361787853524, 0.05173306961015068, 0.03139122015224086, 0.034256817926246325, 0.05679649931874761, 0.017420113007401365, 0.07393546946898298, 0.053201158280467786, 0.01699934557157232, -0.00247397656680341, 0.07160483020353914, 0.06357362269611379, 0.004849987703583932, 0.045805543575489334, -0.015510987051812229, 0.025434061529998237, 0.06495600129442182, 0.057429223404288215, 0.07797128310330301, 0.0027527552586776288, -0.025963363645264005, -0.00437693879714034, -0.007656997107396274, -0.05266085033596748, -0.017067674817031926, -0.005459194070597503, -0.00859898625444668, 0.07943070314308529, 0.09932254319703729, 0.08289696931122845, 0.0996399409912999, 0.07066290977000589, 0.10562052128558105, 0.10804531618158753, 0.05350286758419589, 0.059127668690061023, 0.035733377250732605, 0.022824083121589542, 0.06029169214997082, 0.05486037322554803, 0.008891822023406673, 0.04371193766776578, 0.01661322306737278, 0.05791479699051402, 0.0005350699805219307, 0.05024177417597509, -0.013224682737638268, 0.04657052955010702, -0.06011527733723489, -0.03056699342819597, 0.01540745448019272, 0.03440699595077452, 0.014897485969422518, 0.07452681867768744, -0.001260872509374673, 0.03132061394592054, 0.014152158614493059, 0.08628241490500073, 0.07053132808084371, 0.038657723806057524, 0.0696314245518381, 0.06538837695084038, 0.01468804109450955, 0.08912044432699764, -0.0033023882446164103, 0.04089660211116171, -0.009375504160947434, -0.004108337988775761, 0.082554462085173, 0.11384553072823815, 0.03262369536544132, 0.0033821519383182763, -0.002427854490861841, -0.0300001920581859, -0.04086903428938656, 0.031104115240317882, 0.02418815225383172, -0.010910237995502718, 0.04796278920869971, 0.03168783616045794, 0.08101780418152602, 0.057159505860384, 0.059389965296448945, 0.038542541983646726, 0.07407269193896239, 0.08762725572015999, 0.02653534014600075, 0.06924655928292675, 0.09243595982110929, 0.04089830459048524, 0.03493540125129011, 0.12750309698524193, 0.0431545850385243, 0.027747135319522845, 0.08148081707661851, 0.0596844478070964, 0.043084100547589814, 0.12403555033706784, 0.10484976514640836, 0.015357355907843321, -0.0028936988729842384, 0.014923823919321793, -0.06710418933675137, -0.007921833744213014, -0.013079649029097078, -0.0024964730972358165, 0.01671729730411071, 0.018712225535177842, 0.05461969271164856, 0.022351828444385536, -0.03382912423735109, -0.032966737566963535, 0.05615510318707435, -0.03625152796680666, 0.06844396877224304, 0.05713253881142712, 0.05730402746525718, 0.04960496421837872, 0.05847063646291666, 0.09993118385093858, 0.046924211408691414, 0.025046903916306446, 0.06752254626388417, 0.03756290493171654, 0.08121182469715862, 0.05222765002279635, 0.014860425986851201, 0.016258561260069877, -0.029493392214457324, 0.031789782345660315, -0.04858244769387608, -0.006021506314871858, 0.010194538329433749, 0.019472592112581278, 0.09022933249417942, 0.015220019054701392, 0.06751735340681843, -0.012417311141118175, 0.021959239256789297, -0.051880313754836864, 0.02038213221154522, 0.031107351659813636, -0.016071613895555677, -0.0030705245798636734, 0.062263825002832354, 0.05900802041319635, 0.014514311048659972, -0.008339636933990518, -0.0004131338089837607, -0.02748276395714727, 0.06716487570342956, 0.014647034978613513, -0.006171361681284682, 0.04558146329814575, 0.016834164973487272, -0.03879801613150798, 0.00792783043549847, 0.03832099834782848, -0.01103105463825882, 0.04289600111519078, -0.01823606370170049, 0.0659916464859743, -0.00989740696880484, 0.04541197522329561, 0.010732064430134546, 0.043335276463099426, -0.012743895880169468, -0.044639254619220886, -0.02298369627804423, 0.03529909526299249, 0.07356715249850783, 0.03661831174823666, 0.07400887606047157, 0.05141976736144702, 0.06665852634460985, 0.06327222355679506, 0.007505095276779837, 0.04334848192093615, 0.08235184886368917, 0.014041720178360233, 0.0423498871092707, 0.10492542733820488, 0.05771996461219752, 0.032251943085582345, 0.020774933001888776, -0.05042359901109627, -0.021274841832375737, 0.014312956177234246, -0.013555023289395281, 0.04099361844613837, 0.0539204401390642, 0.07097674834199107, 0.006000086042956111, 0.012380919036121658, -0.0019386680461602772, -0.05843825165226482, -0.06477418279306946, -0.042737794234980205, -0.03392482060098544, 0.003876838289126457, -0.0618715609330898, 0.034327073561605526, 0.019737372461491164, 0.03642054909844146, 0.07225376392180066, 0.06877938063191348, 0.052810733164861366, 0.020393319906469462, 0.03545089629189681, 0.013043839195318622, 0.022174797103414016, 0.08816529442598395, -0.03276495192031208, 0.02369288925347182, -0.05060853399812925, 0.03921995784769499, -0.05141001455801759, -0.031459996974483734, -0.018444499457056403, -0.0003558497136809139, -0.025770162514222757, 0.07651540110532618, 0.009043986541964717, -0.04122072967195599, -0.027327223472339526, -0.0583279494855428, -0.012835766370611144, 0.03374122603575765, -0.015916959794970476, 0.026960000588693443, -0.001156398366199235, 0.025492472538419825, -0.037686185095395015, 0.10423725151446564, 0.06902293588247767, 0.07859536835698715, 0.07510583125704956, 0.03296502204028418, -0.006617783179978617, -0.002409610670037444, 0.12164972660991837, -0.04962792562409738, 0.0032913248888465636, 0.04149005228890076, 0.019060716948096346, 0.05285379037220585, 0.05010524277390642, 0.02586981920230513, -0.03869340165936844, 0.029433684641140465, -0.03278168337225518, -0.050655470405672025], [0.09927792146359828, -0.008007630566584916, 0.011947037749047717, 0.0663613523503056, 0.15348439035599398, 0.083640888773583, 0.03671381111785037, 0.07822061506374181, 0.029615259704223535, 0.08240925441025149, 0.004243049395327258, 0.0325054723534571, 0.049015764408819315, 0.05087380322584467, 0.05272919344331982, 0.027049405554981427, -0.02693124589699777, 0.01033710416738179, 0.018504874217849923, -0.0066098420423023685, -0.014617516626822638, -0.06200469800965307, -0.036410185828602525, -0.11129859974616854, -0.04635012635934709, -0.12193294615383181, -0.04832915810935188, -0.012523382676817416, 0.09247094101842701, 0.059759693919635766, 0.02142696508699761, 0.11595779759711738, 0.13434844171515908, 0.08389963224197917, 0.04033254237774643, 0.0426791032836956, 0.020132214604660983, 0.03615516345056286, 0.0004169373567480789, -0.03719134189935229, -0.051442584986560826, -0.024962182756362174, -0.008480515940791971, -0.042832025120746, -0.04823742729229008, -0.08504484468494661, -0.04101270716003152, -0.06546760132311107, -0.048583692070288155, -0.07694085971041531, -0.06412867297187301, -0.10875867015498666, -0.10404287257110136, -0.09380793038270334, -0.0798681193783971, -0.08286954374085118, 0.03096217357292592, 0.08682747513312061, 0.07064536907048173, 0.06869318089280677, 0.11081797869721885, 0.055593878561101734, -0.011437588316986727, 0.006425928081759096, -0.009839955644694805, -0.06031860654492294, 0.03013925979004271, -0.07616618399210333, -0.02045869988479627, -0.0797912388135667, -0.06270351584918255, -0.043692849633714136, -0.07115638764924467, -0.10353593282787678, -0.052600688327857845, -0.07218024136348701, -0.11495473070941255, -0.054233924558997795, -0.09069518810941354, -0.09086538059196557, -0.17014829078343854, -0.13184722143787683, -0.13288473319378927, -0.20899665509890544, 0.06840511302353097, 0.05259318292029614, 0.082989894361754, 0.033656244209762216, 0.04811182225822419, -0.03502498304540732, -0.022581931823809787, -0.027410568195104925, -0.013293197498539555, 0.04677879723560426, -0.08341416084077466, -0.046767737495699464, -0.007726826162483352, -0.053142482981763356, -0.014936013451132466, -0.08589360225223107, -0.07647348132202726, -0.04862568678744449, -0.05775593067618191, -0.05645920955195225, -0.030495125855646114, -0.1311895859808988, -0.10064893575419155, -0.09739808763248853, -0.13243084001455005, -0.15449730387911975, -0.10045381419857327, -0.11498541693166703, 0.0710317452960349, 0.11045970625186592, 0.04348550002633223, -0.008682626117509088, -0.017738470001190988, 0.017263879951304427, 0.04719013606633136, 0.04147048245206993, 0.06925731370701145, 0.028321006796599046, 0.03341350054770563, 0.042018812275238404, 0.04928135025003582, 0.03629574103887874, 0.08154687937292827, 0.028269607760277007, -0.02641306557785692, -0.010398216164759787, -0.0073332740944216015, -0.09058322517221859, -0.03872729287725066, -0.01685557518349046, -0.13225192396891589, -0.12239366788029434, -0.038853363662188306, -0.020317898372592246, -0.06565938646390178, -0.11870074410744152, 0.028284822216233123, 0.06898165781118042, 0.02168585113496107, -0.011415277436190849, 0.09166194464613411, -0.0005576365182529054, -0.02575010654374726, -0.037566421187603075, 0.005550838518788691, 0.013567955861772023, 0.0012711108329694996, -0.03336570623828679, -0.011731506760229223, 0.07417804190047218, 0.02363980166261896, 0.07708212630511513, -0.00856724172926142, -0.043490671350941555, -0.03834571596567824, -0.00515937594950073, -0.039722777137776104, -0.10412073266450485, -0.01770988437320781, -0.07954657450413428, -0.07969627451037131, -0.00975464441379131, -0.0719490553915366, -0.12281516600362595, -0.032677801749578274, 0.04944779848702576, 0.07533239354378371, 0.07429098418473434, 0.007025599478748862, -0.0017644089392752445, 0.014494512587815006, 0.010684175920468253, 0.02029954459699163, -0.053159745085144226, 0.02509160592804741, 0.008533214117915291, -0.033115509968815855, -0.0072675269317053134, 0.04020518912520999, 0.07348959884089828, 0.00018305862677031547, -0.07117906099157041, -0.04466026572671625, -0.03513288482241161, -0.03427586926125945, -0.0771187959157254, -0.05858637224254735, -0.012733408570426756, -0.0531461225138125, -0.015851644762988466, -0.07875173084008852, -0.04122035663384108, -0.0026726310985623505, -0.0445884790581096, 0.01004548587713862, 0.006055358936103751, -0.042579138744807496, -0.019537908990415593, -0.009136665656114115, 0.019461738673826647, -0.049003713816440184, -0.05200273734114515, -0.05004376411506341, -0.09759200877445659, -0.022705042051929695, -0.04903054866657914, -0.00421422876445451, 0.006709897600394299, 0.017220347632745225, -0.005521000661209796, -0.04889891198287927, -0.0825709372803112, -0.02660591604457566, -0.09979985106430167, -0.09377333775652272, -0.09913196396190627, -0.07627357812802332, -0.009726073158432614, -0.008286402485728515, 0.07740286874433143, 0.009902558920103296, 0.0015646043500305794, 0.008715516486294856, 0.05441360802552823, 0.0063030646781532355, 0.013250088646966694, -0.01942629932117346, -0.02876730565883639, -0.028192454911493726, -0.04974257369574473, -0.10828834008501663, -0.009240035451161335, -0.06640294623201501, -0.02045431539493851, 0.03519197345942896, -0.0047401037634754424, -0.08310927968023665, -0.060555668633721076, -0.06628482922643664, -0.0766333237793896, -0.049658691020521006, -0.07909019378977893, -0.12266370714469779, -0.042428607358288316, -0.04532006171130821, 0.010087145406937264, 0.0070540955073814015, 0.08463389288590628, 0.010716359893533044, -0.04022068012832698, 0.0012545754190001089, -0.04605960665724235, -0.04513259911282732, -0.030825272970089537, 0.004696538935545716, -0.049017298686184124, -0.04315061500903403, -0.08907325010907578, -0.10017675697945513, -0.05965515218351997, -0.10855686836766423, 0.05947128577155012, -0.03133997575910013, -0.05326261173765015, -0.01126918267595313, -0.0356073517098977, -0.05270686776469727, -0.04517708829805934, -0.09468230255595413, -0.02913626819381914, -0.06742452395122028, -0.0414757095247713, 0.020021773957641775, 0.0019267195635607377, 0.0830714737493675, 0.05494002769553883, -0.011226839616169304, -0.05609949004160984, -0.04612962064978666, -0.054158476279955056, -0.0497082367933341, -0.03550498877584688, -0.03445624718090491, -0.04553724251307654, -0.0514317285538368, -0.04079720697645294, -0.08267924573015979, -0.0496827265914668, -0.034057935048143105, 0.04848744086415246, 0.01495848357147231, -0.0686689013748377, -0.06455604979602893, 0.014911247101481727, -0.016551116881357065, -0.04898932685804544, 0.004201171802643518, -0.009682857187655523, -0.032129563999825174, -0.012010004033932334, -0.012243872676698627, 0.042673461588200824, 0.13794108372559857, 0.12136503368470498, -0.10600816077838028, -0.04918640691576838, -0.047474916684172676, -0.04067986528962603, -0.04080620382032581, -0.0005002562768201489, -0.06885069690329301, -0.03843420550517787, -0.08765697358430433, -0.0479213257258919, -0.04836934839853693, -0.04474919843678367, 0.03441481197167327, -0.004710457016031557, -0.005110752238941565, -0.043611911445406625, -0.00638103239904558, 0.003539182588080545, -0.015686967541614732, -0.024292040021711026, 0.020160669412823306, -0.06666208626466476, 0.058335115160397445, 0.08278602591000027, 0.052409260072879, 0.07464006802008206, 0.05770991153345598, 0.20354753051232594, -0.05160150873549554, -0.048447555274695624, -0.0682644936106346, -0.036805813086588104, -0.04428137947195786, -0.02320030430694292, -0.03378202212777496, -0.01754039758716151, -0.0423015691047333, -0.04460886595303088, -0.012066624368337636, 0.008015353718340657, -0.018845379242327487, -0.04693296107767429, 0.02308580931389566, -0.027290546430040447, -0.01025480287613488, 0.04001051595062452, 0.055603899188376674, -0.007400066084690155, -0.005126024796515974, -0.01441626880866178, 0.039709309220639796, 0.09070460212474049, -0.003991514945641349, 0.06070098193983884, 0.1679970160545007, 0.15921793972518855, -0.017668210276692832, -0.07789960329721514, -0.038837503489512634, -0.08718137302235206, -0.03869760817804741, 0.011187682531444611, -0.03594979291536597, 0.018839389253789376, 0.010000884556294816, 0.010228884036365762, -0.01614921809093905, -0.03873375978511755, -0.008029241546080318, -0.047543607920736274, -0.00928441776625846, -0.04980454585629286, 0.019771186498047596, 0.04406091924802814, 0.02832395813969078, 0.020107798892694005, 0.0205594634499668, 0.009108250605356107, 0.04543021599677632, 0.08185947528214339, 0.07639364466621741, 0.08329931803914796, 0.16662038888428882, 0.1478322115574324, 0.02456659184855857, -0.03241742095070928, -0.04128271744670032, -0.05091965261829372, -0.0721465012887487, 0.004631225127324826, 0.03566911993674617, 0.005860731695842707, -0.009438691457371761, 0.030034596500203403, 0.0377309723314656, 0.06727002489597533, -0.019924268800714046, -0.011696913251221977, -0.0022229909792518617, 0.055015628190766774, 0.0005626014202943486, 0.06538152329364072, 0.1078284454871379, 0.0748930338621749, 0.01279226511901602, 0.08917269149100415, 0.044988702572259245, 0.12220018468859677, 0.05150922488056221, 0.0630551795076367, 0.14982618874570902, 0.12876889023586024, -0.024708738050774882, -0.035741403685772506, -0.02311990237749836, -0.028630450695749612, -0.0377130002687164, 0.025867117883733425, 0.032808329706990234, -0.004882433356568079, -0.004224363229321727, 0.04170534557053819, 0.056127749571839254, 0.0646379233052821, -0.02599725196752556, 0.018831589574362487, 0.0008125641428007095, 0.022321403916530966, -0.029185193667751942, 0.048428143093515535, 0.00015294721021425216, 0.019604575076312164, 0.13151490067172675, 0.09564402717082164, 0.08382620896845479, 0.07646495111759105, 0.02833179454431914, 0.015451073017936499, 0.011802092733302459, 0.1313004133293707, -0.041956023710644344, -0.04482986413650465, -0.046121658935819924, -0.07000855943820311, -0.09142200677279039, 0.06417556638913968, 0.09708083940798108, 0.030129732255301807, 0.01527541794500614, 0.024333805348142692, 0.09574546837010911, 0.01890545667810628, -0.01266314449686502, -0.0039847009662488725, 0.01070443766497762, 0.021108917781883507, 0.0070689269205071, 0.05527885279897375, 0.04413123849120108, 0.05514923728728908, 0.1456178676039662, 0.04887835310073732, 0.027549417314039006, 0.08119677953796367, 0.09851363078548397, -0.030517319465883753, 0.03989949962103319, 0.072609556745202, -0.043813098788755465, 0.0001186450025865311, -0.07293666010352584, -0.09120753377617534, -0.04264996207182005, -0.004165697385551337, 0.067209123263315, 0.07278884067971522, 0.05394530197552491, 0.05846802174066645, 0.002539736988369668, -0.02369045021563756, 0.04176160788116602, -0.09505666275784816, -0.044435576326705147, 0.005050010575773972, -0.014528884038686954, 0.029783262072697606, 0.01573386470102047, -0.04192030494286574, 0.03263781853060335, 0.02806167159199896, 0.0751760934383985, 0.048771051951551334, 0.02473545707173687, -0.0012735332112721693, 0.0275713765242479, -0.014369892594118416, 0.02874002286525004, -0.05429456403559267, 0.0035426986056419202, -0.07707315564280437, -0.0025203383414553497, 0.042615625950887345, 0.08721756073973991, 0.08179195474617228, 0.05416424592368016, 0.09743366849468064, 0.03603913629903361, -0.05862489702753068, 0.005557597901151154, 0.009354281989604816, 0.017412720212883762, 0.0036086091648431275, 0.017485164337117002, -0.0041224983287741065, -0.014776121624961282, 0.040496577096782956, 0.05930242787069148, 0.09146412993569926, 0.07853005703037631, 0.03643675068760956, 0.030967724194434176, 0.002641159492824943, -0.0025476632250879083, 0.0706697110005178, 0.027417722495354842, -0.0521513172051782, 0.018020466608735353, 0.03605879429030633, 0.07968182257431529, 0.0524760885694812, 0.09180507603384798, 0.10104941685167146, 0.08885326854942713, 0.1021172563707676, 0.07975449493476418, 0.01304172477912085, -0.01141065045734611, 0.06773896807865831, -0.02685926052760981, 0.0426935036579289, 0.05582917023479762, -0.006261332080387645, 0.005060183409342082, 0.027185818308278077, 0.04527299012490678, 0.07835131889263326, 0.11825314938093907, 0.07833391755187613, 0.09051518229605597, 0.11741552334765565, 0.010825231414355012, 0.03956184219698772, 0.004678929032786058, -0.013624705607985062, 0.025573371133427943, -0.04056291700614415, 0.10130458332091313, 0.07974831682299574, 0.11683191594245432, 0.08861204049925178, 0.074428818161507, 0.005534141071284317, -0.02174448392613923, -0.023886427288203622, -0.01748619850363017, -0.07225693745053914, 0.000824318483602025, 0.0025970894709927785, -0.007631605822739489, 0.0046886071867584525, -0.018855656169019675, 0.021982391632209965, 0.026930661545332454, -0.01833124127905293, -0.0014430891700096121, 0.06119822305330325, 0.05728815162729257, 0.043339599007022465, 0.06496234229645444, 0.012668091074043628, 0.002427345059338556, 0.011543715731447432, -0.07034378518906288, -0.11119021400074487, 0.06485299423275612, 0.0960014011739927, 0.018493549730984687, 0.002181627817488155, 0.017308134224180913, -0.020528320381887975, 0.005053274514724276, -0.011826323493199233, -0.07330692854264788, -0.046944867561659054, -0.03435310581114666, -0.042977771661970525, 0.013473567890090112, 0.0028906134775505254, -0.01918567023532659, -0.013877597018499317, -0.037768275005312435, -0.02822834102098918, -0.016552317418603704, 0.0444629983729904, 0.0930498187541345, 0.010049751438477972, -0.014281583215551473, 0.08866372336955562, 0.0024594301098766445, -0.03386946453310333, -0.07367817784806761, 0.006868313826842455, 0.07584485768977178, 0.035943121828547704, 0.018297634834751556, 0.003461279806253926, 0.029835551658006675, 0.06259266711177773, -0.02610869536848496, 0.0191958958229091, -0.0583005355971227, -0.04115841928811935, -0.02869644849854522, -0.02575555679203524, 0.08139090871454925, 0.012825737562934989, -0.008622889638661181, -0.04974683629095897, -0.052910772290473695, -0.035222466479141554, 0.07729580636124254, 0.033281777837414865, 0.06711371741019904, 0.023271645554999196, 0.0129710967829534, 0.021509716431602568, -0.003722407548729132, -0.03444796956746752, -0.06964862531013168, -0.09216760823177882, 0.03284586227285645, 0.000786644747730538, 0.05448462512237006, 0.07196607819017461, 0.06458888495450082, -0.0017448050084557796, -0.022214893922905758, -0.024112024141159052, -0.043449307631432614, -0.002339722436517449, -0.06093251991714129, -0.037628754044143904, -0.0017988908897121276, -0.04505017946789424, -0.0341291809231224, -0.002670062068246778, 0.042426039123283854, -0.004182806474464431, 0.021188996224120397, 0.011398081319821424, 0.06492703341573136, -0.019413646422595767, 0.06556127483984509, 0.022423358251404263, 0.055654050351095156, -0.03832000534972088, -0.07995705566231666, -0.01829618307489922, -0.03505937103144941, 0.021008084385539357, -0.002439254337119833, 0.04596611300724837, 0.12785816473882666, 0.06240484741791113, -0.058089806508650206, -0.02828943782311736, -0.01918246196009618, -0.10333765689986234, -0.12803347446105595, -0.050712482556557116, -0.0317401989927206, -0.05585012462591325, 0.041272717851247476, -0.006112975834964424, -0.019970171263295373, -0.03902061007364303, -0.03674917390760745, -0.04561406890887994, -0.053920449982021036, 0.05019003107814329, -0.044576625281674054, 0.026683193227675588, 0.01706465751475537, -0.03665719828282967, -0.10676200340949135, -0.03967745554144768, 0.017444174721146215, 0.011525285237052223, 0.09151736340432949, 0.07209944880713617, 0.07396379136644127, 0.024753388659861663, -0.004297361610362546, -0.026631246654136513, -0.07393054932969381, -0.08541677896256619, -0.026322395655972497, -0.058897610820051585, 0.05189851658434305, -0.0773413520305457, -0.032435276350173924, -0.08507206590446144, -0.06828359703614224, -0.04874756059338434, -0.06616868096927253, -0.0013026606034863093, -0.05827730792099129, -0.03511093487043821, -0.06730586834655193, -0.022439506642277007, 0.017120985976418455, 0.02604846317692835, -0.04520548257068294, -0.02553053153746465, -0.08988029075463462, -0.01325592394622899, 0.07253757968448377, 0.06738357640898039, 0.03040226139385291, -0.05847661025122395, -0.00035188868870495403, -0.0069182428543332185, -0.08349571159772004, -0.032726539229804806, -0.05615654484955237, -0.11326998461950318, -0.01624200798276732, -0.0838424385375228, -0.03448891766227301, -0.09752097888159039, -0.08370321376197011, -0.023560774708111056, -0.03489996115736524, -0.039657123515601654, -0.042699731510786244, -0.0057422882188466326, -0.05320758525024562, -0.019974985134125454, 0.021586318408694193, 0.050395923885189306, 0.0024851626038098927, 0.060100463027983456, 0.03530614258794676, 0.029636539039148004, 0.015271315384052757, 0.06364378176095165, 0.004388011956030565, -0.04336925060801605, -0.03396250779202748, -0.02677720779155558, -0.047853806042410005, -0.0759171283568332, -0.036007739356144076, -0.05353083321038705, -0.08202300704206843, -0.09431553224096356, 0.019712637689822326, -0.027851072875546355, -0.0215319618240713, -0.040787881975632836, -0.06894321166002262, -0.020000240870286984, -0.043128096978036205, -0.019006262499321733, -0.010076700164608945, -0.00530181057348372], [0.0030299837014221604, -0.040878554167094766, -0.05834683908872148, -0.01544378029452256, 0.05040341358162135, 0.08165066282587269, 0.019939832899211828, 0.11006945334051353, -0.029846254137848322, -0.036496157033726204, 0.11792125924387614, 0.046876646730851394, 0.04106942311942782, -0.008491019760859116, 0.012769197418521106, -0.002258663632547661, 0.11081355351984712, 0.08124676809055564, -0.007335685689422945, 0.005410736763223025, 0.03402080525685047, 0.05793406817435764, 0.08459042759135757, -0.03952270088711524, 0.0003648179046916305, 0.03670155007509911, -0.09658406826526049, -0.0650621753810088, -0.0774614473018629, -0.12248072981204534, -0.05473708172341824, -0.03939796468898859, 0.0060735609680247545, 0.02276684823082703, 0.022833992617020172, 0.08631902012583591, 0.012951204723030237, 0.0566542394110478, 0.0633397580591479, 0.02627484565158704, 0.07927338088728586, 0.06776188030465216, 0.0011663669483816291, -0.05980588700097335, -0.0054994222540195375, 0.04478289788247221, -0.03313359857140643, -0.012788458236627876, 0.004240344279363667, 0.031253987203931716, 0.00887193359364423, -0.008203183354734434, 0.031551047940171044, -0.05977958430658051, -0.017554829481626597, -0.045502354918964386, -0.10011003350380596, -0.1414141640977136, -0.09311265370763942, -0.03198541985431948, 0.06397044057617751, 0.022897430388312667, 0.028903832038813512, 0.05084588570843812, 0.010917875069475466, -0.025461972892009226, 0.0433967970178094, 0.06686937842165824, 0.02568423529652855, 0.07546995534423326, -0.015856657598158318, -0.03850948355195309, -0.04275006530835001, 0.020692562995364913, -0.018696107794495417, -0.029562683070996028, -0.06032897250970396, -0.00934182618968598, -0.031457347414625136, -0.08465038894685305, -0.05939697924114996, -0.14619542349715384, -0.032318221971490056, -0.09128250152206177, -0.06868819891429663, -0.10982111281690136, -0.0997494671482658, -0.06821302770613548, 0.06091230987849982, -0.01690564464559903, -0.06163962091599458, 0.05257192967771708, 0.019615532784692972, -0.03402272640148541, -0.008590397375309538, -0.04537976491974827, -0.025973468535543547, -0.02379304089877887, -0.02063807537512927, 0.03079136740255949, 0.01617296627863374, -0.029764823414372255, -0.05694515986635521, -0.04124886117148411, -0.06634305901039923, -0.06419426486230785, -0.033739309539948206, -0.004820974893977938, -0.005700550981767921, 0.019149274866043585, -0.13368868427467093, -0.1271926433791451, -0.010358817959869307, -0.07701883778060212, -0.13530229964915877, -0.032951969593442564, 0.0008416296309076492, -0.032136068458015976, 0.003417275436810051, -0.009314752329363522, 0.04858976210641255, -0.05918189622554251, 0.0227773934232872, -0.02377468002083015, -0.022529288530607587, -0.0005598123511880539, 0.035197111614938395, -0.029798426419003026, -0.04766890990007502, -0.03061741113686029, -0.04806385486371811, 0.002879308265896188, -0.02951770650165515, -0.07205071274993895, 0.007006650315145675, -0.05390093340054706, 0.017175512243747908, -0.025902989435277992, -0.12022858903858587, -0.07119987714693458, 0.005738259234359065, 0.013457147524735515, -0.06400445621689553, -0.017327029056929812, -0.047878119004460366, 0.0559733181830247, -0.030536779903462444, 0.04281321818382768, 0.003591328735525211, 0.03155843685205188, 0.03377850364308821, -0.014292681684607438, -0.013041672608943946, -0.02687563700691733, -0.00605979608719325, -0.056977213742874754, -0.07307297533821998, 0.03879108895431809, -0.03615057185920222, -0.009684267244495353, -0.0809462024510266, -0.08544707046508647, -0.0772752806716643, 0.00274584995379046, -0.06919562278123172, -0.06278445794670412, -0.09137444083459839, -0.051920999506742886, 0.02503850623689693, 0.03732303854078992, 0.022151840445504722, 0.022714355226977068, 0.047812703898949246, -0.012812629653070326, -0.0002465118604502202, 0.010969009872184266, 0.0007338935581495743, 0.07458148911986313, 0.0737590861108914, -0.01895552308548774, -0.024680534616246638, 0.020365508918995284, 0.03266234159981748, 0.008523607150187998, 0.01623416866600569, -0.009390118072105342, -0.06605632321207251, -0.11186722727714042, -0.09955660971685827, -0.12565277307591455, -0.07307608963981979, 0.06460897586066602, 0.002608781998317605, -0.14831610206563375, -0.16783188851691627, -0.0918816344725744, 0.05584665264150365, 0.03587180833691829, -0.005019012926074273, -0.001508872623108549, -0.05822054355263906, 0.031772504051389705, -0.006579256348419181, 0.014839966486557334, 0.09087235635992122, 0.04324149229947252, 0.04688259290072608, 0.017689911144766507, -0.015375753348689429, -0.02431946772420109, -0.046355794497842155, -0.057172836075776265, -0.044164192931835294, -0.10757815675111897, -0.042907315069594366, -0.022603816081452576, -0.05485799270733437, -0.090534308561124, -0.009399546603033947, -0.0361270833195849, -0.038912459978305884, -0.10994491887801912, -0.08600903605563527, -0.11276755300134053, 0.11481902454275263, 0.053721564137210305, 0.026227344082309756, -0.12393546841408243, 0.004062838948643236, -0.0034607613053566134, 0.024590477220618905, -0.002329413317661502, 0.04658219560128172, 0.013102572226792319, -0.00021421001474750787, -0.05912431237896434, -0.04982747959365734, -0.08012812979420071, -0.05328561214855713, -0.041513081682119125, -0.09727739363920312, -0.10996897068879785, -0.0640058635343496, 0.0228344528930893, -0.03830671434289966, -0.040100459370927245, 0.013819505286966264, -0.031047164433906625, -0.12009691744184875, -0.1676982010187871, -0.15254157231206228, -0.17774264561131237, 0.06271229251792944, 0.05118083037504146, -0.045633113137749245, -0.019321721042252958, -0.06299846217242443, 0.004291685724107052, 0.05231314786911741, 0.03930776825630208, 0.0773084045555553, 0.09285484903199794, 0.04516821401876286, -0.050212635172629555, -0.030740451823039357, -0.078361520093942, -0.013247505458227091, -0.10678233375639078, -0.07429475675499693, 0.00725627561933532, 0.10041588532102962, -0.0032289995853855215, 0.025901890346474003, -0.004569513939311446, 0.027194414670563744, -0.04431067083942331, -0.08553777865252751, -0.04490758946837881, -0.09643595986603853, -0.1556248709190075, 0.11019141072101454, -0.0030861694985827057, -0.027056001662464624, -0.06182854042038298, -0.0012035962605043036, 0.03856121476290679, 0.08853001242420157, 0.047836150108847314, 0.11071029863664533, -0.009612356490068592, 0.011010891486173657, -0.0836770260233431, -0.041423134644511694, -0.010170711168569381, -0.041288118290260196, -0.00014849419807786562, 0.052069817433835805, 0.07611284973178473, 0.13907768491501604, 0.08197533880607036, 0.02570626327271981, 0.01684960138003134, 0.05732549056655069, -0.07364007928780524, 0.007310664507479375, -0.10099047259772599, -0.09609381179132558, -0.16160148232727195, 0.06547878568479472, -0.03743825547227821, -0.08721564024650555, -0.09236688758091736, 0.011681025120557596, 0.0585665015971084, 0.0779462539069841, 0.059456402668317795, 0.08547410675163074, 0.0021399937904644103, -0.017394661411823078, -0.06170658595008729, 0.02664539999388929, -0.055148359750265975, -0.07324773263193989, -0.04923036418013492, 0.09990512169223141, 0.10098619348868935, 0.04493206062256412, 0.0988039709785129, 0.040034191015450964, 0.08039657650803006, 0.009294514667669746, 0.017734468198529457, -0.019494995528824333, -0.02585540700501686, -0.06685777593634791, -0.13783290007817808, 0.027814283461313954, -0.06814609336956486, -0.10533085754823542, -0.09941604856316136, 0.04563031736361137, 0.02032698115802666, 0.03227661692154183, 0.10647882651891948, 0.022065755280606347, -0.0017948285703795496, -0.07699149167341318, -0.05194711911372278, -0.03720434667144702, -0.06361036980622176, -0.07835724445358182, -0.018194277230429455, -0.0014760191314010403, 0.051264638206302775, 0.1170786947180424, 0.07206959312900545, 0.028573116354969032, 0.05226524276073968, 0.05053754561469105, 0.10748156372390795, 0.02213936450427221, 0.06484931263998593, -0.05742690823059891, -0.04687069144819136, -0.04558810972786416, -0.11054426739609663, -0.10088629178476487, -0.13303642855317221, 0.01485185705994487, -0.014991804483017514, 0.05411425249196088, 0.05463447152971039, 0.017255908566563883, -0.03472415753327782, -0.03386017710378822, -0.07061691573392032, -0.012335712507526624, -0.11938821833372121, -0.005617452433866721, -0.03307745400427227, 0.01875345385169757, 0.02201695707438708, 0.062663284144623, 0.05152470303522547, 0.09385097914016087, 0.10562315215645718, 0.08025272960870122, 0.11696750762025855, 0.039952206829834476, 0.039571265207819416, -0.010913662729722756, -0.03879775051893004, -0.07722776013092103, -0.11131741255527823, -0.0906623138737272, -0.053954662921368156, -0.020193721663410436, -0.0038761924366796023, 0.12939598612267592, 0.02986434976561192, -0.04161535469642461, -0.0007848022355403495, -0.04862063742986271, -0.04588308514521748, 0.011994146036088322, -0.059925325976447216, -0.045767925619373914, -0.030749063940676887, 0.06958197089755606, 0.030344012459377075, 0.12752253822068518, 0.11119633513376469, 0.09007078039053608, 0.0973646954818306, 0.11626912816705105, 0.16007951554240882, 0.08451243659967185, 0.08329938017572538, 0.012324011223299677, 0.07755772536884173, -0.14276754894594543, -0.1711820414202276, -0.13026751247331983, -0.09698282530393522, 0.00422848563942581, -0.025948339637407922, 0.05295999502661726, 0.01813660521794497, -0.01772901403464778, -0.006703150043693525, -0.046981300038513696, -0.0062279547638146495, 0.026059742559160735, -0.06545058138124846, 0.010477078124600105, 0.053632543117770826, 0.06747678188820465, 0.09451159003986032, 0.1081430278669105, 0.08412743304098322, 0.048195587194399925, 0.12676531860559817, 0.07574968378961679, 0.10287503974153772, 0.10933876173133929, 0.034766498330820406, 0.03954724794622627, 0.043370181467795296, -0.10341971089281042, -0.09661784350631941, -0.0895535338401181, -0.048172928209862895, -0.049410666651924444, -0.05017033890126573, -0.035673916147185666, -0.03724521514458108, -0.05087997363905957, -0.03243671730068535, 0.016948380858947985, 0.011736733507846434, 0.022638449257832056, -0.020937678295643077, -0.01468712438044639, 0.048468845036897246, -0.030521806504740193, 0.07464735138649972, 0.09034173929902656, 0.12237054861931006, 0.06552574671629224, 0.05963303178212536, 0.09986089468170936, 0.11721542252998537, 0.05025693394138076, 0.1141587279290611, 0.060444211357821506, 0.06941916038691415, -0.08206674549027229, -0.06235926340457628, -0.09288313159550544, -0.008807017070909572, -0.011674975886958833, -0.040486416385901766, -0.0337132452092366, -0.051592137940437474, -0.05013370375875911, -0.045608999237897435, 0.0626086924434909, -0.006940761574243484, 0.027414270299358636, 0.01929792128602752, 0.00027349967560342245, 0.010087876384225383, 0.008314863525892845, 0.03495938604975469, 0.05005401171990834, 0.10687483642923315, 0.10175467815407174, 0.07060251450085472, 0.06512075157721761, 0.07871305069341904, 0.09673328094895003, 0.06749753910140405, 0.12543362327700425, 0.083697859973726, -0.05875520512317055, -0.12396098790000662, -0.05224216141862322, -0.09378141367755703, -0.036246456582679505, -0.017374435245635398, -0.06412123333722397, -0.09248719437615757, -0.009167544035509161, -0.015695042011607267, -0.010223333451599217, 0.056170243226368335, -0.009941349817236322, 0.04429963605190205, 0.04103795015519729, 0.08598531687412973, 0.06008549743465995, -0.008568147526908636, 0.06855269991977568, 0.11627039193416375, 0.06708545121846296, 0.15248789173376337, 0.09017548268997105, 0.07272106440030048, 0.08262589021539891, 0.13776294915725423, 0.18104858247538302, 0.10476344661586393, -0.07365796724936471, -0.07501508080097123, -0.04998679785882029, 0.05388756386452181, -0.09504385504307605, -0.11091359320795381, -0.11387847627676337, -0.08299792032455812, -0.0037798114692769082, 0.03089939462002234, 0.0328422799021836, 0.07000714671511664, 0.0016230725585496737, 0.06966595074993782, 0.04541097548013116, 0.0914979964599183, 0.04319303327913277, 0.03550847112546053, 0.02919559021577262, 0.05362350857981328, 0.0783419311869623, 0.059317699693649466, 0.0545788601421679, 0.11075635391480373, 0.06210368928427093, 0.11126742047160106, 0.17577739525059685, 0.11442765460391252, -0.08972696810467252, -0.04822107237517316, -0.024315344908563175, 0.017721171036064083, -0.010430632845354977, -0.08241831076495867, -0.0645502133986378, -0.04724805155618074, -0.05080692769889457, -0.04111887048705603, -0.03746018517119218, -0.04231624972103864, -0.02197718322840184, -0.05458100502882426, -0.0004500477476562327, 0.06216105425101086, 0.004657159054016435, -0.04822641127937562, 0.04786435271269986, -0.035343827002601316, -0.02091884905181319, 0.04467246742172768, 0.06993977837676156, 0.10542000965490196, 0.14426446261381476, 0.15616981911088107, 0.13884977577257612, 0.06953518611071852, -0.11596391386699806, -0.006461909656207185, 0.032217199469109274, 0.0334996304355853, 0.057510139564175014, -0.01833964787253126, -0.0388929526888844, -0.09661235994879748, -0.03866450193815635, -0.06424945393376137, -0.15528161666196022, -0.0029779112766498994, -0.07674298516589213, -0.029035119801148156, -0.0010828036962294391, 0.03446708628717349, -0.019030757274641714, -0.005295588775401146, -0.01656990542483328, 0.06297078326836303, 0.022786036701737677, 0.030669585870517286, 0.021447689547246858, 0.10663180634455184, 0.1485258342872661, 0.20753513186588812, 0.13836036689847347, 0.0585456784773459, -0.09052372262491254, 0.03277066553555819, 0.002570172921563754, 0.011850791015719972, -0.02642020991884231, 0.06243251643225451, 0.008092376097940493, -0.04504273288635767, -0.0790375786139322, -0.09886488588901424, -0.032940911189596946, -0.04465623499864612, -0.0353795671345889, -0.005332465480490604, -0.013563987150276676, -0.017204259042646244, 0.0031500201236817934, -0.04823983181987405, -0.03387702957153545, 0.035763160605955885, 0.004572575105665568, 0.010684412706421608, 0.030060547102116777, 0.11188371138182446, 0.08645647971982964, 0.09261031567066139, 0.08032972588401878, 0.0631282089689187, -0.03189913424360781, 0.07318891324009538, 0.004256104192376176, 0.028275023415307108, -0.02836109882766213, -0.04711441966143207, -0.08846391213739083, -0.10909238872983401, -0.09573276390614623, -0.0571508239895591, -0.002570448400945884, -0.06163386540320027, -0.043870073848628614, 0.02768827355650408, -0.01001364800151908, -0.02134819962404867, -0.02214167120823244, -0.12672108670728535, -0.010996405539671204, -0.03834022404368219, 0.0006709159547688321, 0.04521961743598322, -0.0006196747123915288, 0.05226088700418055, 0.037768932717099, 0.038036153703471694, 0.062105160062279584, 0.052106060069770595, -0.013681297111482669, 0.05861952833872784, 0.11386084945570898, 0.0784292434480604, -0.012110805930039171, -0.043157480150604284, -0.0663182013115417, -0.13342983732100697, -0.05153570675546319, -0.07457529687570497, 0.012630437644470683, -0.06171156315882016, -0.07493610480239819, -0.052197310560453875, -0.07367187339685267, -0.04258412891723053, -0.09573062167391277, -0.060201510023023944, -0.004339078303544544, 0.029696240543742022, -0.01152394233090884, -0.05847554616965263, -0.020021358019149667, 0.071840768897403, 0.06303295491948202, 0.06000826958193765, 0.05580111449625065, 0.06043078953250178, 0.03570819133368456, 0.08561485825041566, 0.1111993888563469, 0.11226893202378657, -0.06648757784744343, -0.12973974629203885, -0.1747395356372972, -0.18463877170266832, -0.1292199034268721, -0.13911345463896427, -0.07417218112507705, -0.10307512148276697, -0.051562702322253885, -0.0765069816065673, -0.09959469951877263, -0.03387823671064875, -0.05733501681616713, -0.02168792788884831, -0.08698772870879255, 0.046446838048718644, -0.06776752621908864, -0.06333836256064072, -0.02118049591142898, 0.009946008667262592, 0.019929304543516935, 0.006256395547318267, 0.0036398469966952935, 0.04013242197002575, 0.030785861269555213, 0.0935675155352107, 0.19192405160835843, 0.07111195438980036, -0.0033912819196359506, -0.06111530492208574, -0.03959989932037035, -0.06205693996121733, -0.1408754381642343, -0.05482359178607706, -0.044941996561277064, 0.005105501952740561, -0.055480526745454194, -0.03912972192979329, -0.04589848869512599, 0.012809670189161152, -0.0707771384508257, -0.10592381004342562, 0.05585103068829384, -0.026744678901874017, -0.050410501848577254, -0.03404319860137647, -0.05969944374335992, 0.016643858492869996, -0.013171595956468243, 0.028738340137928888, 0.060613912947962076, -0.008588691411746686, -0.02458161069003913, 0.12250242648741361, 0.12044747467920996, 0.05786574679166795, 0.007171965913291433, -0.01125120948926389, -0.0521651990730376, -0.024465835060352856, -0.09484598001407182, -0.08503223831669904, -0.05404246222338766, -0.020108723393796643, -0.06702230237121774, -0.024808211422796912, -0.043340426751167074, 0.0120715955370756, 0.020891018086182555, 0.01529509345316283, 0.05193995707871871, 0.02960277076834471, -0.030530873466158976, -0.0942988187688135, 0.020799223128333322, -0.057346404469873054, 0.036363918140473024, 0.013331877951384501, 0.020647296255898145, 0.014950988281745545], [-0.05071230495847028, -0.012826613771663383, 0.03933757172534035, -0.004990517720719666, 0.008652686303908043, 0.048761982446405144, -0.013247556157087675, -0.059618017595641816, -0.0027327320282733054, -0.0466585225599751, -0.02608461964194625, -0.01596452908561077, -0.07773747215222301, -0.07294587626646944, -0.04845267456031229, -0.06478637867315136, -0.04274649477656451, -0.020453960058753374, -0.061030422989856066, -0.08578384604000433, -0.06231180469343162, -0.04366331502565596, -0.04280706743055385, -0.06572223669772424, -0.057825729808318196, -0.08518476652726653, -0.05613763629287147, 0.04015043947600433, -0.01573709352332555, -0.019501497510547996, 0.026035225747582467, 0.027669871437874194, -0.0376651740177599, -0.04386626199227474, -0.046481945472154666, 0.03423266276219934, -0.0033055038058564593, -0.049508683868499874, -0.08729052562648353, -0.06510816678763466, -0.0951728593089494, -0.1318298434743601, -0.09200202140471102, -0.10192087000270679, -0.11953960555027263, -0.10028573228063303, -0.058086542782626774, -0.16567913553306426, -0.18391811501848782, -0.12803434533647579, -0.18691674278136697, -0.11595983130150452, -0.061675201690175256, -0.08083654161949301, 0.03977001867696145, 0.06352612886604349, 0.035394853748665855, 0.07229143548744521, 0.04144614293183501, 0.06957971814265579, 0.03531707854197529, 0.0219200611453985, -0.09947848316576922, -0.027459414807551517, -0.011418970689324182, -0.10869405541858247, -0.1456113686609439, -0.09625674190406673, -0.13890239058693712, -0.15166097020162309, -0.09052100148086317, -0.16178505869947923, -0.09148522124360776, -0.14323010773136885, -0.172872794477093, -0.25529959284629783, -0.15547748489926952, -0.19402525034945586, -0.14661397152892994, -0.10499315541972234, 0.008558465245472397, 0.02483650878591193, 0.06669892956748162, 0.14220665023300044, -0.08214996125765942, 0.05733520846322287, 0.08908378544796174, 0.047999086483857194, 0.02523473316307675, 0.00839520593369935, 0.00889342687888189, -0.06310137922089781, -0.06715484588445882, -0.0623512425691747, -0.11715717291170578, -0.07755500647790567, -0.07293945095683407, -0.16953093768451735, -0.03884188582526933, -0.18522501620816764, -0.19102366424779374, -0.16792832291296836, -0.1839073981118637, -0.20594275092351347, -0.15083772237671675, -0.09306079194612436, 0.013158029661137572, -0.04423944983074216, -0.020808352266075088, 0.07243218595400845, 0.08491224529355144, 0.08762517385137991, 0.02576174264852796, 0.11419741284005247, 0.12363114919384995, 0.06204959667196717, -0.03573494934404261, -0.038010197118841814, -0.16233246288158623, -0.06956104365588567, -0.09707928708739122, -0.06403757900087673, -0.11431549450097699, -0.14477325712698846, -0.1510465858337872, -0.18616401671647193, -0.21086680286904916, -0.17451183899542289, -0.15838352985831944, -0.21490203685942033, -0.21923861834735112, -0.09470881313439695, -0.06041668120521304, 0.019017538713586718, -0.050095552735173514, 0.004524452238672988, 0.06510334814647295, 0.0645262298732178, 0.11422779839195614, 0.0696878979437191, 0.016025667564968104, 0.09046292198072886, 0.11325628772500125, 0.025018317837478977, -0.01959088423385956, -0.05096496286411453, -0.07476633351067231, -0.10372819726645197, -0.0692660125833212, -0.1637392880381606, -0.08743245479066046, -0.16617102286198085, -0.1862075045511749, -0.19520459691538758, -0.22113714417069424, -0.23229641986890787, -0.18157641138889122, -0.10878695547460034, -0.0667890186389429, -0.02535799805271962, 0.005503176683504549, 0.06628972005852142, 0.07669891541911245, 0.07299658115308268, 0.0575111038229524, 0.05885665406164409, 0.08896792797879799, 0.10326441295954354, 0.018248199358195792, 0.06255917676346985, 0.0768479755271198, 0.024474904082219084, -0.042637087883912114, -0.060699357996659244, -0.0775790442163167, -0.11833550364946281, -0.08247574066695253, -0.047455065410755726, -0.13520859610293495, -0.1691820055542399, -0.11087899092308555, -0.18193981513235566, -0.15124346957294268, -0.09396273491582956, -0.11804727025604324, 0.011714987671753658, 0.06821930183983962, -0.039125789811965066, 0.0852563384793685, 0.03803126578074957, 0.07044953937567434, 0.054720045227954046, 0.050699620679121385, 0.15307587154326371, 0.13776565621948705, 0.15111252748216608, 0.08405818335423751, 0.04810254136443475, 0.04928916779762684, 0.038693953794383756, -0.07657664361812504, -0.0886738525845381, -0.12640086110021634, -0.05257414271312157, -0.10066309148186807, -0.03378801931721981, -0.08168866936849647, -0.11833752030371475, -0.1481091729238977, -0.12265347843228691, -0.02493875529504666, -0.06669923656967217, 0.02358896033242326, 0.07519828911941077, 0.10434857516567966, 0.05351197261557506, 0.03406647766102445, 0.0466076298725789, 0.05644433383502922, 0.17622606446484407, 0.1094012733863239, 0.14608889571149636, 0.18330495636019437, 0.1142226357974882, -0.01622602386426939, 0.00307914901063207, 0.04456120739060177, -0.009707416679464448, -0.10384421155792337, -0.12619699994804132, -0.07285756365388762, -0.10414066274776615, -0.053242662125513124, -0.09194556442680757, -0.06203401848941612, -0.12214100959174451, -0.042528084595996364, -0.0361694142235225, 0.02590490914494097, 0.14376490429187117, 0.08632154682783579, 0.17190290052211127, 0.15725362545936322, 0.09987685978549025, 0.035110566982432284, 0.09256979542070269, 0.1543539822635098, 0.056933408177743415, 0.03898856676194716, 0.16804873082613397, 0.1725984876739082, 0.10735738643766354, -0.012297470006998809, 0.05391023231017766, 0.04894407713003701, 0.09437462616632387, -0.05907918482032122, -0.12281542587774351, -0.08017239769983239, -0.0890963760050993, -0.0755086627360125, -0.019740371546102045, -0.08756105421347432, -0.05994519488392546, -0.018599420628843552, 0.046956394587918865, 0.1803586632571789, 0.18044077001978928, 0.1793643591868709, 0.1268270910431805, 0.12440928104914507, 0.14934498273763042, 0.1493842471676267, 0.10055644445158624, 0.14447919148197316, 0.1343644659489315, 0.09697624248290747, 0.15483172121347485, 0.13179354131871612, 0.007650614756604662, -0.030377803732925954, 0.019078798404964518, -0.012136952470239864, -0.007607450804721249, -0.04597399541874269, -0.0014357088736380325, -0.12571988303845127, -0.10174266171914931, -0.09914275490381995, -0.0941505868103602, -0.004561717575853385, 0.01715081531008473, 0.028927945506319185, 0.09657981280630781, 0.1861466392777703, 0.2138066489947423, 0.15917804721758327, 0.11316408201157531, 0.12536353561276792, 0.1095145583627136, 0.09061256201274887, 0.0672521906921338, 0.11299903848724982, 0.10821458702060342, 0.03369068978360515, 0.07974266053942225, 0.13308970880967325, -0.03360923880769379, -0.03377368610576688, -0.001329062109442584, -0.0020540970822855724, -0.0029625791912224735, -0.032833380708898345, -0.05371861119043546, -0.040389734106738816, -0.09876124230598335, -0.023644801109361856, -0.05611777140292596, -0.0435851118675194, -0.06548963293323676, 0.03905647844906463, 0.16203720973062874, 0.12899854654644885, 0.1186874021295149, 0.04049037211875314, 0.10106870413784265, 0.03463136738775697, 0.08899153654950992, 0.060660115335473414, 0.07787240170562379, 0.05315050488801001, 0.06258924010033051, 0.049769471296041236, -0.050704625710072365, 0.06741547988101673, 0.010630926458873929, -0.10092767492764465, -0.025624273813665444, -0.014248204235398087, 0.04508186184000078, -0.0406468582985419, -0.06309793856821207, -0.08192110844372244, -0.13897903438885134, -0.08752852981698327, 0.0038411833194961125, -0.0334663314692134, 0.053841914869035584, 0.08654927172245323, 0.10898550400166872, 0.1781107955448985, 0.1080042251605272, 0.09578169283778887, 0.1491726042070068, 0.13912743414811132, 0.15822971789485193, 0.059785707990165436, 0.08392935026414156, 0.025359879489814656, 0.09010432613429141, 0.1201637452251626, 0.006859367009151853, 0.04349349695441296, 0.012375739058328804, -0.09983199477914059, -0.04862771294908086, -0.05241010056672887, 0.009155717630658285, -0.012768419112034217, 0.005429057439887811, 0.06127465853510475, -0.015750353874417207, -0.09267042562085792, -0.030835182362857788, -0.022257204009550457, 0.060692994763768264, 0.11300572090239239, 0.09424270324650752, 0.18658326190886357, 0.1634041482116908, 0.11030160984300105, 0.0932482078232301, 0.08665982601077321, 0.14446895601868978, 0.154888970429262, 0.06635775195884991, 0.02311695341365418, 0.11454666392729841, 0.05862570988114384, -0.007160374891171924, 0.09113926543208947, 0.01574603086285746, -0.0529074714614692, -0.05132323931741109, -0.005761624218200289, 0.05767461850469664, -0.0015283689792824427, -0.06450355985560056, 0.05468122708254699, 0.013155148028516039, -0.09744847269710451, 0.026487975164963606, -0.03868151548060743, 0.0689191949065522, 0.13784250838461048, 0.12086954447259801, 0.14554942618934275, 0.1198805383546713, 0.1887597283609776, 0.13517121841280177, 0.10967804288149252, 0.15693448387047856, 0.04739260144821744, 0.11917216893369277, 0.05819705663385795, 0.04745724807046924, 0.01172333578737491, 0.06263597774440895, 0.039228894782477396, -0.01746757519293706, -0.07615241370494584, -0.06242520651104399, -0.061495419685701644, 0.0711122661461403, 0.0027626324460473706, -0.003005040459555502, -0.004977888151860388, -0.03577814998807406, -0.04585367561262975, -0.041026766075089774, 0.00826746138436163, 0.031879519669341834, 0.11457988352062978, 0.08094316874048084, 0.09790243851603338, 0.12874900949764692, 0.15129291203689074, 0.1225734880301387, 0.16203817844500734, 0.0510690611667666, 0.07390689190617536, 0.055192514834022106, 0.02395453160987024, 0.107694294630524, 0.038893265422007474, 0.0067569065248979585, 0.018293480928776404, -0.003928317038912351, -0.04978645724917024, -0.12333719962199549, -0.032338660421647465, 0.08039950895809797, 0.028099586223650982, 0.11820316993149518, 0.04574707986848429, 0.003566625980970142, -0.02733731648956883, -0.023325563809077222, 0.046735622336271224, 0.057316722092633776, 0.04662527582688143, 0.1029295982327315, 0.04366998975027551, 0.0972204912048364, 0.12630478257681169, 0.10524440930125412, 0.08991995618772869, 0.09647849841978996, 0.16168074024346832, 0.0877740703764077, 0.00023307980961553032, 0.03874930073429428, 0.033138083599215495, 0.007788359110849641, 0.001113663100400443, -0.026739217838322532, -0.08631517006138271, -0.0334933965102761, 0.06912654784283082, 0.07341736208650805, 0.03403565375499083, -0.017896434261710496, 0.017050990458326847, -0.003879444076904162, -0.07461860772220061, -0.02932520393540303, -0.01113355012437483, -0.03877713758030428, 0.0161178090962948, 0.0988553693672457, 0.015999804873075976, 0.0816710694348593, 0.09231233453009309, 0.04030371294392054, 0.03995172391733339, 0.07194504956124396, -0.0009412569738283798, -0.017742725977445552, 0.007952939436798536, -0.00014080454316874668, -0.005766706143014502, 0.04123797951190832, 0.025468753621125693, -6.00297244766765e-05, -0.1420442545497906, -0.010643778952264258, 0.020566232028102194, 0.043579648307002714, 0.08323719607849032, 0.026309073128739414, 0.0374846007574201, 0.05573945401608113, -0.0188558268818017, -0.02998673287012903, 0.01910210236052001, 0.044814772410355024, 0.0276598371448436, 0.015029653657772734, 0.05807562445771943, 0.01611094810445639, 0.01735192839060843, 0.11056161812792761, 0.04142427431613068, 0.04878403090222743, -0.020693502570771884, -0.02479153143060764, 0.008397591886472324, 0.028868647779069577, -0.04686406258902229, 0.05305837146743905, 0.012002604218883483, -0.02625697028871583, -0.09237878699832533, -0.022733712316044378, -0.04091012795988373, 0.05764120804381774, 0.035713075665818966, 0.0012380302579754524, 0.041604740886874, 0.007207954185031137, 0.018761811439747825, -0.009661443628776977, 0.052986755156506894, 0.05285680826457416, 0.01600730121196856, 0.0015050185427684304, 0.010381615445698728, 0.004894446679633818, -0.030989937241735214, 0.05117818228705346, 0.0035833778650515044, 0.0578009857072971, -0.04269334837361632, -0.017322856208370065, -0.027565324643438527, -0.022291086998400364, 0.03585162891465093, -0.00345125052710614, -0.009631709651384398, -0.05087176482307987, -0.04862473951448363, 0.0354824646441942, 0.07910135549821444, 0.05916434199631342, 0.09357286757044152, 0.04765410875756427, 0.08965263756241593, 0.046257413318288004, -0.03893943296251818, -0.09201843949980894, -0.034421040026218666, -0.0524334274046895, -0.05931132501185557, -0.06981638260587188, -0.03956069295454047, 0.014930753490449505, 0.0019988607500445984, -0.006169858586617389, 0.002718142910574472, -0.04524756157830576, -0.014276996959616931, -0.11025999915574831, 0.0033510634896881893, -0.10080890559593217, -0.03680757088923996, -0.06356770314081005, -0.002991556095503338, -0.056651472989309136, -0.025007862997378925, 0.029701086758271787, 0.12184274613084592, 0.05893237602635896, 0.05282269679052454, -0.002013390559443215, -0.06285662221462311, 0.020632908182786635, -0.04676143877905534, -0.12460289437891657, -0.008164985731335594, 0.004494143278246407, -0.0045579100737839365, -0.0514431015279852, -0.030580633578047352, -0.04978291835887404, -0.06220838563330163, -0.010290674938381079, 0.09361630883038247, -0.02259630542770932, 0.047760427980442804, -0.01967976423337408, 0.01840192361605241, -0.008313414291264181, -0.027766895174285003, -0.05110787924527067, -0.09356314941885525, -0.022293344619735585, 0.07860233192680055, 0.07193579957277807, 0.08449844226524908, 0.11484891092323334, 0.058363305327258516, 0.029294250046338885, -0.058579317316272764, 0.015960813778123594, -0.06676543853227448, -0.08520299638700854, 0.06993443165455306, -0.03369345708323592, -0.045593425344069516, -0.09506502130671216, -0.020045813803884868, -0.009186403530460555, 0.009573509829245848, -0.05486308844276815, 0.057971879958744865, -0.024562164992878704, -0.008374994534829887, -0.06942016499333417, -0.047741683964261684, -0.003086044884798515, -0.061490976019097074, -0.036687131610318696, -0.06366415814411394, -0.06379503224967832, 0.06967105554195324, 0.1069084554039762, 0.12976202574522602, 0.11488121307620458, 0.12066952828382449, 0.072708221631722, 0.013953204076856107, -0.0665954282072291, -0.013950915898531398, 0.007311910762025977, -0.012926930461503687, -0.031209994147102422, -0.023109895270408555, 0.014076870702321153, -0.08625633641552682, -0.05910113823662919, 